{"cost":"CROSS_ENTROPY","layers":[{"activation":"SIGMOID","bias_gradients":[0,0,0,0,0,0,0,0,0,0,0,0,0,0,0,0],"biases":[0.386464639665556,0.503201791669416,-0.05277550923065,0.0585253039819929,0.211577132698641,-0.03678879053747,0.237439237027563,-0.13355837892015,0.0962828291200113,-0.47238275295945,0.212349129288713,-0.10595682004319,0.183869234052777,0.108647768624333,-0.27280914733875,0.203104467237922],"deltas":[-0.00028846739673,-0.01983903788733,0.00796068178154927,-0.00377723007076,0.0314776183974432,-0.02903505709184,-0.00743425294833,0.00630715334140771,0.00206820839153521,-0.00820123105747,0.0000579975516421852,0.00000498254274109941,0.00564288645644147,-0.01684660240711,-0.00006428741736,0.00353778216746212],"input_count":784,"output_count":16,"outputs":[0.00135703868197604,0.993609561142384,0.999999517006989,0.00212929574086341,0.00009863741479646,0.999766420067077,0.995768922882697,0.938343311797674,0.994855742412921,0.0000297909465990048,0.0023860345880627,0.0000795715911552078,0.532959256449707,0.861296072890055,0.999994942595859,0.999957799677056],"prev_bias_gradients":[-0.02767624118864,-0.03950051427799,0.049460639716796,0.0508763819070275,0.127065643935854,0.0587352686759239,-0.13699278654346,-0.03417538442519,0.0412346274761575,-0.1289621037286,-0.1048451002221,0.146674004190955,-0.54309027851385,0.0386334473119824,0.192895469071291,-0.14234324483392],"prev_weight_gradients":[[0,0,0,0,0,0,0,0,0,0,0,0,0,0,0,0,0,0,0,0,0,0,0,0,0,0,0,0,0,0,0,0,0,0,0,0,0,0,0,0,0,0,0,0,0,0,0,0,0,0,0,0,0,0,0,0,0,0,0,0,0,0,0,0,0,0,0,0,0,0,-0.00007927013385,-0.00211674285106,0.000256641427632643,0.000320150284916656,-0.00015060206244,-0.00010463062327,-0.00003771850433,0,0,0,0,0,0,0,0,0,0,0,0,0,0,0,0,0,0.0000000140702934269715,0.000000137185360912972,0.000000274370721825943,-0.00689486005491,-0.02208901268873,-0.20470270209744,-0.25729379828668,-0.05810730511857,0.00617362279198807,0.000641510339034443,-0.00002514566955,0,0,0,0,0,0,0,0,0,0,0,0,0,0,0,0,0.000000204019254691086,0.00000984130399175585,-0.01127208768029,-0.11216477546355,-0.18104350477513,-0.21750438038554,-0.44456483278186,-0.47452710386765,-0.33269842961046,-0.00693472654572,0.0116547484426384,0.025423698069729,0.0122137660375438,-0.00648864385907,-0.00652297530806,0,0,0,0,0,0,0,0.000000407789199402942,0.000000729893289891884,0.00096060637541301,0.00226872809840186,0.00304900414030575,0.00308884185692447,0.00379789053970371,-0.00761604987707,-0.16146892024962,-0.20973451787783,-0.21839037739652,-0.18574667018111,-0.41289660121001,-0.40355653292147,-0.43312809240943,-0.07475039951239,0.0134236198272615,0.0466392509593637,0.0485995244624104,0.00672483575688771,-0.00776575439341,0,0,0,0,0,0,0,0.0000573659252580344,0.0015363407197021,0.00416674905060636,0.0748357462103069,0.0622455920495077,0.0287781419449822,0.0318780506943894,-0.07572738674079,-0.20636575740977,-0.1791316856565,-0.03478624514225,-0.00022537609368,-0.22044650005668,-0.22685310959806,-0.29771063160885,-0.03018824746977,0.0540180575362008,0.0561343121571613,0.0512148033036065,0.0200213203076398,0.0122167039439711,0.00540114705414865,0.00104404758046022,0,0,0,0,0,0.00188219044475943,0.00347689773544932,0.018332083721329,0.114739651386323,0.226924975966973,0.285266448920334,0.247471947206513,0.0713596636325604,0.0340169560126426,0.160223647199971,0.32551506995952,0.13720495359544,0.0111829628900144,-0.10341593039197,-0.1224928016635,0.0665299463935917,0.103152145432512,0.117572102396754,0.0634828650956309,-0.00480981768796,0.0268795714661266,0.0164980462588159,0.0114326562898774,0,0,0,0,0,0.107107635078565,0.18046553721168,0.247295360478292,0.298555657547072,0.346441336267217,0.358875163432576,0.276670238175521,0.175541500491522,0.21848936737371,0.383436552848757,0.246042135857301,0.105781010380127,0.116293711452381,0.109990046563953,0.0065538849041159,0.0819091645333811,-0.0475044403482,0.0581521804039334,0.0472124633828483,-0.01276468890012,0.00802709214520954,0.0127940489064797,0.0110164318400337,0,0,0,0.00000234211040502697,0,0.298772091766637,0.299741784286232,0.297068158132353,0.262814890734759,0.261136360356989,0.181718573497174,0.0588421958255738,-0.05005419648684,0.019388881486009,0.0360738891404545,-0.17969715869086,-0.15037908973809,0.0135412885140809,0.128207747008066,0.180150445600333,-0.03470032280002,-0.06881813256136,-0.06525466761098,0.0251351544543395,-0.01846947894902,0.00560530117719563,-0.00075499839337,-0.00083911426983,0,0,0,0.000000270243508272342,0,0.254628584803953,0.248083537114228,0.103609031689423,-0.0007733068277,-0.0034268349198,-0.00466763115604,-0.01721048365265,-0.15598503654174,-0.21780132033102,-0.34778701227785,-0.28556359120885,-0.07703662716334,0.0996579954455761,0.163195639758565,0.0387261082102201,-0.06926298059587,-0.08501586938914,-0.12936398363735,-0.03442714564284,-0.01411222801004,0.0003796717096857,-0.00023209543634,0,0,0,0,0,0,0.000996509299490593,0.0030392593632305,0.00571165530012407,-0.01683805189051,-0.07272166343358,-0.12159147776797,-0.19042294913039,-0.42528161929569,-0.45507909878695,-0.36377842654363,-0.00510897655658,0.188221779662546,0.05876977643211,-0.07572707352166,-0.16526185009493,-0.08493639144641,-0.15787352635163,-0.17509299209349,-0.03363522859837,0.00110966287442006,0.000000110073452739804,-0.00000008191837,0,0,0,0,0,0,0.00132037482182504,0.0042598879755847,0.00561247566789689,-0.04931459085613,-0.25748685553815,-0.31915606322836,-0.33966863709922,-0.30133965566914,-0.13566449420177,0.207500145733595,0.261500494025039,0.23653030274528,0.000147245990421966,-0.31229738828513,-0.16818658402824,-0.08450102817692,-0.20309384258889,-0.1228092215959,-0.02433843270691,0.00423862985410595,-0.00009731467194,-0.00000024431796,0,0,0,0,0,0,0.00132037482182504,0.00628291937706425,0.00517052508651656,0.00427399958338909,-0.01251339048982,-0.08935767527352,-0.09766180472453,-0.0463578255582,0.315122507993278,0.421700852562699,0.458672418430422,0.376004063893869,0.0553577821061297,0.0178505110767867,0.131405834364271,0.210090400548156,-0.02137738033091,-0.1639439353744,-0.00150598168739,0.00508691458138129,0.000470234724358184,-0.00000028455856,0,0,0,0,0,0,0.00132037482182504,0.00673855708010018,0.00564191929557178,0.00524184149637766,-0.0283600662099,-0.0579722390341,-0.14359118774703,0.167583212643733,0.3622664256664,0.496896477124355,0.485287459309564,0.392757122406562,0.138395043712154,0.0738292602364787,0.108692328177736,0.279981577815408,0.0872142780839954,-0.00750708898227,0.00967828035815277,0.00559288620098368,0.00348958749990548,-0.00040749712233,0.00000555805201013507,0,0,0,0,0,0.00124563662436324,0.00673025283593776,0.00761832828882868,-0.01235962990958,-0.04319515854834,-0.11869594900839,-0.21166902268448,-0.04975038397363,0.212630413691823,0.277229372568467,0.23080462336825,0.171345247306669,0.0134363470452906,0.00391555839471849,-0.02963438042297,0.0940682690685299,0.139079467321357,0.106082607420357,0.235627938586077,0.0085301210222136,0.00327155307924399,-0.00053412980021,0.0000228022646569644,0,0,0,0,0,0,0.00414121796033684,0.00699715468121986,-0.03042828330022,-0.04725235844962,-0.09500439763329,-0.17905152788631,-0.03812131983797,0.11087446534664,0.118162075096743,0.123187666333735,0.18093466142885,0.161260158568825,-0.11813166244316,-0.00685503107623,0.0650453581507499,-0.02379988168662,0.0655951645229563,0.287594904694219,0.0530336264359197,0.000806191940260065,0.00000433649014630005,0,0,0,0,0,0,0,-0.00010013950834,0.00295381121098689,-0.03577648368282,-0.037594394623,-0.10579293147407,-0.14411844823253,0.0434133241951027,0.0562460953047827,0.0115922761215531,0.0466169799468891,0.225526947922788,-0.11708020383191,-0.20788317690636,0.00394035801761073,0.0497148445997269,-0.03738964337447,-0.05036452566193,0.291975135760695,0.271145789137875,-0.00000457468921,0.0000108882139972684,0,0,0,0,0,0,0,-0.00011603468967,-0.00040143917709,-0.02885980727331,-0.03123460791047,-0.09021662697125,-0.13357527297704,-0.0581694693173,-0.04546959580629,-0.09395666134263,0.099276857819742,0.160907567116848,-0.05306987211454,-0.21354178782098,-0.07029836124311,0.0379071543320455,-0.1343246077251,-0.31707591256883,0.173140910161088,0.299039627696262,0.0000576032203334881,0.0000509361096032415,0,0,0,0,0,0,0,-0.00011603466839,-0.00060568843429,-0.01924979319087,-0.03208011473287,-0.07102870294709,-0.26806954314732,-0.42009378812691,-0.34088704950259,-0.34049551886894,-0.09782156362101,0.00658139359974343,-0.04201877360226,-0.19424094900336,-0.28485006155201,-0.37787144205325,-0.35896861232744,-0.28396221356229,0.140609930278688,0.299198084888388,0.0000410138066612275,0.00000833460334559454,0,0,0,0,0,0,0,-0.00011599384454,-0.00011358260431,-0.02591363674322,-0.17601479601745,-0.22494256511165,-0.35973729643587,-0.43274260874384,-0.47039248357133,-0.3964695040606,-0.1228147315097,0.084107510656453,0.205555004769095,0.153039140850095,0.0292490345031932,-0.02213793053952,-0.04975425774983,0.105713951823596,0.251296988830446,0.115587152873956,0.000028582067643057,0.0000289024229938224,0,0,0,0,0,0,0,-0.00011598518493,0.000205126736243164,-0.12860727223045,-0.26121811395368,-0.16541945833685,-0.25794189480326,-0.36602780879809,-0.27330240593406,-0.20070400788233,-0.13391995192728,0.182809169808223,0.226459344207152,0.207302821516557,0.171139048927894,0.183809877961523,0.200623279520043,0.301281895286979,0.18384420621491,0.00526451004600128,0.0000590090033505561,0.0000590506400822062,0,0,0,0,0,0,0,-0.00009850050887,0.000927505174876931,-0.02856833570413,-0.16783496653535,-0.08451798841416,-0.02613944811437,-0.00175937217202,-0.13897064616067,-0.14979728487814,-0.13301539749016,-0.09384932004303,-0.06686216552226,0.0209814983011631,0.0210435832760116,0.0824588531944234,0.154423262323765,0.106697917704854,0.00669018930565768,0.00299352862675255,0.000792289732215342,0,0,0,0,0,0,0,0,0.0000258517623121323,0.000429833029701306,0.00890525069488798,0.0792656289562253,0.119498644896325,0.108500057390071,0.0948593621569169,0.072680200000801,0.0591650808462314,-0.03895560071153,0.0167415164880107,-0.05872312980571,-0.05715757166274,-0.03641186710074,0.00544767441683623,0.00631238032304899,0.00456735053963814,0.00468933742409766,0.0024512610066543,0.0028210316222819,0,0,0,0,0,0,0,0,0.0000638494127632322,0.00011877868697866,0.000551123645907249,0.0273131414478178,0.0896902501081057,0.105884404741074,0.0826945328407345,0.107975278568248,0.106173133642208,0.0758087525778687,0.121436026471021,0.0522172531548608,-0.02596873137181,-0.01087228613024,0.00876629543654703,0.00465923291378008,0.00199682941902104,0.00127746087333879,0.000271701842149498,0.00118843459832301,0,0,0,0,0,0,0,0,0,0,0.0000373866932511728,0.00200095395343983,0.0289469454218538,0.0278548666873639,0.0121817431204371,0.0412919639909831,0.112640164987287,0.0620965842169321,0.0220862417041242,-0.00523706714417,-0.00133174112247,-0.00011203115118,0.000948802136584487,0.000129289500654518,0.0000228157942331503,0,0,0,0,0,0,0,0,0,0,0,0,0.00000512864208515784,0.000203667388600921,0.000110256931370624,-0.00046914774395,-0.00070336162147,-0.00039536323857,-0.00018569766969,-0.00145827399646,-0.00566786395931,-0.00551196268566,-0.00174572080842,-0.00049842085264,-0.00073943708101,-0.0001232395135,0,0,0,0,0,0,0,0,0,0,0,0,0,0,0.000000184943835609931,0.000000401716386375675,0.000000308337097983861,0.0000000539340343665403,0,0,0,0,0,0,0,0,0,0,0,0,0,0,0,0,0,0,0],[0,0,0,0,0,0,0,0,0,0,0,0,0,0,0,0,0,0,0,0,0,0,0,0,0,0,0,0,0,0,0,0,0,0,0,0,0,0,0,0,0,0,0,0,0,0,0,0,0,0,0,0,0,0,0,0,0,0,0,0,0,0,0,0,0,0,0,0,0,0,-0.000346362275,-0.00874490572855,-0.02079407597406,-0.00996426379837,-0.00101433583971,0.00000293024716480443,0.00000149904650949271,0,0,0,0,0,0,0,0,0,0,0,0,0,0,0,0,0,0.000000152486905529193,0.00000148674732890963,0.00000297349465781927,-0.01846680076103,-0.06068881645492,-0.03601694353455,-0.02261867470845,-0.01316248836006,-0.00450042609274,-0.0006112867096,0.000000999364339661808,0,0,0,0,0,0,0,0,0,0,0,0,0,0,0,0,0.0000022110601301733,0.00081028808195145,0.00352753815160098,-0.02825201508487,-0.08777886365544,-0.09480143152199,-0.09965416170349,-0.05630275374625,-0.0235948868641,0.00491300893464722,0.00119222222864815,-0.00004151650756,0.00000323131902682545,0.00101704923958762,0.0010224304524955,0,0,0,0,0,0,0,0.0025269493331827,0.0208431076871683,0.0194290512019458,0.0305343382051569,0.033491250952596,0.0549977243786126,0.0541505922042114,0.0581507513494008,0.0640317961815247,0.010393382480988,0.0146306774565456,0.0196965894414287,-0.00925462485187,0.00556744160198836,-0.04839080184864,-0.02254258873236,0.00523479873898969,-0.0098143943133,-0.0143821366956,-0.01479616309932,-0.00738224727289,0,0,0,0,0,0,0,0.0290872669184187,0.0538945293046466,0.0547519987593839,0.0638319223833072,0.0625851764393648,0.0721128869035932,0.0858327739464459,0.093412399106814,0.0544768355838585,0.0346190360358247,0.0213014080096185,0.0182178079331042,0.03315087538428,0.067434351742107,-0.00733647768402,-0.08415848735326,-0.0437922397194,-0.01760459111075,-0.03081085165944,-0.03611565923563,-0.03081100974474,-0.0202457342347,-0.00065284898661,0,0,0,0,0,0.0476060644186028,0.0556488033674274,0.0557827374189573,0.0644647436463781,0.0636010489866529,0.0491476077615167,0.0832311078335074,0.0231112469853362,-0.01286911795728,-0.05388555261753,-0.04152852690576,-0.0750403725828,-0.07957048203974,0.0732456890206889,0.116818499967243,0.0810467367648211,-0.06614992373762,-0.0459725077565,-0.03471791297015,-0.04848320284864,-0.05804015177803,-0.04837403610262,-0.02340407806406,0,0,0,0,0,0.0119390948250933,0.0228697414945151,-0.00146244943274,-0.0092314058173,-0.00471789085943,0.0054319269111185,0.00250877223409405,-0.05060721561565,-0.11466411130152,-0.09748662443052,-0.14161944409013,-0.1614932612983,-0.06557036992502,0.137731149579875,0.155859334248615,0.0512464906251248,-0.14992399493035,-0.09215077191385,-0.06338218198901,-0.0487120593355,-0.00091523218635,-0.03450115103252,-0.02953367520034,0,0,0,-0.00102800709298,0,0.00753044099057116,0.00828439225112898,-0.00935433941415,-0.01374607850599,-0.01305166422424,0.0016261325589696,-0.0046962605334,-0.09295267475636,-0.11291415140343,-0.12470866985041,-0.11744512510437,-0.02727859450571,-0.01010095874608,0.124075147497625,0.102457881349293,-0.05190404652208,-0.14241087388313,-0.08089249753235,-0.04922030996622,-0.02440491476121,0.0269885692806959,-0.00116830624653,-0.00009104391238,0,0,0,-0.00011861620304,0,0.00648530810612722,0.00663637451517271,0.00179237790457216,-0.00114847715815,0.000125776087540598,0.00480274894472486,0.00433031524355862,-0.04103296278426,-0.06721164823069,-0.06552630487584,-0.00736238414938,0.0579080341932434,0.0364395266935391,0.122850219704617,0.00342127741700829,-0.07506540868382,-0.09179022295279,-0.05790410594606,-0.02125848757479,-0.00363287485731,0.0394452080073459,-0.00002518235874,0,0,0,0,0,0,0.000211886817332153,0.000448924241178047,-0.00012170277584,-0.00074656003184,0.00180663081862331,0.000605726602221962,-0.00639446997736,-0.03281820276297,-0.05455305816284,0.0180106735020067,0.0156502026194332,-0.03289922115244,0.0317340185133559,0.0550161313540069,-0.06014734506415,-0.06013869131872,-0.06409776014937,-0.06115962201698,-0.01792373547044,-0.00376282355396,0.0318442165950324,-0.00010929042125,0,0,0,0,0,0,0.000280750032965102,0.000447707297179381,-0.00024335037043,0.000415751256256702,0.000529491072885665,-0.00533011052897,-0.00781891927812,0.055328027686248,0.0865301693530962,0.0842571595477202,-0.05514632289864,-0.04389316618864,0.0582803567063312,-0.00516738546682,-0.07232662887228,-0.03226311643649,-0.02424468388864,-0.0450200881682,-0.02305525949344,-0.00713911342645,-0.00187725439102,-0.00032595388794,0,0,0,0,0,0,0.000280750032965102,0.00044696748577872,-0.00033986120121,0.00120702212180074,-0.00329412198444,-0.01318617669215,0.020653236850976,0.0813118288524858,0.100996421722274,0.0942704029519047,-0.02857067564225,-0.01536174937747,0.0206804514183245,-0.0055371275307,0.0165030483254515,0.0760416502715186,0.0259041110583753,-0.03313899354333,0.0146383795352544,0.00292074889039879,-0.00127555026639,-0.00037964041066,0,0,0,0,0,0,0.000280750032965102,0.000446800861589382,-0.00022873272547,-0.00005027805978,-0.01337380000068,-0.01871779140616,-0.02886430431669,-0.00499376727941,0.0846691967227041,0.154660373575878,0.0859935681082961,0.0410964323268878,0.0348265060613941,0.0353418105084238,0.15230134198829,0.217580732356407,0.153430699520163,0.0788529931184892,0.0829899473688449,0.0229091306607024,0.010037632476374,0.0246605446593965,0.0105829773016905,0,0,0,0,0,0.000264858521665191,0.000445035138111614,0.000159173636857873,-0.0039670498839,-0.01577799037162,-0.02760730989371,-0.07487266277595,-0.11243642819281,0.000137932033520257,0.0315109392184558,-0.06648307050692,-0.06527306364593,0.0032972979810826,0.076195592344063,0.205492076069844,0.220938411329237,0.182132659550178,0.113882957772986,0.125859358538884,0.0466382807735834,0.0480947019573714,0.0535423557875251,0.0434173427761663,0,0,0,0,0,0,0.000208968054464166,-0.00211455218729,-0.00932493078186,-0.01213949885928,-0.04242304570232,-0.05961999169536,-0.08363727563659,-0.03382168589213,-0.07218554982876,-0.12009410944747,-0.07674771586191,-0.01831506759344,0.0166972420353041,0.112907035871901,0.136941027695165,0.0853325029038834,0.0707180358035073,0.102892137437571,0.051460716348108,0.0428802763294988,0.00846589611567591,0,0,0,0,0,0,0,-0.00173031748251,-0.0065056161919,-0.01240979282129,-0.02286978000386,-0.02989499843129,-0.00927973650151,0.00098923513717117,-0.01320267521446,-0.05140534473194,-0.0433095653301,-0.10611962203488,-0.07104090115982,0.0375504447363861,0.0758003938050356,0.0635592917697601,-0.00768452628412,-0.01881346992295,0.0572664553698515,0.0385783528081049,0.0169511637208633,0.000826280653296669,0,0,0,0,0,0,0,-0.00200399261049,-0.01449947627578,0.0121742497800135,0.00714092948703981,-0.00236794009885,-0.01056045847798,-0.00498920251051,-0.00473932505566,-0.07030955755417,-0.09941163588223,-0.18959505261257,-0.07914712824745,0.0165793133959921,0.0193854247574242,-0.02576432824125,-0.03751782313486,-0.02492436911118,0.0610811024762237,0.0404298872808666,0.00738855074522191,0.0056060483952443,0,0,0,0,0,0,0,-0.00200497105116,-0.02687875178835,0.0337570982100972,0.0147725028517258,-0.03191441886171,-0.05500362088192,-0.06507334659433,-0.07583596425657,-0.11346428216034,-0.14961119574762,-0.14280368635553,-0.06989886691535,-0.05439066868332,-0.06168168117826,-0.03661476970627,-0.03790980754288,-0.00920492107089,0.0644535071882708,0.0269027058263603,0.00517646280037347,0.000774538034083187,0,0,0,0,0,0,0,-0.00200542290305,-0.02096193674452,0.0520482021073382,0.0417294382962096,0.028621680349128,-0.01381366460935,-0.09883133350682,-0.14260530777548,-0.13495882376428,-0.09335761011543,-0.04883447970205,-0.05504729301563,-0.07921716955221,-0.03147685933852,0.00154419041012694,0.0195266557243226,0.0552639672750422,0.0536965863103105,0.00397773232529158,-0.00034574008449,0.000000874852935688235,0,0,0,0,0,0,0,-0.00200551875043,-0.00862757471536,0.0432415082304848,0.0894972867650481,0.0970052497286025,0.100540545386379,-0.02949909070229,-0.0499997902176,-0.082558422716,-0.0715548461107,-0.03955779241389,-0.05813485754432,-0.0347307934433,0.0176588907026001,0.0473184456124091,0.0487859965354664,0.0599566379322139,0.019613781095753,0.000333638646149958,-0.00005380025124,0.00000178741504963889,0,0,0,0,0,0,0,-0.00170339982491,-0.00603554321663,-0.00687907876076,0.0474977186671429,0.108307371984251,0.115659808504177,0.139762626456344,0.0396220116222276,-0.03495199546702,-0.00306719120924,-0.00400754190297,0.0122890140880445,0.0153632567724322,0.0441609934260437,0.0481116276134447,0.0550605193995261,0.0188561630771975,0.00172198636889734,0.000941637950982211,0.000223493885866533,0,0,0,0,0,0,0,0,-0.00337889528088,-0.01284807648084,-0.01932547899157,-0.01598015242593,0.0094597240381951,0.0184657891198714,0.0954953715219564,0.0483289331051395,0.0659449321413753,0.0778425260054756,0.0809913751020368,0.0436408207222879,0.0201846661256974,0.0406757750030528,0.0317217486285952,0.0147828926805811,0.00226066941905707,0.0018065474494169,0.000701382835917262,0.000795773684524777,0,0,0,0,0,0,0,0,-0.00835425699729,-0.01554137514937,-0.01655834813346,-0.0218278748217,-0.03103574574849,0.0242595070717028,0.0262935908518132,-0.00783769285222,0.0584135007696494,0.0648171200760403,0.0613666893976958,0.0390729241707155,0.00916959957785859,0.0127800136187629,0.00496832236521628,0.00207539447672342,0.000943196523206865,0.000507785070935913,0.0000785334443151416,0.0003352408287998,0,0,0,0,0,0,0,0,0,0,-0.00176645342608,-0.01259648832587,-0.00704976934902,0.0852592949300851,-0.03112005574907,-0.02287703192985,0.0132242304842347,0.012912086551728,0.00933985050567403,-0.00404341788868,-0.00558249347769,-0.00389170014349,0.000255358790745715,0.0000686032001137186,0.0000121064470788915,0,0,0,0,0,0,0,0,0,0,0,0,-0.00026567792651,-0.01031393286727,-0.00947361574291,0.0667678253635624,0.0436329332209355,-0.0010791063432,-0.00003911744366,0.000611676756973028,0.00118341194413377,0.000683376664201771,0.000160703876414538,-0.00349478487198,-0.00607591320718,-0.0010126522012,0,0,0,0,0,0,0,0,0,0,0,0,0,0,0.0000201458843425468,0.0000760158480379082,0.0000823969930512114,0.0000150003519185681,0,0,0,0,0,0,0,0,0,0,0,0,0,0,0,0,0,0,0],[0,0,0,0,0,0,0,0,0,0,0,0,0,0,0,0,0,0,0,0,0,0,0,0,0,0,0,0,0,0,0,0,0,0,0,0,0,0,0,0,0,0,0,0,0,0,0,0,0,0,0,0,0,0,0,0,0,0,0,0,0,0,0,0,0,0,0,0,0,0,-0.00000091249873,0.000393739486867852,0.00525199217619964,0.00345820209420611,0.00189784478891756,0.00156499100097004,0.000628038580970943,0,0,0,0,0,0,0,0,0,0,0,0,0,0,0,0,0,0.0000183936059702355,0.000179337658209796,0.000358675316419591,0.00552102612465271,0.015709575854883,0.100870261337786,0.133296290199846,0.0480369011983782,0.0215814654639457,0.00491281723080455,0.000418692387313962,0,0,0,0,0,0,0,0,0,0,0,0,0,0,0,0,0.000266707286568414,0.000360746399716078,0.000385865793834055,0.0355148918852931,0.0677238806773691,0.0690363114648311,0.178339336260079,0.212010200262549,0.170267050417977,0.0334632185471088,0.00651230885855652,0.00166443179871741,-0.00000451336047,-0.00000137864215,-0.00000138593655,0,0,0,0,0,0,0,-0.00000997204011,-0.00000447143574,0.00000816710799964166,0.0000275040249184335,0.0000300219991839087,0.0000466319220101712,0.00989734516005935,0.0160837487531913,0.0348181944699376,0.0499414025301486,-0.00779196177232,-0.00507172082964,0.119010172611283,0.0921526470593443,0.0714507390777064,-0.01477849091663,0.0340304439311797,0.0109364830442042,-0.01591569049781,-0.04940407796783,-0.00151698192549,0,0,0,0,0,0,0,-0.00010191056222,-0.00020365598292,-0.00011331013175,0.000454618778801401,0.00742181600985695,0.0211384074433936,0.0346596373601701,0.0473254235185976,0.06062992418103,0.00751156903305867,-0.02032199965121,0.0288915441607056,0.124500739499308,0.126938250241031,0.11846471648272,-0.05475697989213,-0.00913319162458,0.0322605526833235,-0.05803187497777,-0.08895389272991,-0.00726094642308,-0.00014574240331,-0.0000000541123,0,0,0,0,0,-0.00021957949995,-0.00034771866186,-0.00196690094897,0.00294213242263321,-0.01356070152815,-0.01697926234053,-0.01142884645695,-0.00537725291378,-0.00927510990272,-0.11197104020487,-0.05415431111309,0.107649089918503,0.133431890373403,0.190260078979995,0.102598695961473,-0.06215581362445,-0.07167557200513,-0.0616285533622,-0.09475497324889,-0.01267897918779,-0.00649351083668,-0.00713841997892,-0.00503590564624,0,0,0,0,0,-0.03634066904321,-0.06014309991482,-0.06928077766852,-0.08603644930686,-0.07640326097284,-0.07158156763286,-0.05919745865537,-0.05884244620512,-0.16040330658829,-0.15557258857168,0.0418012483904136,0.111959560511716,0.0769797157012546,0.0791698971974822,0.0785477853162204,-0.06625178318714,-0.09093600770381,-0.11217536983933,-0.08055856916811,0.00011646004713446,-0.01482552142717,-0.01243691515632,-0.01143493972954,0,0,0,-0.00046020478363,0,-0.10236277209801,-0.10174372455945,-0.09278609824313,-0.08194430454867,-0.08222821439806,-0.06402491109835,-0.04217343928133,-0.01674558375911,-0.14009262391379,-0.02954872290727,0.161373701032606,0.143644628496293,0.088214351862064,0.0519666212736372,-0.06797273116212,-0.07962300182287,-0.10769242656846,-0.12172640980446,-0.06512944546243,-0.00467055995494,-0.0145209814389,-0.00597670220642,-0.00428443826928,0,0,0,-0.00005310055196,0,-0.08703980806446,-0.08438218876537,-0.03499854893479,-0.00136087153292,-0.00118769711522,-0.00029636481208,0.0014775954085938,0.00614722653542482,-0.0193391376344,0.0600774613412849,0.0892211827120317,0.106139957992144,0.104306765642845,-0.01255388237833,-0.06455429655928,-0.093123029383,-0.1082683088231,-0.09252306673572,-0.00303559367824,-0.00874603035711,-0.00821105955425,-0.00118505739363,0,0,0,0,0,0,-0.00002072703736,-0.00023725941558,-0.00134027660685,0.00532826151426101,0.0323172018298066,0.0552473002340651,0.0848822639442136,0.137849506939852,0.164188630255903,0.0168130145209465,-0.1038375474884,-0.10068487458416,0.0138854716439999,0.00556330724623789,-0.02967893503203,-0.08851630612618,-0.00589548178485,0.0156037415814918,0.00294179501407464,-0.0026147498088,-0.00311423500094,-0.00006760632431,0,0,0,0,0,0,-0.0000274633245,-0.00045848980205,-0.00136059900221,0.0217390309652998,0.120199343147994,0.142882463339058,0.143631444338547,0.141881537352179,0.0796423222820329,-0.14194786777526,-0.16716445493168,-0.11450508511589,0.00701849034613356,0.0701354478979163,-0.0265738533713,0.0020760683193369,0.00882718062125819,0.00846069219483368,0.00429433267332997,0.00145300792425713,-0.00029148081116,-0.00020163289706,0,0,0,0,0,0,-0.0000274633245,-0.00084851141729,-0.00129752990998,-0.00128744143989,0.00261677357226191,0.0250181595094935,0.0280667940648639,-0.02120890110566,-0.07837212098217,-0.11227646037468,-0.13711553748381,-0.08995212519939,0.0457351121687823,0.0531240170146261,0.0159269796954316,-0.03513246693051,-0.04645395974011,-0.01370778641511,0.00210657749165824,0.000603595979704813,-0.00023446254692,-0.00023484302128,0,0,0,0,0,0,-0.0000274633245,-0.00093635412343,-0.00120601644761,-0.00114656520418,-0.0010839593363,0.00105850665969003,0.0128527475543846,-0.0332885145025,-0.09282469844035,-0.15978057559895,-0.12125362675051,-0.07038180686066,0.011368591293946,0.0432754581930872,0.0293224776838782,-0.0754003298863,-0.0936313406013,-0.07560575772905,-0.00439259475034,-0.00108195378156,-0.00082932167033,-0.00026575444539,0.00000625894762444631,0,0,0,0,0,-0.0000259087967,-0.00093618139812,-0.00116472145751,-0.00124257569185,-0.00061332910894,0.00156794475690633,0.0307625889996168,0.051028237813921,-0.08928391950535,-0.07636747492964,0.0633714642456857,0.0462329904978464,0.0122749931519582,-0.00264532280368,0.0293056990716611,-0.02860880083555,-0.08017243381535,-0.09914404710017,-0.07788084492568,-0.00267133239064,-0.00084508155885,-0.00024131193528,0.0000256777338438823,0,0,0,0,0,0,-0.00062842583852,-0.00103975698636,-0.00122522334226,0.00111983509996311,0.00650027443998044,0.0225851058204442,-0.00223702728006,-0.0365162892302,0.0293718967013708,0.0857642417866553,0.0440588103638052,-0.02193644566241,0.0288501313374559,0.0124156782510023,0.012590126675406,0.0136856706979274,-0.06765586058358,-0.09653602549461,-0.0175932934598,-0.00284883899222,-0.00029715331298,0,0,0,0,0,0,0,0.0000112344166759022,-0.00057556887368,-0.00184221841152,0.00807354669849619,0.0232899469019067,0.00139718441978113,-0.05040081568108,-0.00113567314468,0.0487324379595976,0.0448052741069777,-0.01674053012866,0.0888219132554628,0.0473163573367164,-0.02758509722211,0.0231639909685421,0.052868527025214,-0.02371611846014,-0.0987764888791,-0.09227934019138,-0.00143028566337,-0.00025293818659,0,0,0,0,0,0,0,0.0000130176858784878,-0.00003297380999,-0.00434929131832,0.0162760802251172,0.00486435306778533,-0.05663967113556,-0.02786866215771,0.069023397460422,0.0679719361645496,-0.00078819338832,-0.00633208496678,0.0539970347221213,0.0374209908498172,0.0221474725130122,0.0582574723080937,0.0898999578979219,0.109597255806565,-0.03301694987712,-0.0778138114445,0.0219567045437629,0.00659290472552098,0,0,0,0,0,0,0,0.0000130176574181089,0.00542750690391946,0.0147321338135105,0.0187792900168383,-0.04968228990711,0.00750099211366435,0.14322536395532,0.197632428954229,0.178386178102359,0.0983951506504527,0.107902694001782,0.0995016792524434,0.0753110651656927,0.161305029831663,0.20693418255641,0.169377003867888,0.113540725891366,0.00455023926463946,-0.07238316731553,0.0105799063538291,-0.00009782667141,0,0,0,0,0,0,0,0.0000130173791745432,0.000858494397963712,0.0231981129063427,0.106159110096636,0.0622244837854913,0.0827476856340891,0.224629158949271,0.233090323334691,0.203919080321013,0.134044612979382,0.09445742179061,-0.02449255494383,0.00622646869093559,0.0970278031277878,0.0625278414080052,0.0122406439856268,0.00518146776375491,-0.04179703004061,-0.00305803364079,0.0208010969438462,0.00718129788080855,0,0,0,0,0,0,0,0.0000130173201531807,-0.00066773155511,0.0601812882354369,0.113131899413091,0.0408122709405054,0.117596756331473,0.183996449453605,0.146478475207429,0.102199409551432,0.0778081837190718,-0.02856557344183,-0.10634877612843,-0.04256890796078,0.0113584768617954,-0.05286526888039,-0.06269972887305,-0.06126306195332,-0.03249176397663,0.0253283924931087,0.0154345822316046,0.0146721344633761,0,0,0,0,0,0,0,0.0000110557553367534,-0.00182048621735,0.00807010503686243,0.0231773612030225,-0.00086336091988,0.0550630774576537,0.0548632684823152,0.0684718104623417,0.053060274259648,0.0329658362648512,-0.03111225185308,0.0312490639906949,0.0437200552565457,0.00238912939758505,-0.03633313052462,-0.03990646714932,-0.02317455015323,0.00890535454613947,0.00221633408466601,0.000000000000212021017210129,0,0,0,0,0,0,0,0,-0.00000008895161,-0.00068487766782,-0.01474295018989,-0.11521647756366,-0.12504404920267,-0.09560236465437,-0.08309940794463,-0.08064623569969,-0.0942392859473,-0.09226510542117,-0.03966997475993,0.0405692923385773,0.0464244426237421,0.0387634296029526,0.00921274105876508,0.00450486581778734,0.000473697847499542,-0.00026070420842,-0.00001310804154,0.000000000000754923318854246,0,0,0,0,0,0,0,0,-0.00000021944228,-0.00000040822718,-0.00070908389068,-0.02231227766382,-0.11653370675369,-0.12186072133387,-0.12099160465397,-0.0924440197164,-0.03763139756216,-0.0080369305984,-0.0016516746341,-0.00180219491439,-0.00116582190565,-0.00043872762236,-0.00024759765012,-0.0001632212588,-0.00010867911061,-0.00004217398309,-0.00000054069202,0.000000000000318031525815193,0,0,0,0,0,0,0,0,0,0,-0.0002596858047,-0.00186975500717,-0.00278759897026,-0.0099448756036,0.0025026479169174,0.0016912465216255,-0.00249912957691,-0.00128874619419,-0.00063802835174,-0.0009095813648,-0.00124602454582,-0.00086632491181,-0.00012402131397,-0.00000919176558,-0.00000162207628,0,0,0,0,0,0,0,0,0,0,0,0,-0.0000370774942,-0.00145778634902,-0.00139533858902,-0.00695928050346,-0.00402292929482,-0.00001308530399,0.00000907339184382957,0.000290996096795872,0.000539210889187504,0.00014461239719484,-0.00006885532398,-0.00072527152237,-0.00124332295951,-0.00020722049325,0,0,0,0,0,0,0,0,0,0,0,0,0,0,0.0000000349015307343593,0.00000107396773587516,0.00000156855846826941,0.000000292551804259113,0,0,0,0,0,0,0,0,0,0,0,0,0,0,0,0,0,0,0],[0,0,0,0,0,0,0,0,0,0,0,0,0,0,0,0,0,0,0,0,0,0,0,0,0,0,0,0,0,0,0,0,0,0,0,0,0,0,0,0,0,0,0,0,0,0,0,0,0,0,0,0,0,0,0,0,0,0,0,0,0,0,0,0,0,0,0,0,0,0,-0.00013875862048,-0.00378122511896,-0.02399430742377,-0.0115519166014,0.000120172481869682,-0.00001200242267,-0.0000051587342,0,0,0,0,0,0,0,0,0,0,0,0,0,0,0,0,0,-0.00014884234717,-0.00145121288493,-0.00290242576985,-0.00366348793225,-0.00484026049386,-0.0105771363088,-0.02412938233989,-0.01219499875333,-0.00072307702687,-0.00010935556248,-0.00000343915614,0,0,0,0,0,0,0,0,0,0,0,0,0,0,0,0,-0.00215821403399,-0.00276417473906,0.00627260449342849,0.0839607888603128,0.126976181991866,0.152746327982061,0.132478602962585,0.109798672777371,0.043355246270737,-0.00229030256184,-0.00388687812863,-0.00822400442264,-0.00418965918246,0.000273229077914955,0.000274674734411859,0,0,0,0,0,0,0,0.000133064931234846,0.00109786312094673,0.000992876495598847,0.00153627879728367,0.00166721609208881,0.00313140411368405,0.00330650999055485,0.0162870102597194,0.152466106814532,0.172553854192732,0.159903532548955,0.105715441303366,0.0641194893977816,0.0348267371050046,0.0707510201845328,0.0140704545749908,-0.02332416370225,-0.02680053243816,-0.04162656756164,-0.04111560767473,-0.01456754824951,0,0,0,0,0,0,0,0.001530364380183,0.00261397656660937,0.00252502298166934,0.00295646949177714,0.00219197206059763,0.00217460714300944,0.00323829699142066,0.0978605587183474,0.174713431073037,0.140896641400186,0.0046366610686915,-0.07948938337828,-0.09266984933867,-0.06591761207888,0.0602778152326945,-0.02605402882339,-0.07311311012268,-0.07514341159553,-0.0858651271741,-0.07497350684884,-0.04177230908174,-0.0290004615269,-0.00376317608384,0,0,0,0,0,0.00257853174383744,0.00240281823522162,0.00313158042649225,0.00628253620629992,-0.00149019249303,-0.01705516859148,0.0180176376423694,0.158928147282867,0.164274102417486,0.0830554407356668,-0.07202901817223,-0.06130602181216,-0.03908600573268,-0.03161543536178,0.0431405509802473,-0.06206998458749,-0.06489659214995,-0.07125427137276,-0.0878116199778,-0.04191780105492,-0.04236097072788,-0.03924528934025,-0.02352612560236,0,0,0,0,0,0.000859833627797869,0.0000881742882344507,0.00833671999015709,0.0118054490164348,0.00786527145008846,-0.00094260401329,0.0732952990422639,0.145579949167908,0.1202671780195,0.00384406299713605,-0.04768919942673,-0.02397406436699,0.000191962592454797,-0.00260702971767,0.0165573256814616,-0.02946165601821,0.0836557162547779,-0.00860846445527,-0.05792492636679,-0.03496461592738,-0.02483708599327,-0.02435470500493,-0.02246368875471,0,0,0,0.000317475631231473,0,-0.0001751328169,-0.00086618464753,0.00658649712811188,0.0105901200350731,0.0143335337974276,0.0193306055178212,0.0909430469461548,0.175318544968814,0.103194561094504,-0.02671148986561,-0.02640449947201,0.0143677195344945,0.022315497563626,0.0137085770900576,-0.04678712530106,0.0878090883378796,0.107619825616458,0.0924416206543259,-0.02436007334969,-0.02600707255856,-0.02478224764924,-0.00463627438191,-0.00314930889786,0,0,0,0.0000366318036036314,0,-0.00028725847178,-0.00088086776361,-0.00036021743633,0.00711836321672827,0.0157591913636166,0.030595967247394,0.0442965119800305,0.182790135073872,0.116532982498952,0.028615000971612,-0.02180550872914,-0.00067622273474,0.00192911277477099,-0.01562907058627,0.0382827416319107,0.0982448522750662,0.10773625479172,0.111142430298973,0.00455990922967049,-0.02229796422079,-0.01009352585265,-0.00087108543983,0,0,0,0,0,0,-0.00036078358062,-0.00076414218988,-0.00005404047603,0.00932831845205429,0.031680922105259,0.0345963361518551,0.0392381989648329,0.156074470664113,0.134736941086692,0.0669315660594494,0.0602681534481059,0.0831643845380702,0.0391277699950932,0.0406478676395167,0.0888739898461434,0.0964596807719877,0.121963747641964,0.105597334537778,-0.01527018846203,-0.00367073958478,0.000554798774539834,0.000190578894956074,0,0,0,0,0,0,-0.00047803824432,-0.00076474484632,-0.00045031031766,0.0179167898997685,0.0477755292571822,0.0542421218062675,0.0404985787141005,0.0297847113662065,0.0612974699522063,0.0255041509898296,0.0392012965309198,0.0801743019333474,0.082676251637006,0.0804807664621581,0.0807106040064927,0.0715326177728362,0.13889210910115,0.0674322077029374,-0.00665924061809,0.00378305152334547,0.00353649313637055,0.000568393195483027,0,0,0,0,0,0,-0.00047803824432,-0.00076576667406,-0.0002909105708,0.0243516671925175,0.0481803046283659,0.0607862561860919,0.017942267830974,0.0867746366941214,-0.02059476142856,-0.04223581322965,-0.06585384334004,-0.04737566836681,-0.05785068613853,-0.06070932844777,-0.00508128668116,0.00750230733822432,0.116972971678429,0.132540093079147,-0.00867964512436,0.0037507491356303,0.00866968057064107,0.000662010898268467,0,0,0,0,0,0,-0.00047803824432,-0.00076599681545,0.000214843057832179,0.0156912137571656,0.0371430544408549,0.0481534420768793,0.0745546731278599,-0.03748464804934,-0.05924048187205,-0.07518611367067,-0.08772701042011,-0.11623429198517,-0.10180770046851,-0.06524680351319,0.0163776961788922,0.0244470165554083,0.141834311840976,0.137044040077846,-0.0082194401406,0.0060443777789528,0.0125216368849136,0.00286471882118569,-0.00017871599977,0,0,0,0,0,-0.00045097947577,-0.00076299028561,-0.00026288304037,0.0122888273182257,0.0172733029305264,0.0750999396826262,0.132548941838365,0.0127425150782248,-0.09699307941371,-0.09760664134674,-0.09029078056127,-0.08705402111568,-0.09549456940078,-0.04808668175547,0.012284259097645,0.0208032079081372,0.100187730313127,0.134759566470101,-0.00357887269928,0.0145058468673159,0.015133968151212,0.00319905177638438,-0.0007331938452,0,0,0,0,0,0,-0.00035936962917,0.00000955585032399542,0.0141060938222743,0.0153561677207597,0.0448186471154314,0.105720837089323,0.0183864838369265,-0.05785749547117,-0.04461902896655,-0.05690399331581,-0.04534756185896,-0.06378014438713,-0.05587081321938,0.00538330952391844,0.00114791854171937,0.0560562255019312,0.127792178908188,0.00694911007924319,0.0140455044219477,0.00973875539564976,0.00070136856265123,0,0,0,0,0,0,0,0.00000221640259028005,0.00052871854242351,0.0145648032292449,-0.00549731063137,0.0386731318957588,0.0908442353058521,-0.03406581326911,-0.03786351421827,-0.00919259576984,-0.0317247205391,-0.04910077667376,-0.03636174310882,-0.04300777652546,-0.02949986356533,-0.01945219201755,0.0266865535566981,0.11203570207998,0.00704810342032126,0.0131298353212174,0.00993413592683737,0.000493871305625574,0,0,0,0,0,0,0,0.0000148531630610378,-0.00540641975701,-0.00271831848746,-0.02943104992009,0.0199684501404108,0.0756894697324563,0.00616255698690179,-0.0128025909223,-0.01912002225303,-0.04414038217384,-0.05440770254809,-0.06287129851154,-0.06693841237552,-0.05709707815396,-0.03536072196523,0.0909552904304399,0.132673629107982,0.0293152022480441,0.00261918195739952,0.00389629712101345,-0.00246504118426,0,0,0,0,0,0,0,0.00000256821252524514,-0.01913227389995,-0.03080534675141,-0.03780803686857,-0.00806386368763,0.0800627723358994,0.105477178905164,0.0105996240097344,-0.05961076977503,-0.07498904546542,-0.08185478275572,-0.07583128057326,-0.09689578136818,-0.036529432128,0.106801136925289,0.131071680392283,0.138869494050947,0.00350963535907275,0.000581007216272357,0.00496470519069654,0.000110288727847622,0,0,0,0,0,0,0,0.00000329855404039312,-0.02093917925749,-0.04314749768592,-0.05305694226564,-0.06905778518879,0.0526655569276449,0.0961539027542912,0.0775020531924499,-0.01105499559799,-0.07311233843602,-0.07645163161598,-0.10861677956404,-0.04724052699069,0.0834295759119797,0.156414440546361,0.141150382413585,0.0328217186298446,0.0087993625263251,0.00275022094164692,0.000156379704471643,0.00173046281470455,0,0,0,0,0,0,0,0.00000345347496784875,-0.01193606880988,-0.04476384005731,-0.0722070248778,-0.08814925137075,-0.00771691917565,0.0898061055246919,0.0886131249887183,0.0907139550688853,0.058927924222434,-0.05083381589001,0.0414185826586929,0.137819194844451,0.171183846197892,0.146450082290665,0.0903019230567784,0.0119021323760633,0.0141554080967493,0.00228807844600731,0.00345210300371793,0.00353551454383602,0,0,0,0,0,0,0,0.00000306648403938716,-0.01054719043952,-0.04119587572324,-0.08408212597769,-0.10419971355234,-0.05681196735926,-0.00045181016351,0.106760249813221,0.118174004672743,0.115165254420704,0.116541607280641,0.156814741631452,0.191913582735309,0.184785936489654,0.0913402769541983,0.0313303547635868,0.0144531201085829,0.00338326414288455,0.000672280252666635,-0.00001343317306,0,0,0,0,0,0,0,0,-0.0063639519833,-0.0238483760445,-0.05723926022977,-0.09653513542652,-0.09353114636723,-0.08537172932642,-0.05922965838067,-0.03358060553809,0.0127159724477888,0.106290022178912,0.100618402891763,0.145951275717842,0.107054654926114,0.0341650040765016,0.0163601765142459,0.0130000583788958,0.00474889854760375,-0.00004327844147,-0.00004084819248,-0.00004783023742,0,0,0,0,0,0,0,0,-0.01573765840164,-0.0292766733501,-0.03332337555682,-0.05095671488504,-0.08208083580339,-0.0647433345228,-0.02977751200594,0.00190217652842827,0.0186214882359763,0.0242472084598973,0.00907038119738804,0.0195520576989428,0.0191475660946258,0.0136572976819104,0.00724410496170129,0.00301392712745958,-0.00000503204892,-0.00001047377802,-0.00000446326796,-0.00002014975959,0,0,0,0,0,0,0,0,0,0,-0.00128314968588,-0.00867498250619,0.00116515803646739,0.0198148340182066,0.0351008167328249,0.00952226399581647,0.00237312453969076,0.000684530186940872,-0.00290667634274,0.00466145614001915,-0.00007792652231,0.0000123487300936064,0.0000028585965168368,0.000000245758695304081,0.0000000433691815242495,0,0,0,0,0,0,0,0,0,0,0,0,-0.00035633150776,-0.01229070939861,-0.00336224802344,0.0155462673789545,0.0297975414961708,0.0173064982016048,0.0017421498386733,0.00193286778343141,0.0058826072576791,0.00545188013404029,0.00105852926440492,0.00000857211923172464,0.0000227652610223733,0.00000379421017039555,0,0,0,0,0,0,0,0,0,0,0,0,0,0,-0.00069298426708,-0.00097899326094,-0.0003590583247,-0.00005322094726,0,0,0,0,0,0,0,0,0,0,0,0,0,0,0,0,0,0,0],[0,0,0,0,0,0,0,0,0,0,0,0,0,0,0,0,0,0,0,0,0,0,0,0,0,0,0,0,0,0,0,0,0,0,0,0,0,0,0,0,0,0,0,0,0,0,0,0,0,0,0,0,0,0,0,0,0,0,0,0,0,0,0,0,0,0,0,0,0,0,-0.00000134598343,-0.02080495091703,-0.04313834124187,-0.0369797820672,-0.00216613564398,-0.00013584671234,-0.00000008724842,0,0,0,0,0,0,0,0,0,0,0,0,0,0,0,0,0,-0.00000020761582,-0.00000202425426,-0.00000404850852,0.00279302529187759,-0.01007667265421,-0.13301138795833,-0.1624741694818,-0.05492117214804,-0.00867396494548,-0.0003726666186,-0.00000005816561,0,0,0,0,0,0,0,0,0,0,0,0,0,0,0,0,-0.00000301042941,-0.00001590468283,-0.00021123985036,0.00169390555412411,-0.00449717544592,-0.03035031103291,-0.12930723136448,-0.15113909987731,-0.13114707944099,-0.00556436116744,-0.00048354186642,-0.0000815820037,0.00000503287454877386,-0.00024454908563,-0.00024584299614,0,0,0,0,0,0,0,-0.00000019363497,-0.00000055208436,-0.00000817675129,-0.00001884453833,-0.0000252406407,-0.00006005853595,-0.00024185617513,-0.00008623502914,-0.00117672252795,-0.00025613166355,-0.02691400887862,-0.04032829599185,-0.14174346033925,-0.14079243527848,-0.11863366417429,0.00341603820096484,-0.00481825043388,0.00160222306769743,0.00448783247719169,0.00451058278486525,0.0022777437362491,0,0,0,0,0,0,0,0.000210414268401997,0.000190669145844699,0.00229765936536128,0.0410316487144382,0.037431873441858,0.0181647913399759,0.018971544236355,0.0217358868854171,0.0305452843825352,0.00410729657428756,-0.00984154054319,-0.02085537594577,-0.12929054639884,-0.10749977039811,-0.04674078690327,0.0449743802569062,0.00745057299200896,-0.01696719941897,-0.00955360295495,0.00514234408987862,0.00248278423565491,0.000106140979165723,0.000011146164395668,0,0,0,0,0,0.00769040129492086,0.0074886608646074,0.0127801800032217,0.0622997892204652,0.110362452886266,0.135581467333627,0.139869079829239,0.150313590134274,0.149585707725299,0.124432798336147,0.13572254792592,0.119019329075394,0.11818871720928,0.216096519908224,0.194714015941614,0.162870281430373,0.0869197840789805,-0.01329730889455,0.000695003331702378,0.0128512366806324,0.00776466090724332,0.00346769646739784,0.00230999193628566,0,0,0,0,0,0.0509190520219061,0.0792503158717216,0.104278842334314,0.125229276106296,0.143643125385886,0.163993813314262,0.185735990959164,0.188567513566615,0.180057286814897,0.238345179286826,0.261505200183577,0.285762161257105,0.241832411752521,0.149436330317195,0.12441040850409,0.153991179332207,0.190747945855791,0.157773576838512,0.0508236823985096,0.0172191264475802,-0.01660426178276,0.00363583871043073,0.00309476912811529,0,0,0,-0.00300676000059,0,0.124108128848862,0.123084625794376,0.121904760477816,0.109680299654535,0.113323889704769,0.0853829717389148,0.0538222020247695,0.0291525744309061,0.0894679022294563,0.130270955220637,0.0529139842594924,-0.05344432891984,-0.00044117200636,-0.04845880443299,0.11401556408328,0.16869214074181,0.193939251663221,0.185232850057742,0.102498088130009,0.0115713704447983,-0.02776211000604,0.000125071443026688,0.00000829433505099179,0,0,0,-0.00034693384622,0,0.10560711503977,0.102166186727555,0.0416600764868414,0.00758407043938238,-0.00136121857739,-0.0380042606387,-0.05391244247638,-0.07496757886513,0.00465334378713894,-0.04143042542979,-0.1887472820386,-0.17319679723292,-0.05524256804988,-0.13337372074488,0.0437156950235251,0.181542989955539,0.20000808442273,0.163987297756502,0.0997956263208257,-0.00031732536021,-0.02945298553438,0.00000229417778006156,0,0,0,0,0,0,-0.00001956984679,-0.00004158561145,-0.00098606230994,0.0027826914528993,-0.0706128226946,-0.13178408212431,-0.20522710550137,-0.26766546966169,-0.10541054547409,-0.05692556330495,0.00112266352763797,0.083810203078094,0.0620198911427981,-0.05604080333101,0.0886945016876569,0.201612890686755,0.180713533294142,0.101446010868919,-0.00468404459861,-0.00006236050953,-0.02387683487743,0.00000145710524255352,0,0,0,0,0,0,-0.000025930047,-0.00004135833077,-0.00291406789177,-0.04773642520281,-0.21534959056698,-0.24813847304588,-0.25789299689267,-0.32165098534391,-0.05975650268936,0.222491404952185,0.360320585141338,0.425589921275153,0.191925662145744,0.0165336713393555,0.163490224953054,0.201318210310263,0.0910861090178633,-0.01316594012155,-0.00468262972155,-0.00151940605163,0.00000651731674857764,0.00000434575247779118,0,0,0,0,0,0,-0.000025930047,-0.00004129764612,-0.00290470006814,-0.04315927948869,-0.09249482814429,-0.10319186596698,-0.09024057031322,-0.09631081598298,0.0363512752068845,0.315543354450184,0.456584143340888,0.428687403090138,0.192027249099047,0.108626026852192,0.24192797425659,0.280242946175704,0.117105914420918,-0.01234903986339,-0.02992581930041,-0.00923929247909,0.00000292728964471309,0.00000506152347413326,0,0,0,0,0,0,-0.000025930047,-0.00004128397841,-0.00156755425364,-0.01045850075251,-0.03480456441661,-0.01592983900632,-0.01221803756232,0.0146998034513386,0.0690624933851283,0.116016075564235,0.136986033637946,0.0963682165562272,-0.02611594934302,0.108871703778633,0.164264326137371,0.181500175428564,0.0101194633583002,-0.0366536314759,-0.1007135673243,-0.02483374016374,-0.00028633536122,-0.00052648730989,-0.00016719326634,0,0,0,0,0,-0.00002446230849,-0.00004112089635,-0.00025109795676,-0.00162996116757,0.00137549084942464,-0.01691194412874,-0.01497323330036,-0.00259558168545,0.0318847651374293,0.0470054966498013,0.0661046486033164,-0.00445397962787,-0.00549343832677,0.0357522025787874,0.0545948200277571,-0.04425156264182,0.0175320830439591,0.0236729796930523,0.0127677666142065,-0.01185525114739,-0.00108987162408,-0.00102854516397,-0.00068592109267,0,0,0,0,0,0,-0.00001931218416,-0.00002598223761,-0.00031731847031,-0.00045506633364,-0.00562765385134,-0.02149388327315,-0.0266721772759,0.0158940832334777,0.0498515722993384,0.0386946820643371,0.0899062745534512,0.140246207323385,0.137539443789107,0.0452924262697349,0.0419503182984007,0.03883628525625,0.0601727908033523,0.105089587093495,0.0199570204692612,-0.0222430168113,-0.00013495259665,0,0,0,0,0,0,0,0.00000000010192310840034,0.000000729357514679932,0.0000976594831686955,0.000419230656627269,-0.00269055844056,-0.01894089217738,-0.03659989706933,-0.00138025525891,-0.02895604984358,-0.01740461427648,0.229192058010921,0.117068322313349,-0.00887116068855,0.0173355481682353,0.0601176160366417,0.0254703635247594,0.0249383438132932,0.118577932207716,0.111541052011391,-0.01121108512739,-0.00004192255119,0,0,0,0,0,0,0,0.0000000000852462129333431,0.00000741082978175413,0.00225029535170415,0.000628417727549404,-0.00415385589033,-0.01412640639924,-0.06728329778028,-0.07077509329281,-0.05894549961994,0.19294657318008,0.267396136393999,0.0938546504246375,-0.13478917085587,-0.03404179447915,0.0227842197119123,-0.00435397291506,-0.07483544437702,0.0816884927266517,0.126095232958657,-0.00024630767469,-0.00021628297387,0,0,0,0,0,0,0,0.000000000118101379574998,-0.00007363304249,0.000430952454187834,-0.00194231204363,-0.02513271800747,-0.08786210757897,-0.19801541208543,-0.23741918229342,-0.09026535549255,0.123918758285218,0.205546247256497,-0.06286111639932,-0.12360900450973,-0.14441340919337,-0.11468501668864,-0.08981645303683,-0.06052379768643,0.0497768607835287,0.126863381186869,-0.0001728711945,-0.00003366382332,0,0,0,0,0,0,0,0.000000000126632511197228,-0.00020005134561,-0.01486382669431,-0.09797763851462,-0.15158199144494,-0.1622135451103,-0.20535708433641,-0.08972807910303,-0.02559976840219,0.0992395723564677,0.0488613772685579,0.0141889396827154,0.0307593099408339,0.0525834188950572,0.0617251952458761,0.0394170300328365,0.0459683633018496,0.104821869386876,0.0520001180579073,-0.00003000645093,-0.00003391610732,0,0,0,0,0,0,0,0.000000000128442145177701,-0.00019271745341,-0.06777077469708,-0.15098460839888,-0.15223163844277,-0.21774050791513,-0.10426706253496,0.0742375576370545,0.178153057647072,0.0987738503786476,0.0449943149003935,0.0989116192455847,0.152472507576161,0.171381063100885,0.146760978641014,0.120681204509758,0.12656952185531,0.0815826698856811,0.00576274637713045,-0.00006865991766,-0.00006929411582,0,0,0,0,0,0,0,0.000000000110646046885578,-0.00000961953339,-0.01856174744684,-0.11975305893509,-0.12349992726072,-0.09384752771003,0.105679549414891,0.15963952945384,0.118888455986772,0.0120759037870105,-0.00050849522451,0.0452734218115172,0.112899427825455,0.0967374871450039,0.0631092100959425,0.0664043393623883,0.0472171001498684,0.00809382650305211,0.00233629302568587,-0.00000646325963,0,0,0,0,0,0,0,0,0.00107091547237753,0.0033502512507181,0.00443311269434537,0.00557426146884768,-0.02559010420156,0.160712201053599,0.143302423774164,0.134793852993918,0.0506117225992565,0.000571701080372361,0.0257465605854064,0.0526095853170598,0.0379086867615547,-0.00310962573328,-0.00094763640753,0.00597990857744921,0.00761910546157673,0.0076532282100889,0.000131904228688527,-0.0000230131214,0,0,0,0,0,0,0,0,0.00264808187967196,0.00492621114380152,0.00492744688421036,-0.0171249588659,0.14569006014212,0.157127218425622,0.144417708157799,0.0768356853683469,0.0459922447974851,0.0275308254342439,0.0461586210092624,0.0427657449430604,0.0125419685337189,0.00307468091243269,0.00452606302058339,0.00764051616213005,0.0060956304412845,0.00236136870058625,0.0000281911007223452,-0.00000969488944,0,0,0,0,0,0,0,0,0,0,0.0234917673764536,0.161630417941573,0.154579394406537,0.0303647001457681,-0.00296497664873,0.035079313457961,0.0466264344784547,0.0214666062059539,0.0082014780414171,0.00903181864363429,0.00412875213125466,0.00439231226667413,0.00409914101097273,0.000515873850162329,0.0000910365617933522,0,0,0,0,0,0,0,0,0,0,0,0,0.00418803133153181,0.156795309367717,0.0957293530621756,-0.04577788729545,-0.04937557901947,0.0104450201699519,0.00262655656775975,-0.00939204310673,-0.01322601648451,0.00103801578233574,0.00148009964416027,0.00245207061699664,0.00422830465203298,0.000704717442005496,0,0,0,0,0,0,0,0,0,0,0,0,0,0,-0.0021381301373,-0.00354929394366,-0.00190786314688,-0.00031377779633,0,0,0,0,0,0,0,0,0,0,0,0,0,0,0,0,0,0,0],[0,0,0,0,0,0,0,0,0,0,0,0,0,0,0,0,0,0,0,0,0,0,0,0,0,0,0,0,0,0,0,0,0,0,0,0,0,0,0,0,0,0,0,0,0,0,0,0,0,0,0,0,0,0,0,0,0,0,0,0,0,0,0,0,0,0,0,0,0,0,0.0000161269408944454,0.000419136543330884,0.00067503581712899,-0.0003640154364,-0.00096403213735,-0.00038584899887,-0.00019747265888,0,0,0,0,0,0,0,0,0,0,0,0,0,0,0,0,0,0.00000000000204963868129407,0.0000000000199839771426172,0.0000000000399679542852344,0.000135136257707396,0.000947238860355407,0.00136488971577902,0.00178088362145573,0.00603676920697026,0.00865965967724636,0.00114280951686978,-0.00013164843926,0,0,0,0,0,0,0,0,0,0,0,0,0,0,0,0,0.000000000029719760878764,0.00000258873845859558,0.0000969015089571196,-0.00062234234058,-0.0011498683953,-0.00047148867503,0.0025545430390217,0.00495234640857353,0.00408064792945797,0.00513616857439235,-0.00580330760338,-0.01277863082898,-0.00594732826889,0.000290772181689356,0.000292310658841152,0,0,0,0,0,0,0,0.000126420107043308,0.00104346930309825,-0.00018744764443,-0.00121210837937,-0.00200674102236,-0.00105408878159,0.00264915766763602,0.00140883645648495,0.0101706401595747,0.0124290544231689,0.00916398247264685,-0.00481234073193,-0.00590483942437,-0.02896097088012,-0.04822927840054,-0.02196357329307,-0.00729162868829,-0.03196538874885,-0.03623365293766,-0.00350276848404,-0.00002927953075,0,0,0,0,0,0,0,0.00146042885543626,0.00132901724632621,-0.00099062892638,-0.0141277150031,-0.00983924874404,0.00229696446657758,0.017192772165899,0.0239197609701226,0.0155639379790435,0.0135692364349912,-0.00835506604066,-0.03481699540914,-0.04627365673225,-0.09275825117154,-0.10375425653321,-0.09479445181051,-0.03035404328965,-0.02703540169254,-0.03772743361398,-0.02678264767871,-0.02250963628059,-0.00101972320736,-0.00000410203236,0,0,0,0,0,0.00282990032695971,0.00359939505594269,0.00169198055084905,-0.01327151100254,-0.01310922304484,-0.00194123158037,0.00512193695363912,0.0109527890897042,-0.0117496599669,-0.04925061488231,-0.07807121946352,-0.08142192220711,-0.09863555228864,-0.12007820908176,-0.10512814172003,-0.05893671988003,-0.04153455693353,-0.0523304589082,-0.04147355355245,-0.02440570216962,-0.02669493135345,-0.00052716188802,0.000617255447433451,0,0,0,0,0,0.00088614898122674,-0.00165193343337,-0.00188383105723,0.00101832649491233,0.00648869642049739,0.00615549003363233,0.000654050006203543,-0.0143321756426,-0.06254807557116,-0.07885329397571,-0.08614572453715,-0.08206262279398,-0.08279791603581,-0.06409342117794,-0.04836839233479,-0.0524954445038,-0.02608287083615,-0.05604641763638,-0.03478624067462,-0.02117842180799,0.00349752591168339,0.0000702319638288731,-0.00012354579713,0,0,0,0.0391066881617422,0,-0.00149614524184,-0.00397462320614,-0.00436913115105,0.00790851995686103,0.0149018720004964,0.0142042956586592,-0.00257102684457,-0.05447369176446,-0.06680001828375,-0.04270670020036,0.0381426720374956,0.0896788214808134,0.0549771210630117,0.059894607605864,0.0718962106597995,0.0567599961677781,0.0721661343505283,0.00298373239024431,-0.02616335613755,-0.01635620702333,-0.00097264770969,-0.00117092058814,-0.00090040549555,0,0,0,0.00451231017250872,0,-0.00142614875123,-0.00204970444163,0.00239538603395945,0.0167791190059257,0.0167522708078738,0.0141530258348634,-0.0131416358362,-0.00747189346342,0.0135866991118051,0.107695156376484,0.161923910748438,0.143633171360609,0.0533818198455608,0.023339894081189,0.0089229997235158,0.0348378900263003,0.0591648532016602,0.0858813254905047,-0.00658929256573,-0.0127057819664,0.0042956242907444,-0.00024904832856,0,0,0,0,0,0,-0.00040031939475,0.00242998827008762,0.0149201816937716,0.0169004563599135,0.0172717327609329,0.00369792824094398,0.0837988350977904,0.0935177628029916,0.112884428562977,0.148042452048658,0.133024188866686,0.065844670153472,-0.0387482172523,-0.07178160462536,-0.05410228746245,0.0384842219334341,0.0781949928920182,0.0616214776760718,0.000358108745169679,0.00465633123273398,0.00948786709067985,-0.00000000039401,0,0,0,0,0,0,-0.00053042319804,0.00673571395120089,0.0160198300844614,0.0169348976855451,0.0147725777619672,0.00182243281952201,0.0921668755715661,0.129848239388722,0.119440765068829,0.0385733514992047,-0.02992774876371,-0.05797998648803,-0.06668233670371,-0.01678997204,0.020655633663129,0.0642911499898926,0.0779280475056153,0.0261135938663369,0.0153926411069703,0.0138542127318255,-0.00001174965763,-0.00000000117513,0,0,0,0,0,0,-0.00053042319804,0.0138689282764486,0.0161969866917858,0.0153082623631309,0.00542594343418092,0.00263481216696525,0.0496308689295476,0.0610974774318834,0.0142314319803292,-0.03924270585188,-0.0892736472268,-0.07153282298625,-0.00812411275136,0.0542173315859596,0.0576675176072707,0.0695190040870305,0.00378767831619484,0.0187243212351143,0.0241115396680956,0.0178994442554434,0.00204215450007335,-0.00000000136868,0,0,0,0,0,0,-0.00053042319804,0.0154755080794324,0.0160192450415422,0.011300535266423,0.00214923211139017,0.0087943455656342,0.0217500940864683,0.0438223841061785,0.00857168500003833,-0.06363037919393,-0.08800467519276,-0.01901816871515,0.0543852538992286,0.0724777770406455,0.0939446100048012,0.0451015132129239,0.0415319021880584,0.0448297519501781,0.0454723311362517,0.0250647096424349,0.013097983852286,-0.00144218654443,-0.00045439305172,0,0,0,0,0,-0.00050039924343,0.0154788440743886,0.0153910788118016,0.0153698923224878,0.0109027503467675,0.0151006857547541,0.0213460357643332,0.020351965478757,-0.02284339188855,-0.05897400946405,-0.06077754483192,0.0446433924480415,0.0695154145475295,0.114986076003317,0.084214170909985,0.073467000668853,0.0608222015604522,0.0408578818125358,0.0321064740424055,0.018389151051931,0.012326598422138,-0.00280450474998,-0.00186417662246,0,0,0,0,0,0,0.0107205488368561,0.0155673747731066,0.0184127953712588,0.0184258937595636,0.014449236364027,0.00521693773682243,-0.00773184729886,-0.0412473811304,-0.03161587289789,0.0363348846208453,0.0488287168045033,0.0300081943601215,-0.01248211881208,0.0172101631834158,0.0152645214518153,0.0239037717995335,0.018397851059376,0.0152961936907572,0.0149539490076382,0.0113414535740793,-0.00038448819107,0,0,0,0,0,0,0,-0.00001187023932,0.0105941280476499,0.0192101531687317,0.0137083055326615,-0.00630380224686,-0.0181511235196,-0.03632106383689,-0.01844520344845,0.0645600784866993,0.0829618357394283,0.0351036433597485,-0.06676120321451,-0.03324855525944,0.00399284152153374,-0.00033123459866,0.00819883022260926,0.0186676696105212,0.0165700956771345,0.010165562518603,0.0039205392502391,-0.00051255196548,0,0,0,0,0,0,0,-0.0000154831978,0.000124023586315228,0.000528255257851006,-0.0104645625466,-0.0213425412113,-0.04097525869778,-0.01062180063322,0.0647680216753325,0.0812649462634326,0.0818137035991605,-0.0480270203132,-0.07200094600688,-0.03912885507026,0.00109693656824386,-0.0032812869812,0.000805976618626294,0.0172008042822559,0.0162495828042665,0.00336830387669501,-0.00263678024591,-0.00233262795903,0,0,0,0,0,0,0,-0.00001375440429,-0.00147683329778,-0.01156862036417,-0.02626264279182,-0.04238332064766,-0.03292778274365,0.0687691319425787,0.0821523465859539,0.0825309383252473,-0.00964776775423,-0.06134886327072,-0.06270401417753,-0.02662960045841,-0.00041367660335,0.00335355645266319,0.0103780716907528,0.0204226682242732,0.0173235082228429,0.00356417049066312,-0.00188347475191,-0.00038702849217,0,0,0,0,0,0,0,0.000849342583772816,-0.00191960295508,-0.01757229875145,-0.03118899526067,-0.04630055421605,0.0548283353361423,0.0853612977046152,0.0813286774295169,-0.00462242625541,-0.04938348893606,-0.05584584375379,-0.0604259943372,-0.02678005333175,0.00368012446473486,0.00606268422233423,0.00807947707408063,0.0169246829850448,0.0172828690823731,0.00576769645463696,-0.0000001849344,-0.00000011719183,0,0,0,0,0,0,0,0.00103242376305924,0.000417520062826293,-0.01593293584604,-0.03121147077846,-0.04109119504781,0.0699346227393901,0.0838891697819242,0.0239502745260044,-0.0498077355165,-0.04952786151225,-0.06079606913889,-0.04376695755234,-0.01580158594038,0.00442650937475805,-0.00191016426183,0.00174572830969321,0.0127158294808776,0.012806609308279,0.00181459294039497,-0.00000023965448,-0.00000023943503,0,0,0,0,0,0,0,0.00103449634452786,-0.00228611596373,-0.01244881511706,-0.04470667466835,-0.05811430184814,0.0524440657764776,0.0400466369418617,-0.04329412528606,-0.03598231744813,-0.02077724631092,-0.02663292618076,-0.03320423191157,-0.00633497328653,-0.00165457423325,0.00421236430965309,-0.00176314999262,-0.00173945233204,-0.0016000276945,-0.00278046084916,-0.00094600740302,0,0,0,0,0,0,0,0,0.000416212376849354,-0.00117324920445,-0.01240760569216,-0.03982095165366,-0.07520260697553,-0.0637215090837,-0.05175992649328,-0.05679423623458,-0.05690407957904,-0.0308734875796,-0.03583043371417,-0.02015535068357,-0.00209056272407,0.00716474337891976,-0.00265210385749,-0.00335227855138,-0.00292134534839,-0.00306290855155,-0.00287645379095,-0.00336835969256,0,0,0,0,0,0,0,0,-0.00055530469252,-0.001033030053,-0.00279045622357,-0.03073780932433,-0.05789625726449,-0.06512279431644,-0.04271215658695,-0.05792462238014,-0.04496132704439,-0.04062072661374,-0.03851352455929,-0.00281425618567,0.0101936877507146,0.00292443305464113,-0.00447510440531,-0.00202478463204,-0.00037263390677,-0.00074468352544,-0.00031440858475,-0.00141901110452,0,0,0,0,0,0,0,0,0,0,-0.00003543581924,-0.00184001558694,-0.02558665601154,0.0127664047517275,-0.00970687253019,-0.03104171140598,-0.03312711175578,-0.01922007806585,-0.01016232831179,0.00304582024627329,0.00238556927493813,0.0000607156911104639,0.000119644327216144,0.000015762676375902,0.000002781648772218,0,0,0,0,0,0,0,0,0,0,0,0,-0.00000913577472,-0.00031978747535,0.00031661070975135,0.0218640126784374,0.013514892376147,-0.00000247496417,-0.00000069376341,0.00124461514670998,0.00423813982745443,0.00379592791280193,0.00278690065370075,0.000238844308313467,0.000000765851155819023,0.00000012764185930317,0,0,0,0,0,0,0,0,0,0,0,0,0,0,0.000119861871205832,0.000268623423273819,0.000212349022795742,0.0000372945532724939,0,0,0,0,0,0,0,0,0,0,0,0,0,0,0,0,0,0,0],[0,0,0,0,0,0,0,0,0,0,0,0,0,0,0,0,0,0,0,0,0,0,0,0,0,0,0,0,0,0,0,0,0,0,0,0,0,0,0,0,0,0,0,0,0,0,0,0,0,0,0,0,0,0,0,0,0,0,0,0,0,0,0,0,0,0,0,0,0,0,0.000000228874673384513,0.0000172790709157635,-0.00003031346917,-0.00000775110846,0.00000698249501474923,0.00000467315000251647,0.000000578907397610696,0,0,0,0,0,0,0,0,0,0,0,0,0,0,0,0,0,0.0000628714958709503,0.000612997084741766,0.00122599416948353,0.00542439083733345,0.012597255678949,0.00000325503746052008,-0.00444340616886,0.00598306807759239,0.0110731587641728,0.00177625562556916,0.000000385938265073797,0,0,0,0,0,0,0,0,0,0,0,0,0,0,0,0,0.00091163669012878,0.00368277212118829,0.0196294292627842,0.08717480905678,0.108795104888303,0.137546619594382,0.139420956878518,0.0996397963890177,0.036966805543562,0.00895519694351573,-0.01349832332993,-0.02997290283719,-0.0139829413475,0.0000200309967175826,0.0000201369808271994,0,0,0,0,0,0,0,0.00000468537916770562,0.0000387798832649225,0.000035746382463121,0.0000558683827914435,0.0000610310422531421,0.0072403159231802,0.0264559107935238,0.0511674955779296,0.156578816629741,0.181578412126601,0.167864665495158,0.132389524889393,0.117843497118965,0.0280734803046814,-0.00127502285616,-0.05904289244584,-0.03233894084438,-0.13792839879124,-0.2017131640026,-0.14348866086465,-0.07135494833145,0,0,0,0,0,0,0,0.000195041401292788,-0.00721491688352,-0.0080879143231,0.00297638244807916,0.00357382338668336,0.0168695688000195,0.00887281760686437,0.0570512882290867,0.0872966719579682,0.0589763601288114,-0.07153403559866,-0.1323104075192,-0.16650541662433,-0.16918342743164,-0.09166388765148,-0.10850539152762,-0.1099791587533,-0.18862399847644,-0.18552489330648,-0.12564582612721,-0.05222241222146,-0.00906673346807,-0.00067595104717,0,0,0,0,0,0.00536276993504634,-0.01533053880363,-0.02400776833848,-0.0099045103951,-0.04006938663829,-0.14932558769186,-0.11865926972255,0.00914585665687862,0.0114400093737672,-0.06975832730562,-0.13799085853552,-0.0918744939212,-0.14267892119472,-0.03713005119919,-0.01001577950123,-0.04612955789552,-0.12308972045918,-0.21164342292976,-0.07699181556191,-0.05254612534287,-0.04456503109517,-0.03510407542008,-0.02086374151,0,0,0,0,0,0.00626954619412843,-0.02608108514553,-0.03933475839353,-0.02292686592547,-0.04355943638793,-0.15054434962782,-0.06839719737815,0.00600993087016848,-0.04042363199966,-0.09517619207771,-0.06474184677294,-0.00015907773837,-0.09662083716884,-0.1763068493667,-0.15222549581416,-0.06149260964063,0.0227744104442196,-0.07842185961429,-0.13411776195208,-0.0341649032022,-0.03202765574194,-0.03045584358677,-0.02612191511563,0,0,0,-0.01936909783415,0,0.00102150163273714,-0.02568154692419,-0.0289754053301,-0.02306646065731,-0.02224297096345,-0.06531335971547,-0.11810384866164,-0.08321371236373,-0.12891459808329,-0.14066744239028,-0.08160484909866,-0.09380646467269,-0.14598444339461,-0.26039477220795,-0.25532824101975,-0.04708905711447,-0.03066662405971,-0.01840133609208,-0.09594540621333,-0.02672712947803,-0.01104018150626,-0.0011615079285,-0.00018510341384,0,0,0,-0.00223489590394,0,-0.0046619789744,-0.02861944487218,-0.02230910923062,-0.01341428832819,-0.04732411622647,-0.12839546448374,-0.14311387058227,-0.11529834685785,-0.08849872078436,-0.11828503261068,-0.17192053615201,-0.09425536839455,-0.13155408238333,-0.20954714720642,-0.08444672054914,0.000744088075818904,0.0021984692424503,0.00038652479323205,-0.03355528720398,-0.01241239257683,-0.01044326380835,-0.00005119881659,0,0,0,0,0,0,-0.01442968906737,-0.0305428642795,-0.03178517394427,-0.0140343315864,-0.11817201112313,-0.17286437740667,-0.26397368858674,-0.18556073680647,-0.05810503313496,0.00344481676920808,-0.03566886916557,0.0270530472659597,0.0785143188406223,0.0500393638491635,0.068177789348436,0.0327356994401572,0.0171915224797117,-0.01905936496532,-0.02412325608171,-0.01269975067142,-0.01354447743317,-0.00302058124064,0,0,0,0,0,0,-0.01911933801426,-0.03054284077589,-0.02858671837639,-0.06782128529229,-0.19479470682302,-0.20410207752949,-0.26769024707667,-0.20937216163239,0.126951842220021,0.134739181835201,0.127475499593,0.275073669597262,0.281635231578251,0.204898489447138,0.107968845612636,0.0396021360081922,-0.03326785132297,-0.06754036436991,-0.00781369936472,-0.00745241393854,-0.0154721511762,-0.00900875106858,0,0,0,0,0,0,-0.01911933801426,-0.03054283975679,-0.02221351872877,-0.12218263355778,-0.19368333042204,-0.19161530260844,-0.15062750202701,0.0280300639485022,0.0477953860668212,0.120718707235132,0.0620146449542996,0.0912290776399113,0.0760750209731126,-0.05808707407753,-0.0327270591772,-0.00863859390694,0.0184958786371835,0.0381200135559879,-0.00932215920875,-0.00837255878559,-0.00832317380108,-0.01049254536223,0,0,0,0,0,0,-0.01911933801426,-0.03054283952726,-0.02393878980984,-0.0552492434557,-0.12082821689352,-0.09327875451952,0.028591197157569,0.0118625057809805,-0.04279803178442,-0.07285714177521,-0.11471881991541,-0.23038319280283,-0.30639548779977,-0.23958955116448,-0.11680300600479,0.00303147962325606,0.11428260544092,0.0857431541605102,-0.00942727136016,-0.00511082663359,-0.0028440966889,-0.00901674844305,0.00146299207260197,0,0,0,0,0,-0.01803711133421,-0.03042259211836,-0.03900943446281,-0.03893507524917,-0.02708909490961,0.0130202840884044,0.074079763330516,0.0333290740909483,-0.06784178184964,-0.10277358696528,-0.12602214487578,-0.1959329735402,-0.24556005283285,-0.19653367950746,-0.12440776877631,-0.11133874704067,0.0920895509179044,0.0982405891538939,0.000793653812738393,-0.00019768796381,0.00229562388647935,-0.00468012425661,0.0060020187593927,0,0,0,0,0,0,-0.01430944007014,-0.03005372443913,-0.03850909158278,-0.02698697104404,0.0081949190650609,0.0855701270044479,0.0474630752144707,-0.03469786878618,-0.05925696581813,-0.11491252406794,-0.15443591009591,-0.09711080483273,-0.00759770612682,-0.13920614431738,-0.1303813489355,-0.00429837259586,0.108847342750745,0.0147334165313571,-0.00312811388235,-0.00491786753533,-0.01227521023374,0,0,0,0,0,0,0,-0.00202261936544,-0.00913972579532,-0.02025094658817,-0.03179821124502,0.0319529229559825,0.0917288950547958,0.000104914454294315,-0.05471288797917,-0.121794973732,-0.15023163573702,-0.07751698314893,-0.04744558623718,-0.05395811749871,-0.14294887200486,-0.123762277917,-0.0296710366336,0.0670695132952528,0.00578710328109574,-0.00327235038364,-0.00781319183099,-0.01351656942125,0,0,0,0,0,0,0,-0.00234630383163,-0.01075787434317,-0.03189244668777,-0.03281678917774,0.0291656571084654,0.0801153696849795,-0.01018950188006,-0.12811856589978,-0.12024258419837,-0.05115017251563,-0.05209165222892,-0.14068086185308,-0.18039891321589,-0.1417050818654,-0.09642111211937,0.0396603979822987,0.104330223044431,0.0208414765027032,0.00649088633785631,-0.01026012345129,-0.00998671649308,0,0,0,0,0,0,0,-0.00234367005836,-0.01557395233837,-0.01493155146165,-0.03219004195818,0.015528154417342,0.0135725633934203,-0.03728905136297,-0.16075774892032,-0.10773653999844,-0.11553824198924,-0.12623027350709,-0.26956502929331,-0.15842465087225,-0.08585829122312,0.0147279386838189,0.036695774288162,0.0941942141607832,0.0062275670988387,0.00617676292988009,-0.01268169618021,-0.00604376216047,0,0,0,0,0,0,0,-0.00233618114588,-0.01491008118319,-0.00233652988131,-0.00287774707171,-0.00124213974169,-0.02491299023692,-0.09754377671753,-0.07913932191599,-0.10834884699561,-0.1209462767553,-0.17781831356925,-0.18126472267669,-0.10252177208767,0.0369509862033538,0.111758083468498,0.0937002126901393,0.0188139916631497,-0.00330133311873,-0.0131793474814,-0.01883495315501,-0.0079554410838,0,0,0,0,0,0,0,-0.00233459258869,-0.00911506209295,-0.00276524407064,-0.00549564003988,-0.02907574661051,-0.11353048031741,-0.09982925843604,-0.02383591792782,0.0156453513918698,-0.07010106076928,-0.13650514672743,-0.03314653979911,0.105562073182925,0.174267696038607,0.0751252944977385,0.0280232066709277,-0.02025756599042,-0.02408591893043,-0.02463615373234,-0.0177276367399,-0.01625378911086,0,0,0,0,0,0,0,-0.00198143682647,-0.00681309965242,-0.01681671378303,-0.10681141434971,-0.18014923288771,-0.25348126558151,-0.10385235608723,-0.00201653517688,-0.02023514011726,-0.00018061293835,0.0500778472790078,0.113176899704463,0.148644229086187,0.104506354817768,0.00122198110683873,-0.04048366385744,-0.02158327285849,-0.01311653349714,-0.00257015950517,0.0000000663475623772454,0,0,0,0,0,0,0,0,-0.03106333896928,-0.09967608392002,-0.13263821241805,-0.15326298319644,-0.19805549668028,-0.1398983332906,-0.14471114638051,-0.12420344189539,-0.06515540201316,0.0658822668859916,0.0578797495640332,0.0999870955983258,0.0773663295118835,0.0065471297680118,-0.04090808370787,-0.02401987728864,0.00418848256554053,0.0051009753076908,0.000100994443350874,0.000000236237532706859,0,0,0,0,0,0,0,0,-0.07682491369173,-0.14291693502948,-0.14398009996839,-0.17252709247652,-0.04405025384005,-0.03830087754252,-0.06472361254361,-0.05856551174048,-0.03553677545336,-0.03023912804699,-0.00698900205267,0.04047928412386,0.0428006804886886,0.00930184699143917,-0.02649683594349,-0.01329727995354,0.00405256782917665,0.00157268034820887,0.0000201839498033739,0.0000000995213435658681,0,0,0,0,0,0,0,0,0,0,0.0193792150275341,0.131553877421029,0.054873817403018,-0.03395228448645,-0.09559090590293,-0.01776919744397,-0.01209633444359,-0.0278543203607,-0.02196883033793,-0.00453432875835,-0.0031301937838,0.00204883981237216,0.00266694024207352,0.000342751177137219,0.0000604855018477445,0,0,0,0,0,0,0,0,0,0,0,0,0.00345991789394648,0.128683357488555,0.0730354649949661,-0.03013159912595,-0.13279054893262,-0.0387276896075,0.00152937451448673,-0.01160689887404,-0.02642741184095,-0.01252261029417,-0.00543218279064,0.000364999569638344,0.00151345845276057,0.000252243075460096,0,0,0,0,0,0,0,0,0,0,0,0,0,0,-0.00047470327893,-0.00779529835848,-0.01102671814245,-0.00205199015483,0,0,0,0,0,0,0,0,0,0,0,0,0,0,0,0,0,0,0],[0,0,0,0,0,0,0,0,0,0,0,0,0,0,0,0,0,0,0,0,0,0,0,0,0,0,0,0,0,0,0,0,0,0,0,0,0,0,0,0,0,0,0,0,0,0,0,0,0,0,0,0,0,0,0,0,0,0,0,0,0,0,0,0,0,0,0,0,0,0,0.00000171889699549813,0.00000389657449737583,-0.00015815284661,-0.0001173226754,-0.00000526874752,0.000000356315059856853,-0.00000001144754,0,0,0,0,0,0,0,0,0,0,0,0,0,0,0,0,0,0.00000000341839151260222,0.0000000333293172478717,0.0000000666586344957434,0.00000143420389013141,-0.00000139743901,0.000355720439271303,0.00161744602719669,0.00110827636074315,-0.00035422311047,-0.00021924131004,-0.00000000763169,0,0,0,0,0,0,0,0,0,0,0,0,0,0,0,0,0.0000000495666769327322,-0.00000037377674,-0.00000773432722,-0.00042952254182,-0.00084523845421,-0.00031527248346,0.00165981187306486,0.00259157588190013,0.00240393654790384,-0.00120515499215,-0.00187633195042,-0.00163146786273,-0.00005938376219,0.0000278713961507304,0.0000280188638552316,0,0,0,0,0,0,0,-0.00000018640492,-0.00000154664162,-0.00000142072997,-0.00000221677268,-0.00000241833381,-0.00000507792854,0.00122773198486462,0.000102692858840411,0.00209920546283161,0.0253064776228603,0.0786449786825961,0.122793338799857,0.128653602620399,0.15751992536902,0.137066084759786,0.0742160945088582,0.0350667597920525,0.00201614489385004,0.0159736823670725,0.0306952618240292,0.00126435538084574,0,0,0,0,0,0,0,-0.00000623511581,0.00160117796072434,0.00205341792225312,-0.0002014138232,-0.00028234202337,0.00144466865397124,0.0059596824561684,0.00766224914068746,0.00499514955973722,0.0512989617406121,0.125446481663497,0.157993932093065,0.153403088876375,0.140100914644477,0.117355302128603,0.163693941915083,0.11665800745498,0.0783458849065196,0.0876549577049387,0.0682942966098049,0.0168495522517282,0.00864215554272052,-0.00024161996297,0,0,0,0,0,-0.00015382146825,0.00310394778468634,0.00404311625663752,-0.00037286665023,0.00133138326177871,0.00523558873793832,0.00676290915814579,0.00913192481101966,0.00860066874572707,0.0784498801621684,0.144241694079431,0.211682833935066,0.108388086964147,0.406788586411663,0.315224081155029,0.207686501147924,0.0416723622513754,-0.11635908155891,0.152620780068058,0.0296229708591954,0.0142361066925628,0.00894204108308897,0.000200510066648788,0,0,0,0,0,-0.00014032912657,0.00556760716050949,0.00401672542296936,0.0000315273581896565,0.00468760510598664,0.00597111413191862,0.00875751680113484,0.0123088588370914,0.0633426418217519,0.144800132032669,0.26211684430401,0.299642322859924,0.144785333661378,0.0673792955708124,0.0261866145285323,0.109793173960557,0.121148977001619,0.17843782674497,-0.05537439308395,0.0405203645782551,0.00490606538181411,0.00182705235139928,0.00156997743771102,0,0,0,-0.08523530141244,0,0.000012628335683267,0.00577457101802794,0.00413308630787367,0.00384038630362214,0.0062511646528116,-0.04312420797891,-0.368583067195,-0.435896816244,-0.16026769877376,0.103155340393446,0.0486687336544635,-0.2698987245801,-0.33935006459821,-0.49788129647014,-0.2003750125481,-0.12644348255409,-0.08549163780046,0.0978691450157368,-0.02437801163368,0.0885713793775192,0.0509819112145641,0.000652835596976153,0.000444894615624143,0,0,0,-0.00983484247067,0,0.00120467020427079,0.00636939240980934,0.00547813349908749,0.00588830714910233,-0.12786251395828,-0.43562467206193,-0.51327943354933,-0.59132572735648,-0.16365625835478,-0.07921900509552,-0.39812421144709,-0.27468649677094,-0.19543398434232,-0.14299271175441,0.0315202053376089,-0.03978307861019,-0.04642869399944,-0.05286849674211,-0.01340053568262,0.0852106641874405,0.0243343115967044,0.000123055957513061,0,0,0,0,0,0,0.00311460634406787,0.00786404200502111,0.00987035951315273,0.00586346025188463,-0.3644081974578,-0.50151339535314,-0.73461331672484,-0.77546425064514,-0.31825764365699,0.13388693020576,0.00401146119789434,-0.06146281584591,0.28290386531624,0.316382512730148,0.188963149076148,-0.05382888564602,-0.10281685593178,-0.14859574022853,0.0411086089670363,0.0394061422942283,-0.00396958249422,-0.00000101566531,0,0,0,0,0,0,0.00412685340588993,0.00953438583338693,0.00843732692963792,-0.13632219776222,-0.48510582815811,-0.50777361084251,-0.73351430286354,-0.71866129619209,0.046380523635869,0.520776220687277,0.654236623782018,0.671291310206386,0.641396351448724,0.589289061172509,0.10634550884281,-0.10607092402624,-0.27787910646754,-0.26296781931343,0.00971775814821764,0.00586367873614302,-0.00001749560668,-0.00000302917723,0,0,0,0,0,0,0.00412685340588993,0.0123016745364988,0.00706170302850719,-0.36279743398226,-0.50748004298667,-0.50328260592589,-0.46060926899926,-0.18112938728324,0.0571428935261644,0.483415943267974,0.725448500828292,0.728238543266386,0.613281699946078,0.273885522314327,-0.07459552130901,-0.13279105509982,-0.1737616476552,-0.12538775194593,0.00100957959390129,0.00445608026057738,0.000756552757411372,-0.00000352810054,0,0,0,0,0,0,0.00412685340588993,0.0129249377579204,0.00819895000669549,-0.15897321864633,-0.40277201631663,-0.36713467092128,-0.03617836328578,0.00565701022028343,0.03795127690592,0.13436167930458,0.178956670093905,0.0566434643025345,-0.12004764337102,-0.09856676483552,-0.15708540352969,-0.09241980842173,-0.03722075179105,-0.00474335229127,-0.00785047675373,0.00226400413440098,0.00530574988852941,-0.00003850279762,-0.0000019692954,0,0,0,0,0,0.00389325793008484,0.0128989827050532,0.0124570514111877,0.0130677931455841,0.0131405126740124,0.0116414864773394,0.0265184472916173,0.0639098711523699,0.157172189765281,0.142388664085176,0.0219150590817516,-0.23021650350259,-0.1677493645571,-0.09877877846148,-0.132831641581,-0.16236633003067,0.00241111532952954,-0.00200658364251,-0.00114238798804,0.00410258647242113,0.00580746971763416,-0.00005375448025,-0.0000080791606,0,0,0,0,0,0,0.00740163278343809,0.010896579177586,0.0144262532555838,0.0149814700774982,0.0312199289938483,0.0959029742206526,0.135647367785188,0.146231975300069,0.0224729599909271,-0.1178268187576,-0.35730198534102,-0.07662535987519,0.135500265896642,-0.04584413732686,0.0159695861321611,0.014626201569342,0.00784036278375214,0.00628258382039102,0.00592908379958898,-0.00246070858279,-0.00000621009273,0,0,0,0,0,0,0,-0.0000004584338,0.00413144757323865,0.0100682040387573,0.0287079088422665,0.0854654716755704,0.115537474368992,0.162553416267154,0.0382506085402108,-0.21739933051984,-0.25653473908717,-0.08518918193117,0.105385578429046,-0.12547507886959,0.0187224682129324,0.0130284223898082,0.01015011656218,0.00997249917781605,0.00845304990905077,0.00495162253566716,-0.00124145659339,0.000656815918029965,0,0,0,0,0,0,0,-0.0000005818972,0.00433332923566691,0.00746091964229575,0.0799983242453969,0.104717124905799,0.155473869024429,0.0476529237736073,-0.23951336621705,-0.1545373706834,0.00575534653004142,0.118203342975084,-0.09747068706873,-0.12719483825365,0.0460086965181393,0.00720575288843015,-0.00001888378816,0.00680246137648189,0.00922529241799015,0.00557041932226303,0.00324139773309764,0.00297344354250282,0,0,0,0,0,0,0,-0.00000053120107,0.0137646339895229,0.0460954728937474,0.0934487736546294,0.126203233879699,0.049973931611561,-0.18870575505383,-0.24146083767544,0.0108205504001156,0.0703047544004639,0.0521011001066273,-0.26967473372873,0.0442803243218361,0.0462135631592398,0.00653532740313365,-0.00003807925496,0.00525365244967808,0.00715258317829702,0.00455863704331559,0.00233504412563144,0.000497362716396739,0,0,0,0,0,0,0,-0.0000005341566,0.0264737640995167,0.0868056282834393,0.098258131620872,0.111907994552178,-0.17767553691185,-0.29093017169485,-0.11204581619145,0.0788384702836314,0.0789947009552842,-0.02982865831656,0.0659442133273941,0.0495580361709616,0.00841554489025222,0.0055152491550643,0.00142590736800874,0.0045849012384084,0.00591857391280195,0.00206759645936808,-0.0001196292302,-0.00004262713548,0,0,0,0,0,0,0,-0.00000053478353,0.0238517790962316,0.0899881364294572,0.119441897076256,0.0566268829489027,-0.23507075409348,-0.14122563897711,0.0351176300556189,0.125922674809887,-0.10133280163671,0.0866978478090969,0.0688834337681189,0.0382998683280623,0.00757801405525113,0.00693969677836235,0.00200899494223332,0.00407813609043598,0.00464510776608659,0.00045825476663447,-0.00009157784514,-0.00008709164749,0,0,0,0,0,0,0,-0.00000045473953,0.0376167298788555,0.0845141429708893,0.138919143585025,0.0929603653553294,-0.16788350112234,0.0659929969438777,0.122767459068673,-0.07308240323225,0.0311490954538392,0.0748467501523281,0.0439688210712261,0.00465212502978012,0.00939693351210979,0.00745822863497802,0.00362115036965385,0.00037956824211673,0.000485865301735476,-0.00006026109781,0.00000000191348885510382,0,0,0,0,0,0,0,0,0.000016651433694753,0.0140767358051423,0.0795625832568555,0.14401720761358,0.229552572304045,0.310388487359791,0.182022062553899,-0.04607538482112,-0.00433487472664,0.0899056387390228,0.0362505468033624,0.00855367233440194,0.00667902365927046,0.0096073610549112,0.00632550085843698,0.0036821795287954,-0.00017339390172,-0.00014778865969,-0.00000291412883,0.00000000681318001438481,0,0,0,0,0,0,0,0,0.0000411798800301753,0.0000766066885855467,0.0145159148938178,0.111590299127169,0.518221586899172,0.36011481295473,0.0772890324317755,-0.11795902969834,-0.03862946587738,0.00121588953911543,0.000407944165079787,0.00357128954023615,0.00771575036037711,0.00603455038038457,0.00635500093830902,0.00380702913642673,-0.00011742842821,-0.00004556802702,-0.00000058358883,0.00000000287023328265573,0,0,0,0,0,0,0,0,0,0,0.0664732937855578,0.481119887314795,0.258524256354556,-0.17855301064849,-0.41938465784129,-0.07481968079414,-0.00223179712416,-0.00103449839143,0.00118800173355337,-0.00004964711314,-0.00001432893374,-0.00002860398171,-0.00007528454175,-0.00000993185324,-0.00000175267998,0,0,0,0,0,0,0,0,0,0,0,0,0.00904352794673225,0.359927633539927,0.363334768742159,0.00908160400491779,-0.49889644066973,-0.15263705946187,0.000276663305840294,-0.00200748495641,-0.00327927129015,-0.00100227920257,-0.00001445508552,-0.00000027686534,0.00000184870738807164,0.000000308117898011941,0,0,0,0,0,0,0,0,0,0,0,0,0,0,-0.00072287998351,-0.00121427843514,-0.00066666475071,-0.0001101300042,0,0,0,0,0,0,0,0,0,0,0,0,0,0,0,0,0,0,0],[0,0,0,0,0,0,0,0,0,0,0,0,0,0,0,0,0,0,0,0,0,0,0,0,0,0,0,0,0,0,0,0,0,0,0,0,0,0,0,0,0,0,0,0,0,0,0,0,0,0,0,0,0,0,0,0,0,0,0,0,0,0,0,0,0,0,0,0,0,0,0.00000166587812559868,0.00126483499888582,0.002985479003895,0.00325644712275746,0.00109076545770882,0.0000136141102571958,0.000000541186337743984,0,0,0,0,0,0,0,0,0,0,0,0,0,0,0,0,0,-0.00004609666608,-0.00044944249425,-0.0008988849885,-0.00117087836644,0.000753490943122963,0.0093294711155975,0.0111637296186479,0.00599821554681223,0.00308715240328311,0.000319914621589293,0.000000360790891829323,0,0,0,0,0,0,0,0,0,0,0,0,0,0,0,0,-0.00066840165811,-0.00134500241645,-0.00366401338253,-0.00473046883603,-0.00140767603138,-0.00114019116176,0.00180032302453799,0.0106025198209336,0.0137268041266237,0.00406688623062687,0.00118434944917995,0.000593260596367406,0.0000409633849802669,-0.00000183889767,-0.00000184862729,0,0,0,0,0,0,0,-0.00000001846965,-0.00000075675309,-0.00000078929942,-0.00000134497005,-0.00000146710047,-0.00128671158174,-0.00656693301369,-0.0105677901473,-0.01558677646788,-0.01143766884961,-0.00611428270189,0.00031486125958428,0.00691390446841982,0.00974234442594374,0.0155020396110764,0.0107352441331876,0.00552307129246627,0.00763981899961366,0.00961654206116416,0.0084050056636661,0.00427254318961965,0,0,0,0,0,0,0,-0.00000081952424,0.000181610781766337,0.000231780499892415,0.00027066530281878,0.000377746388244788,-0.00486312671761,-0.00624447567166,-0.00817336834333,-0.0070430152754,0.0013293259921957,0.0128685970507921,0.020342473692892,0.0248892645369191,0.0165490843225809,0.0122907450354358,0.0132847471005304,0.0096082118484473,0.0108541022721992,0.00894168469883732,0.00648149900098289,0.00240359492265436,0.00035669740232287,0.000000329274108267061,0,0,0,0,0,-0.00001839883757,0.000354204369424611,0.00223680413703468,0.0038711656056862,0.0163187125154227,0.0282539607198753,0.0261391961275033,0.0206019106726381,0.0208157007224591,0.0326582406055344,0.0386673335936516,0.0412500564586274,0.0421707769321843,0.0223010590425982,0.0138782882142638,0.0204780949145902,0.00839541629722518,0.0051274081928289,0.00288696287809227,0.00126909474210919,0.000204568687379157,0.000297925941420596,0.00000108988271635877,0,0,0,0,0,0.0124588177744276,0.0212859840927338,0.0305923372799611,0.036465675077774,0.0370573955806127,0.0436937241368178,0.0395718119497812,0.0350562627521275,0.0400330224668713,0.0548370342584031,0.0609918495180873,0.0562443369949487,0.0520543997215465,0.0550495740362847,0.0218319297620425,0.00647309528977595,-0.00633991949085,-0.00036602208525,0.000742288323757536,-0.00036751102535,0.00360513199720077,0.0000913775595790959,0.0000955791373508595,0,0,0,-0.00814389598271,0,0.0353439176139884,0.0357218435021149,0.0359948873696809,0.0314957386150892,0.0313230520114538,0.0250366689023747,0.0214093556799653,0.0112525310265001,0.0240406297792033,0.0380383719897283,0.0369467923605048,0.0233371150369858,0.0218135600442533,0.0364270105892157,0.0124116804968576,-0.02427667913736,-0.02999967701082,-0.01495541574189,0.0001371778355317,-0.00023998024646,0.0043069916164638,0.000117808131206827,0.0000881985086655196,0,0,0,-0.0009396803057,0,0.0302118974935287,0.0298288324882294,0.0124019552476219,0.00000116740722351594,0.000267260376032069,0.00092390785235494,-0.00293715084975,-0.01353402070754,-0.00123715585648,0.0116470737827314,0.00567851753950414,0.0078590154665784,0.0245966016849914,0.0496387133138188,0.00200681510650167,-0.02690103576964,-0.03038481700884,-0.02832253382746,-0.00022764951564,-0.0000700866716,0.00422222873898457,0.0000243953321840799,0,0,0,0,0,0,0.000353513819441665,0.000748685777590105,0.00048521009407594,0.000381006270146694,0.00232298567201606,0.00406252077285766,-0.01822270746039,-0.02096818033657,-0.00723220983779,0.00344524009219248,0.0155989722764311,0.0119838680772443,0.0435591162925366,0.0464400236856101,-0.00416502214591,-0.02799753498275,-0.02940158974471,-0.01839580612931,-0.00041858067423,-0.00005640529665,0.00333411641685751,0.0000000120253845197925,0,0,0,0,0,0,0.000468405810760206,0.000748975768325347,0.000362343752423414,0.00142588489431642,0.00722933918522339,0.0082637363791971,-0.01327055312652,-0.00843763168737,0.000561297300225565,0.0305205400468078,0.0375120602762519,0.0351587610061002,0.0505911936975522,0.00908354326767333,-0.02845858256417,-0.0336696435612,-0.02454040379812,-0.00335211082968,-0.00029858767551,0.000138707828895671,0.0000000576768761492406,0.0000000358651819011355,0,0,0,0,0,0,0.000468405810760206,0.000749638805666825,0.000205789642395103,0.000129272455715489,0.000585645069544577,0.00156793546921028,-0.00087547859682,0.0307799592505581,0.046207201259361,0.0426291790902286,0.0535777323438294,0.0610773877516693,0.0638036695962605,0.0313035722319104,0.00525633672415709,-0.0025566818894,0.00910719787860721,0.00402423159275892,0.00440783105611945,0.00131949667865887,0.000000233628299047271,0.0000000417723883319108,0,0,0,0,0,0,0.000468405810760206,0.000749788138401392,0.000253913787925181,-0.00000637250453,-0.00036752007703,-0.00054915626152,0.00246297062010019,0.0394193360158623,0.0520351084137382,0.0513832671453355,0.0629137733765749,0.0608914111408699,0.0507528887502919,0.0428089582260613,0.0356041694295602,0.0399384128073339,0.0374552449390819,0.0338686295811443,0.0132821037077931,0.00355561107887243,0.00000159020987712024,0.000000880205213794216,0.000000385321738421734,0,0,0,0,0,0.000441892274302081,0.000746842189906045,0.000700025464309954,0.000318868202619346,0.000098085881465153,-0.00084135353973,0.00168834783319691,0.0129073029133079,0.0179221503453715,0.0207420351616967,0.0232473066642611,0.0112397200503638,0.0217860087975406,0.0319792632616133,0.0281886964600653,0.0323345604035913,0.0401252178048763,0.0449364652038836,0.0360633332289432,0.00233821506002087,0.00000304114334731755,0.00000190166312282184,0.0000015808071319866,0,0,0,0,0,0,0.000351601253469522,0.000524173138436627,0.0000363049377805889,-0.00025900245766,-0.00103202502187,0.00155196532495747,0.00582552619697557,0.00562455448558522,-0.00135494023311,-0.00628167627304,0.00639214354894798,0.0282546847643005,0.0150204571956658,0.00843503628378241,0.00959826541394036,0.00954467934125709,0.0305508801304229,0.0357041029217725,0.00582253750680629,0.00307511504229951,0.00000037983924382394,0,0,0,0,0,0,0,0.000000000435415161537053,0.0000022025320597118,-0.00048692296462,-0.00111055847744,-0.00152108933282,0.00136844099266495,0.00763558918969653,-0.0013847260038,-0.01769442141923,0.00534964353710924,0.0249589183176742,0.0196271904163252,0.0102155111067263,0.0081427408644799,0.00894621925977832,0.0062328122215752,0.0199606099426716,0.0353068946217191,0.0317136005365295,0.00157847067642999,0.0000197016233520585,0,0,0,0,0,0,0,0.000000000504711558131114,0.000156796084807017,-0.00088251722655,-0.0012107641032,-0.0014380033116,0.00193847094164228,0.00214442834372646,-0.01397341832236,-0.01166182787681,0.0208880345012783,0.0441041334146868,0.0200768993994125,0.0168037039857809,0.0135992631439794,0.00562771880524969,0.00465973952196365,0.0131999805499471,0.0363974839303234,0.0340771257226406,0.000102099454474475,0.0000897607869003731,0,0,0,0,0,0,0,0.000000000504528679241347,0.000501254599109092,-0.00021416996147,-0.00131092144638,-0.00526403231576,0.00287034471327904,-0.00510037204519,-0.00568769865719,0.00370676776357666,0.0490487348533021,0.0613924520881512,0.0513794805562806,0.0316114822995776,0.0148649644146466,0.00966849829975325,0.0229399605253665,0.0291225272628042,0.0387497493684902,0.0337996311341878,0.0000727202712187358,0.0000148601639615018,0,0,0,0,0,0,0,0.00000000050453678883954,0.000518427307335706,0.000985473344094965,0.00230927463981132,-0.00333186539277,-0.02069961746991,-0.00989955024552,0.00596356374367634,0.0296302703812459,0.0465592848894257,0.0601101586858756,0.0586447028163887,0.0486544200266942,0.0385513575288265,0.0322618567922217,0.0369968998734015,0.0398969590211759,0.0367822098495806,0.0135225599822894,0.000642435971666485,0.000641754151849723,0,0,0,0,0,0,0,0.000000000504538509057339,0.000264601427423878,0.00377888667973072,0.00682298489917439,-0.00616318483055,-0.02252896223967,-0.01342695718896,0.0175013572697337,0.0183431891003148,0.0102778513551871,0.0354891016550045,0.0435050759826089,0.0357043347812263,0.0315662112142063,0.0337630016699825,0.0360072730201761,0.0363307462467611,0.0224584005391897,0.00174010459392128,0.00131121260972063,0.00131117012058952,0,0,0,0,0,0,0,0.000000000428513639582616,0.0000647373718511883,0.00178385696446325,0.0122829306947081,0.00687943431768946,-0.0180530995291,-0.01051338281703,0.00827224122295538,-0.00037964482935,-0.00480880151353,-0.00324427884956,0.000770367237077088,0.0138686531941807,0.0186534995905509,0.0197978728652067,0.0213061873536179,0.0130057196879968,0.000991950894598457,0.000205370829564899,0.00000000138461613208233,0,0,0,0,0,0,0,0,0.00187008846363262,0.00587047231901376,0.00780104385954274,0.00877307784775449,0.0103091930234117,0.0104192699631897,0.0173417311747792,0.00626829329379682,-0.00449496185629,-0.00920430579103,-0.0061923837524,-0.00163200487253,0.000087342137225493,0.00129317215644067,0.0015206459373818,0.000867113179912852,0.0000562132783109825,-0.00001632809433,-0.00000025676311,0.00000000493007259150525,0,0,0,0,0,0,0,0,0.00462421874642213,0.00860240693268234,0.00862510671438245,0.00894439063294541,0.0081263510555281,0.0136608761797695,0.0121914306622725,0.000731036793293578,-0.00001265632065,0.000600441417360366,-0.00145130637714,-0.00491178964825,-0.00554249742243,-0.00220157885747,0.000745414436206769,0.00043343822141454,-0.00001373988835,-0.00000533101867,-0.00000006790019,0.00000000207692419812349,0,0,0,0,0,0,0,0,0,0,0.0000402887308659213,0.000365276522092819,0.00116514391202075,0.00943558249051052,0.000872797080176384,-0.00059606563997,0.000570760381471733,0.0011141750172915,0.000653124685678774,-0.00009030681003,-0.0001223974241,-0.00008632115431,-0.00001417851383,-0.00000116214931,-0.00000020508517,0,0,0,0,0,0,0,0,0,0,0,0,-0.00000061390878,0.0000456063527907079,0.000439550902082716,0.0076623160483406,0.0045631652393014,-0.00007533638976,-0.00000361452691,0.000553060756661898,0.00104894750684787,0.000280005039047023,-0.00000630285102,-0.00007154584336,-0.00012278932352,-0.00002046488725,0,0,0,0,0,0,0,0,0,0,0,0,0,0,0.00000450704063392323,0.0000920953817354643,0.00013205553880276,0.0000245981934077595,0,0,0,0,0,0,0,0,0,0,0,0,0,0,0,0,0,0,0],[0,0,0,0,0,0,0,0,0,0,0,0,0,0,0,0,0,0,0,0,0,0,0,0,0,0,0,0,0,0,0,0,0,0,0,0,0,0,0,0,0,0,0,0,0,0,0,0,0,0,0,0,0,0,0,0,0,0,0,0,0,0,0,0,0,0,0,0,0,0,0.000000587949745821009,-0.00006473701777,0.0175312628321065,0.00875215665577755,-0.00109871642868,-0.00099597988958,-0.0002290040162,0,0,0,0,0,0,0,0,0,0,0,0,0,0,0,0,0,0.000000100321842885405,0.000000978137968132703,0.00000195627593626541,-0.00000989627546,-0.00010886125441,-0.05304526349707,-0.05917061565937,-0.01114467783283,-0.00126223145709,-0.00127617180963,-0.00015266934413,0,0,0,0,0,0,0,0,0,0,0,0,0,0,0,0,0.00000145466672183838,-0.0000077796102,0.000899946093111335,0.00779033169228257,0.00898412363660984,0.0180936680676844,-0.03851305020528,-0.08106514272796,-0.09079996009395,-0.02592556664404,-0.00505363114656,-0.00026912998526,-0.00012164623374,-0.00134463584065,-0.001351750316,0,0,0,0,0,0,0,0.000137702458889895,0.000258728431512283,0.000145672818911259,0.0000980055190935007,0.000134582786869564,0.000137832816983223,0.0068308269907799,-0.00609017665611,-0.02564225951265,-0.03413749580308,-0.01912567026805,0.0177112823848874,-0.05685269337822,-0.07308981374721,-0.11850270156679,-0.03039067050721,-0.02368066262086,-0.00006225361982,0.00308623600443373,-0.00285742879683,-0.00102788681286,0,0,0,0,0,0,0,0.00142789780347208,0.00416213280071466,0.00351739882763335,0.00266687141387635,0.00424658308517391,0.00916319283950226,0.00255844101913894,-0.01941993635592,-0.00908403999222,-0.02156695530238,-0.0566648322152,-0.04675035071271,-0.08150470436006,-0.09354208541338,-0.05741901642892,-0.03965119943922,-0.030407183066,-0.00148730337419,-0.00215850500436,-0.0065684114789,-0.00153293921501,0.000102373916261293,0.0000200840106461257,0,0,0,0,0,0.00273835963720598,0.00886814106179441,0.0118567524879047,0.0125130325996546,0.0138055271517158,0.0113378030017492,0.00846628478581839,-0.02652954548813,-0.06032630059479,-0.04172075822512,-0.10391204626621,-0.17669686728627,-0.12344482983811,-0.07383986722395,0.0383603204777229,0.0178229139941957,-0.03474714168905,-0.00743435350377,-0.01901447046846,-0.02169703529729,-0.00605132418212,0.00102589162721566,0.000776579188095672,0,0,0,0,0,0.00311351374543121,0.0110117186839562,0.0136488215666531,0.00732130295087205,0.00421811038255876,-0.00572487700328,-0.02064384127861,-0.06661169704848,-0.07296039260834,-0.05770799915128,-0.15079606759814,-0.22092157086941,-0.17053377431346,-0.0590618272672,0.0463888073284133,0.0438907529277751,-0.00305076576846,-0.01917602928611,-0.02833199855959,-0.02835477913651,-0.00305885474285,0.00215000350906109,0.00202914982215266,0,0,0,0.000000934941857151137,0,0.00105632051405759,0.00783357964717323,0.00665781551531493,-0.00376023184217,-0.01815637285571,-0.02960141637566,-0.02604855229397,-0.06846512263053,-0.04229735683499,-0.05430974248297,-0.12917991742352,-0.18860735283239,-0.14320539193568,-0.06103600118044,0.027673914432468,0.0475784781666142,0.000233709322420774,-0.01175756245525,-0.02420911170016,-0.02335750137233,0.00827460571400162,0.00133064724322763,0.000969875177918445,0,0,0,0.000000107877906594362,0,0.00108380022752294,0.00693402865444855,0.00687638642235878,-0.01530454350802,-0.02212856021211,-0.00339290688194,-0.01498500544064,-0.04582833406883,-0.06219819363353,-0.07536413544484,-0.13366874184804,-0.14960311095879,-0.12879324933933,-0.0533129580557,0.02412765109886,0.0406467447499416,0.0150977816069595,-0.00763457264834,-0.02243093935051,-0.00376114814739,0.00758848030857079,0.000268263347083825,0,0,0,0,0,0,0.00274307269117159,0.00613568603435121,0.00743541334348339,-0.02473467873913,-0.03457589080119,-0.02830821290794,-0.07255465296934,-0.12930273173573,-0.12594304611665,-0.09328943034581,-0.1002375276845,-0.07787841110708,-0.13792414917954,-0.048268054572,0.0097228185415552,0.040655476205875,0.0352657087982655,0.00789179469092308,0.00822770110158652,-0.00301928108881,0.00579531596647264,-0.00036804630648,0,0,0,0,0,0,0.00363457131580236,0.00619838982728005,0.00942849571628785,-0.02672460709689,-0.09025150197897,-0.09691849243347,-0.09929012298966,-0.12293853036631,-0.10799369748385,-0.08007940855589,-0.05802622366735,-0.0547647496715,-0.13288969616473,-0.09308715249529,-0.00871365188707,0.0421291156088501,0.0284135354521564,0.0171416985856843,0.0161986081889918,0.0069782583048462,-0.00205770761512,-0.0010976819667,0,0,0,0,0,0,0.00363457131580236,0.00656734187844378,0.00760898336445375,0.0075056714817681,-0.01506055999465,-0.04160071656454,-0.03540615138742,-0.01982240155616,-0.04223097940956,-0.0511707251557,-0.02765101801259,-0.05834770948534,-0.17320364999958,-0.1513068339936,-0.03404947234762,0.00481885732432678,0.013680831050655,0.022201687772792,0.0203522468955624,0.00847714039169909,-0.00184479557221,-0.00127847664357,0,0,0,0,0,0,0.00363457131580236,0.00665043918726444,0.00298427699988272,0.00172239289366524,-0.00234121821978,-0.01822107260401,-0.02485429808229,-0.02175725754271,-0.0244370829309,-0.01681795341329,-0.02079195222598,-0.03011344571045,-0.1372628799253,-0.16444751369823,-0.06797093018602,0.017739971168301,0.0232307104816818,0.031878875995798,0.0333745574628995,0.0132917709722224,0.00457841540188718,0.0120920706342429,0.00541853819894145,0,0,0,0,0,0.00342884086396449,0.00662758024817134,0.00501365606108678,0.00138161155674125,-0.00138882232297,0.00695271972613591,0.00396313084174031,-0.01039833903915,-0.01109164236584,-0.00751478922714,-0.0133668525234,0.00110833366612264,-0.07908367827805,-0.14817124813128,-0.05642287301438,0.0294831091136521,0.0283878915919857,0.0221427594419075,0.0468815802500456,0.027444618047372,0.0259651551830331,0.0271704778066998,0.0222299003033495,0,0,0,0,0,0,0.00329524712911746,0.00412872736187287,-0.00066181997392,-0.0068672115738,0.0126806572392582,0.00524329183701715,-0.01039210228726,-0.01374210118908,-0.01230423959842,-0.00037704133008,0.0228875432670326,-0.04214020765602,-0.14092268681126,-0.07343845886379,0.00678301706212598,0.0089537123619846,0.0257295866108601,0.0441799440205995,0.01471583813607,0.0122583959688591,0.00293839398751652,0,0,0,0,0,0,0,-0.00004414282074,0.000202029241959417,-0.00496091491051,0.0085084568036068,0.0334758580092563,0.0297904735125501,0.000198399280921606,-0.00560717732236,-0.00555581538099,0.0175824861801259,0.0398050292766276,-0.06841032179911,-0.12951019667608,-0.07127038841819,-0.00345415922723,0.00344093382170441,0.016964737353164,0.00994432453484699,-0.00100227029191,0.00158233707535611,-0.00126624467151,0,0,0,0,0,0,0,-0.00005499627099,-0.0001608793294,0.0211298478470379,0.0228889705853078,0.0320952964363498,0.0230939256144022,-0.02623623096668,-0.0353895761138,-0.03556977520641,-0.01397549561462,-0.00697959180025,-0.00718669046446,-0.11493733896051,-0.09236036575973,-0.03386635474495,-0.00934346009704,-0.03840518872665,-0.02246436319636,0.000881300404432946,-0.00081528443979,0.000458218254177018,0,0,0,0,0,0,0,-0.00005114961768,0.000619520463873501,0.0334960283989924,0.0172109369378902,-0.00896458223033,-0.05044612054508,-0.09439412081238,-0.10112822426771,-0.07035215488102,-0.06432368660028,-0.06338611793048,-0.05891346398063,-0.12395275928276,-0.17360051824852,-0.1071705255652,-0.08454338192988,-0.0721883225461,-0.04679593715559,0.000473212553149841,-0.00128988969068,-0.00044894370876,0,0,0,0,0,0,0,-0.00005042962698,0.00166989485040361,0.0272654943343734,-0.0361618531908,-0.08409581952711,-0.08784380586812,-0.08544968272453,-0.07097370127658,-0.04523049070665,-0.04005088339953,-0.03595213480943,-0.04736024738784,-0.11145738023103,-0.14334168661738,-0.08487003852679,-0.034310421929,-0.04269036568071,-0.00818566157459,0.00410689720523985,0.0039419629571893,0.00549737955991553,0,0,0,0,0,0,0,-0.00005027690168,0.00258118037296246,-0.0083316254956,-0.06051169467923,-0.07581513576731,-0.0604546636562,-0.06638576309046,-0.04551011419108,-0.01342190567418,-0.00711560550889,0.00335458077086082,-0.0272270239095,-0.0641186013785,-0.08579255534717,-0.01291615973084,0.0194212298393899,0.0101948812387475,0.0132347456446491,0.0107352195709119,0.0110451925546859,0.0112317151353447,0,0,0,0,0,0,0,-0.00004256942505,0.000354078479158752,-0.01140839368136,-0.06266502651362,-0.04373172087192,-0.01699490262432,-0.0106702612723,-0.02606618683955,-0.05188413439686,-0.09187315756754,-0.06271695041811,-0.03334657776861,-0.07604831388016,-0.07243127703165,-0.01211847983251,0.0154383853102616,0.00874338379628211,0.0104878017783125,0.00273960611444078,0.000038197758484429,0,0,0,0,0,0,0,0,0.000131180548771713,0.000268040559408379,-0.00127417232534,-0.0063540676889,-0.0119298888357,-0.01500037851412,-0.01282198391067,-0.01150107871138,-0.05465255358355,-0.09435450969563,-0.09723659986518,-0.09112438144408,-0.09990349931535,-0.06897686009334,0.00185951000100446,0.00693452265385109,0.00344138909971685,0.0026502233084425,0.000255791157181168,0.000136007170361224,0,0,0,0,0,0,0,0,