{"cost":"CROSS_ENTROPY","layers":[{"activation":"SIGMOID","bias_gradients":[0,0,0,0,0,0,0,0,0,0,0,0,0,0,0,0],"biases":[-0.00000000020353,0.00000000011699043860053,0.000000000327790447578207,-0.00000000006096,0.00000000000417232597695233,-0.00000000006693,0.00000000000920539299288608,0.0000000000657075552085381,-0.00000000010648,-0.00000000002424,-0.00000000003335,0.00000000000891507656380191,0.0000000000549727846804291,-0.00000000000371,-0.00000000014882,-0.00000000005829],"deltas":[-0,0,0,0,0,0,0,-0,0,0,-0,0,0,0,0,-0],"input_count":784,"output_count":16,"outputs":[1,1,1,1,1,1,1,1,1,1,1,1,1,1,1,1],"prev_bias_gradients":[0.0000000000183100680877416,-0.00000000000504,-0.0000000001263,0.0000000000241481107586382,-0.00000000000175,0.00000000000120447248141397,-0.00000000000385,-0.00000000000534,0.00000000000232269534150384,0.0000000000000227441055704342,0.00000000000166398340155121,0.000000000000822469245926886,-0.00000000000731,-0.00000000000011,0.000000000000748339590812461,-0.00000000000524],"prev_weight_gradients":[[0,0,0,0,0,0,0,0,0,0,0,0,0,0,0,0,0,0,0,0,0,0,0,0,0,0,0,0,0,0,0,0,0,0,0,0,0,0,0,0,0,0,0,0,0,0,0,0,0,0,0,0,0,0,0,0,0,0,0,0,0,0,0,0,0,0,0,0,0,0,0,0,0,0,0,0,0,0,0,0,0,0,0,0,0,0,0,0,0,0,0,0,0,0,0,0,0,0,0,-0,-0,-0,0,0,0,0,0,0,0,0,0,0,0,0,0,0,0,0,0,0,0,0,0,0,0,0.00000000000217370093498855,0.000000000015917098156087,0.00000000000140237340312596,0.00000000000000181064159924638,0.0000000000000608454527736609,0.0000000000000323628364712206,0,0,0,0,0,0,0,0,0,0,0,0,0,0,-0,-0,0,0,0,0,0,0,0.00000000000420716293642373,0.0000000000178103171693546,0.00000000000574981863815092,0.0000000000000437527821383076,0.0000000000000959219790790272,0.0000000000000733164515567814,0.000000000000000476737699112792,0,0,0,0,0,0,0,0,0,0,0,0,0,-0,-0,0.00000000000000045041628021001,0.00000000000000284616455573886,0.00000000000000325568463570129,0.0000000000000034604446756825,0.00000000000000282568855174074,0.00000000000000420689341344066,0.0000000000102551721288129,0.0000000000180420077017964,0.00000000000588210481766301,0.000000000000180630593519023,0.000000000000112609577937487,0.0000000000000928784522914738,0.00000000000000238368849556396,0,0,0,0,0,0,0,0,0,0,0,0,0,-0,0.000000000000000346071827466612,0.00000000000000479138493556039,0.00000000000000466833212517718,0.00000000000000438159607418111,0.00000000000000507964016020241,0.00000000000000929830774456052,0.000000000000200850145990695,0.0000000000103354341119008,0.0000000000178396010233157,0.00000000000599998265200533,0.000000000000234685251556517,0.000000000000126911839284038,0.0000000000000923965551242465,0.00000000000000238368849556396,0,0,0,0,0,0,0,0,0,0,0,-0,-0,-0,0.000000000000000508431397096388,0.00000000000000247645941453086,0.000000000000000632821517366844,0.000000000000000158728281537648,0.000000000000000999868357987832,0.000000000000114739274024954,0.000000000000271707907220913,0.0000000000101313466939752,0.0000000000178105212480366,0.00000000000602686477065701,0.000000000000270780491904456,0.000000000000126477789252414,0.0000000000000587509521590398,-0,-0,-0,-0,-0,-0,0,0,0,0,0,0,-0,-0,-0,-0,-0,-0,-0,-0,0.000000000000213754418303333,0.0000000000000799298120158311,0.0000000000101023404785444,0.0000000000178143247773712,0.00000000000605794191296721,0.000000000000218036143270632,0.000000000000113217698155165,0.0000000000000188046823970496,-0,-0,-0,-0,-0,-0,0,0,0,0,0,0,0,-0,-0,-0,-0,-0,0,0.0000000000000667034762725862,0.000000000000201276340320657,0.00000000000000233914716196118,0.00000000000365133955079375,0.0000000000178419058239611,0.0000000000125671582326707,0.000000000000195032794571557,0.0000000000000745495042978054,0.00000000000000608658383160266,-0,-0,-0,-0,-0,-0,0,0,0,0,0,0,0,0,-0,-0,-0,0,0,0.000000000000139258129426361,0.000000000000170848234234377,0.00000000000000254724671861961,0.00000000000344703892060223,0.0000000000179096549408811,0.0000000000123391448507959,0.000000000000195466089932803,0.0000000000000352416846938524,-0,-0,-0,-0,-0,-0,0,0,0,0,0,0,0,0,0,0,-0,-0,-0,0,0.000000000000099469930009763,0.000000000000170844868720937,0.0000000000000042228288308054,0.00000000000816929344128462,0.0000000000179749024525343,0.00000000000617490044411894,0.000000000000178400018189237,0.00000000000000841460175472743,-0,-0,0,0,0,0,0,0,0,0,0,0,0,0,0,0,-0,-0,-0,-0,0.0000000000000702128807150588,0.000000000000235200505534366,0.0000000000000192154229271632,0.0000000000166092899563467,0.0000000000181262710819355,0.00000000000616809811945624,0.000000000000117175117940553,0.00000000000000168630972186709,-0,-0,-0,-0,0,0,0,0,0,0,0,0,0,0,0,0,-0,-0,-0,-0,-0,0.000000000000207096370230699,0.000000000000222811881651168,0.0000000000171391532919867,0.0000000000181932025002469,0.00000000000576728298909447,0.0000000000000901401358340243,0.0000000000000041440409203259,0.00000000000000386602702146639,-0,-0,-0,0,0,0,0,0,0,0,0,0,0,0,0,-0,-0,-0,-0,-0,0.0000000000000175211603761147,0.000000000000205579929078381,0.0000000000172546681171086,0.000000000016992068078071,0.000000000000319388244340861,0.000000000000150304065908855,0.00000000000000326252732710043,0.00000000000000513352620663424,0.00000000000000171653974435425,-0,-0,0,0,0,0,0,0,0,0,0,0,0,0,-0,-0,0,-0,-0,-0,0.00000000000103506679151075,0.0000000000171658962604984,0.0000000000169433780085866,0.00000000000027797719797201,0.000000000000148402708378296,-0,0.00000000000000521491376227633,0.00000000000000188063899388344,-0,0,0,0,0,0,0,0,0,0,0,0,-0,-0,-0,-0,-0,-0,-0,0.00000000000000781233295210306,0.00000000000591269043511293,0.0000000000179372060254375,0.0000000000115433529649539,0.000000000000190345667654968,0.000000000000148444861986461,-0,0.00000000000000517421735982215,0.00000000000000188089493850924,-0,0,0,0,0,0,0,0,0,0,0,0,-0,-0,-0,-0,-0,-0,0.00000000000000113089276461477,0.0000000000000424589230549402,0.00000000000593483209102203,0.0000000000179372062177098,0.0000000000101183529308987,0.00000000000015852353699748,0.000000000000148731600070732,-0,0.00000000000000517851178960346,0.00000000000000188095733419529,-0,0,0,0,0,0,0,0,0,0,0,0,0,-0,-0,-0,-0,-0,0.00000000000000258207714023518,0.0000000000000681829214246716,0.00000000000594679164945529,0.0000000000179198267511702,0.000000000010048008230429,0.000000000000128512884423565,0.000000000000219045691904624,0.000000000000000872814922900095,0.00000000000000518019751735133,0.00000000000000188125869603805,-0,0,0,0,0,0,0,0,0,0,0,0,0,0,0,-0,-0,-0,0.00000000000000259842360754845,0.0000000000000933876659154691,0.00000000000594679959153101,0.0000000000179009827325217,0.0000000000100464507249131,0.0000000000000536165469202852,0.000000000000263835723784649,0.0000000000000292837451105486,0.00000000000000497566897154348,0.00000000000000102174647475542,-0,-0,0,0,0,0,0,0,0,0,0,0,0,0,0,0,0,0.00000000000000000020997945258193,0.0000000000000026235950170244,0.000000000000093421579143949,0.0000000000102157249346785,0.0000000000178795942294339,0.00000000000836292945430864,0.0000000000000106168773603114,0.000000000000293375099596428,0.000000000000112842136991317,0.00000000000000217045642380086,-0,-0,-0,0,0,0,0,0,0,0,0,0,0,0,0,0,0,0,0.00000000000000000078176841104671,0.0000000000000283863387787453,0.0000000000000933854531121276,0.0000000000125621212625851,0.000000000017872109816655,0.00000000000337680304315483,0.000000000000000987232373278316,0.000000000000187388125049452,0.000000000000184206126160258,0,-0,-0,-0,0,0,0,0,0,0,0,0,0,0,0,0,0,0,0,0.00000000000000000078176841104671,0.0000000000000214591750731746,0.0000000000000932648822457057,0.0000000000100373514830987,0.0000000000165884166633063,0.00000000000210308079920136,0.00000000000000394661543621517,0.0000000000000929272817730147,0.000000000000197043983232329,0,0,-0,-0,-0,0,0,0,0,0,0,0,0,0,0,0,0,0,0,0.0000000000000000002507230538769,0.00000000000000262438393318107,0.0000000000000557853519352931,0.00000000000000827775343004617,0.000000000000000268963572695446,0.00000000000000259295222839868,0.0000000000000051589882742268,0.0000000000000261484746550999,0.000000000000231788716331292,0.000000000000101810569047632,0,-0,-0,-0,0,0,0,0,0,0,0,0,0,0,0,0,0,0,0,0,0,-0,0.00000000000000256130671308049,0.00000000000000300604166925796,0.0000000000000011046338898993,0.0000000000000000812800591319375,0.000000000000100640332621797,0.000000000000244579412999483,0.0000000000000409582749042196,0,0,0,0,0,0,0,0,0,0,0,0,0,0,0,0,0,0,0,0,-0,-0,-0,-0,-0,0,0,0,0,0,0,0,0,0,0,0,0,0,0,0,0,0,0,0,0,0,0,0,0,0,0,0,0,0,0,0,0,0,0,0,0,0,0,0],[0,0,0,0,0,0,0,0,0,0,0,0,0,0,0,0,0,0,0,0,0,0,0,0,0,0,0,0,0,0,0,0,0,0,0,0,0,0,0,0,0,0,0,0,0,0,0,0,0,0,0,0,0,0,0,0,0,0,0,0,0,0,0,0,0,0,0,0,0,0,0,0,0,0,0,0,0,0,0,0,0,0,0,0,0,0,0,0,0,0,0,0,0,0,0,0,0,0,0,-0,-0,-0,0,0,0,0,0,0,0,0,0,0,0,0,0,0,0,0,0,0,0,0,0,0,0,-0.00000000000042,-0.00000000000308,-0.00000000000027,-0,-0.00000000000003,-0.00000000000002,0,0,0,0,0,0,0,0,0,0,0,0,0,0,0.00000000000000000011234883938873,0.00000000000000000006224732993159,0,0,0,0,0,0,-0.00000000000082,-0.00000000000345,-0.00000000000111,-0.00000000000002,-0.00000000000003,-0.00000000000002,-0,0,0,0,0,0,0,0,0,0,0,0,0,0,0.00000000000000000011336099109493,0.00000000000000000010425162573909,0.00000000000000103684745653454,0.00000000000000655097476070834,0.00000000000000749356105721313,0.00000000000000796511331764318,0.00000000000000650755274319412,-0.00000000000002,-0.0000000000028,-0.00000000000469,-0.00000000000182,-0.00000000000078,-0.00000000000003,-0.00000000000002,-0,0,0,0,0,0,0,0,0,0,0,0,0,0,0.00000000000000000005617441969436,0.000000000000000801289951758489,0.0000000000000110282596691061,0.0000000000000107490677856273,0.0000000000000100906682581182,0.0000000000000141721139410502,0.00000000000000245028747961183,-0.00000000000101,-0.00000000000318,-0.00000000000358,-0.00000000000243,-0.00000000000098,-0.00000000000004,-0.00000000000002,-0,0.00000000000000000000455581850817,0,0,0,0,0,0,0,0,0,0,0.00000000000000000008741476762544,0.00000000000000000655610757190803,0.00000000000000000978401134292027,0.00000000000000119051054837006,0.00000000000000572093168009633,0.00000000000000213780002855339,0.00000000000000367840383975664,0.0000000000000347077845133987,-0.00000000000055,-0.00000000000138,-0.00000000000207,-0.00000000000341,-0.00000000000246,-0.0000000000008,-0.00000000000002,-0.00000000000001,0.00000000000000000115558795286793,0.00000000000000000084493807834236,0.00000000000000000050093766103183,0.00000000000000000024464397399229,0,0,0,0,0,0,0,0,0.00000000000000000069931814100352,0.0000000000000000201928113214767,0.00000000000000169552117375237,0.0000000000000197978709652413,0.0000000000000274038224286365,0.0000000000000315069616544989,0.0000000000000368307712901171,0.0000000000000287690317576763,-0.00000000000113,-0.0000000000004,-0.00000000000194,-0.00000000000344,-0.00000000000248,-0.00000000000049,0.0000000000000060988584843693,0.00000000000000023438109136317,0.00000000000000000711834783209535,0.00000000000000000147482765510439,0.00000000000000000147368870047735,0.0000000000000000014387395613356,0.00000000000000000059996022193347,0,0,0,0,0,0,0,0,0.00000000000000000419590884602114,0.0000000000000153758396164194,0.0000000000000387965498707774,0.0000000000000321004287570578,0.00000000000000897603592910991,0.00000000000000000122437622406933,-0.00000000000036,-0.00000000000107,0.000000000000005467284334978,-0.00000000000069,-0.00000000000353,-0.00000000000383,-0.00000000000038,0.0000000000000244773075609925,0.00000000000000203048591261279,0.000000000000000011279233823335,0.00000000000000000147368870047735,0.00000000000000000147368870047735,0.00000000000000000147368870047735,0.00000000000000000128729329172132,0,0,0,0,0,0,0,0,0,0.00000000000000410726321354459,0.0000000000000164291085225222,0.0000000000000202320391916554,0.00000000000000000000512529582169,0.00000000000000000117597065242008,-0.00000000000074,-0.00000000000091,0.00000000000000598502325467013,-0.00000000000065,-0.00000000000368,-0.00000000000393,-0.00000000000039,0.0000000000000336588083860026,0.0000000000000120398361754165,0.0000000000000000143359200685386,0.00000000000000000005242370871263,0.00000000000000000005242370871263,0.00000000000000000005242370871263,0.00000000000000000003494913914176,0,0,0,0,0,0,0,0,0,0,0.00000000000000000011589137036044,0.00000000000000000010779415671081,0.00000000000000000000455468267792,0.00000000000000000117597065242008,-0.00000000000053,-0.00000000000091,0.0000000000000098491605225337,-0.00000000000157,-0.00000000000376,-0.00000000000273,-0.00000000000037,0.0000000000000350548208962265,0.00000000000000534650143952384,0.000000000000000014333627866268,0,0,0,0,0,0,0,0,0,0,0,0,0,0,0.00000000000000000008097213649638,0.000000000000000000128543266688,0.00000000000000000004605290263232,0.00000000000000000120026229336899,-0.00000000000037,-0.00000000000125,-0.00000000000009,-0.0000000000032,-0.00000000000453,-0.00000000000271,-0.00000000000034,0.0000000000000346278325925146,0.0000000000000000222672585684653,0.00000000000000001437310178281,0.00000000000000000005111366116334,0.00000000000000000000708506194343,0,0,0,0,0,0,0,0,0,0,0,0,0.00000000000000000005921087481298,0.000000000000000000128543266688,0.000000000000000000128543266688,0.00000000000000000066669932796499,0.00000000000000000409495275535912,-0.0000000000011,-0.00000000000112,-0.00000000000419,-0.00000000000484,-0.00000000000254,-0.00000000000033,0.0000000000000403285265656952,0.00000000000000892967992068772,0.0000000000000000143771503896348,0.000000000000000000128543266688,0.00000000000000000007388707455295,0,0,0,0,0,0,0,0,0,0,0,0,0.00000000000000000000657898609033,0.00000000000000000009008150185222,0.00000000000000000010880630841701,0.00000000000000000008350251576189,-0,-0.00000000000009,-0.00000000000091,-0.00000000000457,-0.00000000000349,-0.00000000000139,-0.00000000000075,0.0000000000000253497195308523,0.0000000000000118513467413382,0.00000000000000397009266407527,0.00000000000000000010374554988599,0.00000000000000000002631594436132,0,0,0,0,0,0,0,0,0,0,0,0,0.00000000000000000000582485652363,0.0000000000000000000232994260945,0,-0,-0,-0,-0.0000000000002,-0.00000000000334,-0.00000000000329,-0.00000000000124,-0.00000000000076,0.00000000000000321370097561509,0.0000000000000120397990229099,0.00000000000000434162055839263,0.00000000000000000007844175723087,0,0,0,0,0,0,0,0,0,0,0,0.00000000000000000098440075249278,0.00000000000000000098440075249278,0.00000000000000000100187532206365,0.0000000000000000011474967351543,0.00000000000000000098440075249278,0.00000000000000000076440861697397,-0,-0,-0.00000000000115,-0.00000000000349,-0.00000000000225,-0.00000000000092,-0.00000000000076,0.00000000000000260521845223652,0.0000000000000119429128894722,0.00000000000000433716189916788,0.00000000000000000007844175723087,0,0,0,0,0,0,0,0,0,0,0,0.00000000000000000119992044386693,0.00000000000000000144456441785922,0.00000000000000000147368870047735,0.00000000000000000147368870047735,0.00000000000000000147368870047735,0.00000000000000000111475416357825,-0,-0,-0.00000000000116,-0.00000000000349,-0.00000000000197,-0.00000000000079,-0.00000000000077,0.000000000000000019742336852323,0.0000000000000119320153953455,0.00000000000000433602550718875,0.00000000000000000007844175723087,0,0,0,0,0,0,0,0,0,0,0,0,0.00000000000000000024464397399229,0.00000000000000000029124282618129,0.00000000000000000081547991330763,0.00000000000000000081547991330763,0.00000000000000000078074431296255,-0,-0.00000000000001,-0.00000000000116,-0.00000000000348,-0.00000000000194,-0.00000000000065,-0.00000000000115,0.00000000000000204777104501853,0.000000000000011925296695589,0.00000000000000433601184314072,0.00000000000000000009716656379566,0,0,0,0,0,0,0,0,0,0,0,0,0,0,0,0,0,-0,-0.00000000000002,-0.00000000000116,-0.00000000000348,-0.00000000000193,-0.00000000000025,-0.00000000000139,-0.00000000000012,0.0000000000000114524235025333,0.00000000000000235655885921896,0.00000000000000000012500073571629,0.00000000000000000001518227559307,0,0,0,0,0,0,0,0,0,0,0,0,0,0,0,-0,-0,-0.00000000000002,-0.00000000000199,-0.00000000000348,-0.00000000000159,-0.00000000000003,-0.00000000000154,-0.00000000000056,0.00000000000000499570737147542,0.00000000000000000005313796457575,0.000000000000000000128543266688,0.00000000000000000006882631602192,0,0,0,0,0,0,0,0,0,0,0,0,0,0,0,-0,-0,-0.00000000000002,-0.00000000000245,-0.00000000000347,-0.00000000000062,0.0000000000000250326022035499,-0.00000000000096,-0.00000000000094,0,0.00000000000000000003643746142337,0.0000000000000000001275311149818,0.00000000000000000008198428820259,0,0,0,0,0,0,0,0,0,0,0,0,0,0,0,-0,-0,-0.00000000000002,-0.00000000000196,-0.0000000000032,-0.00000000000037,0.000000000000017746888898646,-0.00000000000046,-0.00000000000103,0,0,0.00000000000000000007844175723087,0.0000000000000000001275311149818,0.0000000000000000000430164475137,0,0,0,0,0,0,0,0,0,0,0,0,0,0,0,-0,-0,0.00000000000000361057793436945,0.0000000000000386900620597107,0.0000000000000385786512172909,0.0000000000000118964299187341,-0.00000000000012,-0.00000000000124,-0.00000000000054,0,0.00000000000000000003340100630476,0.00000000000000000011639744621355,0.00000000000000000006781416431572,0,0,0,0,0,0,0,0,0,0,0,0,0,0,0,0,0.00000000000000000004071762791672,0.00000000000000715019997544638,0.0000000000000476502195128108,0.0000000000000266697187400147,0.00000000000000256465587909718,0.000000000000000199881179092267,-0.00000000000054,-0.0000000000013,-0.00000000000022,0,0,0,0,0,0,0,0,0,0,0,0,0,0,0,0,0,0,0,0.00000000000000000001053533030013,0.00000000000000714970424544496,0.0000000000000362057813278515,0.0000000000000120334958450579,0.0000000000000000163465615459574,0.00000000000000000533230082515187,0,0,0,0,0,0,0,0,0,0,0,0,0,0,0,0,0,0,0,0,0,0,0,0,0,0,0,0,0,0,0,0,0,0,0,0,0,0,0],[0,0,0,0,0,0,0,0,0,0,0,0,0,0,0,0,0,0,0,0,0,0,0,0,0,0,0,0,0,0,0,0,0,0,0,0,0,0,0,0,0,0,0,0,0,0,0,0,0,0,0,0,0,0,0,0,0,0,0,0,0,0,0,0,0,0,0,0,0,0,0,0,0,0,0,0,0,0,0,0,0,0,0,0,0,0,0,0,0,0,0,0,0,0,0,0,0,0,0,0.00000000000000000025448033185207,0.00000000000000000160941615279415,0.00000000000000000077719668916982,0,0,0,0,0,0,0,0,0,0,0,0,0,0,0,0,0,0,0,0,0,0,0,-0.00000000001014,-0.00000000007428,-0.00000000000654,-0.00000000000001,-0.00000000000031,-0.00000000000017,0,0,0,0,0,0,0,0,0,0,0,0,0,0,0.00000000000000000227098388697431,0.00000000000000000125824782926955,0.00000000000000000014662508579558,0.00000000000000000279406213815665,0.00000000000000000116081931450012,0.00000000000000000004177431689719,0.00000000000000000006407276983556,0.00000000000000000006915342999873,-0.00000000001963,-0.00000000008311,-0.00000000002683,-0.00000000000022,-0.00000000000035,-0.00000000000018,-0,0.0000000000000000000073387313468,0,0,0,0,0,0,0,0,0,0,0,0,0.00000000000000000229144320127138,0.00000000000000000210730937259779,-0.00000000000001,-0.00000000000004,-0.00000000000005,-0.00000000000005,-0.00000000000004,-0.00000000000051,-0.00000000006951,-0.00000000011595,-0.00000000004557,-0.00000000002058,-0.00000000000035,-0.00000000000018,-0,0.00000000000000000002625007750972,0,0,0,0,0,0,0,0,0,0,0,0,0.00000000000000000113549194348716,-0.00000000000001,-0.00000000000008,-0.00000000000007,-0.00000000000007,-0.00000000000009,-0.0000000000008,-0.00000000002803,-0.00000000008078,-0.00000000008754,-0.00000000006239,-0.00000000002581,-0.00000000000036,-0.00000000000018,-0,-0,0,0,0,0,0,0,0,0,0,0,-0,-0,-0,-0.00000000000001,-0.00000000000004,-0.00000000000001,-0.00000000000001,-0.00000000000014,-0.00000000001611,-0.00000000003819,-0.00000000005164,-0.00000000008326,-0.00000000006354,-0.0000000000217,-0.0000000000004,-0.00000000000012,0.0000000000000000691877547027719,0.0000000000000000694113393923174,0.0000000000000000424088348998516,0.0000000000000000208036098148304,0.00000000000000000012871005746702,0.00000000000000000003471784444834,0,0,0,0,0,0,-0,-0,-0.00000000000001,-0.00000000000007,-0.0000000000001,-0.00000000000011,-0.00000000000013,-0.0000000000001,-0.00000000003039,-0.000000000011,-0.0000000000472,-0.00000000008317,-0.00000000006349,-0.00000000001359,-0.00000000000042,-0.00000000000001,0.000000000000000122564868755319,0.000000000000000124755076170175,0.000000000000000124756739342454,0.000000000000000121803182234259,0.0000000000000000509178116375845,0.00000000000000000019221830950667,0,0,0,0,0,0,0,-0,-0.00000000000005,-0.00000000000013,-0.00000000000011,-0.00000000000003,0.00000000000000000038548856129675,-0.00000000000945,-0.00000000002852,-0.00000000000004,-0.0000000000171,-0.00000000008532,-0.00000000009561,-0.00000000001023,-0.00000000000026,-0.00000000000001,0.000000000000000120782826171953,0.000000000000000124757586119148,0.000000000000000124756739342454,0.000000000000000124748271575515,0.000000000000000108956168493865,0.0000000000000000001270165040793,0,0,0,0,0,0,0,0,-0.00000000000001,-0.00000000000006,-0.00000000000007,0.00000000000000000315865989155899,0.0000000000000000000473092192582,-0.00000000001973,-0.00000000002421,-0.00000000000004,-0.00000000001612,-0.00000000008918,-0.00000000009824,-0.00000000001019,-0.00000000000017,-0.00000000000004,-0,0.00000000000000000451247300159677,0.00000000000000000451247300159677,0.00000000000000000443202921567988,0.00000000000000000295355710819477,0,0,0,0,0,0,0,0,0,0,0.00000000000000000234259148701405,0.00000000000000000367271019277006,0.00000000000000000324042877058028,-0,-0.0000000000141,-0.00000000002421,-0.00000000000007,-0.00000000003805,-0.00000000009105,-0.00000000006933,-0.00000000001022,-0.00000000000016,-0.00000000000002,-0,0,0,0,0,0,0,0,0,0,0,0,0,0,0,0.00000000000000000163674514376527,0.00000000000000000502986558850404,0.00000000000000000403579278647506,-0,-0.00000000000995,-0.00000000003333,-0.00000000000251,-0.00000000007732,-0.00000000011166,-0.00000000006941,-0.00000000001019,-0.00000000000014,-0,-0,0.00000000000000000103319537200183,0.00000000000000000014321520007946,0,0,0,0,0,0,0,0,0,0,0,0,0.00000000000000000119686988637836,0.00000000000000000502986558850404,0.00000000000000000570964539871373,0.00000000000000000305887818562107,-0,-0.00000000002935,-0.00000000002969,-0.00000000010298,-0.00000000011964,-0.00000000006492,-0.00000000001009,-0.00000000000018,-0.00000000000006,-0,0.00000000000000000314817698746079,0.00000000000000000149352994368581,0,0,0,0,0,0,0,0,0,0,0,0,0.00000000000000000019833184008231,0.00000000000000000389042214042342,0.00000000000000000573676740902935,0.00000000000000000527658580627948,0.00000000000000000449489145994204,-0.00000000000249,-0.00000000002408,-0.00000000011284,-0.00000000008403,-0.00000000003677,-0.00000000002122,-0.00000000000012,-0.00000000000008,-0.00000000000003,0.00000000000000000401971631754023,0.00000000000000000060454916855859,0,0,0,0,0,0,0,0,0,0,0,0,0.00000000000000000084803380252334,0.00000000000000000260115510212613,0.00000000000000000217168043084985,0.00000000000000000255126873800158,0.00000000000000000750229677572067,0.000000000000000006750139628422,-0.00000000000462,-0.00000000007987,-0.00000000007888,-0.00000000003314,-0.00000000002136,-0.00000000000001,-0.00000000000008,-0.00000000000003,0.00000000000000000219661924124259,0.00000000000000000044290268069272,0.00000000000000000024141826447595,0.00000000000000000005627042254703,0,0,0,0,0,0,0,0,0.0000000000000000831918585474861,0.0000000000000000832824636537293,0.0000000000000000850540485703595,0.0000000000000000974429536958473,0.0000000000000000836529129773875,0.0000000000000000837835920667169,0.000000000000000114257495766449,-0,-0.00000000002736,-0.00000000008347,-0.00000000005369,-0.00000000002506,-0.00000000002136,-0.00000000000001,-0.00000000000008,-0.00000000000003,0.00000000000000000208272768891598,0.00000000000000000046907472653912,0.00000000000000000046105442990144,0.0000000000000000004120447070379,0.00000000000000000027953693781426,0.00000000000000000002178209905046,0,0,0,0,0,0,0.000000000000000101405460714687,0.000000000000000122261570684537,0.000000000000000124977591723211,0.000000000000000125182229151213,0.000000000000000125177995267744,0.000000000000000125309913382106,-0,-0.00000000000002,-0.00000000002745,-0.00000000008347,-0.00000000004708,-0.00000000002188,-0.00000000002133,-0,-0.00000000000008,-0.00000000000003,0.00000000000000000165700835920497,0.00000000000000000025563453475411,0.00000000000000000045229983002669,0.00000000000000000046105442990144,0.00000000000000000046105442990144,0.0000000000000000002958735121021,0,0,0,0,0,0,0,0.0000000000000000206935288446284,0.0000000000000000247797909103139,0.000000000000000069128873474704,0.0000000000000000691314138047856,0.000000000000000069152047345206,-0,-0.00000000000005,-0.00000000002751,-0.00000000008346,-0.00000000004692,-0.00000000001854,-0.00000000003127,-0.00000000000001,-0.00000000000008,-0.00000000000003,0.00000000000000000203550567370069,0.00000000000000000007112924228441,0.00000000000000000026702579252645,0.00000000000000000044290268069272,0.00000000000000000046105442990144,0.00000000000000000035577428449087,0,0,0,0,0,0,0,0,0,0.0000000000000000000601211452642,0.0000000000000000000846776693862,0.00000000000000000020153285313915,-0,-0.00000000000018,-0.00000000002751,-0.00000000008346,-0.00000000004696,-0.00000000000793,-0.00000000003736,-0.00000000000356,-0.00000000000008,-0.00000000000002,0.00000000000000000259870133466591,0.00000000000000000037830121563835,0.00000000000000000001834682836701,0.00000000000000000002722762381308,0.00000000000000000003267314857569,0.00000000000000000002178209905046,0,0,0,0,0,0,0,0,0,0,0,-0,-0,-0.00000000000018,-0.00000000004747,-0.00000000008347,-0.00000000003917,-0.00000000000176,-0.00000000004118,-0.00000000001534,-0.00000000000003,0.00000000000000000114242065390083,0.00000000000000000266974441690973,0.00000000000000000146236261448489,0.00000000000000000000592743685703,0,0,0,0,0,0,0,0,0,0,0,0,0,0.00000000000000000001100809702021,-0,-0.00000000000001,-0.00000000000018,-0.00000000005859,-0.00000000008347,-0.0000000000159,-0.0000000000001,-0.00000000002595,-0.00000000002545,0.00000000000000000009370995412073,0.00000000000000000080540648579515,0.00000000000000000264335766575563,0.00000000000000000169022874912295,0.00000000000000000000056451779591,0,0,0,0,0,0,0,0,0,0,0,0,0,0.00000000000000000001806456946906,-0,-0.00000000000001,-0.00000000000018,-0.00000000004681,-0.00000000007753,-0.00000000000995,-0.00000000000009,-0.00000000001252,-0.00000000002757,0.00000000000000000042450741310712,0.00000000000000000001383068599975,0.00000000000000000158559685802261,0.0000000000000000025778736014303,0.0000000000000000008695208576253,0,0,0,0,0,0,0,0,0,0,0,0,0,0,-0,-0,-0.00000000000001,-0.00000000000002,-0.00000000000014,-0.00000000000016,-0.00000000000008,-0.00000000000336,-0.00000000003284,-0.00000000001443,0,0.00000000000000000067515737180317,0.00000000000000000235282114416258,0.00000000000000000137077405790342,0,0,0,0,0,0,0,0,0,0,0,0,0,0,0,0,-0,-0.00000000000002,-0.0000000000002,-0.00000000000012,-0.00000000000002,-0,-0.00000000001426,-0.00000000003466,-0.0000000000058,0,0,0,0,0,0,0,0,0,0,0,0,0,0,0,0,0,0,0,-0,-0.00000000000002,-0.00000000000013,-0.00000000000004,-0,-0,0,0,0,0,0,0,0,0,0,0,0,0,0,0,0,0,0,0,0,0,0,0,0,0,0,0,0,0,0,0,0,0,0,0,0,0,0,0,0],[0,0,0,0,0,0,0,0,0,0,0,0,0,0,0,0,0,0,0,0,0,0,0,0,0,0,0,0,0,0,0,0,0,0,0,0,0,0,0,0,0,0,0,0,0,0,0,0,0,0,0,0,0,0,0,0,0,0,0,0,0,0,0,0,0,0,0,0,0,0,0,0,0,0,0,0,0,0,0,0,0,0,0,0,0,0,0,0,0,0,0,0,0,0,0,0,0,0,0,-0,-0,-0,0,0,0,0,0,0,0,0,0,0,0,0,0,0,0,0,0,0,0,0,0,0,0,0.000000000000018149643989718,0.000000000000132901803334995,0.0000000000000116674139297683,-0,0.000000000000000154861729445276,0.000000000000000119615437127576,0,0,0,0,0,0,0,0,0,0,0,0,0,0,0.000000000000000044774016786293,0.0000000000000000248072255167299,0.00000000000000000021155744087261,0.00000000000000000401959137657962,0.00000000000000000162194038002335,0,0,0,0.000000000000035128340623892,0.000000000000148697876830731,0.0000000000000479100761223378,0.000000000000000076396418258608,0.000000000000000365327510981065,0.000000000000000305715407919474,0.00000000000000000375290644661343,0.00000000000000000000804213165523,0,0,0,0,0,0,0,0,0,0,0,0,0.0000000000000000451773863068902,0.0000000000000000415470606215151,0.0000000000000515021905675196,0.000000000000325396176595592,0.000000000000372212274220519,0.000000000000395620056493096,0.000000000000323049490729745,0.000000000000355129904680678,0.0000000000124835804288939,0.0000000000183342511404749,0.0000000000104265610828498,0.0000000000112972019067554,0.0000000000000004521499488359,0.000000000000000392435378957729,0.0000000000000000107164659448033,0.00000000000000000000773132463474,0,0,0,0,0,0,0,0,0,0,0,0,0.0000000000000000223870083931465,0.0000000000000398326141244364,0.000000000000547782074450432,0.000000000000533737413908541,0.000000000000500960121893043,0.000000000000588763504999849,0.000000000000949508092717628,0.0000000000160070587925524,0.0000000000189648986155403,0.00000000000252058004334364,0.0000000000196934302419957,0.0000000000141415643567936,0.000000000000000511048353186585,0.000000000000000389840676796478,0.0000000000000000105174680755779,-0,0,0,0,0,0,0,0,0,0,0,-0,-0,0.0000000000000000238576108672593,0.0000000000000585637789652629,0.000000000000283243487419367,0.0000000000000745911991645093,0.0000000000000288882059508341,0.000000000000219041572397194,0.0000000000092262524188053,0.0000000000215898481926997,0.00000000000303168434220158,0.000000000000286663884340289,0.0000000000202348556694982,0.0000000000117388905299514,-0.00000000000001,0.000000000000000245366964895457,0.000000000000000015767307838869,0.0000000000000000160750606057843,0.00000000000000000990705147996252,0.00000000000000000497353394192518,0.00000000000000000020047052821739,0.00000000000000000006826099187557,0.00000000000000000000683775445083,0,0,0,0,0,-0,-0,-0,-0.00000000000001,-0.00000000000001,-0.00000000000002,-0.00000000000002,-0.00000000000001,0.0000000000168021736958431,0.00000000000637689987894844,0.000000000000676478411532825,0.000000000000581688866049901,0.0000000000202457387352067,0.00000000000723771561806846,-0.00000000000002,-0,0.0000000000000000253091168607762,0.0000000000000000290847857296318,0.0000000000000000290860979952658,0.0000000000000000284044981993251,0.0000000000000000120461030967486,0.00000000000000000030999115206329,0.00000000000000000002874964939552,0,0,0,0,0,0,-0,-0.00000000000001,-0.00000000000002,-0.00000000000002,-0,0.00000000000000000174156398626583,0.00000000000523524731683155,0.0000000000157975967890352,0.000000000000271532056621505,0.000000000000622621898568089,0.00000000000170089989935947,0.0000000000214106771574484,0.00000000000540660652360187,-0.00000000000002,-0,0.0000000000000000221834912959731,0.0000000000000000290774342495696,0.0000000000000000290739765214666,0.000000000000000029055872012523,0.0000000000000000253604153897414,0.00000000000000000018438626490693,0.00000000000000000000062161404098,0,0,0,0,0,0,0,-0,-0.00000000000001,-0.00000000000001,0.00000000000000000445621799007893,0.00000000000000000121586312033277,0.0000000000109297288395859,0.0000000000134095903310648,0.000000000000297253356811825,0.00000000000062558662392649,0.00000000000367072980948057,0.0000000000235208709657163,0.00000000000541243547955934,-0.00000000000002,-0.00000000000001,0.00000000000000000075076245635627,0.0000000000000000011382141599219,0.00000000000000000113168721249156,0.0000000000000000010246530448096,0.00000000000000000068159979594069,0,0,0,0,0,0,0,0,0,0,0.0000000000000000461858101083833,0.0000000000000000451096879258103,0.00000000000000000627549888775178,0.00000000000000000098209148916851,0.0000000000078069487904359,0.0000000000134095810981576,0.000000000000489197448058639,0.000000000000660238907370911,0.00000000000477899123080947,0.0000000000234875348534935,0.0000000000054265632125283,-0.00000000000002,-0,0.0000000000000000215303552506661,0,0,0,0,0,0,0,0,0,0,0,0,0,0,0.0000000000000000322695616477787,0.0000000000000000547413849928243,0.0000000000000000228242166709351,0.00000000000000000928461199499255,0.00000000000551080650155016,0.0000000000184611385313599,0.00000000000157429223280556,0.00000000000065806770566403,0.0000000000163529269523342,0.0000000000239638189396833,0.00000000000585891793144049,0.000000000000292436669296828,0.0000000000000000358012730530412,0.0000000000000000372617665539582,0.0000000000000000203701607901603,0.00000000000000000282358664418064,0,0,0,0,0,0,0,0,0,0,0,0,0.0000000000000000235985155865304,0.0000000000000000547472903262137,0.000000000000000055696501546956,0.0000000000000000522119694835776,0.0000000000000000515782423994848,0.0000000000162567843624019,0.0000000000164405398412723,0.0000000000135176480359442,0.0000000000202770770925578,0.000000000022110470365388,0.00000000000595203497503779,0.000000000000575633252478868,0.000000000000442473137698752,0.0000000000000000420838658229151,0.000000000000000052021269519121,0.0000000000000000294459750035981,0,0,0,0,0,0,0,0,0,0,0,0,0.00000000000000000264132732266278,0.0000000000000000384133490882308,0.0000000000000000478401892960063,0.0000000000000000377752128046724,0.000000000000000018488651652639,0.00000000000137761657555033,0.0000000000133178090639946,0.0000000000187863709816599,0.00000000000298828936975018,0.0000000000202019656858797,0.0000000000117878426150877,0.000000000000434093578736147,0.00000000000058757823699841,0.000000000000196685698598858,0.0000000000000000438135460047303,0.0000000000000000104876075355281,0,0,0,0,0,0,0,0,0,0,0,0,0.00000000000000000014001856273194,0.00000000000000000070525736957824,0.0000000000000000024681701435138,-0,-0,-0,0.00000000000000834230728665482,0.000000000000142790458549908,0.000000000000141002963265985,0.0000000000181760380980527,0.000000000011736937710787,-0,0.000000000000596934279327932,0.000000000000215414081207012,0.0000000000000000314021761402007,0,0,0,0,0,0,0,0,0,0,0,0.0000000000000000191983942523295,0.0000000000000000193189485254028,0.0000000000000000196143705983813,0.0000000000000000224237941074933,0.000000000000000019205698217311,0.0000000000000000118027910847558,-0,-0,0.000000000000048959778911107,0.000000000000149252118049879,0.0000000000000959155658623653,0.0000000000137629286157151,0.000000000011737733947243,-0,0.000000000000592252412100395,0.000000000000215417427136449,0.0000000000000000312611378462856,0,0,0,0,0,0,0,0,0,0,0,0.0000000000000000234015929939637,0.0000000000000000284240790416164,0.0000000000000000290510545037053,0.0000000000000000290292203105158,0.0000000000000000290203234595542,0.0000000000000000168482551939151,-0,0.000000000000000117849237016007,0.0000000000000490692156347847,0.000000000000149251822181256,0.0000000000000832744350694456,0.0000000000120141903309988,0.0000000000117415879268632,-0,0.000000000000592253699583065,0.000000000000215418409716865,0.0000000000000000312611378462856,0,0,0,0,0,0,0,0,0,0,0,0,0.00000000000000000481579937902545,0.00000000000000000594321299498498,0.000000000000000016245921812035,0.0000000000000000162493018383828,0.0000000000000000150815750224501,-0,0.000000000000000214305158587484,0.0000000000000490994638572294,0.000000000000149151225963389,0.0000000000000795636949040742,0.0000000000101754738100606,0.0000000000172537491337652,0.000000000000100627361717208,0.000000000000592261019538447,0.000000000000215412966248583,0.0000000000000000387234739773345,0,0,0,0,0,0,0,0,0,0,0,0,0.00000000000000000000753707024693,0.00000000000000000001802680718854,0.00000000000000000012148669413484,0.00000000000000000016620405420814,0.00000000000000000032727979257816,-0,0.000000000000000291480729274523,0.0000000000000490427752541593,0.000000000000149003794894305,0.0000000000000744678527658438,0.00000000000429729042946001,0.0000000000207613216105612,0.00000000000246718656869808,0.000000000000568850285707943,0.000000000000117084494646329,0.0000000000000000498161357937584,0.00000000000000000605054280895851,0,0,0,0,0,0,0,0,0,0,0,0,0,0.00000000000000000000116552632685,0.00000000000000000000854719306353,0.00000000000000000005456571164553,-0,0.000000000000000294407738021603,0.0000000000000846856109877144,0.000000000000146655404980459,0.0000000000000512600243200991,0.000000000000903060936531818,0.0000000000231405300223562,0.00000000000904213734488851,0.000000000000248140461460603,0.0000000000000000211768998313548,0.0000000000000000512279291158487,0.0000000000000000274291274006119,0,0,0,0,0,0,0,0,0,0,0,0,0,0,0.0000000000000000000015151842249,0.00000000000000000001479598944838,0.000000000000000125891745063905,0.000000000000000342004583456417,0.000000000000104424406588777,0.000000000000143276035952745,0.00000000000000872086481148353,0.000000000000143344182654293,0.0000000000148805009788931,0.0000000000146424320706901,0.00000000000000000000578878075666,0.0000000000000000145213027415004,0.0000000000000000508245595952515,0.000000000000000032672931168376,0,0,0,0,0,0,0,0,0,0,0,0,0,0,0.00000000000000000000248645616394,0.00000000000000000001980775265381,0.0000000000000000952092324722853,0.000000000000000389432011507878,0.0000000000000834440641183017,0.000000000000124205225464308,0.0000000000000297436682689679,0.000000000000471072791361283,0.00000000000747840226887442,0.0000000000155648877043958,0.00000000000000000054652338892091,0,0.0000000000000000312611378462856,0.0000000000000000508245595952515,0.0000000000000000171432046253824,0,0,0,0,0,0,0,0,0,0,0,0,0,0,0.00000000000000000000575702641364,0.0000000000000000116507596251232,0.000000000000000247425287111879,-0,0.000000000000100996858086732,0.000000000000392044981909665,0.000000000000589902781182313,0.00000000000215061914036661,0.0000000000181949703567047,0.00000000000799064461893872,0,0.0000000000000000133111941797087,0.0000000000000000463874948686819,0.0000000000000000270257578800147,0,0,0,0,0,0,0,0,0,0,0,0,0,0,0,0,-0,-0,0.00000000000042773298971638,0.000000000000407511335688163,0.000000000000126394208655983,0.00000000000000935393856171074,0.00000000000789879687431138,0.0000000000191959133340823,0.00000000000321462663489417,0,0,0,0,0,0,0,0,0,0,0,0,0,0,0,0,0,0,0,-0,-0,-0.00000000000002,-0.00000000000001,-0,-0,0,0,0,0,0,0,0,0,0,0,0,0,0,0,0,0,0,0,0,0,0,0,0,0,0,0,0,0,0,0,0,0,0,0,0,0,0,0,0],[0,0,0,0,0,0,0,0,0,0,0,0,0,0,0,0,0,0,0,0,0,0,0,0,0,0,0,0,0,0,0,0,0,0,0,0,0,0,0,0,0,0,0,0,0,0,0,0,0,0,0,0,0,0,0,0,0,0,0,0,0,0,0,0,0,0,0,0,0,0,0,0,0,0,0,0,0,0,0,0,0,0,0,0,0,0,0,0,0,0,0,0,0,0,0,0,0,0,0,-0,-0,-0,0,0,0,0,0,0,0,0,0,0,0,0,0,0,0,0,0,0,0,0,0,0,0,-0.00000000000017,-0.00000000000124,-0.00000000000011,-0,-0,-0,0,0,0,0,0,0,0,0,0,0,0,0,0,0,0.00000000000000000038454374573259,0.00000000000000000021305802128427,0,0,0,0,0,0,-0.00000000000033,-0.00000000000138,-0.00000000000045,-0,-0,-0,-0,0,0,0,0,0,0,0,0,0,0,0,0,0,0.00000000000000000038800810380225,0.00000000000000000035682888117529,0.000000000000000129295693532992,0.000000000000000816858978938939,0.000000000000000934392644973318,0.000000000000000993160869340879,0.000000000000000811002202650215,-0,-0.00000000000097,-0.00000000000166,-0.00000000000061,-0.00000000000017,-0,-0,-0,0,0,0,0,0,0,0,0,0,0,0,0,0,0.00000000000000000019227187286629,0.000000000000000100217140534527,0.00000000000000137514389260224,0.00000000000000133996716678722,0.00000000000000125772463837911,0.00000000000000154158845956028,-0,-0.00000000000024,-0.00000000000107,-0.00000000000142,-0.00000000000075,-0.00000000000022,-0,-0,-0,0,0,0,0,0,0,0,0,0,0,0,0.00000000000000000000203351208019,0.00000000000000000015251340601408,0.00000000000000000050286848647387,0.000000000000000147634517659863,0.000000000000000711524469681174,0.000000000000000204648822610975,0.00000000000000015743191123159,0.00000000000000138127510290063,-0.00000000000013,-0.00000000000032,-0.00000000000082,-0.00000000000138,-0.00000000000076,-0.00000000000018,-0,-0,0.00000000000000000017081570155154,0.00000000000000000016797362555451,0.00000000000000000011241687840213,0.00000000000000000007266366343091,0.00000000000000000002476429785086,0.00000000000000000000667984349924,0,0,0,0,0,0,0.0000000000000000000162680966415,0.00000000000000000046974129052336,0.0000000000000000450813852575464,0.000000000000000524296980589411,0.000000000000000725203221287813,0.000000000000000833741237423621,0.000000000000000974610860331242,0.000000000000000761193660431432,-0.00000000000026,-0.00000000000009,-0.00000000000078,-0.00000000000138,-0.00000000000076,-0.00000000000011,-0,-0,0.00000000000000000045533910543731,0.00000000000000000032991909965842,0.00000000000000000032991909965842,0.00000000000000000032307633314698,0.00000000000000000015884993687253,0.00000000000000000003698352376411,0,0,0,0,0,0,0,0.00000000000000000009760857984901,0.00000000000000040711677845988,0.00000000000000102713068359799,0.000000000000000849665806102839,0.000000000000000237537328851097,0.00000000000000000000631459014374,-0.00000000000008,-0.00000000000024,0.000000000000000680658457281378,-0.00000000000028,-0.0000000000014,-0.00000000000128,-0.00000000000008,0.0000000000000000605445582481777,0.0000000000000000144027687714302,0.00000000000000000055767245263944,0.00000000000000000033008202267059,0.00000000000000000032991909965842,0.00000000000000000032828986953665,0.00000000000000000028413773323669,0.0000000000000000000244384518265,0,0,0,0,0,0,0,0,0.000000000000000108754843736015,0.000000000000000435209914637892,0.000000000000000535591149557147,0,0.00000000000000000000631459014374,-0.00000000000017,-0.00000000000021,0.000000000000000744292880247403,-0.00000000000027,-0.00000000000143,-0.00000000000129,-0.00000000000009,0.000000000000000629189465558292,0.000000000000000318971119848856,0.00000000000000000045404340793292,0.00000000000000000002606768194829,0.00000000000000000002606768194829,0.00000000000000000001058999579151,0.00000000000000000000684276651144,0,0,0,0,0,0,0,0,0,0,0.00000000000000000039666899897641,0.00000000000000000036895413441911,0.00000000000000000001558961131348,0.00000000000000000000631459014374,-0.00000000000012,-0.00000000000021,0.00000000000000122575188317408,-0.00000000000063,-0.00000000000145,-0.00000000000081,-0.00000000000008,0.000000000000000842213567861832,0.000000000000000141854363566055,0.00000000000000000062246854692229,0,0,0,0,0,0,0,0,0,0,0,0,0,0,0.00000000000000000027714864557304,0.0000000000000000004399734748472,0.00000000000000000015762829216967,0.00000000000000000008945918381565,-0.00000000000008,-0.00000000000028,-0.00000000000002,-0.00000000000128,-0.00000000000162,-0.00000000000081,-0.00000000000008,0.00000000000000152318130349568,0.00000000000000000095445203113469,0.00000000000000000075757851163914,0.00000000000000000017495008251798,0.00000000000000000002425050648764,0,0,0,0,0,0,0,0,0,0,0,0,0.00000000000000000020266494707528,0.0000000000000000004399734748472,0.0000000000000000004399734748472,0.00000000000000000044286320254009,0.000000000000000000490435057393,-0.00000000000025,-0.00000000000025,-0.00000000000152,-0.00000000000169,-0.00000000000075,-0.00000000000008,0.00000000000000223246792720286,0.00000000000000111163027426567,0.0000000000000000007714359439178,0.0000000000000000004399734748472,0.0000000000000000002528981390854,0,0,0,0,0,0,0,0,0,0,0,0,0.00000000000000000002251832745281,0.0000000000000000003083278682,0.00000000000000000037241849248877,0.00000000000000000028580954074719,0.00000000000000000006714183466301,-0.00000000000002,-0.00000000000021,-0.0000000000016,-0.00000000000135,-0.00000000000031,-0.00000000000018,0.00000000000000154286881699572,0.00000000000000147547019252921,0.000000000000000494339626853426,0.00000000000000000035509670214045,0.00000000000000000009007330981124,0,0,0,0,0,0,0,0,0,0,0,0,0.00000000000000000000114046108524,0.00000000000000000000456184434096,0,-0,-0,-0,-0.00000000000008,-0.00000000000132,-0.00000000000131,-0.00000000000028,-0.00000000000018,0.0000000000000000819571212342034,0.00000000000000149889170467363,0.000000000000000541226714185161,0.00000000000000000026848775039888,0,0,0,0,0,0,0,0,0,0,0,0.00000000000000000019273792340544,0.00000000000000000021017068570834,0.00000000000000000020186161208734,0.00000000000000000022597421788955,0.00000000000000000019273792340544,-0,-0,-0,-0.00000000000045,-0.00000000000138,-0.00000000000089,-0.00000000000021,-0.00000000000018,0.0000000000000000658542742016411,0.00000000000000148706001091744,0.000000000000000541121272890036,0.00000000000000000026848775039888,0,0,0,0,0,0,0,0,0,0,0,0.00000000000000000023493498355929,0.00000000000000000031769987374515,0.00000000000000000032666063941488,0.000000000000000000323076333147,0.00000000000000000032226171808611,-0,-0,-0,-0.00000000000045,-0.00000000000138,-0.00000000000078,-0.00000000000018,-0.00000000000018,-0,0.00000000000000148692445343263,0.000000000000000541094837232994,0.00000000000000000026848775039888,0,0,0,0,0,0,0,0,0,0,0,0,0.00000000000000000005148367184794,0.00000000000000000008911888766077,0.00000000000000000020055822798985,0.00000000000000000020104699702638,0.00000000000000000016446466344721,-0,-0,-0.00000000000045,-0.00000000000138,-0.00000000000078,-0.00000000000016,-0.00000000000027,0.000000000000000252618409144616,0.0000000000000014868599968798,0.000000000000000541048068399053,0.00000000000000000033257837468764,0,0,0,0,0,0,0,0,0,0,0,0,0,0,0.00000000000000000001156753386455,0.00000000000000000001629230121767,0.00000000000000000003877567689805,-0,-0,-0.00000000000045,-0.00000000000138,-0.00000000000078,-0.00000000000007,-0.00000000000032,-0.00000000000003,0.00000000000000142803404231771,0.000000000000000294152886028358,0.00000000000000000042784822160338,0.00000000000000000005196537104494,0,0,0,0,0,0,0,0,0,0,0,0,0,0,0,0.00000000000000000000468165007385,-0,-0,-0.00000000000079,-0.00000000000138,-0.00000000000065,-0.00000000000001,-0.00000000000035,-0.00000000000013,0.000000000000000622928429982212,0.00000000000000000018187879865731,0.0000000000000000004399734748472,0.00000000000000000023557634873708,0,0,0,0,0,0,0,0,0,0,0,0,0,0,0,-0,-0,-0,-0.00000000000097,-0.00000000000138,-0.00000000000026,0.000000000000000969866087611226,-0.00000000000022,-0.00000000000021,0,0.00000000000000000012471689050787,0.00000000000000000043650911677753,0.0000000000000000002806130036427,0,0,0,0,0,0,0,0,0,0,0,0,0,0,0,-0,-0,-0,-0.00000000000077,-0.00000000000128,-0.00000000000016,0.0000000000000014096932664585,-0.0000000000001,-0.00000000000023,0,0,0.00000000000000000026848775039888,0.00000000000000000043650911677753,0.00000000000000000014723521796068,0,0,0,0,0,0,0,0,0,0,0,0,0,0,0,-0,-0,0.000000000000000045169087181844,0.00000000000000126231003477367,0.00000000000000182675082915536,0.00000000000000148134512903378,-0.00000000000003,-0.00000000000028,-0.00000000000012,0,0.00000000000000000011432381629888,0.00000000000000000039840117801124,0.00000000000000000023211199066742,0,0,0,0,0,0,0,0,0,0,0,0,0,0,0,0,0,0.000000000000000189211021279446,0.00000000000000214512595763179,0.00000000000000152967177884507,0.000000000000000317795334729271,0.0000000000000000237710897773003,-0.00000000000012,-0.0000000000003,-0.00000000000005,0,0,0,0,0,0,0,0,0,0,0,0,0,0,0,0,0,0,0,0,0.000000000000000189208452632608,0.000000000000000958145834094503,0.000000000000000318403361603781,0.0000000000000000003802667589951,0.00000000000000000012404423689145,0,0,0,0,0,0,0,0,0,0,0,0,0,0,0,0,0,0,0,0,0,0,0,0,0,0,0,0,0,0,0,0,0,0,0,0,0,0,0],[0,0,0,0,0,0,0,0,0,0,0,0,0,0,0,0,0,0,0,0,0,0,0,0,0,0,0,0,0,0,0,0,0,0,0,0,0,0,0,0,0,0,0,0,0,0,0,0,0,0,0,0,0,0,0,0,0,0,0,0,0,0,0,0,0,0,0,0,0,0,0,0,0,0,0,0,0,0,0,0,0,0,0,0,0,0,0,0,0,0,0,0,0,0,0,0,0,0,0,-0,-0,-0,0,0,0,0,0,0,0,0,0,0,0,0,0,0,0,0,0,0,0,0,0,0,0,0.000000000000100375772015187,0.000000000000735009524497357,0.0000000000000647575561665488,0.000000000000000175652296589964,0.0000000000000059434038795055,0.00000000000000316184563426329,0,0,0,0,0,0,0,0,0,0,0,0,0,0,0.000000000000000156851442715316,0.0000000000000000869041777206481,0,0,0,0,0,0,0.000000000000194275676001569,0.000000000000822433274900979,0.000000000000265518168987972,0.00000000000000431663364932474,0.00000000000000917268780253015,0.00000000000000683775541824738,0.0000000000000000426257698076145,0,0,0,0,0,0,0,0,0,0,0,0,0,0.000000000000000158264518775815,0.000000000000000145546834231329,-0,-0,-0,-0,-0,0.00000000000000456269220701293,0.000000000000671964898790324,0.00000000000112413064604374,0.000000000000437707390141851,0.000000000000191036181876183,0.0000000000000106644619788885,0.00000000000000858588362660869,0.000000000000000213128849038073,0,0,0,0,0,0,0,0,0,0,0,0,0,0.0000000000000000784257213576581,0.000000000000000123943913542654,-0,-0,-0,-0,-0,0.000000000000241268190385409,0.000000000000755503277250468,0.000000000000844044783072958,0.000000000000580863404633101,0.00000000000023664410338509,0.0000000000000119424239020137,0.00000000000000854304154216697,0.000000000000000213128849038073,0,0,0,0,0,0,0,0,0,0,0,-0,-0,0.000000000000000111719478933151,0.000000000000000169886462222055,-0,-0,-0,-0.00000000000002,0.000000000000124460902053214,0.000000000000327703017341456,0.000000000000484730944528112,0.00000000000080135603686653,0.000000000000581020278287934,0.000000000000186401813486086,0.00000000000000550540040578885,0.00000000000000543476118215731,0.00000000000000000001881795956285,0.00000000000000000005653177098773,0.00000000000000000004016731096496,0.00000000000000000002975356367773,0.0000000000000000000141329427469,0.0000000000000000000038121753462,0,0,0,0,0,0,-0,-0,-0,-0.00000000000001,-0.00000000000002,-0.00000000000002,-0.00000000000002,-0.00000000000002,0.000000000000272412971634651,0.0000000000000994201411488239,0.000000000000466200426419869,0.000000000000822432287210861,0.000000000000595765434330269,0.000000000000111365420778589,-0.00000000000001,0.000000000000000664306498518599,-0,0.00000000000000000011771253630008,0.00000000000000000011771253630008,0.00000000000000000011548101902425,0.00000000000000000006192460440428,0.00000000000000000002110643423386,0,0,0,0,0,0,0,-0,-0.00000000000001,-0.00000000000002,-0.00000000000002,-0.00000000000001,-0,0.0000000000000868521594678668,0.000000000000262081561167397,-0,0.000000000000168311324525813,0.000000000000843426296079139,0.000000000000925733167554385,0.0000000000000874262228805894,-0.00000000000001,-0,-0,0.00000000000000000011780551618658,0.00000000000000000011771253630008,0.00000000000000000011678273743515,0.00000000000000000010051125729889,0.00000000000000000001394698297392,0,0,0,0,0,0,0,0,-0,-0.00000000000001,-0.00000000000001,0,-0,0.000000000000181323607692503,0.00000000000022246443790158,-0,0.000000000000159139657529895,0.000000000000882355036702508,0.000000000000950310390783643,0.0000000000000939593025132409,-0.00000000000002,-0.00000000000001,0.0000000000000000376301381351012,0.00000000000000000001236632490355,0.00000000000000000001236632490355,0.00000000000000000000353323568673,0.00000000000000000000223151727583,0,0,0,0,0,0,0,0,0,0,0.00000000000000016179720892706,0.000000000000000150492600443074,0.00000000000000000635884227224255,-0,0.000000000000129516694296363,0.000000000000222464220236038,-0,0.000000000000378273204561601,0.000000000000902504019957731,0.000000000000664470099802285,0.0000000000000847075435191836,-0.00000000000002,-0,0.000000000000000116750310137764,0,0,0,0,0,0,0,0,0,0,0,0,0,0,0.000000000000000113046084839868,0.00000000000000017946065968329,0.0000000000000000642949607526746,0.0000000000000000337679358927874,0.0000000000000914919046790401,0.000000000000306363638964638,0.0000000000000229290049765121,0.000000000000769310724887646,0.00000000000109197795524883,0.000000000000659613351045363,0.0000000000000730787148227456,-0.00000000000002,0.000000000000000176436954328342,0.0000000000000001718602764972,0.0000000000000000713603410551664,0.00000000000000000989153242348841,0,0,0,0,0,0,0,0,0,0,0,0,0.0000000000000000826649495391531,0.00000000000000017946065968329,0.00000000000000017946065968329,0.000000000000000179393896664685,0.000000000000000178985234908813,0.000000000000269877439604092,0.000000000000274123079228138,0.00000000000100786510698018,0.00000000000116670211112139,0.000000000000614002120649273,0.000000000000069945546217842,-0.00000000000002,0.000000000000000125573937718063,0.000000000000000177512580739193,0.00000000000000017946065968329,0.000000000000000103154552416379,0,0,0,0,0,0,0,0,0,0,0,0,0.00000000000000000918499439323924,0.000000000000000125763769384353,0.000000000000000151905676503572,0.000000000000000116578774991113,0.000000000000000057172732780956,0.0000000000000228841281452536,0.000000000000224242871917961,0.0000000000011007961071054,0.000000000000836321953739436,0.000000000000336175760620973,0.000000000000171903133498526,-0.00000000000001,0.0000000000000000254784921923099,0.000000000000000158477215166739,0.00000000000000014484029620108,0.0000000000000000367399775729569,0,0,0,0,0,0,0,0,0,0,0,0,0.00000000000000000000037191954597,0.00000000000000000000148767818389,0,-0,-0,-0,0.0000000000000501991604784047,0.000000000000798759332129897,0.000000000000787958594792034,0.00000000000029532010678677,0.000000000000173264565709225,-0,0.0000000000000000146126526093803,0.000000000000000158082823481079,0.000000000000000109513394688622,0,0,0,0,0,0,0,0,0,0,0,0.00000000000000000006285440326927,0.000000000000000000072803251124,0.00000000000000000006722445793443,0.00000000000000000007401198964843,0.00000000000000000006285440326927,-0,-0,0.000000000000000701317309896565,0.000000000000277393472128127,0.000000000000834376887866269,0.000000000000538552291704675,0.000000000000214246011766184,0.000000000000174205431107127,-0,0.00000000000000000836928149471495,0.000000000000000157985807083646,0.000000000000000109513394688622,0,0,0,0,0,0,0,0,0,0,0,0.00000000000000000007661542647023,0.00000000000000000011213374311051,0.00000000000000000011585293857023,0.00000000000000000011380738106739,0.00000000000000000011334248163492,-0,0.000000000000000104265357937217,0.00000000000000380767071899363,0.000000000000279519030043123,0.000000000000834376671729149,0.000000000000470720172314609,0.000000000000180354241055262,0.000000000000178575267766565,-0,-0,0.000000000000000158141175342991,0.000000000000000109513394688622,0,0,0,0,0,0,0,0,0,0,0,0,0.00000000000000000001766617843367,0.00000000000000000003691301493768,0.00000000000000000007540668794577,0.00000000000000000007568562760525,0.0000000000000000000472617929918,0.000000000000000232731934357631,0.00000000000000617457184973488,0.000000000000280689520614776,0.000000000000832820724770589,0.000000000000460402032823856,0.000000000000147359153597874,0.000000000000271542191426699,-0,-0,0.000000000000000139064648526263,0.000000000000000135655301807841,0,0,0,0,0,0,0,0,0,0,0,0,0,0,0.00000000000000000000660157194099,0.00000000000000000000929798864928,0.00000000000000000002212921298528,0.000000000000000232757179939693,0.00000000000000864141319449881,0.000000000000280690093453296,0.000000000000831135785905983,0.000000000000454615112785329,0.0000000000000498391435268975,0.000000000000337511448320044,0.0000000000000319433508806379,-0,0.000000000000000118416321293946,0.000000000000000174514893471545,0.0000000000000000211961409074752,0,0,0,0,0,0,0,0,0,0,0,0,0,0,0,0.00000000000000000000407169818346,0.000000000000000234268947483326,0.00000000000000864520022383388,0.000000000000477456394465503,0.000000000000826751601944544,0.000000000000366618227346025,-0,0.000000000000377589960541828,0.00000000000014012470641176,-0,0.000000000000000074186493176163,0.00000000000000017946065968329,0.0000000000000000960891721138874,0,0,0,0,0,0,0,0,0,0,0,0,0,0,0,0.00000000000000000002017268940874,0.00000000000000253690316840245,0.00000000000000863585404368792,0.000000000000584178433733546,0.00000000000082229813219885,0.000000000000134906688808292,-0.00000000000001,0.000000000000237644945085022,0.000000000000233072763055063,0,0.0000000000000000508707381779404,0.000000000000000178047583622791,0.000000000000000114459160900366,0,0,0,0,0,0,0,0,0,0,0,0,0,0,0,0.00000000000000000002017268940874,0.00000000000000191840061727374,0.00000000000000861329502255212,0.000000000000467567454950797,0.000000000000752368483128564,0.0000000000000767388151333894,-0,0.000000000000114220579578446,0.000000000000252908174070452,0,0,0.000000000000000109513394688622,0.000000000000000178047583622791,0.0000000000000000600557325711796,0,0,0,0,0,0,0,0,0,0,0,0,0,0,0,0.000000000000000234507514450822,0.00000000000000498752686710328,-0,-0.00000000000002,-0.00000000000002,-0,0.0000000000000304435135216454,0.000000000000301698221176275,0.000000000000132564777200014,0,0.0000000000000000466315099964454,0.00000000000000016250374695731,0.000000000000000094676096053389,0,0,0,0,0,0,0,0,0,0,0,0,0,0,0,0,0,-0,-0.00000000000002,-0.00000000000001,-0,-0,0.00000000000013104104412875,0.000000000000318460211894287,0.0000000000000533306574942585,0,0,0,0,0,0,0,0,0,0,0,0,0,0,0,0,0,0,0,0,-0,-0.00000000000002,-0.00000000000001,-0,-0,0,0,0,0,0,0,0,0,0,0,0,0,0,0,0,0,0,0,0,0,0,0,0,0,0,0,0,0,0,0,0,0,0,0,0,0,0,0,0],[0,0,0,0,0,0,0,0,0,0,0,0,0,0,0,0,0,0,0,0,0,0,0,0,0,0,0,0,0,0,0,0,0,0,0,0,0,0,0,0,0,0,0,0,0,0,0,0,0,0,0,0,0,0,0,0,0,0,0,0,0,0,0,0,0,0,0,0,0,0,0,0,0,0,0,0,0,0,0,0,0,0,0,0,0,0,0,0,0,0,0,0,0,0,0,0,0,0,0,0.00000000000000000001122954984259,0.00000000000000000007101931522073,0.00000000000000000003429565222197,0,0,0,0,0,0,0,0,0,0,0,0,0,0,0,0,0,0,0,0,0,0,0,-0.00000000000005,-0.00000000000037,-0.00000000000003,-0,-0,-0,0,0,0,0,0,0,0,0,0,0,0,0,0,0,0.0000000000000000402118268040932,0.0000000000000000222795256617273,0.0000000000000000001141146436332,0.00000000000000000216817822903071,0.00000000000000000087487893452116,0,0,0,-0.0000000000001,-0.00000000000041,-0.00000000000013,-0,-0,-0,-0,0.00000000000000000000499179734477,0,0,0,0,0,0,0,0,0,0,0,0,0.00000000000000004057409551404,0.0000000000000000373136771245189,-0,-0,-0,-0,-0,-0.00000000000004,-0.00000000000205,-0.00000000000307,-0.00000000000165,-0.00000000000165,-0,-0,-0,0.00000000000000000001785527511784,0,0,0,0,0,0,0,0,0,0,0,0,0.0000000000000000201059134020466,-0,-0,-0,-0,-0,-0.00000000000006,-0.00000000000227,-0.00000000000296,-0.00000000000077,-0.00000000000301,-0.00000000000207,-0,-0,-0,0.00000000000000000000326386749466,0,0,0,0,0,0,0,0,0,0,-0,-0,0.0000000000000000230918631218746,-0,-0,-0,-0,-0.00000000000001,-0.0000000000013,-0.00000000000309,-0.00000000000059,-0.00000000000042,-0.0000000000031,-0.00000000000173,-0,-0,-0,0.00000000000000000003248508118224,0.0000000000000000000198135956147,0.00000000000000000000967640716067,0,0,0,0,0,0,0,0,-0,-0,-0,-0,-0,-0,-0.00000000000001,-0,-0.00000000000246,-0.00000000000089,-0.00000000000024,-0.00000000000042,-0.00000000000309,-0.00000000000107,-0.00000000000001,-0,-0,0.00000000000000000005828883361069,0.00000000000000000005828883361069,0.00000000000000000005690648973059,0.0000000000000000000237302366083,0,0,0,0,0,0,0,0,-0,-0,-0.00000000000001,-0,-0,0.00000000000000000120088560474919,-0.00000000000077,-0.00000000000231,-0,-0.00000000000009,-0.00000000000059,-0.0000000000034,-0.0000000000008,-0.00000000000001,-0,-0,0.00000000000000000005828883361069,0.00000000000000000005828883361069,0.00000000000000000005828883361069,0.00000000000000000005091633291685,0,0,0,0,0,0,0,0,0,-0,-0,-0,0.00000000000000000240841296860559,0.00000000000000000088342248285211,-0.0000000000016,-0.00000000000196,-0,-0.00000000000008,-0.0000000000009,-0.0000000000037,-0.0000000000008,-0.00000000000001,-0,0.00000000000000000186772864523245,0.00000000000000000000207351582014,0.00000000000000000000207351582014,0.00000000000000000000207351582014,0.0000000000000000000013823438801,0,0,0,0,0,0,0,0,0,0,0.0000000000000000414797672889069,0.0000000000000000397417831529368,0.00000000000000000403612626469373,0.00000000000000000074616683898747,-0.00000000000114,-0.00000000000196,-0,-0.00000000000019,-0.00000000000104,-0.00000000000355,-0.0000000000008,-0.00000000000001,-0,0.0000000000000000217818302946244,0,0,0,0,0,0,0,0,0,0,0,0,0,0,0.0000000000000000289814967957428,0.0000000000000000479005273368256,0.0000000000000000188891433725119,0.00000000000000000868293534103239,-0.00000000000081,-0.0000000000027,-0.0000000000002,-0.00000000000039,-0.0000000000027,-0.00000000000355,-0.0000000000008,-0.00000000000001,0.0000000000000000346190506459738,0.000000000000000035910309982549,0.0000000000000000182945698523127,0.0000000000000000025358809696275,0,0,0,0,0,0,0,0,0,0,0,0,0.0000000000000000211927195318869,0.0000000000000000479005273368256,0.000000000000000048414043233175,0.0000000000000000466483299816224,0.0000000000000000467739169848643,-0.00000000000238,-0.00000000000241,-0.00000000000234,-0.00000000000335,-0.00000000000331,-0.0000000000008,-0.00000000000001,-0,0.0000000000000000390901235841063,0.0000000000000000464360560768662,0.0000000000000000264456158261153,0,0,0,0,0,0,0,0,0,0,0,0,0.00000000000000000235474661465411,0.000000000000000033582762247954,0.0000000000000000413593129428487,0.0000000000000000323201684204491,0.0000000000000000171302167164883,-0.0000000000002,-0.00000000000195,-0.00000000000312,-0.00000000000081,-0.00000000000296,-0.00000000000171,-0.00000000000001,-0,-0,0.0000000000000000384638802785995,0.00000000000000000941898645861642,0,0,0,0,0,0,0,0,0,0,0,0,0.00000000000000000000023039064668,0.00000000000000000013405531349212,0.00000000000000000133133750905394,0.00000000000000000158131741571641,0.00000000000000000193640308482811,0.00000000000000000165652634118886,-0.00000000000002,-0.0000000000004,-0.00000000000039,-0.00000000000266,-0.00000000000173,-0,-0,-0,0.0000000000000000281519014499647,0,0,0,0,0,0,0,0,0,0,0,0.00000000000000000003893601928935,0.00000000000000000003893601928935,0.0000000000000000000396271912294,0.00000000000000000004538695739647,0.00000000000000000003893601928935,0.0000000000000000000447025448842,0.00000000000000000012142387323467,-0,-0.00000000000014,-0.00000000000041,-0.00000000000027,-0.00000000000202,-0.00000000000173,-0,-0,-0,0.0000000000000000280758250208759,0,0,0,0,0,0,0,0,0,0,0,0.00000000000000000004746047321661,0.00000000000000000005713688037728,0.00000000000000000005828883361069,0.00000000000000000005828883361069,0.00000000000000000005828883361069,0.0000000000000000000676973753707,-0,-0,-0.00000000000014,-0.00000000000041,-0.00000000000023,-0.00000000000177,-0.00000000000172,-0,-0,-0,0.0000000000000000280758250208759,0,0,0,0,0,0,0,0,0,0,0,0,0.00000000000000000000967640716067,0.00000000000000000001151953233413,0.00000000000000000003225469053556,0.00000000000000000003225469053556,0.00000000000000000003316519457685,-0,-0,-0.00000000000014,-0.00000000000041,-0.00000000000023,-0.0000000000015,-0.00000000000253,-0,-0,-0,0.0000000000000000347777961548914,0,0,0,0,0,0,0,0,0,0,0,0,0,0,0,0,0,-0,-0,-0.00000000000014,-0.00000000000041,-0.00000000000024,-0.00000000000064,-0.00000000000303,-0.00000000000029,-0,-0,0.000000000000000044740185678428,0.00000000000000000543403064920178,0,0,0,0,0,0,0,0,0,0,0,0,0,0,0,0,-0,-0,-0.00000000000024,-0.00000000000042,-0.0000000000002,-0.00000000000014,-0.00000000000334,-0.00000000000124,-0,0.0000000000000000190191072722062,0.0000000000000000460081261632418,0.0000000000000000246342722763814,0,0,0,0,0,0,0,0,0,0,0,0,0,0,0.00000000000000000000748769601716,0.00000000000000000002361504128489,-0,-0,-0.00000000000029,-0.00000000000042,-0.00000000000008,-0,-0.0000000000021,-0.00000000000206,0.00000000000000000001535937644545,0.0000000000000000130416735580843,0.000000000000000045645857453295,0.0000000000000000293437655056896,0,0,0,0,0,0,0,0,0,0,0,0,0,0,0.00000000000000000001228750115636,0.00000000000000000004838203580318,-0,-0,-0.00000000000023,-0.00000000000039,-0.00000000000005,-0,-0.00000000000101,-0.00000000000223,0.00000000000000000029479616271909,0,0.0000000000000000280758250208759,0.000000000000000045645857453295,0.0000000000000000153964201727384,0,0,0,0,0,0,0,0,0,0,0,0,0,0,0.00000000000000000002188711143477,-0,-0,-0,-0.00000000000001,-0.00000000000001,-0,-0.00000000000027,-0.00000000000266,-0.00000000000117,0,0.0000000000000000119548674282439,0.0000000000000000416609016438803,0.0000000000000000242720035664346,0,0,0,0,0,0,0,0,0,0,0,0,0,0,0,0,0,-0,-0.00000000000001,-0.00000000000001,-0,-0,-0.00000000000116,-0.00000000000281,-0.00000000000047,0,0,0,0,0,0,0,0,0,0,0,0,0,0,0,0,0,0,0,0,-0,-0,-0,-0,-0,0,0,0,0,0,0,0,0,0,0,0,0,0,0,0,0,0,0,0,0,0,0,0,0,0,0,0,0,0,0,0,0,0,0,0,0,0,0,0],[0,0,0,0,0,0,0,0,0,0,0,0,0,0,0,0,0,0,0,0,0,0,0,0,0,0,0,0,0,0,0,0,0,0,0,0,0,0,0,0,0,0,0,0,0,0,0,0,0,0,0,0,0,0,0,0,0,0,0,0,0,0,0,0,0,0,0,0,0,0,0,0,0,0,0,0,0,0,0,0,0,0,0,0,0,0,0,0,0,0,0,0,0,0,0,0,0,0,0,0.00000000000000000003291275773957,0.00000000000000000020815095435294,0.00000000000000000010051734120462,0,0,0,0,0,0,0,0,0,0,0,0,0,0,0,0,0,0,0,0,0,0,0,-0.00000000000062,-0.00000000000453,-0.0000000000004,-0,-0.00000000000005,-0.00000000000003,0,0,0,0,0,0,0,0,0,0,0,0,0,0,-0,-0,0,0,0,0,0,0,-0.0000000000012,-0.00000000000507,-0.00000000000164,-0.00000000000004,-0.00000000000006,-0.00000000000003,-0,0,0,0,0,0,0,0,0,0,0,0,0,0,-0,-0,0.00000000000000000152355454513192,0.00000000000000000965265074392848,0.0000000000000000110415213545657,0.0000000000000000117359566598843,0.00000000000000000958320721339662,-0,-0.00000000000297,-0.00000000000521,-0.00000000000172,-0.00000000000012,-0.00000000000006,-0.00000000000004,-0,0,0,0,0,0,0,0,0,0,0,0,0,0,-0,0.000000000000000001028386837244,0.0000000000000000162497861444551,0.000000000000000015833124961264,0.0000000000000000148609155338179,0.0000000000000000178760304635556,-0,-0.00000000000012,-0.00000000000302,-0.00000000000509,-0.00000000000179,-0.00000000000015,-0.00000000000007,-0.00000000000004,-0,0,0,0,0,0,0,0,0,0,0,0,0,0,-0,0.00000000000000000152509130953295,0.00000000000000000839257969058942,0.00000000000000000232252918222671,0.00000000000000000140444692295017,0.0000000000000000118859111596406,-0.00000000000007,-0.00000000000017,-0.00000000000289,-0.00000000000507,-0.00000000000181,-0.00000000000016,-0.00000000000007,-0.00000000000002,0.0000000000000000037391737438394,0.0000000000000000037586943585292,0.00000000000000000235223407012591,0.00000000000000000125517552455658,0.00000000000000000014835667164248,0.00000000000000000004001726011409,0,0,0,0,0,0,0,0,0.00000000000000000013806201285677,0.00000000000000000304740783952906,0.00000000000000000448570734834104,0.0000000000000000051923986194726,0.0000000000000000060703404150356,0.0000000000000000047408856960402,-0.00000000000013,-0.00000000000005,-0.00000000000287,-0.00000000000507,-0.00000000000182,-0.00000000000012,-0.00000000000006,-0,0.00000000000000000688687286257617,0.00000000000000000691517775387638,0.00000000000000000691517775387638,0.00000000000000000675706077488865,0.00000000000000000296225327918314,0.00000000000000000022155897672923,0,0,0,0,0,0,0,0,0.00000000000000000241243913629475,0.00000000000000000618291425225406,0.0000000000000000052095129186137,0.0000000000000000014799590268062,0,-0.00000000000004,-0.00000000000012,0.0000000000000000136955467783338,-0.00000000000104,-0.00000000000508,-0.00000000000368,-0.00000000000011,-0.00000000000003,-0,0.00000000000000000691517775387638,0.00000000000000000691615378461087,0.00000000000000000691517775387638,0.00000000000000000690541744653148,0.00000000000000000601625344740923,0.0000000000000000001464046101735,0,0,0,0,0,0,0,0,0.00000000000000000064784749916564,0.00000000000000000249892121214466,0.0000000000000000032529569170733,0,0,-0.00000000000009,-0.00000000000011,0.00000000000000001590796526005,-0.00000000000098,-0.00000000000511,-0.00000000000364,-0.00000000000011,-0.00000000000001,0.00000000000000000199993130184277,0.00000000000000000028184733995091,0.00000000000000000033185044972712,0.00000000000000000033185044972712,0.00000000000000000023912752995057,0.00000000000000000015811697898773,0,0,0,0,0,0,0,0,0,0,-0,-0,-0,0,-0.00000000000006,-0.00000000000011,0.0000000000000000215621408721918,-0.00000000000232,-0.00000000000515,-0.00000000000189,-0.0000000000001,-0,0.00000000000000000066442296585806,-0,0,0,0,0,0,0,0,0,0,0,0,0,0,0,-0,-0,-0,-0,-0.00000000000004,-0.00000000000015,-0.00000000000001,-0.00000000000472,-0.00000000000525,-0.00000000000188,-0.00000000000008,0.0000000000000000136012990908052,-0,-0,-0,-0,0,0,0,0,0,0,0,0,0,0,0,0,-0,-0,-0,-0,-0,-0.00000000000013,-0.00000000000013,-0.00000000000494,-0.00000000000529,-0.00000000000177,-0.00000000000006,0.0000000000000000221438768432189,0.0000000000000000129197146939545,-0,-0,-0,0,0,0,0,0,0,0,0,0,0,0,0,-0,-0,-0,-0,-0,-0.00000000000001,-0.00000000000012,-0.00000000000502,-0.00000000000488,-0.0000000000002,-0.00000000000009,0.0000000000000000160509511053984,0.0000000000000000173491675997235,0.00000000000000000561973773497127,-0,-0,0,0,0,0,0,0,0,0,0,0,0,0,0.00000000000000000002635282983129,0.00000000000000000010541131932515,0,0.00000000000000000000800580593665,0.00000000000000000033658012161539,0.00000000000000000030493514444991,-0.00000000000029,-0.00000000000492,-0.00000000000485,-0.00000000000018,-0.00000000000009,0.00000000000000000075270671154996,0.0000000000000000176431581462089,0.00000000000000000617444535391234,-0,0,0,0,0,0,0,0,0,0,0,0,0.00000000000000000445362824148771,0.00000000000000000455806353007814,0.00000000000000000456684780668873,0.0000000000000000051993157226397,0.00000000000000000445362824148771,0.00000000000000000447052938735398,0.00000000000000000621036941793592,-0,-0.0000000000017,-0.00000000000514,-0.00000000000332,-0.00000000000012,-0.00000000000009,0.00000000000000000065237050634276,0.0000000000000000175126773382832,0.00000000000000000617528597922614,-0,0,0,0,0,0,0,0,0,0,0,0,0.00000000000000000542868294524538,0.00000000000000000674437237534034,0.00000000000000000689565713918658,0.0000000000000000068741844630278,0.00000000000000000686930430935535,0.00000000000000000681782137364346,-0,-0.00000000000001,-0.00000000000171,-0.00000000000514,-0.00000000000291,-0.0000000000001,-0.00000000000009,0.00000000000000000018235446855706,0.0000000000000000175587252735935,0.00000000000000000617528597922614,-0,0,0,0,0,0,0,0,0,0,0,0,0,0.00000000000000000112829152907289,0.00000000000000000150991954625894,0.00000000000000000393437989073734,0.00000000000000000393730798294081,0.00000000000000000393997658491969,-0,-0.00000000000002,-0.00000000000172,-0.00000000000513,-0.00000000000287,-0.00000000000008,-0.00000000000014,0.0000000000000000030287694445321,0.0000000000000000175582850954811,0.00000000000000000619798286269872,-0,0,0,0,0,0,0,0,0,0,0,0,0,0,0,0.00000000000000000006929818214879,0.000000000000000000097603073449,0.00000000000000000023229531480862,-0,-0.00000000000004,-0.00000000000172,-0.00000000000513,-0.00000000000287,-0.00000000000003,-0.00000000000016,-0.00000000000002,0.0000000000000000168747779192419,0.00000000000000000331750146885397,-0,-0,0,0,0,0,0,0,0,0,0,0,0,0,0,0,0,0.00000000000000000003123298350368,-0,-0.00000000000004,-0.00000000000294,-0.00000000000512,-0.00000000000239,-0.00000000000001,-0.00000000000018,-0.00000000000007,0.00000000000000000736101423637711,-0,-0,-0,0,0,0,0,0,0,0,0,0,0,0,0,0,0,0,0,-0.00000000000001,-0.00000000000004,-0.00000000000361,-0.00000000000512,-0.00000000000097,-0,-0.00000000000011,-0.00000000000011,0,-0,-0,-0,0,0,0,0,0,0,0,0,0,0,0,0,0,0,0,0,-0,-0.00000000000004,-0.00000000000289,-0.00000000000474,-0.0000000000006,-0,-0.00000000000005,-0.00000000000012,0,0,-0,-0,-0,0,0,0,0,0,0,0,0,0,0,0,0,0,0,0,-0,-0.00000000000001,-0,-0,-0,0.0000000000000000174997696940286,-0.00000000000001,-0.00000000000014,-0.00000000000006,0,-0,-0,-0,0,0,0,0,0,0,0,0,0,0,0,0,0,0,0,0,0,0.0000000000000000011789504111846,0.0000000000000000196350633622424,0.000000000000000015371034590887,0.00000000000000000374995064872042,0.00000000000000000027777412212744,-0.00000000000006,-0.00000000000015,-0.00000000000003,0,0,0,0,0,0,0,0,0,0,0,0,0,0,0,0,0,0,0,0,0.0000000000000000011789504111846,0.0000000000000000059700042098284,0.0000000000000000019816400528422,0,0,0,0,0,0,0,0,0,0,0,0,0,0,0,0,0,0,0,0,0,0,0,0,0,0,0,0,0,0,0,0,0,0,0,0,0,0,0,0,0],[0,0,0,0,0,0,0,0,0,0,0,0,0,0,0,0,0,0,0,0,0,0,0,0,0,0,0,0,0,0,0,0,0,0,0,0,0,0,0,0,0,0,0,0,0,0,0,0,0,0,0,0,0,0,0,0,0,0,0,0,0,0,0,0,0,0,0,0,0,0,0,0,0,0,0,0,0,0,0,0,0,0,0,0,0,0,0,0,0,0,0,0,0,0,0,0,0,0,0,-0,-0,-0,0,0,0,0,0,0,0,0,0,0,0,0,0,0,0,0,0,0,0,0,0,0,0,0.000000000000314428972312588,0.00000000000230243121465988,0.00000000000020285666473281,0.0000000000000000499954853617278,0.00000000000000171701072787255,0.000000000000000913704535008448,0,0,0,0,0,0,0,0,0,0,0,0,0,0,0.00000000000000000457698560184115,0.00000000000000000253589742804712,0.0000000000000000000018326268676,0.00000000000000000003481991048446,0.00000000000000000001405013931829,0,0,0,0.000000000000608572182312197,0.00000000000257628844640802,0.000000000000831718800187096,0.00000000000000126669759013118,0.00000000000000578829094302771,0.00000000000000630468207968913,0.0000000000000000625772972683942,0,0,0,0,0,0,0,0,0,0,0,0,0,0.00000000000000000461821970636224,0.00000000000000000424711276567242,0.0000000000000140416674146655,0.0000000000000887171767495447,0.000000000000101482207852487,0.000000000000107864737452363,0.0000000000000880791081703077,0.000000000000016433059125123,0.00000000000122352062263875,0.00000000000222861044226944,0.000000000000633300860370772,-0.00000000000021,0.00000000000000797802137413385,0.00000000000000887007813295854,0.000000000000000312817304677719,0,0,0,0,0,0,0,0,0,0,0,0,0,0.00000000000000000228849280092058,0.000000000000010854029153353,0.000000000000149351156269492,0.000000000000145525667615267,0.000000000000136591570395487,0.000000000000161519377704211,0.000000000000158365329173888,-0.00000000000013,0.0000000000012093214275508,0.00000000000253999236751667,0.000000000000461604646681727,-0.00000000000027,0.00000000000000986051051765052,0.00000000000000880790348746139,0.000000000000000312816235645379,0,0,0,0,0,0,0,0,0,0,0,0.00000000000000000009737469687409,0.00000000000000000730310226555674,0.0000000000000000141073197147113,0.0000000000000159750297672386,0.0000000000000772492061168912,0.0000000000000206255010389178,0.00000000000000921104855789905,0.0000000000000726072806063501,-0.00000000000004,-0.00000000000023,0.00000000000158352538574344,0.00000000000263002379165914,0.000000000000457742404586367,-0.0000000000002,0.000000000000013213087652414,0.00000000000000551154119705535,0.00000000000000000998773175921953,0.00000000000000000971476559928611,0.00000000000000000598390596632368,0.00000000000000000302680568014568,0.00000000000000000014560027323527,0.00000000000000000003927375791215,0,0,0,0,0,0,0.00000000000000000077899757499272,0.0000000000000000224935549779148,0.000000000000000516990025975377,0.00000000000000580864471525744,0.00000000000000802675473194348,0.00000000000000922168122878183,0.0000000000000107758074877812,0.00000000000000841645242035857,-0.00000000000032,-0.00000000000003,0.00000000000162205270730453,0.00000000000269438611395891,0.000000000000455107531776169,-0.00000000000012,0.0000000000000199775647851296,0.00000000000000297504758940118,0.0000000000000000238134193381615,0.0000000000000000175991382899468,0.0000000000000000175991382899468,0.000000000000000017187537517531,0.0000000000000000073091189795525,0.00000000000000000021744251331847,0,0,0,0,0,0,0,0.00000000000000000467398544995632,0.00000000000000450558115754121,0.0000000000000113469473639363,0.00000000000000938476040523359,0.0000000000000026236860679921,0.00000000000000000008962638173848,-0.0000000000001,-0.0000000000003,0.0000000000000740508306142786,0.000000000000688915396948595,0.00000000000265285116604728,0.00000000000136632659906498,-0.00000000000009,0.0000000000000190379774727304,0.00000000000000156691318618519,0.0000000000000000285191544791632,0.0000000000000000176000961864812,0.0000000000000000175991382899468,0.0000000000000000175895593246024,0.0000000000000000153493340679328,0.00000000000000000014368448016639,0,0,0,0,0,0,0,0,0.0000000000000012009281276999,0.00000000000000480598038654825,0.0000000000000059141862014165,0.0000000000000000000386378831253,0.00000000000000000008458665785257,-0.00000000000021,-0.00000000000026,0.0000000000000810743390114142,0.000000000000660557863599284,0.00000000000257783173838162,0.00000000000128619472189935,-0.00000000000009,0.0000000000000154857251146286,0.00000000000000354172454023067,0.0000000000000000177400299872482,0.00000000000000000071031712246459,0.00000000000000000071031712246459,0.00000000000000000061931695169254,0.00000000000000000041160077241577,0,0,0,0,0,0,0,0,0,0,0.00000000000000000472130496766497,0.00000000000000000441006383798354,0.00000000000000000022419135347022,0.00000000000000000008260131207933,-0.00000000000015,-0.00000000000026,0.000000000000133410855473746,0.00000000000134203274809923,0.00000000000261523084532409,0.000000000000425557835486023,-0.00000000000008,0.0000000000000118019017436914,0.00000000000000158573444822487,0.0000000000000000193357403702483,0,0,0,0,0,0,0,0,0,0,0,0,0,0,0.00000000000000000329872836168732,0.0000000000000000052671223363997,0.00000000000000000191478963883497,0.0000000000000000010603077459461,-0.00000000000011,-0.00000000000035,0.0000000000000272917430501523,0.00000000000254257450930318,0.00000000000244805670124469,0.000000000000557038117442808,0.0000000000000342834004677546,0.0000000000000919361110581976,0.000000000000000029905211429129,0.0000000000000000209438704465709,0.00000000000000000208232227831512,0.00000000000000000028863873164764,0,0,0,0,0,0,0,0,0,0,0,0,0.00000000000000000241219511448385,0.0000000000000000052671223363997,0.00000000000000000527536915730392,0.0000000000000000052791600339992,0.00000000000000000565960227184882,-0.00000000000031,-0.00000000000031,0.00000000000221387290528591,0.00000000000223208926606573,0.000000000000454616885088309,0.0000000000000588201511743259,0.000000000000169163378008036,0.000000000000120659478746425,0.0000000000000000211366017054806,0.00000000000000000524360362493213,0.00000000000000000301008963003968,0,0,0,0,0,0,0,0,0,0,0,0,0.00000000000000000026802167938709,0.00000000000000000369136866807148,0.00000000000000000447145683804827,0.00000000000000000344075694392662,0.00000000000000000166607962512387,-0.00000000000003,-0.00000000000025,0.00000000000209759239438718,0.00000000000238973456186298,-0.00000000000038,-0.00000000000017,0.000000000000125446823428609,0.000000000000160228483436858,0.0000000000000536308768033972,0.00000000000000000424787636020058,0.00000000000000000107208671754838,0,0,0,0,0,0,0,0,0,0,0,0,0.00000000000000000006860012873596,0.00000000000000000027653857962272,0.00000000000000000002138064678871,-0,-0,-0,0.000000000000148354727177836,0.00000000000247458387348571,0.00000000000244256588901639,-0.00000000000034,-0.00000000000021,0.000000000000000956361101090177,0.00000000000016278114458047,0.0000000000000587307489575276,0.00000000000000000319686485162966,0,0,0,0,0,0,0,0,0,0,0,0.0000000000000000115934217563776,0.0000000000000000116959166855629,0.000000000000000011832748521291,0.0000000000000000135218885332601,0.0000000000000000115934217563776,0.0000000000000000114582297580086,0.0000000000000000140256407397063,0.00000000000000104803369546439,0.000000000000850297830873874,0.00000000000258616112667075,0.00000000000166146038590542,-0.00000000000025,-0.00000000000021,0.000000000000000778552726146358,0.000000000000161501509599355,0.0000000000000587257594819945,0.00000000000000000319564310038459,0,0,0,0,0,0,0,0,0,0,0,0.0000000000000000141316265196082,0.0000000000000000172178217848893,0.000000000000000017579980359258,0.0000000000000000175589066355002,0.000000000000000017554117152828,0.0000000000000000172559511151466,0.000000000000000172094583936704,0.00000000000000548811802308752,0.000000000000851389755677392,0.00000000000258616121000657,0.00000000000145741570594089,-0.00000000000022,-0.00000000000022,0.0000000000000000232134948999672,0.000000000000161487696370305,0.0000000000000587244936109351,0.00000000000000000319564310038459,0,0,0,0,0,0,0,0,0,0,0,0,0.00000000000000000290227913066814,0.00000000000000000361871205408329,0.00000000000000000984445005317977,0.0000000000000000098473237427831,0.00000000000000000982597763777746,0.000000000000000352634140756373,0.00000000000000818066461765167,0.000000000000851721128484033,0.0000000000025838636135055,0.00000000000145359612464955,-0.00000000000018,-0.00000000000032,0.0000000000000274688107141042,0.000000000000161479977185291,0.0000000000000587239369505241,0.00000000000000000395847403402478,0,0,0,0,0,0,0,0,0,0,0,0,0,0,0.00000000000000000006801065394542,0.00000000000000000009578965344426,0.00000000000000000022797937519734,0.000000000000000343114056391599,0.00000000000000888678637175488,0.00000000000085171233456345,0.00000000000258138838444086,0.00000000000145637974904586,-0.00000000000007,-0.00000000000036,0.000000000000109937509900389,0.000000000000155095428497365,0.0000000000000319164331461273,0.00000000000000000509241190835479,0.00000000000000000061851156781637,0,0,0,0,0,0,0,0,0,0,0,0,0,0,0,0.00000000000000000003932373490635,0.000000000000000344050052695448,0.00000000000000888856759587563,0.00000000000146933145693925,0.00000000000257989221609419,0.00000000000121828691002611,-0.00000000000001,-0.00000000000034,-0,0.0000000000000676547959700441,0.0000000000000000021647904873573,0.00000000000000000523673127417861,0.00000000000000000280391910743422,0,0,0,0,0,0,0,0,0,0,0,0,0,0,0,0.00000000000000000005120046093904,0.00000000000000372301127318008,0.00000000000000888415251711627,0.00000000000180924644397297,0.00000000000258132432564376,0.000000000000498544176248636,0.0000000000000486775752236497,-0.00000000000012,-0.00000000000011,0,0.00000000000000000148442776275929,0.00000000000000000519549716965752,0.00000000000000000333996246620841,0,0,0,0,0,0,0,0,0,0,0,0,0,0,0,0.00000000000000000005120046093904,0.00000000000000281557001959829,0.00000000000000887306641264155,0.00000000000144403966794928,0.00000000000240314071913944,0.000000000000323274366786847,0.000000000000131997701752504,0.000000000000029151916000252,-0.0000000000002,0.00000000000000000000473428607464,0,0.00000000000000000319564310038459,0.00000000000000000519549716965752,0.00000000000000000175244944214639,0,0,0,0,0,0,0,0,0,0,0,0,0,0,0.00000000000000000000660651108891,0.000000000000000344155150048266,0.00000000000000732006641882667,0.00000000000000238251682224642,0.0000000000000433128337848601,0.000000000000119977555371522,0.000000000000160859412526953,0.0000000000000504077471892328,-0.00000000000035,-0.00000000000015,0,0.00000000000000000136072544919602,0.00000000000000000474192201992552,0.00000000000000000276268500291313,0,0,0,0,0,0,0,0,0,0,0,0,0,0,0,0,0,0.00000000000000208927716053392,0.000000000000133203330538169,0.000000000000118968133262439,0.0000000000000344873761176992,0.00000000000000256566987927454,-0.00000000000015,-0.00000000000037,-0.00000000000006,0,0,0,0,0,0,0,0,0,0,0,0,0,0,0,0,0,0,0,0,0.00000000000000208924840558987,0.0000000000000105808641802166,0.00000000000000352953497466839,0.0000000000000000182090683154548,0.00000000000000000593985650931948,0,0,0,0,0,0,0,0,0,0,0,0,0,0,0,0,0,0,0,0,0,0,0,0,0,0,0,0,0,0,0,0,0,0,0,0,0,0,0],[0,0,0,0,0,0,0,0,0,0,0,0,0,0,0,0,0,0,0,0,0,0,0,0,0,0,0,0,0,0,0,0,0,0,0,0,0,0,0,0,0,0,0,0,0,0,0,0,0,0,0,0,0,0,0,0,0,0,0,0,0,0,0,0,0,0,0,0,0,0,0,0,0,0,0,0,0,0,0,0,0,0,0,0,0,0,0,0,0,0,0,0,0,0,0,0,0,0,0,-0,-0,-0,0,0,0,0,0,0,0,0,0,0,0,0,0,0,0,0,0,0,0,0,0,0,0,0.000000000000112783591581675,0.000000000000825866944682747,0.0000000000000727635939720616,0.0000000000000000722190205571421,0.00000000000000241613193543356,0.0000000000000012850584779218,0,0,0,0,0,0,0,0,0,0,0,0,0,0,0.00000000000000000241883815210694,0.00000000000000000134016708427547,0,0,0,0,0,0,0.000000000000218290822416144,0.000000000000924097811020015,0.000000000000298334151452064,0.0000000000000017473495011329,0.00000000000000317110575154759,0.0000000000000020155631204654,0.00000000000000000848141659039409,0,0,0,0,0,0,0,0,0,0,0,0,0,0.0000000000000000024406294868106,0.00000000000000000224450747447761,0.000000000000000156570431594557,0.000000000000000988896250128811,0.00000000000000113118348036317,0.00000000000000120232709548035,0.000000000000000981781888617093,-0.00000000000001,0.0000000000000418864850680574,0.000000000000217147612423353,-0.00000000000011,-0.00000000000044,0.00000000000000346782583241133,0.00000000000000236343908312319,0.0000000000000000424070829519704,0,0,0,0,0,0,0,0,0,0,0,0,0,0.00000000000000000120941907605347,0.000000000000000122916261489889,0.00000000000000166476059374203,0.00000000000000162201648260397,0.00000000000000152239422312245,0.00000000000000178784579901947,-0.00000000000001,-0.0000000000006,-0.0000000000002,0.000000000000831198572205894,-0.00000000000047,-0.00000000000055,0.00000000000000372218918973794,0.00000000000000235490500534571,0.0000000000000000424070829519704,0,0,0,0,0,0,0,0,0,0,0,-0,-0,0.00000000000000000158643922703157,0.000000000000000180397412556394,0.000000000000000860673127702724,0.00000000000000022604072353025,0.000000000000000085744928083141,0.000000000000000648193974063665,-0.00000000000034,-0.00000000000082,0.000000000000432744486140113,0.00000000000092450512008956,-0.00000000000049,-0.00000000000045,0.0000000000000036963465538802,0.00000000000000151901112412688,0.00000000000000000105506203875152,0.00000000000000000105930170224508,0.0000000000000000006460989105892,0.00000000000000000031553667726449,0,0,0,0,0,0,0,0,-0,-0,-0,-0,-0,-0,-0,-0,-0.00000000000065,-0.00000000000023,0.000000000000525697832749941,0.000000000000925428187048925,-0.00000000000049,-0.00000000000028,0.00000000000000315153249795078,0.000000000000000350874840074919,0.00000000000000000181028668708779,0.00000000000000000190073284161707,0.00000000000000000190073284161707,0.00000000000000000185565617343642,0.00000000000000000077381613710102,0,0,0,0,0,0,0,0,-0,-0,-0,-0,-0,0,-0.0000000000002,-0.00000000000061,0.00000000000000082680031764673,0.000000000000190986360343559,0.000000000000879023488481149,-0.00000000000019,-0.00000000000021,0.00000000000000176235949644603,0.000000000000000107607340891627,0.00000000000000000174245207119083,0.00000000000000000190073284161707,0.00000000000000000190073284161707,0.00000000000000000190073284161707,0.00000000000000000166032394465364,0,0,0,0,0,0,0,0,0,-0,-0,-0,0,0,-0.00000000000042,-0.00000000000052,0.000000000000000905400269854154,0.000000000000180195980942626,0.000000000000797476497210128,-0.00000000000029,-0.00000000000021,0.00000000000000070659867290981,-0,0.00000000000000000044741732415686,0.00000000000000000006761500227096,0.00000000000000000006761500227096,0.00000000000000000006761500227096,0.00000000000000000004507666818064,0,0,0,0,0,0,0,0,0,0,0.00000000000000000249510782356977,0.00000000000000000232077714594044,0.0000000000000000000980610061665,0,-0.0000000000003,-0.00000000000052,0.00000000000000148877902485859,0.000000000000424380874083371,0.00000000000076402858334029,-0.0000000000006,-0.00000000000021,0.00000000000000020414261029604,-0,0.0000000000000000016001170652912,0,0,0,0,0,0,0,0,0,0,0,0,0,0,0.00000000000000000174330677629329,0.0000000000000000027674995073656,0.00000000000000000099150572901681,0.00000000000000000052299203288799,-0.00000000000021,-0.00000000000072,-0.00000000000005,0.000000000000861273021694673,0.000000000000322041430235679,-0.0000000000006,-0.00000000000021,0.000000000000000874616160982732,0.00000000000000000240995455274204,0.00000000000000000244997911873418,0.00000000000000000110046240253514,0.00000000000000000015253934292566,0,0,0,0,0,0,0,0,0,0,0,0,0.00000000000000000127479308016447,0.0000000000000000027674995073656,0.0000000000000000027674995073656,0.0000000000000000027674995073656,0.0000000000000000027674995073656,-0.00000000000063,-0.00000000000064,0.000000000000360774688692993,0.000000000000149785359278823,-0.00000000000056,-0.00000000000021,0.00000000000000173529413524315,0.00000000000000134691532359394,0.00000000000000000253714445754884,0.0000000000000000027674995073656,0.00000000000000000159076743336763,0,0,0,0,0,0,0,0,0,0,0,0,0.00000000000000000014164367557383,0.00000000000000000193942878862628,0.00000000000000000234256848064411,0.00000000000000000179778511305245,0.00000000000000000088179905624748,-0.00000000000005,-0.00000000000052,0.000000000000155383080185944,0.000000000000766213996251193,-0.00000000000078,-0.00000000000045,0.00000000000000130984896933222,0.00000000000000178668423657401,0.000000000000000600194387403789,0.00000000000000000223361180712578,0.00000000000000000056657470229532,0,0,0,0,0,0,0,0,0,0,0,0,0.00000000000000000000751277803011,0.00000000000000000003005111212043,0,-0,0.00000000000000000003121446755741,0.00000000000000000006068931345139,0.0000000000000520408718084462,0.000000000000887801394076112,0.000000000000876671190117266,-0.00000000000071,-0.00000000000046,-0,0.00000000000000181498851827858,0.00000000000000065720920809825,0.00000000000000000168882843953412,0,0,0,0,0,0,0,0,0,0,0,0.00000000000000000126965948708808,0.00000000000000000126965948708808,0.0000000000000000012921978211784,0.00000000000000000148001727193107,0.00000000000000000126965948708808,0.00000000000000000126728448945993,0.00000000000000000168453841920178,0.000000000000000141844053730145,0.000000000000304437928928051,0.000000000000927821983832977,0.000000000000596511523447125,-0.00000000000053,-0.00000000000046,-0,0.00000000000000180069323521656,0.000000000000000657270386710289,0.00000000000000000168882843953412,0,0,0,0,0,0,0,0,0,0,0,0.00000000000000000154763227420204,0.00000000000000000186316895146653,0.00000000000000000190073284161707,0.00000000000000000190073284161707,0.00000000000000000190073284161707,0.00000000000000000189685784548693,0.0000000000000000230725243493102,0.000000000000000780909101874673,0.000000000000305217573922907,0.000000000000927821983957976,0.000000000000523065807798155,-0.00000000000047,-0.00000000000046,-0,0.00000000000000180003637291574,0.000000000000000657288758585428,0.00000000000000000168882843953412,0,0,0,0,0,0,0,0,0,0,0,0,0.00000000000000000031553667726449,0.00000000000000000037563890150535,0.00000000000000000105178892421498,0.00000000000000000105178892421498,0.00000000000000000105141392458948,0.000000000000000047675830195101,0.00000000000000138588224715556,0.000000000000305691801603843,0.000000000000927510864620153,0.000000000000521070880472289,-0.0000000000004,-0.00000000000067,0.000000000000000305559652939903,0.00000000000000180004966815928,0.000000000000000656994575566928,0.00000000000000000209196813155195,0,0,0,0,0,0,0,0,0,0,0,0,0,0,0,0,0,0.0000000000000000466246662702618,0.00000000000000238634092759749,0.00000000000030569135158894,0.00000000000092717561018908,0.000000000000521018550494224,-0.00000000000017,-0.0000000000008,-0.00000000000007,0.00000000000000172878984734749,0.000000000000000357722878378641,0.00000000000000000269122983590276,0.00000000000000000032687002055499,0,0,0,0,0,0,0,0,0,0,0,0,0,0,0,0,0.0000000000000000466909433971533,0.00000000000000238753690884395,0.00000000000052747178558857,0.000000000000926788763044308,0.00000000000043366372061401,-0.00000000000004,-0.00000000000088,-0.00000000000033,0.000000000000000754122320242115,0.00000000000000000114404507194247,0.0000000000000000027674995073656,0.00000000000000000148181075984929,0,0,0,0,0,0,0,0,0,0,0,0,0,0,0,0,0.000000000000000504799968729448,0.00000000000000238413509097344,0.00000000000065049988638041,0.000000000000926555003031762,0.000000000000175055718631569,0.000000000000000447214119133858,-0.00000000000056,-0.00000000000054,0,0.00000000000000000078448804933198,0.00000000000000000274570817266193,0.00000000000000000176509811099695,0,0,0,0,0,0,0,0,0,0,0,0,0,0,0,0,0.000000000000000381688250876114,0.00000000000000237647574095592,0.000000000000519515212601605,0.000000000000860199229977123,0.000000000000109191400764758,0.00000000000000143127990601643,-0.00000000000027,-0.00000000000059,0,0,0.00000000000000000168882843953412,0.00000000000000000274570817266193,0.00000000000000000092613172490581,0,0,0,0,0,0,0,0,0,0,0,0,0,0,0,0.0000000000000000466538868462669,0.00000000000000099235463421584,0.000000000000000154124189425443,0.000000000000000315962828128834,0.00000000000000117932579360968,0.00000000000000179253504349888,-0.00000000000007,-0.00000000000071,-0.00000000000031,0,0.00000000000000000071911404522098,0.0000000000000000025060034909216,0.00000000000000000146001942514563,0,0,0,0,0,0,0,0,0,0,0,0,0,0,0,0,0,-0,0.00000000000000127767716424207,0.00000000000000122769344444377,0.000000000000000383860373313088,0.0000000000000000282737272954847,-0.00000000000031,-0.00000000000075,-0.00000000000012,0,0,0,0,0,0,0,0,0,0,0,0,0,0,0,0,0,0,0,0,-0,-0,-0,-0,-0,0,0,0,0,0,0,0,0,0,0,0,0,0,0,0,0,0,0,0,0,0,0,0,0,0,0,0,0,0,0,0,0,0,0,0,0,0,0,0],[0,0,0,0,0,0,0,0,0,0,0,0,0,0,0,0,0,0,0,0,0,0,0,0,0,0,0,0,0,0,0,0,0,0,0,0,0,0,0,0,0,0,0,0,0,0,0,0,0,0,0,0,0,0,0,0,0,0,0,0,0,0,0,0,0,0,0,0,0,0,0,0,0,0,0,0,0,0,0,0,0,0,0,0,0,0,0,0,0,0,0,0,0,0,0,0,0,0,0,-0,-0,-0,0,0,0,0,0,0,0,0,0,0,0,0,0,0,0,0,0,0,0,0,0,0,0,0.0000000000000448810009449805,0.00000000000032864474854494,0.000000000000028955450974768,0.000000000000000406897509348425,0.000000000000013628543212197,0.00000000000000724878232679812,0,0,0,0,0,0,0,0,0,0,0,0,0,0,-0,-0,0,0,0,0,0,0,0.0000000000000868664534418978,0.00000000000036773464328661,0.000000000000118720517027499,0.00000000000000971150849824438,0.0000000000000152598690222312,0.00000000000000789480198649686,0.000000000000000008066499801233,0,0,0,0,0,0,0,0,0,0,0,0,0,-0,-0,0.0000000000000000676968689015965,0.000000000000000428371642386529,0.000000000000000490007849924159,0.000000000000000520825953692974,0.000000000000000425289832009647,0.0000000000000153416089296439,0.000000000000894136720217901,0.00000000000137336521261841,0.000000000000692643353283346,0.000000000000632480985461576,0.0000000000000155420907985779,0.00000000000000822603030445095,0.000000000000000040332499006165,0,0,0,0,0,0,0,0,0,0,0,0,0,-0,0.0000000000000000486636464963509,0.000000000000000721143628190272,0.000000000000000702308587564015,0.000000000000000659037323373661,-0,0.0000000000000143097265690525,0.000000000000842668214743439,0.0000000000012205162067301,0.000000000000485823395935327,0.00000000000119725532854313,0.000000000000790372287240324,0.0000000000000157836156953359,0.00000000000000821775618034323,0.000000000000000040332499006165,0,0,0,0,0,0,0,0,0,0,0,-0,-0,-0,0.0000000000000000707098494510674,0.00000000000000037089748286524,-0,-0,-0.00000000000001,0.000000000000471253390727126,0.00000000000114741230491587,0.000000000000324936021248719,0.00000000000035159241363459,0.00000000000122300200477053,0.000000000000649808531859546,0.0000000000000107939584647114,0.00000000000000544475090756874,-0,-0,-0,-0,-0,-0,0,0,0,0,0,0,-0,-0,-0,-0.00000000000001,-0.00000000000001,-0.00000000000001,-0.00000000000002,-0.00000000000001,0.000000000000924459423813192,0.00000000000033476148096109,0.000000000000209258840080889,0.00000000000036831717758604,0.00000000000123357508081205,0.000000000000400728677524492,-0,-0,-0,-0,-0,-0,-0,-0,0,0,0,0,0,0,0,-0,-0.00000000000001,-0.00000000000002,-0.00000000000001,-0,0,0.000000000000289499720159768,0.000000000000873577974801925,0.000000000000000356834501838325,0.0000000000000760634325383594,0.000000000000434469737422171,0.00000000000143909006071561,0.000000000000304203201433048,-0.00000000000001,-0,-0,-0,-0,-0,-0,-0,0,0,0,0,0,0,0,0,-0,-0.00000000000001,-0.00000000000001,0,0,0.000000000000604394152194134,0.000000000000741525406731218,0.000000000000000390549820168968,0.0000000000000718298330534206,0.00000000000055422668252093,0.00000000000155558635047158,0.000000000000309325062203044,-0.00000000000002,-0.00000000000001,-0,-0,-0,-0,-0,0,0,0,0,0,0,0,0,0,0,-0,-0,-0,0,0.000000000000431710095706409,0.000000000000741525388362373,0.000000000000000643247412691201,0.00000000000016924307712865,0.000000000000613275944550666,0.00000000000142469790474706,0.000000000000302280820266654,-0.00000000000002,-0,-0,0,0,0,0,0,0,0,0,0,0,0,0,0,0,-0,-0,-0,-0,0.000000000000304734532339394,0.00000000000102086450743575,0.0000000000000764394616465959,0.000000000000343862989032179,0.00000000000124434902077163,0.00000000000142208709360817,0.000000000000293003894323877,-0.00000000000001,-0,-0,-0,-0,0,0,0,0,0,0,0,0,0,0,0,0,-0,-0,-0,-0,-0,0.000000000000898967477669197,0.000000000000909352361636931,0.00000000000108888770036685,0.00000000000149086124959228,0.00000000000132678922143861,0.000000000000287438733675468,-0.00000000000001,0.000000000000000575313910658853,-0,-0,-0,0,0,0,0,0,0,0,0,0,0,0,0,-0,-0,-0,-0,-0,0.0000000000000761831811991169,0.00000000000073818621259848,0.00000000000139380828590468,0.000000000000520754002887759,0.00000000000112464553290532,0.000000000000628732596418738,-0.00000000000001,0.000000000000000768870015271404,0.000000000000000252575621184408,-0,-0,0,0,0,0,0,0,0,0,0,0,0,0,-0,-0,0,-0,-0,-0,0.0000000000000224756784440014,0.000000000000367592666248937,0.000000000000363043425894756,0.00000000000100740947871566,0.000000000000633216895575348,-0,0.000000000000000781483991872924,0.000000000000000277738371760354,-0,0,0,0,0,0,0,0,0,0,0,0,-0,-0,-0,-0,-0,-0,-0,0.000000000000000132303647567295,0.000000000000129258791676226,0.00000000000038351796522724,0.000000000000251546610007613,0.000000000000753079297132514,0.000000000000633947414006332,-0,0.00000000000000077577812772678,0.000000000000000278187087945957,-0,0,0,0,0,0,0,0,0,0,0,0,-0,-0,-0,-0,-0,-0,0.000000000000000019323252045064,0.000000000000000932937339103198,0.000000000000133278737226399,0.00000000000038351797015879,0.000000000000218900921092507,0.000000000000651366421220282,0.000000000000637337495530963,-0,0.00000000000000077843633083085,0.000000000000000278296217671434,-0,0,0,0,0,0,0,0,0,0,0,0,0,-0,-0,-0,-0,-0,0.0000000000000000438595166109793,0.00000000000000271420040515104,0.000000000000135948567763605,0.000000000000383224137664639,0.000000000000207874129952992,0.000000000000546874929956255,0.000000000000943270759641078,0.000000000000000130412700737912,0.000000000000000779279228240734,0.000000000000000278852198376336,-0,0,0,0,0,0,0,0,0,0,0,0,0,0,0,-0,-0,-0,0.0000000000000000442765655903692,0.0000000000000083435110115408,0.000000000000135949373720804,0.00000000000038290571779983,0.000000000000203457889661401,0.000000000000221821844279069,0.00000000000113877039933659,0.000000000000107365382413729,0.000000000000000748879921582205,0.000000000000000150301613299563,-0,-0,0,0,0,0,0,0,0,0,0,0,0,0,0,0,0,-0,0.000000000000000044524923626706,0.00000000000000834493582639624,0.000000000000224122325484111,0.000000000000380618541676365,0.000000000000160732513501779,0.0000000000000374240566828012,0.00000000000125985401869242,0.000000000000468042328696786,0.000000000000000326671899949439,-0,-0,-0,0,0,0,0,0,0,0,0,0,0,0,0,0,0,0,0,0.000000000000000480482924767354,0.0000000000000083421404216936,0.000000000000272709401638596,0.000000000000376712618341212,0.0000000000000552999141552712,-0.00000000000001,0.000000000000793040416876606,0.000000000000777854812433299,0,-0,-0,-0,0,0,0,0,0,0,0,0,0,0,0,0,0,0,0,0,0.000000000000000363031467840225,0.00000000000000833530553355444,0.000000000000220580046564032,0.000000000000338509031360489,0.0000000000000276078749848113,-0,0.000000000000381696595489803,0.000000000000843523574395844,0,0,-0,-0,-0,0,0,0,0,0,0,0,0,0,0,0,0,0,0,0,0.0000000000000000443657489067815,0.000000000000000943780476744261,-0,-0.00000000000002,-0.00000000000001,0.000000000000000774928901526369,0.000000000000101991744612614,0.00000000000100564293411228,0.000000000000441867993928067,0,-0,-0,-0,0,0,0,0,0,0,0,0,0,0,0,0,0,0,0,0,0,-0,-0.00000000000002,-0.00000000000001,0.000000000000000164545765829946,0.0000000000000000112359442527496,0.000000000000436789051469124,0.00000000000106149897391915,0.000000000000177762986063016,0,0,0,0,0,0,0,0,0,0,0,0,0,0,0,0,0,0,0,0,-0,-0.00000000000002,-0.00000000000001,-0,-0,0,0,0,0,0,0,0,0,0,0,0,0,0,0,0,0,0,0,0,0,0,0,0,0,0,0,0,0,0,0,0,0,0,0,0,0,0,0,0],[0,0,0,0,0,0,0,0,0,0,0,0,0,0,0,0,0,0,0,0,0,0,0,0,0,0,0,0,0,0,0,0,0,0,0,0,0,0,0,0,0,0,0,0,0,0,0,0,0,0,0,0,0,0,0,0,0,0,0,0,0,0,0,0,0,0,0,0,0,0,0,0,0,0,0,0,0,0,0,0,0,0,0,0,0,0,0,0,0,0,0,0,0,0,0,0,0,0,0,0.00000000000000000000178696349611,0.00000000000000000001130133670514,0.00000000000000000000545748310975,0,0,0,0,0,0,0,0,0,0,0,0,0,0,0,0,0,0,0,0,0,0,0,-0.00000000000003,-0.0000000000002,-0.00000000000002,-0,-0,-0,0,0,0,0,0,0,0,0,0,0,0,0,0,0,0.00000000000000000010369271314384,0.00000000000000000005745136809321,0,0,0,0,0,0,-0.00000000000005,-0.00000000000023,-0.00000000000007,-0,-0,-0,-0,0,0,0,0,0,0,0,0,0,0,0,0,0,0.00000000000000000010462688173072,0.00000000000000000009621936444879,0.000000000000000141683166006555,0.000000000000000895165247787598,0.00000000000000102396600286495,0.00000000000000108834472287123,0.000000000000000888415340724009,0.0000000000000127170854094314,0.000000000000432917360957191,0.000000000000596450381838987,0.000000000000397023190564046,0.000000000000510799974965053,-0,-0,-0,0,0,0,0,0,0,0,0,0,0,0,0,0,