{"cost":"CROSS_ENTROPY","layers":[{"activation":"SIGMOID","bias_gradients":[0,0,0,0,0,0,0,0,0,0,0,0,0,0,0,0],"biases":[-0.2858725952265,-0.44515197488567,-0.20564463711157,0.0317627485985986,0.29148024874343,1.56410163490542,1.24453442990591,1.47495910308051,1.42674554164661,0.31535284117115,2.61356775200453,1.75064260248165,1.11062147841798,-1.75959488114918,0.225362933528227,-1.48369322481486],"deltas":[-0.00206248880416,-0.0715800006284,-0.00008589977383,0.0242793128413553,0.00321202064276633,0.389906188231582,0.00413334657642376,0.00426677342877041,0.0412740381088357,-0.00087758383365,0.000307468881376411,0.163855437324711,0.000221167669774946,0.205842874526601,0.0158971516693359,-0.0619715435844],"input_count":784,"output_count":16,"outputs":[0.00826325187713165,0.94514111052687,0.999969388345466,0.0204573994877715,0.0080757617129213,0.809957505759332,0.99580757248394,0.0022285814249575,0.0280985679681397,0.999628824376961,0.000228316417337095,0.0614731067562428,0.99991656043981,0.244735939056519,0.987026006620809,0.0276603238698381],"prev_bias_gradients":[-0.01168055493689,-0.53806236617894,-1.00849659933719,0.0651451553110654,-0.89890419920742,-1.2200418398259,0.540332838507032,-1.45688188309648,0.797492265864337,-0.319646928473,1.58744532907974,0.534247274407536,0.146036644580605,-0.68134056484402,0.90862626011787,-1.9859555753002],"prev_weight_gradients":[[0,0,0,0,0,0,0,0,0,0,0,0,0,0,0,-0.00000000398849,-0.00000000765134,-0.00000000806161,-0.0000003572481,-0.00000033676256,-0.00000015439152,0.000000001252885219078,0,0,0,0,0,0,0,0,0,0,0,0,0,0,0,0,0,0,0,0.00000000210087547476402,0.000118620855332015,0.000664896790741973,0.00102481729879093,0.0000503528335764225,-0.0000005801847,-0.0000004745473,-0.00000032083303,-0.00000008687805,0.00000000000651957084221979,0,0,0,0,0,0,0,0,0,0,0,0,0,0,0,0.000000000385522954498851,0.00000000231470069152089,0.00000000477409524846855,-0.00000006102356,0.000719963644009332,0.001070603396948,0.000920199087516235,-0.00002449791434,-0.00002624503589,-0.0000362266264,-0.00003220643094,-0.00002004857148,-0.00001211141668,-0.00000064435139,-0.00000018135633,0,0,0,0,0,0,0,0,-0.00000000013773,0,0,0,0,0.0000000122592230566771,-0.00000001159578,-0.00000149358595,0.0000124754761156141,0.00102975181844784,0.000602316890974707,0.0000747556136506951,-0.00015290079202,-0.0001714110435,-0.00006310211193,-0.00006370840775,-0.00004742067507,-0.00002994322145,-0.00000172311311,-0.00000096590086,0.000000000000770969744024031,0.00000364735673972715,0.00000297192035397251,0,0,0,0,0,-0.00000000107003,-0.0000000009323,0,0,0,0.0000000194296903305456,-0.00000048593256,-0.00006644694955,0.000562516900905433,0.000335791926236201,0.000301854748915984,-0.00060050046651,-0.00085263426671,-0.00066037965874,-0.00018157619955,-0.00014782979024,-0.00007471568158,-0.0000370230795,-0.00003585404534,-0.00001722424145,0.000021225874955366,0.0000560653867958946,0.000023910450108931,0,0,0,0,0,0,-0.00018043536123,0,0,0.000000149498838471717,-0.00002878405181,-0.00014779960373,-0.00052222168603,-0.00033989776816,0.000214840878155549,-0.00039542433425,-0.00064898870511,-0.00061084434393,-0.00071692004905,-0.00037075160895,-0.00015314222221,-0.00014153060062,-0.00004989074198,-0.00005462262821,-0.0000429904999,0.0000945443595776814,0.0000897439401268,0.000027692893869157,0,0,0,0,0.0000000158487414709304,0,0.00000000166828860716615,0.0000000108438754513334,0,-0.00000728718316,-0.00023969389796,-0.00083579483657,-0.00075646562363,0.000487803873848232,0.000932949903937053,-0.00003857931761,0.0000595135772825802,-0.00008096505547,-0.00030618435008,-0.00002420354247,-0.00016821767239,-0.00015786590831,-0.00005299124032,-0.00007739040645,0.0000000153565502883334,0.0000446169938764499,0.0000255515111252713,0.00000794725849249663,0,0,0,0.000000110107047676768,0.000000210204352220819,0.000000133463085403714,0.000000133259608197476,0.000000208780011849644,0.000000999584401711043,-0.00013975159896,-0.00078176959419,-0.00075912815452,0.000519594941217597,0.00107267948616533,0.000560218855851011,-0.00003927117137,0.0000369017424942424,0.000022319721531554,0.0000557156006414592,-0.00007883924415,-0.0002042610658,-0.00018102480272,-0.00010130991179,-0.00003618941574,0.0000342774602234681,0.0000532179227251642,0.0000125429678004462,0,0,0,0,0.000000041707213396266,0.000000210204352220819,0.000000210204352220819,0.000000207152194296392,0.000000168695003984707,0.000000325757894325032,-0.00020145866706,-0.00073491497408,-0.00024420352898,0.0000903216768593522,0.00100484559582339,0.000432952512731938,-0.00016299769265,-0.00005105934302,-0.00028195551528,-0.0004814680719,-0.00035886581903,-0.00022286049702,-0.00020069546637,-0.00008027371246,-0.00001177246912,0.000107915345148804,0.00000826089664742466,-0.00000073037616,-0.00000033309813,0,0,-0.00000000013672,-0.00000000020508,0.000000170165430403199,0.000000155150822043279,0.0000000668124842201961,0.000000455912762917372,0.0000732326917185446,0.000220679893917177,-0.00071160781102,-0.00025786088157,0.000474890264369703,0.000518156973940618,-0.00217510474056,-0.00213796544449,-0.00089529664681,-0.00075042228234,-0.00086705348965,-0.00161861663728,-0.00199027140715,-0.00336081368264,-0.00194481193936,-0.00605527382797,0.0000454180894678088,-0.00001467493634,-0.00000045548086,-0.00000009610264,0,0,0,0,0,0,-0.00000046086086,0.000218588034806098,0.000962266398390863,-0.00035785410497,-0.00087556837944,-0.00240569275506,-0.00176785074495,-0.00200147888596,-0.00218445856961,-0.00433036141686,-0.0066206779097,-0.00652327366539,-0.00889930421989,-0.01118641520257,-0.01106778700525,-0.01021773582597,-0.00928338344825,-0.00582624420668,-0.00000491654574,-0.00000180540202,-0.00000016272918,-0.00000001036731,0,0,0,0.00000000109736507301853,0.00000000658419061185133,-0.00000695378806,0.0000379289409083135,0.0008656470471338,0.00094464209046717,-0.00065575022799,-0.00096729412263,-0.00247852711234,-0.00089846710028,-0.00073336717543,-0.00198356814977,-0.00985046193599,-0.01030008560991,-0.00977463847386,-0.0088117310496,-0.00672703497384,-0.0043940369242,-0.00231377684394,-0.00051665918357,0.00000098344007973187,-0.00001344595443,-0.00001403735711,-0.00000771048003,-0.00000000897588,0.000000956413785526093,0,0.0000000215815127841742,0.0000000336525290217284,-0.00000335139999,-0.00003596178843,0.00011147650759742,0.000919857659519241,0.000981225910210952,0.000459667547701266,-0.000382512712,-0.00020858537467,-0.00178411457098,-0.00416970899678,-0.00693238920203,-0.00544968293589,-0.0030673011007,-0.00170122650522,-0.00222191673104,-0.00141694674436,-0.00002537569805,0.0000551159335771085,0.00000684066236832182,-0.00001302588529,-0.00001349925044,-0.00001358410022,-0.00001154012462,-0.0000051259142,0,0,-0.00000376489457,-0.00001482997583,-0.00000937938364,-0.00005783337965,0.000895903201187246,0.00103850935801816,0.000354655852980857,-0.00067697617871,-0.00433965999904,-0.00769744612487,-0.00878546769804,-0.00950500994253,-0.00722401749506,-0.00011567189053,-0.00131974424126,-0.00224899009237,-0.00205050310332,-0.00000268827433,0.0000700534133311309,0.00000161090534805642,0.000000903549651146173,-0.00000213907337,-0.00001016731251,-0.00001358536024,-0.00001137032169,-0.00000535181577,0,0,-0.00000590396237,-0.00002731356942,-0.00009570999846,0.000137575413777848,0.00100049183985038,0.00111044024019928,-0.00077117286853,-0.00567813767734,-0.00964772304552,-0.00583245472232,-0.00193227081323,-0.00082261998414,-0.00019207209618,-0.00229558044454,-0.00268129600173,-0.00213355008724,-0.00075197214964,0.0000460252720169079,0.0000136261380014772,0.00000130035257337936,-0.00000040199987,-0.00000400945661,-0.00001286856131,-0.00001372084528,-0.00001120730832,-0.00000369051782,0,0.00000000202909378505691,-0.00002659066672,-0.00003240265275,-0.00012002373078,0.000587239885463212,0.000686623586641893,0.000430274509926353,-0.00465192817483,-0.01043071375751,-0.00767319752905,0.000805054210471664,0.00109093834506892,-0.00006672564807,-0.00076795619851,-0.0027906458379,-0.00238369436228,-0.00105627988745,0.0000588076606071478,-0.00001590020395,-0.00001725288792,-0.00000595712192,-0.00000912796269,-0.00001145979012,-0.00001358851456,-0.00001321907287,-0.00000481641151,0,0.0000000155029873706828,0.0000000765618320472544,-0.00001459213874,-0.00003177448244,-0.0001347875386,-0.00014740422434,0.000334137465204153,-0.00109280319411,-0.00943708371468,-0.01173617377308,-0.00478840026746,-0.00108473272197,-0.00048887236026,-0.00122756749784,-0.00221555780409,-0.00134603633372,-0.00039157172926,0.0000454849042431028,0.0000367589208788836,-0.00002454555394,-0.00002869326683,-0.00000543612815,-0.00000995180261,-0.00001265877818,-0.00000727353026,-0.00000225189177,-0.00000003581519,0,0.0000000186774070126323,0.0000000389242261415838,-0.00000014116694,-0.00002776204567,-0.00015036579296,-0.00013165064535,-0.00006402120711,-0.00111315592024,-0.00947004329101,-0.01038593520679,-0.00869895209126,-0.00882501386444,-0.01060992928235,-0.00923904005833,-0.00320260685585,-0.00188529477342,0.0000478060552251897,0.0000429229236780246,0.000065001903891697,0.0000465315036255994,0.0000240838010292604,-0.00000438815611,-0.00000423873276,-0.0000068087942,-0.00000002061954,0.00000000392731488549173,0,0,0.0000000186774070126323,0.0000000136573916591136,0.00000220263326356514,0.00000188120588486293,-0.0001008304901,-0.00015692066654,-0.00016344925591,-0.00005715945693,-0.00155771461334,-0.001753980943,-0.00142976193651,-0.00279047969402,-0.00705228929628,-0.00916418457762,-0.00763216416219,-0.00851685096,0.0000518654918689526,0.0000274840679329473,-0.00002161672569,-0.00001782951927,-0.00002396225366,-0.00000622752545,-0.00000177667841,-0.00000030420947,0.00000000335764770964897,0.00000000209324803985619,0,0,0.0000000186774070126323,0.00000000708707947602985,0.00000163987683189103,0.00000229280774590392,-0.00003629677314,-0.00009643837551,-0.00009972333339,-0.00011724081825,-0.00111265742547,-0.00189403836756,0.0000188732902204888,-0.00055377296293,-0.00205575228613,-0.00047255996671,-0.00649225466986,-0.00864846035326,-0.00414497810193,-0.00005429004592,-0.00003957470196,-0.00001978814832,-0.00000603215394,-0.0000024315944,-0.00000251065023,-0.0000015217579,-0.00000004097758,-0.00000036745661,0,0,0,0,-0.00000012524907,0.00000199443708083137,-0.00001290427425,-0.00315185239138,0.0000140777873580522,-0.0000676291436,-0.0001113948349,-0.00080893516321,-0.00187247273023,-0.00240195155248,-0.00011294510376,-0.00003204649845,-0.00065784243248,-0.00960942802993,-0.00123912543068,-0.00003773214093,-0.00001694261995,-0.00000719192947,-0.00000266659277,-0.00000254292237,-0.00000217162672,-0.00000114056927,-0.00000063855384,-0.000000238455,0,0,0,0,-0.00000218340035,-0.00000131780289,-0.00000029675144,-0.00772518191397,-0.00229685625719,-0.00112473037297,-0.00065315077402,-0.00266299322789,-0.00121044339241,-0.00039274229063,-0.00000624624557,-0.00052729571949,-0.00607389816627,-0.00435683751428,-0.00001500391585,-0.00001072752185,-0.00000636788708,-0.0000009653047,-0.00000034474001,-0.0000004394583,-0.00000001994,0,0,0,0,0,0.0000000266926177146583,0.000000201028765970948,0.000000180175160857604,-0.00000087606482,0.000000375389181751255,-0.00414554161461,-0.00874231161112,-0.00996192866294,-0.0105352199228,-0.0100674653259,-0.01022304886143,-0.00763521013025,-0.00904759076337,-0.00932997507462,-0.0087361606847,-0.00000810481222,-0.00000495065139,-0.00000040498429,-0.00000107229889,-0.00000028463313,-0.0000000037516,-0.00000002980688,0,0,0,0,0,0,0.000000121785066540241,0.000000210204352220819,0.000000210204352220819,0.000000347531812719921,0.000000997024466244802,0.0000755376405500777,-0.00042789726791,-0.00285957735711,-0.00516131177113,-0.00490971334688,-0.00417343324296,-0.00864010210471,-0.00767377081895,-0.00560948971568,-0.00062880529915,-0.00000541174278,0.000000217284507482957,-0.00000028175437,-0.00000049525833,-0.00000018639549,-0.00000000251709,0,0,0,0,0,0,0,0.00000019268732392561,0.0000000425413576007998,0.0000000733591235544759,0.000000240759985436834,0.000021516968795973,0.0000836211664239182,0.0000646311288287468,-0.00106809661488,-0.00205979331735,-0.00016242279642,-0.00016250416561,-0.00187386969546,-0.00045498261878,-0.00001114288219,-0.00000535799925,-0.00000098299581,-0.00000026541309,-0.00000017435772,-0.00000002525695,-0.00000000479574,0,0,0,0,0,0,0,0,0.0000000425413576007998,0.00000000333657721433229,-0.00000000069119,0.0000000301057261146036,0.000086136260747005,0.0000846538737349308,-0.00046218309781,-0.0016824793495,-0.00123455521388,-0.00001003732454,-0.00012627716772,-0.00176041147606,-0.00136472890338,-0.00000340690761,0.00000150942961904213,0.00000157811159790834,0.000000127000995257093,-0.00000000150057,-0.00000000022589,0,0,0,0,0,0,0,0,0,0.0000000425413576007998,0.00000000333657721433229,-0.00000000061523,-0.00000000191406,0.0000000225737473430629,0.0000181746508778831,-0.00110900035022,-0.00203085763073,-0.001348720781,-0.00001681263525,-0.00015875842107,-0.00186264665056,-0.00074527360082,0.00000163508864245848,0.00000181948104483561,0.00000138798348046267,0,0,0,0,0,0,0,0,0,0,0,0,0.0000000425413576007998,0.00000000333657721433229,0,0.00000000530393111386451,0.0000000435288138970645,0.0000181945474816222,-0.00072794074166,-0.00072912066671,-0.00206406784067,-0.00202518269714,-0.00143486325243,-0.00180418145372,-0.0019732348241,0.00000181948104483561,0.0000014023668382717,0.000000122257625932086,0,0,0,0,0,0,0,0,0,0,0,0],[0,0,0,0,0,0,0,0,0,0,0,0,0,0,0,0.000032097749860149,0.00651544360392304,0.0225853515269249,0.0155834032794017,-0.00788418342351,-0.00516345010923,0.00000000010798083893357,0,0,0,0,0,0,0,0,0,0,0,0,0,0,0,0,0,0,0,0.0000000406841480386047,-0.01323469518066,-0.07485647270958,-0.11827551903667,0.00406852819347339,0.0182103350481499,0.0111804980689677,-0.0075211053738,-0.00294394209897,0.00000000163634557297294,0,0,0,0,0,0,0,0,0,0,0,0,0,0,0,0.0000000028879416304613,0.00000021944989565698,0.00000185475742925461,0.00000185575746221665,-0.08292439311946,-0.12904698972026,-0.10076771411495,0.0180910661317793,0.014671478374469,-0.30696068439006,-0.33480634505242,-0.33498015423413,-0.24612987468365,-0.03082057017275,0.00703682041046772,0,0,0,0,0,0,0,0,0.00000279471187362695,0,0,0,0,0.00000787308904320966,0.0000167780431053221,-0.00015716438354,-0.00282537628593,-0.05773267299922,-0.07041045512848,-0.0759711094081,-0.16615461352374,-0.26564087739993,-0.27967369022684,-0.20479084895222,-0.30766226971157,-0.29188738182778,-0.0261772411356,0.0374799694229461,0.0000000516713716763323,-0.00000004615117,-0.00000003760466,0,0,0,0,0,0.0000217127631605882,0.0000189180498574353,0,0,0,0.0000128785103991931,-0.00014662997005,-0.00811892381111,-0.04709526384032,-0.1218011849286,-0.32393348381754,-0.3203696849129,-0.31311066913904,-0.32726191537482,-0.00649996397054,-0.00178498155354,-0.12483868927717,-0.30025004367597,-0.04393347368936,0.00629542935124067,0.000600265160605028,0.0025674867441859,-0.00000030254656,0,0,0,0,0,0,-0.00174158860223,0,0,0.000439294243804397,-0.00481836454634,-0.00737070261688,-0.04660562066322,-0.23953198629404,-0.39409754969581,-0.2776755287335,-0.18134910123704,-0.07425594480643,-0.01140970733989,0.0278557541441536,0.0307120984830527,-0.19248215305086,-0.28920380052884,-0.04471397046443,-0.0113007163645,0.00596721928344701,0.00599058310528257,-0.00000035040703,0,0,0,0,0.0000000137885540773576,0,0.0000000014514267721978,0.00000000943427358841652,0,-0.00136113454495,-0.01480951749974,-0.11781553369487,-0.26027334850809,-0.34749419113951,-0.25278682307528,-0.03696210242707,-0.03529174207765,-0.07909868406678,-0.06527969858326,-0.01870216889301,-0.12631827700361,-0.37024634265879,-0.08617028405224,-0.02666923166305,-0.00560328107752,0.00276172880196271,0.00118570094238071,0.0000143565090493566,0,0,0,0.0000000957941666203594,0.000000182879762611367,0.000000116114139018261,0.000000116019854286644,0.000000182219769523635,-0.00008304783865,-0.00715774913159,-0.19367561761023,-0.35726090166433,-0.21924479544719,-0.12224230805647,-0.07837040805335,-0.08955649266966,-0.13380721213981,-0.10455745571775,-0.03956274618923,-0.07990783053303,-0.19765208567004,-0.22395721880874,-0.08482635907496,-0.07253143242357,-0.0327240097589,0.000505669685757528,-0.00247158350737,0,0,0,0,0.0000000362856677538159,0.000000182879762611367,0.000000182879762611367,0.000000181465491715482,0.000000163645678212365,-0.00041249378843,-0.0469921335993,-0.35543526323941,-0.17517210946228,-0.02694550915382,-0.11406864131393,-0.19565599700453,-0.0850208057369,-0.01733149661091,-0.02795626840592,-0.06308772067458,-0.10479180078098,-0.1459976113091,-0.19251230966478,-0.15174755904802,-0.16510858983993,-0.06095883560569,-0.00065417582124,-0.00006236640363,0.000019169478498731,0,0,-0.00021564295247,-0.00032346441732,0.000000148045524214964,0.000000134982673786062,0.0000000594513670029582,-0.00011302147249,-0.0134238598447,-0.1218222905548,-0.35433367185689,-0.08319613025369,-0.11155808363578,-0.15938107276451,-0.11156990751368,-0.04641394876061,-0.07026764585228,-0.0645559645679,-0.04655147046495,-0.28378864255889,-0.35419576400963,-0.58452068337525,-0.39619388743917,-0.33418906317938,-0.0327797002033,0.00803767682499427,0.0000219239164448688,0.00000591607472220797,0,0,0,0,0,0,0.000742798623347428,-0.0163801233712,-0.11325648401949,-0.21278992799396,-0.40838805838784,-0.32935603394583,-0.3709839878846,-0.22846149668097,-0.18272980670153,-0.17135964729671,-0.23141063188835,-0.30327144223441,-0.14583201339077,-0.32504090209895,-0.34474681658919,-0.48131814020699,-0.41443429062573,-0.38406543521251,-0.34467448576633,-0.00093931584383,-0.01055830845218,-0.01568529567874,0,0,0,0.000000718329118771273,0.00000430997482635698,-0.00091140511053,-0.02441846039881,-0.12660948397847,-0.13386798659321,-0.02908423355763,0.0234723190058453,-0.14756600483212,-0.36627059043252,-0.35208898374996,-0.31165162489778,-0.28173702160898,-0.3066047553428,-0.32644306114437,-0.39212748911409,-0.09632220624339,-0.30147529891567,-0.29544854256224,-0.48652149097974,-0.31457286995154,-0.10472482441265,-0.00095983623582,-0.02023875418753,-0.01593691601349,-0.00006690670492,0,0.0000141271391273312,0.0000220287597181386,0.00140476686523635,-0.00441129061719,-0.04534889390352,-0.13545213248718,-0.1308018901944,-0.12581154032073,-0.10088063314892,0.077862365813382,0.0802197577745063,0.0329507836376468,0.0617543365885689,-0.00206650325396,0.0109815984235431,-0.10452223507033,-0.16997833272518,-0.29054115701668,-0.3876093503507,-0.33337893809209,-0.19684223828668,-0.17032226639397,-0.15040901961759,-0.02079177113395,-0.00357295965907,-0.00000002799132,0,0,0.0000264993100114218,0.00815636814859555,0.00438657685524765,-0.00680021148184,-0.1330826678977,-0.13934095856265,-0.14433747963953,-0.16397953128203,-0.05991175062432,0.113354889601125,0.00432465833534779,-0.09454736693471,0.0437627955046404,-0.00892770045883,-0.12114279510343,-0.24108164215869,-0.23661324653364,-0.38210086306175,-0.32608888313231,-0.06687422991107,0.0180405745401399,-0.14784942698865,-0.17346763685364,-0.02205911203856,0.000000612930135416739,-0.00000003418609,0,0,0.00000287058644163681,0.0143057579793521,-0.01054182225937,-0.04191105028402,-0.1150584404076,-0.12631416445351,-0.16342226427907,-0.13743173093541,0.0198050953067064,-0.01532517329824,-0.13137992887732,-0.19395677272795,-0.11959064717442,-0.09776302881055,-0.17219188964924,-0.2368589507643,-0.36568780804179,-0.2795032240506,-0.14822247708034,-0.14369896417162,-0.15094545763102,-0.1707264289797,-0.02973969192184,-0.00125684136527,-0.0000001045808,-0.00000004472545,0,0.0000000000548389119053884,0.0135139137815659,0.0135556960441164,-0.00060507266003,-0.09130298125114,-0.0791381229125,-0.0770093266558,-0.07197871576936,0.0620236620650544,0.0977224861935706,-0.16051926604498,-0.18356469636871,-0.1947887013318,-0.19722936869299,-0.16587209348019,-0.08683952621314,-0.2872976313437,-0.36573448049633,-0.36569365157479,-0.0881631472941,-0.13030542875932,-0.05020728829448,-0.02449712650184,0.0000102108730388231,0.00000129025029633287,-0.00000002712941,0,0.00000000000937807474116248,0.000119798108915909,0.00603524494926544,0.0124307292528601,0.00244904918067949,-0.01644494914413,-0.04328179455055,0.0950779606499181,0.122550984219435,0.0783517222577768,0.085930486394996,-0.0474429464874,-0.11681294722279,-0.28745464753058,-0.26269840424316,-0.21722822779039,-0.27169479996148,-0.27782532324054,-0.14438138692271,-0.01910369440339,-0.03139028130554,0.00682674126760774,0.00359279082149048,0.0000459384942770637,0.0000584283830988406,0.0000120831845758912,0.000000256001701027078,0,0.0000000000112983462314376,0.0000415048816966719,0.0000980402434773166,-0.00269568680771,-0.00017385901625,0.00241078575602321,0.0518150420599068,0.117057303811307,0.138483406014337,0.163380151169172,0.0937858878518704,0.124678003519126,0.127096626190829,-0.16896309271382,-0.45546172521657,-0.43927314422848,-0.33417647467435,-0.09313114588131,0.136053700400001,0.0679121370835045,-0.04983940071401,-0.02884572806549,0.00530155653832384,0.00502983377306425,0.00237681394140367,0.000000256028858013966,0,0,0.0000000000112983462314376,0.0000000000082616360760704,-0.00003277018836,-0.00001126801112,-0.00627920187618,0.00397353874090999,0.00111415343045701,0.0355177448638045,0.0183999558309121,0.0092681410424249,-0.06252992067216,-0.02341557340836,-0.04886355887251,-0.23445861900513,-0.35850362349985,-0.09587115460232,-0.00109801396759,0.017297291214875,0.0411727332115491,0.0351474714511421,-0.03906341842886,-0.03125865514487,0.000310437930929866,0.000569888612635001,0.00294396304619763,0.00147579455669203,0,0,0.0000000000112983462314376,0.00000000000428711960047474,0.000000189369604902038,0.0173536689987879,0.018287486874539,-0.00453868062082,-0.04695006851308,-0.02903049433349,-0.01725143288713,-0.10209061370467,-0.19375906660434,-0.26832634099313,-0.36689211332539,-0.30719676679822,-0.27952861778237,0.0329746138162828,0.0432021930618017,0.00262310044326977,0.0305491266759909,0.0337842088959792,-0.03691959102602,0.000414810600340447,0.0000239117015345492,0.000328075759775901,0.000573514078791881,0.000373864824095482,0,0,0,0,0.0382433245908408,0.0157430411972667,0.0190583281797902,-0.02365097944973,-0.0335199446472,0.0230240504095772,0.00278067621372105,-0.18875809011321,-0.46790209675039,-0.35602566630837,-0.15639110282569,-0.02271756856259,-0.26856968929324,-0.05644197558174,0.00938053722866626,0.00411063801364627,0.0675546554766912,0.0973863083296755,0.00309101959494788,0.00291214813418867,0.00176735404590102,0.00270528644963822,0.00122285187583173,-0.00000000016294,0,0,0,0,0.105789958129246,0.104090256078556,0.0949960059259825,0.0776918676755945,-0.00807330516972,0.0209696459122368,-0.13384218859826,-0.21413479212563,-0.47833921829424,-0.37735520768383,-0.28005811408869,-0.08940169947429,-0.0768922867645,-0.15303061375565,0.00527637001424547,0.0267370132752708,0.0623974797967392,0.0166454704543303,0.00119421766627672,0.00213168490371788,0.00195186190077468,0,0,0,0,0,0.0000000232228283551648,0.000000174896916312191,0.000000156754083814065,0.0343227389656297,0.0642357692211773,0.0536448383383897,0.0431377033049313,0.0465336031656123,-0.1992059747074,-0.36576534244485,-0.50119289357349,-0.29700509251182,-0.01051656907196,0.052932749977849,0.0611053077805677,-0.09720762315292,0.00221059969062069,0.033759487214473,0.0296820092125762,0.00011570324352721,-0.00003199677368,-0.00000000002037,0,0,0,0,0,0,0.00000010595415281931,0.000000182879762611367,0.000000182879762611367,-0.00000912778254,0.000109047665322195,-0.01083324316471,-0.10638523629408,-0.29493564341141,-0.2130183368846,-0.22581512501461,-0.11255712997199,0.0270189352532892,0.0820588711259975,0.100843306455963,0.105268122543428,-0.07852496299651,-0.00440282443054,0.00700925879922324,0.000867311146603712,-0.00003347208629,-0.00002166657319,0,0,0,0,0,0,0,0.000000167639783312941,0.000000037011381053741,-0.00007181711948,-0.00132703794295,0.00325077981574263,0.0251529328458073,-0.00372358821518,-0.23336878019648,-0.18738901723952,0.0299590263249226,-0.00337123015292,-0.02776092140543,0.00899674193875519,0.0182106745880092,-0.12225818952596,0.00441337807629624,-0.00223129336792,-0.00045701583082,-0.00002888876471,-0.00000986106886,0,0,0,0,0,0,0,0,0.000000037011381053741,0.0000000029028535443956,-0.00109019490235,-0.00302024959982,0.024569147981187,0.0251151412463821,0.00253751620660304,-0.06428196721676,-0.11770304867676,-0.09475932779819,-0.05995202076906,-0.11062844719691,-0.05974837250031,-0.07551666338595,-0.14046702642719,-0.0347790608232,-0.00002224520628,-0.00001291660968,-0.000001944436,0,0,0,0,0,0,0,0,0,0.000000037011381053741,0.0000000029028535443956,-0.00097039327473,-0.003019001198,-0.00072768522553,0.00887762727299417,-0.02254950955985,-0.05793087630785,-0.0413885671884,-0.14964191114539,-0.15594483939509,-0.19178389427393,-0.18171725182194,-0.13083800671583,-0.00002804842757,-0.00002139662528,0,0,0,0,0,0,0,0,0,0,0,0,0.000000037011381053741,0.0000000029028535443956,0,0.00000347192402667393,0.000028493721275298,0.00745815166845914,-0.02140034607987,-0.02229661835093,-0.0701421417864,-0.06828239166033,-0.04827997467199,-0.06233267716387,-0.07466083493848,-0.00002804842757,-0.00002161835365,-0.00000188467705,0,0,0,0,0,0,0,0,0,0,0,0],[0,0,0,0,0,0,0,0,0,0,0,0,0,0,0,-0.00000019323132,-0.00012897812596,-0.00008628208237,-0.00003661116233,-0.00000978648603,-0.00000503155306,-0.00000000053704,0,0,0,0,0,0,0,0,0,0,0,0,0,0,0,0,0,0,0,-0.00012188073828,0.0108087886659183,0.0611905910878315,0.0944332347946947,0.00456243188111094,-0.00012616554983,-0.00002070828722,-0.00001284168649,-0.00000888122254,-0.00000028677281,0,0,0,0,0,0,0,0,0,0,0,0,0,0,0,-0.00002264307565,-0.00011783641349,-0.00011737432184,-0.00011807157664,0.0662728578114403,0.0990550127130052,0.0862229900097355,-0.00012432498795,-0.00014495015032,-0.00007308955121,-0.0000245742407,-0.00001833026789,-0.00029199350684,-0.00077300031886,-0.00071244787699,0,0,0,0,0,0,0,0,-0.00000026698117,0,0,0,0,-0.0000226431329,-0.0001175974022,-0.00021378243548,0.00105009211909069,0.0965321721110425,0.0610956604060022,0.0123607776536683,-0.0031912235454,0.0581087038856873,0.0752176764382857,0.0500483489218121,-0.00002604434851,-0.00351671718833,-0.00383830033394,-0.0037937441456,0.0000000336196999117594,-0.00000389854438,-0.00000317659177,0,0,0,0,0,-0.00000207423851,-0.0000018072572,0,0,0,-0.00000000009367,-0.00001295433163,-0.02449829815907,0.00915862832797252,-0.00963478487126,0.00147685548465299,-0.05194877993225,-0.04332343839194,0.00942534494413618,0.00476648136242549,-0.01036426188037,-0.00515439715351,-0.00153111034823,-0.00241770235321,-0.00111783301145,-0.00330982967708,-0.00757392796874,-0.00002555712464,0,0,0,0,0,0,-0.00013225766909,0,0,-0.0002203576111,-0.00417986820567,-0.01195832816405,-0.07674694328136,-0.04490014318053,0.011593404468306,-0.05743710363592,-0.08137311980421,0.00647197509983571,0.0737568397363891,0.0248504558704843,-0.07199880006237,-0.06134789439226,-0.00668611281676,-0.0016460231612,0.0225615754295834,-0.01756233036288,-0.01567081128572,-0.00002960005927,0,0,0,0,0.000000135605697578134,0,0.0000000142742842232215,0.0000000927828432134895,0,-0.00424469018293,-0.00610318339642,-0.00985740433686,-0.04243969673721,0.0144433608902111,0.036623126104777,-0.03882147750703,-0.168250694742,-0.15743182105469,-0.17459318792085,-0.23369036650658,-0.31486433873497,-0.26105340478339,-0.12647971114937,-0.04007220235341,0.0352327459445246,0.0110786853103559,-0.0066978209489,0.000133550759985108,0,0,0,0.000000942102755342661,0.00000179855970703714,0.00000114194271073804,0.00000114194002998313,0.00000179854094175373,-0.00071651035479,0.000243460844355871,-0.0081035040341,-0.01147109410545,0.0436704150179903,-0.00270852493758,-0.07931923170987,-0.10933471668122,-0.37245472850085,-0.35724226332657,-0.26690206876841,-0.2962109963488,-0.30324558900466,-0.29810309935972,-0.16049924965938,-0.12561614733621,-0.05266865799017,0.0560187104356566,-0.0047530010845,0,0,0,0,0.000000356857090325717,0.00000179855970703714,0.00000179855970703714,0.00000179851949571572,0.00000179801283305976,-0.00104037992144,0.0232592184760333,-0.00619263720228,-0.01827635740583,-0.0896004257566,-0.09392154554639,-0.08336256449463,-0.17873266271026,-0.20085215936254,-0.33430462883128,-0.36420693832816,-0.33840300345699,-0.321494380387,-0.26245847311497,-0.19208920680971,-0.1710305595863,-0.18059827747975,0.054319264169008,0.00629325592920199,0.00176017700713873,0,0,-0.00000006310765,-0.00000009466148,0.00000145597692635935,0.00000132750827512644,0.000000599477028346948,-0.00263568650611,-0.03735979750781,0.0148261452661608,-0.12566456355368,-0.16471381442917,-0.12556961627713,-0.09420638221089,-0.18573352334577,-0.11682051424814,-0.07437075336887,-0.03847177340899,-0.14465476189755,-0.21521042753153,-0.29431213042169,-0.26652721639075,-0.22694023507284,-0.25387866246213,-0.1243391207181,0.028719441945147,0.0107982327623503,0.000629764809889188,0,0,0,0,0,0,-0.00015318190309,-0.00118864620959,-0.0193706286422,-0.07425363469675,-0.14551503555992,-0.23798789403609,-0.14929627698659,-0.20585534936054,-0.07310889213571,-0.03047175474422,-0.23276581572361,-0.3594695940606,-0.6676914902855,-0.68680367111504,-0.75212115223227,-0.52017495579557,-0.75702304912084,-0.61816678172112,-0.16184413335342,0.066736704834833,0.0589716145859508,0.012866106865428,0,0,0,0.000000000308214438203614,0.00000000184928667801968,-0.00047178890514,0.00549953504657371,0.0736978044228347,0.0347768959013762,-0.08018225673795,-0.13485146174268,-0.29815461631273,-0.49110097164753,-0.75010828045322,-0.45127855412793,-0.66383128327857,-0.7072282635929,-0.66840979335896,-0.58061422278416,-0.35795768273351,-0.24555948854949,-0.65417932533797,-0.57155391323551,-0.28951155808937,-0.07968811652648,0.0530902343119329,0.0368118356508359,0.0149450559804704,0.00000000000119891012791293,0,0.0000000060615505285414,0.00000000945190947077615,-0.00023492141666,-0.00201316763163,0.01572544611725,0.0941171673285831,0.105948628918529,0.116261390517084,-0.09299840419203,-0.62111956315652,-0.64519884929019,-0.60881591851881,-0.77046663021674,-0.67836482359624,-0.31791821536511,-0.12705899009636,-0.13525453534469,-0.24773525467747,-0.23545230693149,-0.22210682335219,-0.28396139818771,-0.15469431434351,-0.05167311301867,0.0748140310122083,0.0108038485850488,0.00601483829005592,0,0,-0.06677918807968,-0.00138891474556,-0.00074558608415,-0.00349082910622,0.0947050242338092,0.112507171569115,0.11451615731438,0.0926245769597191,-0.40635419711228,-0.59335437140362,-0.37637954357598,-0.10214108789969,-0.49496364381894,-0.06543887981105,-0.07707247720967,-0.15245257984571,-0.25033209471469,-0.30758292659797,-0.23748346656036,-0.09533681452489,0.0404514915059829,-0.0558620003258,-0.07116371246943,0.0668931641373513,0.00817150761524864,0.00607914977424501,0,0,-0.10368348896062,-0.01562670585424,-0.00505206599113,0.0219992469121667,0.110442340882778,0.117591905167094,0.108959488804631,0.082117554553443,-0.21646101209275,-0.11871201476787,-0.00705495447558,-0.17077083600927,-0.17895594535452,-0.20957655401785,-0.22338810502958,-0.2368866104846,-0.2572322414579,-0.3908003318981,-0.22997308302791,-0.04802997133581,-0.0104313313175,0.0100300547434938,0.0763113774215621,0.0394107316107045,0.00805412557014556,0.00125704885629897,0,-0.00000000082308,-0.03790452809205,-0.09289830525734,-0.08370567100691,-0.01879581234594,0.0684887698439706,0.0551924395761533,0.0366572976505217,-0.0408574587387,0.0509128177822155,-0.11800580977438,-0.14975867555132,-0.23072450155941,-0.29884688584895,-0.27803372860071,-0.28384281803195,-0.26239995608994,-0.31894612455515,-0.32810649424549,-0.19531549266555,-0.04364646365081,0.128646386988292,0.130988864691571,0.150790160580909,0.0238030461769981,0.00587728483651788,0,-0.00000000612934,-0.00003474943242,0.0110280141941597,-0.06072154216111,-0.07200125358489,-0.05427650161612,-0.07442280962795,-0.53224969506436,-0.69503892446638,-0.44245015241885,-0.35519914572241,-0.54129142591059,-0.52652826578525,-0.27759939161603,-0.28307792153562,-0.23597815781681,-0.09956634165977,-0.20067892834845,-0.21798371795571,-0.16856966613905,-0.16342228147447,0.119525881394112,0.158885104901871,0.156868187124013,0.117900797410737,0.0431992216293324,0.0049829525200947,0,-0.0000000073844,-0.00001204408224,0.0156652876269751,0.0127126434794648,-0.00525347809805,-0.00480016333468,-0.30475719936124,-0.73357873584401,-0.74224237641904,-0.66496802391155,-0.61299708869161,-0.57474096735353,-0.64664172931044,-0.00048726032955,-0.07218120371198,-0.11657995027402,-0.09171091694785,-0.15602056896206,-0.00399753094168,-0.09285026156919,-0.11525512987173,0.0519599120504508,0.145979257689985,0.151620646166778,0.109785257410813,0.00498501380524793,0,0,-0.0000000073844,-0.00000000539966,0.0143658398121039,0.0140604720951573,-0.01032735110117,-0.05831642420035,-0.0599767832675,-0.06525531793614,-0.11862970976348,-0.12411400023601,-0.03579377806556,0.0451218344911971,-0.53602231613218,-0.40825563396792,-0.089610647234,-0.03458230880401,0.0340896660261844,0.0712634261433336,0.0377745159850383,-0.10939677967587,-0.07167346278982,0.030218968096869,0.138942029379687,0.106729508372991,0.0432489274534216,0.00230403419430628,0,0,-0.0000000073844,-0.00000000280199,0.0129513712604325,-0.04992333384413,-0.08543924224127,-0.17748132498478,-0.18982609385719,-0.09739299333054,0.0138347759016566,-0.04341167715419,-0.07924266401022,-0.18045774584433,-0.80700008535292,-0.84471748081506,-0.29779029983577,0.0798105324084884,0.124658809859074,-0.01059555509206,-0.07767289032544,-0.07903701917984,-0.01313922862399,0.113187328983564,0.0815169980174022,0.0364566662965708,0.00294802850582548,0.000165928465213095,0,0,0,0,-0.21153703505055,-0.0522303708636,-0.09977355328753,-0.35235915966507,-0.27630146401701,-0.01934409690271,-0.11849068040556,-0.30781652764954,-0.44683646139315,-0.65674499250073,-0.59270914432941,-0.6383540445407,-0.21108278925488,-0.0211587802733,-0.04898227203101,-0.06170192059248,0.00641791242932498,0.144661913400991,0.109952156932773,0.0951392056124596,0.0145133157847992,0.00301433848448027,-0.0000323642705,-0.00001236771043,0,0,0,0,-0.60040467076428,-0.60809075393215,-0.56988487696262,-0.85606915894208,-0.47868948348927,-0.50298118466271,-0.82639683434881,-0.8849330265112,-0.72079405948681,-0.46343850372085,-0.28174479085788,-0.33472732449103,-0.19599512534991,-0.20516444981208,-0.0879539525759,-0.0536730535103,0.067413477376653,0.0897042924455828,0.0609348527167504,0.0494969316863284,0.000201974414500601,0,0,0,0,0,0.000000228388547571545,0.00000172005115313181,0.0000015416226215288,-0.25569336287163,-0.40006897782626,-0.57246580013317,-0.82828168507256,-0.85674946602177,-0.70936715330645,-0.51659382753835,-0.2299329303287,-0.04337849547454,-0.02525853395101,-0.0703723366783,-0.08275327434907,-0.09863760253307,0.00566411247983669,0.063735241685862,0.0719824275954327,-0.00042929473482,0.000730014638241987,-0.0000015459638,0,0,0,0,0,0,0.00000104202273304035,0.00000179855970703714,0.00000179855970703714,0.00000306845431461396,-0.05016636042033,-0.01586661387046,-0.39045895197488,-0.35237762754327,-0.23346130261801,-0.15165641578612,0.0577904521835541,0.0412453575236484,0.0233698111718523,0.107897505448489,0.0588865770979379,-0.083622526303,0.0374120984752545,0.0423586178660989,0.0288571016657827,-0.00066362858193,-0.00000006937175,0,0,0,0,0,0,0,0.00000164867974049061,0.000000363994231589837,0.00000060703260191492,0.00000177637940747125,-0.03838292584774,-0.04197933459404,-0.03652171366377,-0.14074755379121,-0.14498738229359,-0.0162892371969,0.00780151024398289,0.0638618019709231,0.00135688466305586,0.0504043860215943,-0.0823402546464,0.0361547918309417,-0.01136976613582,-0.00111636184293,-0.00007971506529,-0.00001330200184,0,0,0,0,0,0,0,0,0.000000363994231589837,0.0000000285485684464431,-0.00000031904424,-0.00000059669612,0.00215149825873672,-0.03122014347962,-0.0437832580466,-0.06392057452823,-0.1253459554099,-0.09205618136261,-0.05048141745327,-0.05218393756052,-0.00928298221564,-0.07013164076783,-0.13326646070965,-0.04120867449224,0.000000669263081910422,-0.00000004135623,-0.00000000622567,0,0,0,0,0,0,0,0,0,0.000000363994231589837,0.0000000285485684464431,-0.00000028398443,-0.00000088350709,-0.00000021089829,-0.0040573930651,-0.02500882598544,-0.04676855217191,-0.02966946838106,-0.13952383191167,-0.14011785180365,-0.11927273893936,-0.14633859185158,-0.12221451061747,0.000363182828082639,0.00027705249647817,0,0,0,0,0,0,0,0,0,0,0,0,0.000000363994231589837,0.0000000285485684464431,0,0.00000000148970309765163,0.0000000122258391950177,0.00260357560138305,-0.00003600210296,0.000746561028315368,0.00377307802565964,0.0037722250719901,0.00379666344534541,0.00341108500658934,-0.00494715614662,0.000363182828082639,0.000279923528622878,0.0000244035905000022,0,0,0,0,0,0,0,0,0,0,0,0],[0,0,0,0,0,0,0,0,0,0,0,0,0,0,0,0.0000753920502062054,0.0054647310105883,0.00370234726791276,0.00144338501377193,0.000110501372308328,0.0000479021899624074,-0.00000002403802,0,0,0,0,0,0,0,0,0,0,0,0,0,0,0,0,0,0,0,0.00514370953624572,0.00715570170101859,0.0160677002119393,0.0199991585634093,0.00584670358246665,0.00509146512441419,0.000432480956174898,0.00016622350333757,0.000132211885247018,0.00000499765374967528,0,0,0,0,0,0,0,0,0,0,0,0,0,0,0,0.000977140071964343,0.00569382057726534,0.0105435106121276,0.0105295379471036,0.0502495316603046,0.0638988740257607,0.0189928170567693,0.0163648786824521,0.00104679123342175,0.0100118719379894,0.0127327535735741,0.0136729836473141,0.0104242719296367,0.00138848338372616,-0.00019638248298,0,0,0,0,0,0,0,0,0.00000000268388565004673,0,0,0,0,0.0244122423495358,0.0549624844928447,0.0823635698678013,0.082613817148728,0.0375306677246715,0.0763635379003238,0.0453614513564002,0.24041057700485,0.274057887610623,0.195300895116604,0.0895480864686086,0.0424738395193065,0.013969659744777,0.00161100325916687,-0.00104624960666,-0.0000000123507,0.00217288049534477,0.00177049524674355,0,0,0,0,0,0.000000020851728587655,0.0000000181678415647712,0,0,0,0.0383483477096028,0.0779395494670933,0.221836012470948,0.442205391078947,0.60491365921688,0.704095245263086,0.646937588519228,0.877577869004849,0.905618328581575,0.695905321458658,0.463344157165591,0.0984604849409192,0.0473125487414729,0.00168771322633953,-0.00174594762829,0.00703097303359722,0.0187514644752852,0.0142444390236686,0,0,0,0,0,0,0.0594973520322569,0,0,-0.01171709088603,0.0829671775498588,0.197382419856957,0.710563232489921,0.806162834537336,0.839904948799293,0.81218745186548,0.896531689501705,0.721243800344562,0.587276597291821,0.653372058909904,0.544399379294816,0.423961770543174,0.0247649367186746,0.000352111690073631,-0.00013381372379,0.0199118771145991,0.0202721363766986,0.0164977964158355,0,0,0,0,-0.00000003652039,0,-0.00000000384425,-0.00000002498764,0,0.0428757393411299,0.0907847119631198,0.259440787261135,0.545280521369412,0.705737661372482,0.466270661145536,0.351422594932374,0.299173978461653,0.15872481948273,0.250901030948314,0.540347378686796,0.575602963585392,0.207324359463255,0.0481490117835914,-0.04566985929241,-0.04968633119072,0.00736002571633152,0.0102960418589504,0.00474332457805645,0,0,0,-0.00000025372063,-0.00000048437573,-0.00000030754016,0.000145452401508716,0.00101983516399899,0.00198700576566285,0.0516491576957884,0.301020893530884,0.329750339408953,0.127955189027137,-0.22834437037697,-0.39330632642997,-0.20137950156509,-0.47331800909683,-0.21865909510482,0.633753623554799,0.512983352582262,0.0194331631854692,-0.37260236107691,-0.07212286917162,-0.13115351013146,-0.06092392275329,-0.01151954710558,-0.00140018520391,0,0,0,0,-0.0000000961063,-0.00000048437573,-0.00000048437573,0.0021859146280831,0.0297345424084258,0.0403943622925337,0.262289777120872,0.425663144898453,0.177007221291213,-0.21570960733522,-0.67529295691088,-0.62144320223667,-0.57297849820782,-0.32429745431883,0.11162417063469,0.0479058006190356,-0.50395642288736,-0.74791994743276,-0.6779776778338,-0.55419427718356,-0.45165263437133,-0.16755451484664,-0.13085611731958,-0.11156951791533,-0.11374289759897,0,0,0.00000307387130327966,0.0000046108067926961,-0.00000039211369,-0.0000003575154,0.00233199760805164,0.0164238514664848,-0.21318252868657,0.0239601008930777,-0.3379695847439,-0.68277467782242,-0.40188423072318,0.0391410989408278,0.312664713000883,0.308886183479079,0.626204248782602,0.618211827986172,-0.01632116354339,-0.08064001853094,-0.04602103921437,-0.68344493322455,-0.70864708131042,-0.63207119011907,-0.24314863527159,-0.14018220991994,-0.02631164057882,-0.03603118512442,0,0,0,0,0,0,-0.01048489346165,-0.24950428459696,-0.64098190180672,-0.37959081388164,-0.37058641933214,0.119890708353609,0.184817653459803,0.722067655473046,0.724210467055021,0.278079173308162,0.29810417944635,0.308999539256676,0.347572909953875,0.197405068564716,0.0822179586128593,-0.15196217883109,-0.11010389910337,-0.05070983923044,-0.02354121057885,-0.00170387849117,-0.001839086937,-0.00185484068709,0,0,0,-0.00000002325085,-0.00000013950508,-0.00000012929485,-0.01172619673334,-0.08921084735183,-0.42587169819039,-0.52839000723574,-0.64314284674946,-0.17163254278646,0.0251337347970868,0.0645311862847525,0.517560033786747,0.508758065149964,0.59597942020008,0.5197405873585,0.456067363077111,0.122292944494983,-0.01721121766118,-0.04622316997144,-0.00935522998592,-0.02586877157404,0.000103528010779658,-0.00139078765532,-0.00181303198947,-0.00181188944233,0.000684309054215338,0,-0.00000045726662,-0.00000071302593,-0.0185676522246,-0.00933258147254,-0.00357577953135,0.0235617957515158,-0.08046669207161,-0.07329900710016,-0.25921502731678,-0.16662932874826,-0.20180959891062,-0.05514954842888,-0.44594166520741,-0.15696341535241,0.320176401504946,0.312268476549458,0.565460105695944,0.178627277098405,0.00661962015931168,-0.00971925317761,0.0029771887059718,-0.0003960060652,-0.00037107069733,-0.00051453693652,0.00000134780044177803,-0.00005258999085,0,0,-0.35227169040071,-0.10217537310076,-0.05693609008548,-0.00932432982081,0.00472013386380008,0.0199679997607946,0.0336099282569774,0.0537742841866566,0.027785928905501,-0.23051139930609,-0.25988043028496,-0.2550458810023,-0.6929925604667,-0.62164579604392,-0.25333393597508,0.0862265313301422,0.210547395859614,0.494760116469867,0.132023655080468,0.000435677008605034,-0.00081393327465,-0.00047417346159,-0.00062729010597,0.000143208899450588,0.0000978716593223131,0.0000968920975291022,0,0,-0.54694689259741,-0.24295140122588,-0.03315107626278,-0.00064240503102,0.0068367716851693,0.0390890573535628,0.0672016942732441,0.0629991580169356,0.0182145699788447,-0.00692510318042,-0.00836188992167,-0.19815851950096,-0.27040332004189,-0.35326038992473,0.166127385110713,-0.02031127703524,-0.10095039967948,0.550749724219336,0.348713853503902,0.0561512622588349,0.00188176890025093,0.00126358224471407,0.000953163538556859,0.000103679711419843,0.0000978871306775733,0.000000500710244122642,0,0.000043492681791895,-0.33369176139438,-0.6349420965705,-0.58124383378558,-0.43921381175587,-0.05363759231275,-0.1500817413003,-0.06641456346831,-0.23177911753018,-0.05009942277052,-0.06225973959242,-0.26318182647267,0.0359781230755831,-0.47107657782985,-0.41087560382707,-0.11163787905939,-0.02738648291162,-0.14558625725091,0.126769186164633,0.513361198319722,0.232934682166157,0.00161690647578352,0.00144498484005213,0.00132120876567074,0.000101771446785541,0.0000970200470716426,0,0.000480841451410935,0.0391494684869668,-0.04310664947712,-0.51218589063363,-0.47520894837155,-0.32488795664342,-0.56583147179579,-0.65820814201463,-0.57039638359661,-0.51157806479453,-0.59778403385779,-0.59290486860131,-0.54906278927511,-0.207041858817,-0.44650083594075,-0.38721555938319,-0.03699021865995,-0.0705764833384,0.075759998181367,0.459541648836282,0.275425209124359,0.0598284180240186,0.00139691094539172,0.00103631988295175,0.000107300154315674,0.000105543527222058,0.0000963306722400094,0,0.000579299413836222,0.0139421892995269,0.0288719931991161,0.0466535788092868,-0.0859245078051,-0.12785230553978,-0.54990756737883,-0.33092684678041,-0.18304704752076,0.00715380300892154,-0.31424730903408,-0.21567646311313,0.0908964350479028,-0.10444239458155,-0.14133134136497,-0.13474629086484,0.0808120265005007,0.481981259167866,0.467790982685411,-0.0019169834432,0.0212287241805571,0.0362157189446222,0.00118295651026032,0.00058474016118632,0.0000688781653268768,0.000096164807856911,0,0,0.000579299413836222,0.000423598360163443,0.00219108513961213,0.00771056814060355,0.123683708135368,0.399022061315496,0.219725217696982,-0.26319337218517,-0.20243684835838,-0.16586520895736,0.0522919533465829,0.0698840148990994,0.157888174841063,0.292484566398982,0.317792460091473,0.507051227493479,0.300796686862216,0.0707886531649645,-0.05847558730968,-0.06249150301036,0.0281264079357876,0.0158464972155688,-0.0000275421513,0.0000704474340441866,0.0000600399215048726,0.0000346725796266414,0,0,0.000579299413836222,0.000219813220512787,-0.00000058515532,0.445875691542225,0.663431952497622,0.695102264120923,0.381009597924126,0.0270493307426745,0.0106204710479104,-0.00806260594968,0.354640508654551,0.525986161814644,0.639213225956791,0.43361066980489,0.377252851378395,0.00461926832545835,-0.04961471230736,-0.02556690039549,-0.10386043573987,-0.08710751011939,-0.00188799335765,-0.00123961079824,0.000106587561705741,-0.00111604261969,-0.00112520741317,0.00000130704641768518,0,0,0,0,-0.00000199274677,0.310435591085001,0.541800743043693,0.689006391008044,0.649769754415822,0.556465852013155,0.4579125684676,0.52407591348346,0.304338108585966,0.295889779011139,0.0615054626697865,-0.00578822429242,-0.08105794668811,-0.08015175506736,-0.06225614535312,-0.09863612746217,-0.12672865035255,-0.06870942752812,-0.01011386968786,-0.01060451816968,-0.00643854874666,-0.00998015344066,-0.00451379835904,0.000000995186259199775,0,0,0,0,-0.00000006056973,0.000293139408162818,0.141501622263062,0.21671039249376,0.134666389846871,0.152086747111476,0.352753377102327,0.369283957168571,0.0844564554085619,0.0990923096885152,0.000660426107488242,-0.05843617182754,-0.11381103764121,0.0161656917313084,0.0220954966905921,-0.00500188858873,0.0133351976606375,-0.01126222726786,-0.00410477960195,-0.00780984563903,-0.00720432527194,0,0,0,0,0,-0.00000006150803,-0.00000046323234,-0.0000004151792,0.000658683024737762,0.043160041347221,0.0892162091694962,0.0263868008529507,0.18069283834729,0.145934825351945,0.0439321062163319,0.0719189977323504,0.0811239702566853,0.0108513613113439,-0.04671171135755,-0.05337468354921,0.0177614382319688,0.0599751713945783,0.0518994091112004,0.00504772515549292,-0.00046183185218,0.0000085710457092369,0.000000124398282399972,0,0,0,0,0,0,-0.00000028063039,-0.00000048437573,-0.00000048437573,-0.00000035887243,0.0360338318258045,0.0705470006181893,0.178589658045883,0.258680230257107,0.19570853315157,0.109499336322643,0.144847467400546,-0.00837643932816,0.00361736847041843,0.0249152420877664,0.0068981964467491,0.0442650058094712,-0.00958953522458,-0.00720642273358,-0.00257513042688,0.000117445030920378,0.00000576372608257196,0,0,0,0,0,0,0,-0.00000044401109,-0.00000009802842,0.000000855476656477164,0.0000186700059652304,0.000224692982421765,0.000543016803800086,0.0468257331134923,0.120052735559076,0.186154859542054,0.12855499149655,0.134743109582943,0.0945803326014893,0.0785749723366988,0.0395593238507459,0.0420143620896366,0.0318067136090047,-0.00469067586127,-0.00014327507686,0.0000207098655683144,0.00000479405069216789,0,0,0,0,0,0,0,0,-0.00000009802842,-0.0000000076885,0.0000155401268018867,0.0000430202253666066,-0.00107890823725,-0.00087231640754,0.0391350874459314,0.064260264804559,0.0230347860974549,0.018864904565979,0.057913362134325,0.0904576493158472,0.0160794604182319,0.00217939879022557,0.00218497310277167,0.00203498849202351,0.000180308159822053,0.00000343606713752418,0.000000517257453649756,0,0,0,0,0,0,0,0,0,-0.00000009802842,-0.0000000076885,0.0000138324207025351,0.0000430341962992346,0.0000100995107204374,0.00954689463447308,0.0433316322626709,0.0527728790661283,0.0156493394836992,-0.00547687009775,0.00620482725529102,0.0194709733395781,0.0100074874703608,0.00237926651415764,0.00227179633264236,0.00173303029983923,0,0,0,0,0,0,0,0,0,0,0,0,-0.00000009802842,-0.0000000076885,0,-0.00000011237908,-0.00000092228352,0.00960951840692403,-0.00220129797172,0.000482245280280584,0.0224278154601982,0.0289691493918236,0.0167590219038091,0.0224226498957161,0.0254411111970769,0.00227179633264236,0.00175098929953005,0.000152650354351544,0,0,0,0,0,0,0,0,0,0,0,0],[0,0,0,0,0,0,0,0,0,0,0,0,0,0,0,-0.22936368387024,-0.51927889499869,-0.55520741130878,-0.53689233462571,-0.01114445229109,0.00615130747451522,0.00145574168708775,0,0,0,0,0,0,0,0,0,0,0,0,0,0,0,0,0,0,0,-0.04265196793629,-0.04959979601562,-0.31000386203352,-0.54009287070864,-0.54697710102421,-0.57967476551067,-0.08722546592583,-0.02486184108375,0.00353243095163017,-0.00000002578764,0,0,0,0,0,0,0,0,0,0,0,0,0,0,0,-0.00822805751734,-0.04281948235076,-0.04265156378784,-0.04237332556336,-0.08090711919937,-0.54718580674684,-0.57745269293254,-0.45888555267291,-0.08311103893733,0.0135944645874813,0.0016487849596208,0.0124135175829572,0.00253527770195748,0.000545670873243183,0.000449500257368379,0,0,0,0,0,0,0,0,-0.00038941915895,0,0,0,0,-0.00822806216251,-0.04241846474801,-0.04224272800587,-0.15556897662845,-0.32141328550538,-0.57893156540475,-0.41655221216135,-0.16552838763287,-0.11647917048009,-0.03226879868694,0.0122189740187587,0.016459935832774,0.00541771035374541,0.00252721105442911,0.0024122007314065,0.000000747497040124504,-0.00000471369051,-0.00000384078492,0,0,0,0,0,-0.00302548754607,-0.00263606818793,0,0,0,-0.00000000760119,0.000814570140766955,-0.27155673379199,-0.63199858037761,-0.71915194244473,-0.62536763024099,-0.38632485661965,-0.46410338417221,-0.11116122561395,-0.01850454622276,0.00400763765304218,0.0552406077521856,0.00316332879972866,0.00185587611603156,0.0010236696542447,-0.00381856832969,-0.00876912107331,-0.00003090086047,0,0,0,0,0,0,-0.05386899894149,0,0,0.0036742056628909,-0.05169997107041,-0.25914473863874,-0.67702230239113,-0.78333943209636,-0.82870461710554,-0.81637274780985,-0.29933439566061,-0.16731996543757,-0.14280196997161,0.025639408031653,-0.01886867461444,0.0259243306593059,0.0388881582914554,0.0120068709493055,0.01376675840136,-0.00131023889628,-0.00076615680388,-0.00003578913176,0,0,0,0,0.0000039314792982656,0,0.000000413839933892302,0.00000268995944744784,0,-0.07002398271459,-0.12515011578741,-0.24134338319088,-0.76640733566358,-0.78602858654439,-0.70267384239049,-0.16445869459753,0.0322378851022854,0.0581037547220486,0.0231428243575248,0.0824794648121916,-0.08297151043351,0.00341311606862748,0.0293831996270909,0.0573050984796423,0.0501480452946127,0.0361071389409258,0.0385843900266869,0.00174365455498641,0,0,0,0.0000273134355386103,0.0000521438286236973,0.0000331071939251306,-0.00002115338392,-0.00032768019697,-0.0162409540539,-0.08337326912203,-0.31684400689082,-0.59894934869713,-0.69147201693225,-0.73340900684632,-0.28091643935168,0.248186542377288,0.135014907137562,0.0406943072411058,0.0467804726365697,0.0616612171437041,-0.03605112912913,-0.01824667105398,-0.01500949677859,0.00213636113623644,-0.06919762811585,0.002034080244411,0.0311854454599784,0,0,0,0,0.0000103459979050399,0.0000521438286236973,0.0000521438286236973,-0.00076176479398,-0.01101701356246,-0.05616365647317,-0.26442713197865,-0.50083123946395,-0.68947097212401,-0.69673116090317,-0.3513698600985,0.212576409748382,0.229527254253258,0.0121642858106494,-0.13307753230235,-0.16014397018388,0.16518933229371,-0.30651890348995,-0.44141892403484,-0.45006467803198,-0.53208084127482,-0.45369993382869,-0.44843094334605,0.0317584058734428,0.000334505356163788,0,0,0.00022199290586572,0.000332989347082917,0.0000422116713896625,0.0000384871092818849,-0.00085078796882,-0.01655307264443,-0.08431948099167,-0.37153699760758,-0.72190072751171,-0.59300665916374,-0.53140161589282,-0.24485794136922,-0.04026057693658,0.0464153394661164,-0.11203688315118,-0.32238937660037,-0.25031263553796,0.0168603787009369,-0.13150898578625,-0.4300533104871,-0.46309797988657,-0.54299239604302,-0.55330274585818,-0.45076537680598,0.0329259027166753,0.000328655532447999,0,0,0,0,0,0,-0.01502686420005,-0.06827648234957,-0.16518963853971,-0.30806213365793,-0.68877369264177,-0.86461922302655,-0.66406781969901,-0.34731426343397,-0.06916299806268,-0.13589935678533,-0.17386859610051,-0.14346801555718,-0.40790778238172,-0.24120004500115,-0.14004250824958,-0.43814421461155,-0.54531638748628,-0.30580840588822,-0.52001500319827,-0.47159577334547,-0.082756141282,0.00104633940274749,0,0,0,0.000147265191588013,0.000883591172843816,0.00162099527135865,-0.00919807061946,-0.09576162456058,-0.12550685526345,-0.3725634104053,-0.57966818050063,-0.76397860145453,-0.35366622850411,-0.16676934385964,-0.06769628757533,-0.21857996104153,-0.45964660623565,-0.64938558066345,-0.75582684473908,-0.35638314991271,-0.03764287017531,-0.1244280651195,-0.19857013701665,-0.09584867036224,-0.23659891108681,-0.42525679021656,0.00931502288685507,0.00168471086927532,-0.01276228833419,0,0.00289621539181874,0.00451613255757623,0.00700396703704078,0.00844940043641486,-0.0445075900595,-0.10379886220637,-0.20268024172328,-0.56075413281878,-0.63994759806873,-0.49480222219813,-0.09706529176478,0.0191251343452055,-0.2129637348722,-0.36354084221719,-0.71403062989047,-0.70222005615845,-0.79230843387009,-0.37897017403834,-0.20619073060112,-0.20497571823233,-0.15740990743078,-0.16372288608446,-0.44687415100372,-0.227420524391,-0.22790511267569,0.00145662382472816,0,0,0.0000509844657454643,0.00714684813737942,0.00807264851547089,-0.0015179959361,-0.10512283064213,-0.10840977868456,-0.54521927296063,-0.60163725563774,-0.54606276132088,0.0973855740383158,0.124507418340606,0.05297911399743,-0.18384204219623,-0.45783294000609,-0.72289242391419,-0.66927397410727,-0.51975694004413,-0.14140373049808,0.136028728564432,0.112199608271451,-0.05422269314366,-0.09710967155199,-0.44933817685487,-0.11326260636694,0.00142077634019786,0.00142526779797216,0,0,-0.00776723227341,0.0025871887759941,0.00059808316643069,-0.02784387196155,-0.06719806785783,-0.10273019705533,-0.60904548964864,-0.56647407734445,-0.47605133736125,-0.15382007463555,0.199646802855715,0.262323915240205,-0.22030383723598,-0.68950867491136,-0.81912986376643,-0.55340434258161,-0.00132549766167,0.0884751873194167,0.255329647926911,-0.21339798173296,-0.38672398796379,-0.46783673772306,-0.349059206268,0.000564052901927321,0.00142560080461954,0.000000211678068187412,0,0.000726363508596518,0.000313899804384045,-0.00446759371754,-0.01595317703693,-0.0766179315453,-0.03471096859956,-0.06292110882855,-0.39122716159562,-0.39220268779266,-0.12678984632633,0.255116499955749,0.246603027226728,0.193022801249856,-0.68284626100788,-0.82879569637073,-0.65379957211726,-0.19997300008815,0.0452730728537397,0.105042794146009,-0.05770783597472,-0.52271516323405,-0.4858743491726,-0.25631943928946,-0.02332216538916,0.000473251019326217,0.00142523424015473,0,-0.00001666001858,0.00143567033903806,0.00311657697742305,-0.01066454835,-0.03114988149487,-0.02333468815252,-0.00475197867065,-0.0162679583717,-0.22413309885259,-0.3274622614287,-0.03869363189537,0.248915879269199,-0.00938115862894,-0.25788136783321,-0.6646478037753,-0.54651374728127,-0.35944122378035,-0.22837711589379,-0.11491660968069,-0.45150323469687,-0.60313200040306,-0.29038263338942,-0.14726368349236,-0.02602796968862,-0.02224821572164,-0.00686620819934,0.00126998549233647,0,-0.00002007135402,0.000707799491589647,-0.0039582930346,-0.00482582778702,-0.02525199143705,-0.00922365230681,0.0244878301332124,0.0975775280674603,-0.15791438014957,-0.48151684915012,-0.05596851669319,-0.00390779496884,-0.27223321803886,-0.45942374290481,-0.32426457013464,-0.44279256728666,-0.42233136914669,-0.46181020092285,-0.4511700225336,-0.71017244668931,-0.49222879728192,-0.02433653679689,-0.0264741547872,-0.02251752108799,-0.01903105991074,0.00126998549160271,0,0,-0.00002007135402,-0.00001467668091,-0.04496676193605,-0.00563751139854,-0.04632607321817,-0.11741815290229,0.0306030800636349,0.0626373118465006,-0.26024526041733,-0.48050453928857,-0.40546742649196,-0.7611607595953,-0.48224230158772,-0.60478847351513,-0.53307041316386,-0.51974997318254,-0.55415235020001,-0.44425844403868,-0.18976340691433,-0.26681003903375,-0.03368416507698,-0.0220989862692,-0.02257706318763,-0.01905076478892,-0.00687143068921,0.00078033038554289,0,0,-0.00002007135402,-0.000007616008,-0.0105958593954,-0.1262447029418,-0.19614004710796,-0.20646617362631,-0.15460265030607,-0.02191884416553,-0.1501389804831,-0.18580703358336,-0.38386941168589,-0.75173373681007,-0.66673006422266,-0.63360910947847,-0.66147189662871,-0.62294990694953,-0.40903794012453,0.187819604867836,0.0801998120478407,-0.12139093455154,-0.02582296815578,-0.02107316978242,-0.01500239959006,-0.0064953641776,0.000635001368849019,0.000064161695686893,0,0,0,0,0.0000180281808017424,-0.08633064347868,-0.16120710992949,-0.16547996740653,-0.19017878095909,-0.22279866207862,-0.23979809553543,-0.19483566411537,-0.12998892320101,-0.38503567404064,-0.38714402745106,-0.169928383207,-0.10785212524291,-0.02903448820735,0.11219771286089,0.101386650292665,-0.08068508522625,-0.02871846708522,-0.01945576549496,-0.01821249198481,-0.00124390838333,-0.00018580214181,0.000173367107164595,0.00000000000440257998011734,0,0,0,0,0.00000151629771701029,0.00730185633543069,-0.04708945508438,-0.07610355443092,-0.08175441557383,-0.20464471150473,-0.20772522485349,-0.00021138781499,0.151211711133764,-0.08095429958388,-0.13132076281403,-0.11034003049779,-0.03557326982412,0.0898627181668444,0.0924989150366671,-0.04517517119011,-0.07306686694723,-0.01677241315706,-0.01138644072413,-0.01008191017898,0.000344307627203534,0,0,0,0,0,0.00000662143894227684,0.0000498677092575643,0.0000446947106981712,-0.01877882256023,0.0247376767489869,-0.0747343889518,-0.15004643300517,-0.12820419948517,0.10910450908401,0.242483466525929,0.0727497577574667,-0.09499110822554,-0.13051406987393,0.0483421509024666,0.167795509597453,0.0262343830062579,0.0563533105607971,-0.06148626531312,-0.021810129098,0.000415430582961067,-0.00012815452294,0.000000000000550322497514668,0,0,0,0,0,0,0.0000302103147318704,0.0000521438286236973,0.0000521438286236973,-0.00000713261039,-0.01203674568845,-0.04646955094377,-0.25859748630736,-0.2338045736259,-0.00074253026447,0.297770768542916,-0.06327868246383,-0.05301251006593,0.0212905298438945,0.0831512432669233,0.171477403814276,-0.0445728496048,-0.00549741161883,-0.00234978859305,-0.00401544588864,0.00000843635819810435,0.0000180345366404048,0,0,0,0,0,0,0,0.000047798509833807,0.0000105529178474156,0.0000922065898375339,0.00132321181803686,0.00813821201639588,0.0413227420163736,-0.00101742461662,-0.07675994913136,0.09810151059724,0.202065569871188,-0.02201919824323,0.0737987501080771,0.14531518557833,0.210081462357316,0.151297380205714,0.0226612807785917,0.00643414258545713,0.00031742122485686,0.0000217150857207261,0.00000781953259702734,0,0,0,0,0,0,0,0,0.0000105529178474156,0.000000827679867784605,0.00112229744381029,0.00310321066649245,-0.05252658314291,-0.02824204501536,0.00308142793996562,-0.00704073150217,0.240392322424353,0.226471897731217,0.173267405314735,0.164699471892735,0.204112501855929,0.142807311554894,0.00811071924560861,0.000540525379697875,0.0000160872945601371,0.0000107513573342678,0.00000161848400960205,0,0,0,0,0,0,0,0,0,0.0000105529178474156,0.000000827679867784605,0.000998968064680076,0.00310790054153212,0.00385721116252894,-0.00718392974105,-0.01778778042243,0.0206639377187609,0.265363986861381,0.287067035349214,0.2342856539188,0.0031284654016714,0.000995153748182299,-0.00014518601446,0.00000135037263304649,0.00000103012609692054,0,0,0,0,0,0,0,0,0,0,0,0,0.0000105529178474156,0.000000827679867784605,0,0.000711781749627173,0.00584151917694753,-0.01004885999784,0.00513169118903192,0.00172799344335556,0.00343426989419439,0.00353653815665093,0.00224867074178258,0.00279766309017893,0.00306888409930851,0.00000135037263304649,0.00000104080105987866,0.0000000907365057242685,0,0,0,0,0,0,0,0,0,0,0,0],[0,0,0,0,0,0,0,0,0,0,0,0,0,0,0,-0.00001689124422,-0.65982013619833,-0.66912005280772,-0.44429486075702,-0.25574253242327,-0.16040381131984,0.0000000206922223303245,0,0,0,0,0,0,0,0,0,0,0,0,0,0,0,0,0,0,0,-0.28615151164064,-0.65816807147304,-0.65644332190949,-0.64281358800742,-0.64078757869466,-0.63409740781543,-0.64876724903784,-0.4722211946004,-0.47503247952186,-0.01820964406086,0,0,0,0,0,0,0,0,0,0,0,0,0,0,0,0.00000000737704838306008,0.0000000317870844088967,-0.00000002119288,0.000000734221724670941,-0.41198471616356,-0.6277723518248,-0.51282883343625,-0.63426425292507,-0.4141838121564,-0.34395949481375,-0.59520247243531,-0.61199616569743,-0.03817833276577,0.0127115426765513,0.00464601513565119,0,0,0,0,0,0,0,0,0.000000923516760396632,0,0,0,0,-0.00000024686451,-0.00000005694152,0.00000299646936976811,0.00389544427006564,-0.13829838443802,-0.44945922640301,0.0496586672413408,0.0164995763566467,0.0858206064694203,0.0906850106548814,-0.50182761112052,-0.46384203764203,0.0189655989869543,0.045428684629547,0.0406390231467784,0.000655546194857851,-0.00000214396371,-0.00000174693342,0,0,0,0,0,0.00000717501538622023,0.00000625149815343461,0,0,0,-0.00000041603162,0.0000100737177790526,0.000128783969680729,-0.00146737671057,0.0702941797503468,0.0139535419055591,0.0627384529540293,0.0184468012620826,-0.18920583295256,-0.22368514835252,-0.44555774484416,-0.18985081532224,0.0392551895455719,0.03804108600204,0.0305759413273202,0.00103945350941848,-0.00000583557276,-0.00001405487346,0,0,0,0,0,0,-0.01553326973144,0,0,-0.00375613074015,-0.01018116102815,-0.02811517723527,-0.05822070858233,-0.06184725567717,0.0386679661188423,-0.14270108366034,-0.38954180096892,-0.91253571639278,-1.12392788548897,-0.84644798856776,-0.65836418712881,0.117153634549416,0.00811929580884315,0.00432122017882017,-0.02326624655354,0.00985126135619743,0.00902867354521364,-0.00001627824308,0,0,0,0,-0.00047311943192,0,-0.0000498020464,-0.00032371328681,0,-0.02183999683871,-0.05574571942837,-0.10186543577158,-0.27926367630502,-0.20685254640148,-0.10812332234943,-0.26863063823393,-1.02299010274724,-1.06234146220166,-1.22033479067581,-1.09198224585674,-0.62611946427758,0.0697308239778547,0.00817724323522629,-0.04507084067325,-0.06567817488268,-0.02411494657502,0.0111522354368324,0.000854370704043789,0,0,0,-0.00328693505049,-0.00627505747959,-0.00398416361728,-0.00575145730101,-0.01864611263614,-0.01278534676356,-0.02855867095643,-0.55985268868851,-0.56663531608948,-0.4789361113396,-0.43615705665919,-0.88715394868693,-0.85478302989017,-1.33789686942337,-1.38966303579318,-1.15914050900366,-0.85532707114436,-0.24777538989328,-0.1250265058564,-0.17888147195928,-0.16013467456339,-0.06606318822709,-0.08117997257058,0.0082984597103248,0,0,0,0,-0.00124505110675,-0.00627505747959,-0.00627505747959,-0.03278446126657,-0.36680295301167,-0.45389904729771,-0.54021168800566,-0.57478320152378,-0.51709038636444,-0.51827157618729,-0.65253454805785,-1.10845617163207,-1.06782785439083,-1.1496315482359,-1.2603227398988,-1.19474835190737,-0.72052008737948,-0.37516117125465,-0.31418902675458,-0.40122684740162,-0.3216337946254,-0.09051693016669,-0.09571701706963,-0.08819374283086,-0.07051059981223,0,0,-0.00000086280515,-0.00000129420768,-0.00507980850795,-0.00463158976511,-0.0303683848293,-0.37515635553237,-0.57711474276662,-0.70349135795439,-0.81277830061684,-0.51826299232028,-0.20715482270793,-0.26298802255452,-0.7656754524399,-0.53406181433658,-0.84327518382498,-0.86155560651936,-0.78310855086761,-0.50425450795648,0.210153334657509,-0.0890800919145,-0.39040294249087,-0.28714965841723,-0.11302105269699,-0.07742878169929,-0.05134667068774,-0.0471524359589,0,0,0,0,0,0,-0.0042837937479,-0.36481840769171,-0.70421210577066,-0.72809808341561,-0.41714360512392,0.0921003466935736,0.0808422608190796,0.198704084580836,-0.31596951848022,-0.25832809992955,-0.43566066352457,-0.47531230973681,-0.46832550012503,-0.25488749855178,-0.04251170546817,0.0298330529392399,-0.07008698767177,-0.0355270657886,-0.03269854363937,-0.0055610235234,-0.0301748631369,-0.04477270932011,0,0,0,-0.00011069749026,-0.00066418495911,-0.00065337466917,-0.00469415954803,-0.01923584768734,-0.16511201533212,-0.25015009914442,0.010258035107066,0.255552527152488,0.00664816965461451,-0.04539657787005,0.161677576942707,-0.10193321010976,-0.14768939533236,-0.12313226317889,-0.18932616873165,-0.01556418266998,-0.00114686878245,0.0270175361945819,-0.31507511316138,-0.13873060157654,-0.11230392773794,-0.08880811013722,-0.03904319663786,-0.04477268499072,-0.00007302135357,0,-0.00217705060973,-0.00339472304646,-0.00873475440828,0.0105752406374286,0.0173660964339323,0.0522796228814981,0.00653115954938329,0.110763134705426,0.272025769434325,0.279015088018733,-0.06206951591967,-0.10951126108241,-0.1860194549175,-0.42335803058071,-0.49794824578344,-0.26260151470796,-0.06283152784774,0.109241469541508,-0.10315566906495,-0.29223229697062,-0.76086648033688,-0.20676662691377,-0.11393057605787,-0.1234826792245,-0.0678581885104,-0.0020757933187,0,0,-0.12972062099075,-0.04266983875927,-0.02032926333979,0.0224912170433385,0.0420709149728778,0.0485589733057681,0.16985265422718,0.396975785100532,0.673980513633685,0.100113842564695,-0.16843400482681,-0.25007173182044,-0.35143475404972,-0.65136981470437,-0.60447009775406,-0.22208866041232,0.318665977437339,0.0469493897076081,-0.03780568215631,-0.21914005172593,-0.77233724046458,-0.2494983181063,-0.12961766152357,-0.09182451353461,-0.02301378461414,0.00152774615793198,0,0,-0.19551028575169,-0.09124995977165,-0.00454908673292,0.0304241907835478,0.0405798459623101,0.0289247485588262,0.380124171402273,0.521274735342522,0.295811701682311,0.0475725680165581,-0.0814052999006,-0.32822167671397,-0.53639289139041,-0.5005484182667,-0.25798656727504,0.248888798911884,0.13555835433643,0.00948546177337242,-0.07108872846163,-0.21424146656875,-0.5694493770118,-0.08411030908322,-0.07334339243003,0.00324159817715201,0.00318391675159038,0.00105269651782755,0,0.0000000127746465398648,-0.12987533772352,-0.23423338459706,-0.20998925221626,-0.14741596780412,-0.01984698514124,-0.20711605089371,0.213219476465275,0.115727627170817,0.0522780509831271,-0.08827483474575,-0.45636437864782,-0.53975121218165,-0.85930416160099,-0.51256810692495,-0.09371641080168,0.316636300848751,0.105725998619029,-0.14163337520503,-0.13929792044801,-0.12379647548043,-0.64092123062185,-0.33357606303613,-0.02338803858405,0.00315042766796658,0.00136095446283585,0,0.0000000268417079744498,-0.00015337422984,-0.01354274896507,-0.18376988542309,-0.21062019951265,-0.31663483281521,-0.73873477015089,-0.8430745158864,0.12359122868674,0.212694935203491,-0.09306043927561,-0.26767105927702,-0.63849496016805,-0.74883252461871,-0.63956629266823,-0.38868537193185,-0.04728979136569,0.126252207698249,-0.00539752801337,-0.32159791167341,-0.38972340903308,-0.59083496521657,-0.25227328950629,0.00314441251332846,0.00140218187014648,0.00000442891203538864,0.000000129451716072924,0,0.0000000323378644880452,-0.00005311321851,0.00575990073262351,0.00924372306348565,-0.0715962875551,-0.04145855929936,-0.50865387656249,-0.67837810372705,0.111852517887404,0.229303162721194,-0.1824873702222,-0.45139284679557,-0.4455952621722,-0.36721502890309,-0.24481603735904,-0.52596349063032,0.0878338073655754,-0.3513638714564,-0.62123592121631,-0.82068077945029,-0.74943478949501,-0.63938498108093,0.00146571212374742,0.00148339432548281,0.00000286495704317821,0.0000000500130250484696,0,0,0.0000000323378644880452,0.0000000236462631260254,0.000561152923157146,-0.00223990324767,-0.03286667129052,-0.03925836390141,-0.41402899834567,-0.8254553092983,-0.37727809906297,0.00110371708103363,-0.3365085869868,-0.76277239592234,-0.35690790781005,-0.82644635945989,-0.86505355696152,-0.35098721939679,-0.38358407245839,-0.4678922784025,-0.80605651600813,-0.74885711225432,-0.55746771902276,-0.24312796634888,0.00009516678200479,0.0000201857268799744,-0.00000003756141,0.0000000498087075386302,0,0,0.0000000323378644880452,0.0000000122704942691914,0.000138487529795198,-0.00197627936558,-0.03880474447934,-0.05681650019892,-0.40436562839574,-0.72968809024705,-0.48168474663305,-0.64978970630699,-1.17195088236219,-1.20174003680152,-0.65856771365106,-0.98602962013787,-0.73584886421576,-0.63153008923623,-0.5522012326101,-0.59995803835209,-0.42029682359882,-0.29139753128969,-0.02431299568087,0.0000994355225444766,0.00000481601703102486,0.0000783725758763649,0.0000755304374250192,0.000000742509073628063,0,0,0,0,0.031461559618432,0.00487608588031786,0.00801585524585999,-0.05697355038271,-0.48096568860519,-0.73103658270193,-0.8474901042674,-1.07942391629727,-0.9456418808363,-0.87789593444959,-0.85207864321309,-0.64385249199481,-0.67289044726321,-0.64359637050371,-0.68308713819933,-0.74467807998281,-0.08348360298364,0.0139151435931134,0.00145628477004261,0.00105011128996269,0.000423319658783604,0.000644703190995235,0.000291766971754832,0.00000047663212728105,0,0,0,0,0.0870185950996824,0.103018925270241,0.0758661872199338,-0.00250787416754,-0.15449422460878,-0.3549365166495,-0.89962551973652,-0.12358050373903,-0.27389809267137,-0.51335950357354,-0.52983807565854,0.14622840976749,0.10115502689438,-0.00435412779588,0.00782240602931941,-0.00561002746713,0.0124108126439102,0.0046062239861821,0.00167890578417121,0.000503486670895269,0.00046371042890101,0,0,0,0,0,-0.00079683274238,-0.00600114625692,-0.00537862075086,0.0369821464857622,0.00185080404398933,-0.08762701583231,-0.21428940892401,-0.12882071458742,-0.1724574713107,0.0139138920972096,0.0184044526847307,0.189482835916632,0.137888248061138,0.0482584249325482,-0.00618569651825,-0.00259774618408,0.012448273960465,0.0126218326876546,0.0150873976676496,0.00077532663328712,0.00129840238138206,0.0000000595790159101313,0,0,0,0,0,0,-0.00363554933388,-0.00627505747959,-0.00627505747959,-0.00378597757567,-0.06413960436967,-0.20197262776443,-0.24156295304618,-0.03647040034777,0.310542799996683,-0.12496062303941,-0.29267838016246,0.451415213450955,0.270645253058015,-0.00522339287623,0.010537714906367,-0.00391705520769,0.0167665882381763,0.00696610862975021,0.00175882070685446,0.0013488377719819,0.000873065353478732,0,0,0,0,0,0,0,-0.0057521360545,-0.00126995212699,-0.00219157757229,-0.00062882033617,-0.06435858217474,-0.17419037060976,-0.1625421374237,-0.18672270575999,-0.02696205021381,-0.15130934423426,-0.08962512084224,0.354376647372863,0.119472224070523,0.020226678240242,0.0116493162421736,0.0158055145775551,0.0016271949289977,0.00142163139267633,0.00116409476305659,0.000397357946678626,0,0,0,0,0,0,0,0,-0.00126995212699,-0.0000996040928,-0.00000436195928,-0.00007624879799,-0.11217627227855,-0.08155000166018,-0.43772712306144,0.0956005934256603,0.147511174040168,0.00137130466153091,0.0183087492693609,0.326490329856187,0.26305988743285,0.00239975139043821,-0.00173510279175,0.00529486252542425,0.000903164092024596,0.000520481217709177,0.0000783520165845068,0,0,0,0,0,0,0,0,0,-0.00126995212699,-0.0000996040928,-0.00000388262313,-0.00001207927157,-0.00232761913601,-0.14365038577245,-0.26504368254802,-0.03829745428234,0.197776277510315,0.00310991458872514,0.0303855483199503,0.349081213065878,0.135386014969655,-0.00408526009555,0.0012205050006296,0.000931057118459303,0,0,0,0,0,0,0,0,0,0,0,0,-0.00126995212699,-0.0000996040928,0,-0.00053503786231,-0.00439100037997,-0.15072532834232,0.13563668005857,0.141534921569638,0.395404708444427,0.38457352890468,0.272353071755241,0.342884875326673,0.374447965773216,0.0012205050006296,0.000940705452077066,0.000082010221672134,0,0,0,0,0,0,0,0,0,0,0,0],[0,0,0,0,0,0,0,0,0,0,0,0,0,0,0,0.000202722187150878,0.000897414599720905,0.00222826784261642,0.00264923926122376,0.0030024922294384,0.000245783361324636,0.000065306144014613,0,0,0,0,0,0,0,0,0,0,0,0,0,0,0,0,0,0,0,-0.00000052310754,0.0000123766794956726,0.00028186814439214,0.000620460213264305,0.00197167527361142,0.00411110942633811,0.00906450499092566,0.00763671674011124,0.000741836929669764,-0.00000003329338,0,0,0,0,0,0,0,0,0,0,0,0,0,0,0,0.0000000000143008471364766,0.0000000000746722483684734,0.000000000076376184654015,0.000000315308987648421,0.0000824566313038786,0.000626386791863679,0.00194836271215691,0.0219950231754137,0.00844438070469274,0.00709111020695343,0.00721992353169238,0.000609324874973751,-0.00012979193692,-0.00020584789508,-0.00015648222179,0,0,0,0,0,0,0,0,0.0000037911517245374,0,0,0,0,0.0000000000239055878383559,0.000000186368280941135,0.000000683940805446767,0.000103911781622201,0.000739265622153771,0.00213416233953063,0.00288341897583061,0.0251145480115906,0.0392244689586683,0.0335451343975346,0.0263160262185263,-0.00001139863451,-0.00087796871775,-0.00093788651658,-0.0009057843112,-0.00000298392994,0.000017782051335324,0.0000144890790975348,0,0,0,0,0,0.0000294543349092751,0.0000256631812455219,0,0,0,0.0000000000157168478180165,0.00273992160572301,0.00317305903840223,0.00339916069938431,-0.01062178500879,-0.00397424456958,0.00413850577553195,0.137831292427895,0.19628590445262,0.0638937924985175,0.0522407727612952,-0.00071205135856,0.000891167818973556,-0.00018365650348,-0.00036812891689,-0.0071074944653,-0.01618353709488,0.000116571227227836,0,0,0,0,0,0,0.00122886856340973,0,0,-0.00000114924283,0.00000438869843896934,0.0275463066711052,0.0244642052066211,0.0238622271309388,0.0329558229944864,0.0696842884022907,0.205324036241972,0.481974303705084,0.375854387490369,0.250228421293955,0.196211616771885,0.156177294802329,0.0491853820975242,0.00620502080498731,0.00898326828986936,-0.04217706933985,-0.03706819219031,0.000135011871759456,0,0,0,0,-0.00138930752137,0,-0.00014624289973,-0.00095057880482,0,-0.00080537975952,-0.00120644112056,0.0173252194856863,0.0422058802151574,0.0507569782438773,0.0441047877423082,0.114320519446533,0.464544929158112,0.580794171923979,0.519966226191283,0.557997653577191,0.268442320951208,0.199241131110048,0.104745707805299,0.0787750466078697,0.0406618261640314,0.032025785232909,0.000275072242205937,0.0000334368338331315,0,0,0,-0.00965203134733,-0.0184266042891,-0.01169943170041,-0.01154949440217,-0.01737704325481,-0.00633015207441,-0.01260661584088,0.0476712183583351,0.097132974277588,0.0821135515247908,0.117062242019168,0.109242814844144,0.171596352776732,0.605444823810359,0.670169525811212,0.611226126085682,0.673621894525487,0.409368673914598,0.262836490327447,0.297662600827566,0.230932021299848,0.0940621444617993,0.0459561360411179,-0.02119099617806,0,0,0,0,-0.00365607233692,-0.0184266042891,-0.0184266042891,-0.01617754494008,0.0121606031993304,0.000213601510411002,0.0127975046982072,0.0414726833835447,0.0925845595068229,0.16857195679206,0.158714391074961,0.262097807028873,0.441451042844318,0.615020312494552,0.708084361012231,0.732473980699542,0.742843498596032,0.50551889122125,0.530571347838612,0.353582300651422,0.14062435189087,0.101767037306999,0.13044658363243,0.0509735840775268,0.0249178472976662,0,0,-0.00000568357463,-0.00000852536165,-0.01491677511239,-0.01360058805974,-0.00374320484304,0.010112430669664,-0.01274058992995,0.0207332691712744,0.0938333363042396,0.180486147439721,0.214641025929398,0.287512226321977,0.392010057782581,0.495804291342032,0.644623118334042,0.625801590390118,0.588058132249148,0.468243929482906,0.577169889224827,0.539083718162341,0.291153382574462,-0.07097379340888,0.168057959601036,0.118716812582415,0.0660977319534526,0.0348891290171058,0,0,0,0,0,0,-0.00657459705751,-0.01031700781178,-0.00822359143282,0.154417989070768,0.18594716226079,0.21833998772922,0.296010537936376,0.343783757098973,0.471775820026094,0.443715904832201,0.286435686095232,0.283242241151514,0.0512593538506325,0.0404278320805607,-0.04285242113111,-0.15032852298909,-0.25133571047364,-0.05339051596049,0.236527183988458,0.247761877000647,0.140968008108618,0.0535248217937232,0,0,0,-0.00000294313272,-0.00001765879677,0.000014998428566005,-0.00358092966228,-0.02011766288962,-0.00664722833313,0.0612476355418472,0.0913715546539184,0.115642336305023,0.346519461926186,0.541662229519246,0.545101424472939,0.0909511395675231,0.0716428803543089,-0.0090641277728,0.123508232177845,0.0939988961413443,0.120408020863706,-0.01092696842638,0.015805421349063,0.239327109363392,0.318923020041444,0.252715494134776,0.0883117760471858,0.0579927910168745,-0.00519197728553,0,-0.00005788160925,-0.0000902560703,0.000423927141027842,0.00197375552466554,-0.01717657085621,-0.01708245391114,0.00918326519123609,0.0250749867573682,0.0471261635085807,0.0803832948449307,0.346917903646379,0.327557420560023,0.123687623423563,0.0471846018858499,0.156141260164334,0.317268431137679,0.230836721336723,0.112840858061279,-0.02402484759339,-0.05554847371479,0.161772785238825,0.297688011224499,0.343026471087618,0.283633242763511,0.0200801961594014,0.0123577371599797,0,0,-0.00009205840204,0.00102485108005175,0.00115987953224533,0.00411116982983342,-0.02292325808705,-0.00771522337788,0.0212097161925684,-0.04724766706445,-0.13979551594569,-0.1479028145114,0.0781493668559848,0.0983333828410915,0.0512735876444911,0.268756473105414,0.251933746210844,0.250105982067515,0.102072651217247,0.00831048845082292,0.00653585963037967,0.06342495946472,0.157096754000858,0.300361496859969,0.294566694331595,0.199130814175703,0.00755772720480137,0.00851609948198013,0,0,0.0000138793917074614,0.0118815518779916,0.0238756617551543,0.0137500245964432,-0.00671424371185,-0.05726880148521,-0.09180793313576,-0.21168581541424,-0.27460524460836,0.147890159796837,0.467338385467346,0.412496453419404,0.256418685172209,0.193478641009183,0.192901760597288,0.170341159815281,0.0910218935197115,0.0303218769782188,0.114661375209818,0.101056602089488,0.110739671918343,0.218523625646398,0.276502325649755,0.153600514907252,0.00892627369943174,-0.0009756687703,0,0.0000350423164498323,0.0363257462453169,0.0570925851642979,0.0655674966480028,0.0676040239636083,0.0972872244298948,0.019523226887298,-0.0943914269448,-0.05634338762565,0.144824267080308,0.651452692561099,0.556932769281948,0.217365524444131,0.184612513781445,0.192813768299949,0.175962506749862,0.134503699555158,0.115549254351537,0.0721158000412497,0.152297651503208,0.144486884017328,0.192044216917863,0.243308853149703,0.296575476039939,0.116494285400669,0.0106158464722539,0,0.0000264074397572688,0.0585932241964017,0.0619313592973078,0.0656301578901801,0.167320141218658,0.13049345487508,0.113412383530657,0.120229775505331,-0.0811330988653,0.159635280178407,0.419138116349414,0.487340357008832,0.467708976327975,0.196275586945618,0.119593235868775,0.186369280346394,0.129473976659947,0.132716958330646,0.225676136928745,0.202427130178642,0.217264771420411,0.163319143702214,0.209123749944588,0.265251382884232,0.145115983880182,0.0989351687961117,0.0115010928890202,0,0.0000318146747278395,0.0203308348087363,0.0495830115674264,0.160367596187867,0.173034974747747,0.162345553023331,0.244466671159991,0.278274158864878,-0.00275647854078,0.183720575923478,0.165859841747621,-0.03525373344158,-0.15246669609469,-0.10744167665437,0.221686236787625,0.209314613956368,0.140371111592038,0.17414114138256,0.24455974837833,0.246809139646047,0.321263914796644,0.330229391814421,0.302932607761016,0.24521980997281,0.0393302868523576,0.00994503867694973,0,0,0.0000318146747278395,0.0000232636935615064,0.0750994693170597,0.127133072225656,0.198262437861292,0.209210882236328,0.350106663478706,0.555250377212328,0.663202891892824,0.531421499428913,0.2591725953565,0.197741266069018,0.0529688636929945,0.0539640442468396,0.125856280906066,-0.00900897903188,0.386112865677498,0.304286058895566,0.425930802057834,0.45097995760825,0.409266680040532,0.242352674422509,0.167300311732443,0.0442625417009257,0.0104720725323151,0.00537820453570912,0,0,0.0000318146747278395,0.0000120719716686444,0.000789118779073305,0.102729801017317,0.158703152344591,0.340646953156987,0.558609147853712,0.808092773519702,0.723710707013798,0.429311630423863,0.426802009836397,0.325474218004288,0.34121699848743,0.445603180749379,0.0962695344542415,-0.03026126051275,0.211296815276493,0.511293975903421,0.525353451290145,0.459936787492704,0.217646720806291,0.141613059625919,0.109733577934318,0.0660539170704233,0.00749153387627799,0.0148253281663859,0,0,0,0,0.00627783738517752,-0.00586681566647,-0.00993805027718,0.0932968277857451,0.703890905820668,0.701904935545199,0.575645509770812,0.522063065682117,0.512372180346179,0.546505632273687,0.594986496170027,0.545461141765986,0.42068353564478,-0.08436887375011,0.393426068148295,0.532496047921922,0.398913775835329,0.325079919446806,0.192878295420703,0.113636808024744,0.0956084376112913,0.0502831796283221,0.0273602706485464,0.00933632490287999,0,0,0,0,0.0164459606429744,0.0109879856934212,-0.00043361419018,-0.09801349132127,0.264826564301037,0.360787955331628,0.50751495547914,0.553427972045626,0.597425879224812,0.389673075641109,0.488935282717536,0.309126138172119,-0.13028824104718,0.0256636534706218,0.242703785938049,0.15733384741494,0.163284629182385,0.122560098197153,0.0461773478141448,0.0227045472036014,0.00502398186918365,0,0,0,0,0,-0.00233988639565,-0.0176222684361,-0.01579423240657,-0.06346057815788,0.0217076217042888,0.123278053230059,0.104156854781064,0.0139731152708355,0.236111914755108,0.130360678248025,-0.03687621178598,-0.05472889492779,-0.17226428376789,-0.3114877425473,-0.2556386194681,0.19045295769135,0.0913821641451542,0.0414793416088884,0.0435271692998928,0.000227235225177574,0.000120369762688029,0.00116704061286,0,0,0,0,0,0,-0.01067573152387,-0.0184266042891,-0.0184266042891,-0.01081163597303,0.0393324286203956,0.496456870148571,0.609957446457549,0.556672932663871,0.355364797798133,0.204841727978669,-0.00423953677183,-0.12755545311113,-0.16229926301023,-0.20366066959806,0.0669704380870805,0.0531903045888616,0.0396909882603005,0.0282420400752164,0.00415420467272806,0.000126392227667682,0.0000721769552114952,0,0,0,0,0,0,0,-0.01689105402429,-0.0037291937781,-0.00643658190448,-0.00155994482116,0.0629766064238843,0.41050348225519,0.432880026190776,0.346953718514179,0.292012885140009,0.200562098770259,0.0786718983395248,0.0432321830881899,0.0196776675452637,0.0849998295199111,0.0761214540206111,0.0391237159588736,0.0167288013885212,0.00235568147358509,0.0000980225086419749,0.0000331475301883728,0,0,0,0,0,0,0,0,-0.0037291937781,-0.00029248579946,-0.00002873362668,-0.00022661287697,0.237789199869743,0.242384161808001,0.258622911203859,0.0472205626115023,0.0479204603285804,-0.01476677937402,0.0114518658479607,0.0294569493903368,0.0254453698768173,0.0208930575402219,0.00120590082178105,-0.00017347660136,0.0000637970776096801,0.0000430285652607046,0.00000647741886585817,0,0,0,0,0,0,0,0,0,-0.0037291937781,-0.00029248579946,-0.00002557608555,-0.00007957004126,-0.00008138254209,0.0606084259443126,0.138669137750479,0.0929754661101772,0.0224431627157509,0.0441562263955733,0.0252381145962205,0.00432863368971747,0.00105459942085639,-0.0000250721739,-0.00005174516916,-0.00003947358517,0,0,0,0,0,0,0,0,0,0,0,0,-0.0037291937781,-0.00029248579946,0,-0.00001422514127,-0.00011674426266,0.0606252486205301,0.00819087863449821,-0.0170633164029,-0.02765326767219,-0.00058141833299,-0.00014405833837,0.00102293801464124,0.00351264470287319,-0.00005174516916,-0.00003988264098,-0.00000347694831,0,0,0,0,0,0,0,0,0,0,0,0],[0,0,0,0,0,0,0,0,0,0,0,0,0,0,0,-0.3918549685949,-0.79131701193925,-0.88112491515915,-0.88419904861204,-0.01543423785196,0.00986222602804222,-0.00063043579317,0,0,0,0,0,0,0,0,0,0,0,0,0,0,0,0,0,0,0,0.0210346803860008,-0.03999480660717,-0.71246093300435,-1.28946785259834,-0.8592597007864,-0.90828830753005,-0.15291988907898,-0.05650032874991,0.00125007777544198,0.0000131290067285167,0,0,0,0,0,0,0,0,0,0,0,0,0,0,0,0.00401807095194,0.0209174645720308,0.0208922287897191,0.0208094378067605,-0.34392445663632,-1.31381094985391,-1.31934221782577,-0.71907582576031,-0.15579887190253,-0.0572864723488,-0.04288465544199,0.0229138670248175,0.00416408374721874,0.000140557092237068,0.000126998249019544,0,0,0,0,0,0,0,0,-0.00008250090336,0,0,0,0,0.00429125568603495,0.0213277474356789,0.0216458354233755,-0.17703083142159,-0.89846707789754,-1.21594029774821,-0.82948218172518,-0.18301938415361,-0.06789508706687,0.0211575820578516,0.000263094691098823,0.0248111810516664,0.00637806523741481,0.000689775034925471,0.000678275352526483,0.000000077196216690502,-0.00001615102232,-0.00001316009247,0,0,0,0,0,-0.00064096860648,-0.00055846766092,0,0,0,0.00044702954772486,0.00368016402608566,-0.38237400870072,-1.13089861005293,-1.14066339329871,-0.96854124635382,-0.25505042342401,-0.24114641665139,-0.17012105719613,0.0546170740292313,0.0193589563877721,-0.00035965379966,-0.00612656911916,0.000830207067592524,0.000239057418064109,-0.00013358048419,-0.00032740875297,-0.00010587892574,0,0,0,0,0,0,-0.00470007041876,0,0,-0.0000156317641,0.000449524208259106,-0.3926093582181,-0.78207262450393,-1.10525930461601,-1.46839228754431,-1.18908733389209,-0.36960733283453,-0.46411280434212,-0.44146685491381,-0.40176997461962,-0.53336516625339,-0.42755047162399,-0.10898402478363,0.0110294286348452,0.0194737353868019,0.00191906318427773,0.00107554029041705,-0.00012262813289,0,0,0,0,0.0168846716664824,0,0.00177733389295294,0.0115526697765765,0,-0.00003804936064,-0.00448098698464,-0.01876770309066,-0.87260772439151,-1.43794860713885,-1.63032966536067,-0.67108424304426,-0.43692954545152,-0.45388551364944,-0.57834527348043,-0.88961225310913,-0.5597476268815,-0.506211773089,-0.17356899340811,0.0896335578977091,0.111170367569399,0.019648533721404,0.00444773486541036,-0.00003461890963,0,0,0,0.1173040365128,0.223944057427153,0.142186708059482,0.142185536052255,0.223935853376978,0.0114666082924998,0.00723669405444303,-0.00695513240272,-0.631524988537,-1.29205004850287,-1.64797548837579,-0.91253647033105,-0.06899463415495,-0.3213224203758,-0.19779728653906,-0.75283882801678,-0.90097322499845,-0.35435150185561,-0.13197845217454,0.030131292558048,0.157189652302031,-0.14936551993177,0.0355342034852651,0.00439669008321942,0,0,0,0,0.0444333454244,0.223944057427153,0.223944057427153,0.223926477319715,0.22370496796332,0.22238947236436,0.0668091125935598,-0.23631462038856,-0.92067560968288,-1.08932238549769,-0.65468832696062,-0.2057138382301,-0.16758941174059,-0.10153585919244,-0.51083305136191,-0.53717837361482,-0.26636986156608,-0.29174315435756,-0.55064560762946,-0.55531541180724,-0.39532994476562,-0.67197687821924,-0.66662955423602,0.10544603700154,0.101055390157147,0,0,0.00270403159375768,0.0040560472479314,0.181288049061412,0.165292032417247,0.074629269277913,0.21436073431383,0.174058333859443,-0.33525655716254,-0.46617370771762,-0.4242443112663,-0.9221731042678,-0.64786064487119,-0.31651500853066,-0.27752736757897,-0.889676938562,-0.93969343518168,-0.52266975377319,-0.01870882620416,-0.65984306349107,-0.52629222187101,-0.51005897386164,-0.59995233124049,-0.40128430617469,-0.54365470080337,0.0306832044454894,0.0311048925399809,0,0,0,0,0,0,0.0217420025084057,0.258206852495268,-0.25752413499707,0.0285743860771161,-0.15967278743924,-0.59223943655567,-0.92602901474785,-0.31109448559233,-0.06717977656806,-0.45134009847839,-0.59757912574544,-0.34542457842705,-0.14895564006935,-0.27617935282929,-0.41667028664922,-0.66319044046143,-0.62693817259289,-0.23457281561185,-0.72148087704787,-0.77465204593459,-0.19055741844418,0.00182498842950171,0,0,0,0.00000101361748042711,0.00000608170504304348,-0.00030900962725,-0.03862843480116,-0.33563115669654,-0.18169826107683,-0.24704484909898,-0.6461591988676,-0.69904226084585,-0.6175229688888,-0.45362900870571,-0.43741552798215,-0.64430485535088,-0.73092028007447,-0.53694798639655,-0.40651780720024,-0.46549626772151,-0.25300425699757,0.233228530871645,0.0415935959546186,-0.00936086389017,-0.38483646633629,-0.77345910615175,0.00499581683460481,0.00396248448695446,-0.00006252955541,0,0.0000199344768208517,0.0000310842695067519,0.0467231649352731,0.081294919548538,-0.08559821314373,-0.48105954960497,-0.46884988698786,-1.10984468914556,-1.11297609105116,-0.46764584962179,-0.77110927522534,-1.12218385757683,-0.68766120306835,-0.48470555100535,-0.8536817611987,-0.81168435447608,-0.93249120092333,-0.73629400032345,-0.33967711736453,0.0540778393687206,-0.10958025725208,-0.21436552530546,-0.79218217102305,-0.38418782960581,-0.38514835088349,0.00479416270033948,0,0,-0.02533100175962,0.202779695962523,0.128335672008114,0.071142645086289,-0.48758383774696,-0.55986517283282,-1.38285679223317,-1.43335090450132,-1.22280377984696,-0.44540371714316,-0.87373693777365,-0.63278309579136,-0.36394558657696,-0.69430156308753,-0.77375054177196,-0.47360350872064,-0.40027243200263,-0.00837608029935,0.135165166607008,-0.08828706279576,-0.16047806557339,-0.2269833100598,-0.78611176919825,-0.18798532128656,0.00554014239959535,0.00478738905026504,0,0,-0.03938371810654,0.358889885200224,0.0886130070081786,-0.07428186972063,-0.48656493424721,-0.57795243709828,-1.42945176373462,-1.45940453929989,-1.16677473355539,-1.43726440268917,-1.39019463165929,-0.33315289739182,-0.28120124976606,-0.88876320594251,-0.75268420261266,-0.55202234343244,0.34144765210194,0.240009386961849,0.089807976366494,-0.4544462051625,-0.72664797745205,-0.77961732810611,-0.58120384164409,0.00485335537732572,0.00478754170128837,0.000000173013538213426,0,-0.00031573503766,0.327059264712636,0.351032329792088,0.331426185271323,-0.35454957123029,-0.33427448722758,-0.27044634930602,-0.76694070699448,-1.24031067388675,-1.32474417648513,-1.38007900612686,-1.1771132618332,0.0957005724371535,-0.3647832782646,-0.66366863086238,-1.01341496783233,-0.67283095125814,0.00210253717822027,0.265596932007907,-0.21463646020636,-0.88021428004687,-0.78604709123644,-0.39032567667608,0.00118616794623345,0.00465106443165621,0.004787242092474,0,-0.00000571576999,0.00943343236012773,0.232941276147155,0.370805869338106,0.395940608840622,0.0597182297944126,-0.21151518729591,0.164762252629337,-0.39926782480541,-1.41513068601465,-1.60604624571611,-1.06742414179735,-0.48657200565,0.0968138512935988,-0.29608263704289,-0.73892183125158,-0.84223440685903,-0.77459350160097,-0.61469348211873,-0.587869551029,-0.84682881560363,-0.42807693557327,-0.20900565882494,0.00185980655768625,0.0040865333860842,0.00476455337353314,0.00478672163654497,0,-0.00000688614136,0.00316697628265319,0.0384141254715294,0.0743599891843047,0.416350577719774,0.459344836859701,0.471322644072565,0.41609680891827,-0.31269783036601,-1.42086954867805,-1.13353907472404,-0.41213059274552,0.224848757304668,-0.12842552266947,-0.18041501222553,-0.68546480573852,-1.07620970801466,-1.36460959927367,-1.00959935145772,-0.81130890390161,-0.80646932460766,-0.06448428303108,-0.03717266499692,-0.04829206569439,0.00105385409011685,0.00478681725958883,0,0,-0.00000688614136,-0.00000503532046,0.000935199271867427,-0.01480870470308,0.0429171024451449,0.200516174258382,0.219437488849559,0.228229557854437,-0.55653847396418,-0.93901381781785,-1.27956539223723,-1.17025899662826,0.0272534144693779,-0.76437587450148,-0.9500466130031,-1.31855509476911,-1.36457461611543,-0.93656258395853,-0.54680402033634,-0.13668622807937,-0.034668477905,-0.03892356293114,-0.04180613664894,-0.0056375948922,0.000126997690390681,0.000293270147348668,0,0,-0.00000688614136,-0.00000261292325,0.000558600835054338,0.00731840404982786,-0.0113498995949,-0.03698440053277,-0.40172446613508,-0.53446401122896,-0.58858492784065,-0.03534358327047,-0.57046080190595,-0.86789502127745,-0.94198585868524,-0.93989995768996,-1.3462250592106,-1.36677930357496,-0.8172105985252,0.027631156784305,0.0870693565463588,0.0368391800686339,0.00239508158176057,0.00429216018678757,0.0047470945500604,0.00247888039427372,0.00209870608695237,-0.00037515498624,0,0,0,0,0.0774035747531061,0.0195811119773571,0.179129727787511,-0.04194362462453,-0.48896061934067,-0.61844843246259,-0.31396628275542,-0.34138637507536,-0.63118890673445,-0.60345123617432,-0.94272599657073,-0.29912811133257,-0.36334878183969,0.079986112708468,0.129135164381922,0.126008528074421,0.118077693952048,-0.00360600150721,0.00458436540264391,0.00324076970786315,0.00330079823096627,0.00016611177201982,-0.00000160617233,-0.00000057373824,0,0,0,0,0.213575598082601,0.22952925509768,0.29807713867672,-0.05454078983057,-0.38582026471043,-0.43330904481081,-0.1175589193053,0.027445313908378,-0.77337741548324,-0.92061591377479,-0.50548360219463,-0.29667917454719,-0.00707851499169,0.0329022617323453,-0.00980763696643,0.0027578866255173,-0.00730200102941,0.00455429501674638,0.00301737181476632,0.000242075680067907,0.000226898141623887,0,0,0,0,0,0.0284373422872471,0.214168722176671,0.191952051152847,0.302244419655833,0.0961584738801966,-0.30492568761164,-0.36596241990211,-0.19381686375177,-0.52545102970893,-0.71339398210103,-1.09281409301951,-1.12858001884961,-0.5830368711865,-0.07252583115575,-0.0256513831479,-0.00777157512954,-0.00762743881033,-0.00285338176399,0.00205027598978908,0.0000295332035893211,0.0000511758134822022,-0.00000007171728,0,0,0,0,0,0,0.129745372286141,0.223944057427153,0.223944057427153,0.115831838598729,-0.15613632036607,-0.95765788749606,-0.79280115729864,-0.86141265796106,-0.74864656001398,-0.96065415406913,-1.13637074428106,-0.30845162351038,-0.12629976159401,-0.00698274926078,-0.01173178703085,-0.00711810351163,-0.00240047229271,0.000189231073115478,0.0000493095990950251,0.0000532770718759978,0.000034626973832456,0,0,0,0,0,0,0,0.205282053767141,0.045322012265353,0.0791040325981664,0.019495773627663,-0.0939809801924,-0.84642089645984,-0.89209305243712,-0.63940531274986,-0.57355189919963,-0.34533590902513,-0.11085465259114,-0.01951311600673,-0.00557395104558,-0.01335054139466,-0.00489539785612,0.000782079561954553,0.0000642073159895152,0.0000561070108527103,0.0000461432379384625,0.0000157553693705611,0,0,0,0,0,0,0,0,0.045322012265353,0.00355466778590589,0.013670381644953,0.0375369250721802,-0.38051803466347,-0.41656308070526,-0.37644641224287,-0.09240426132621,-0.09456503119761,-0.05935603908612,-0.04597938300254,-0.0005061729843,0.00310815507298751,0.000259587195324798,0.0000983906144276485,0.000189306956136419,0.0000321770351936103,0.0000206430016196256,0.00000310754884176945,0,0,0,0,0,0,0,0,0,0.045322012265353,0.00355466778590589,0.0121681420292044,0.0378564406001461,0.00933517215514943,-0.08587881905626,-0.18285068017807,-0.12751107313115,0.00214009579114425,-0.03159717970656,-0.03161286005383,0.00386014773017953,0.00152869101625955,-0.00000892067301,0.00000000523542780265798,0.00000000399382413126529,0,0,0,0,0,0,0,0,0,0,0,0,0.045322012265353,0.00355466778590589,0,0.00000489915108853069,0.0000402068261084322,-0.08591700648098,0.00153019032432399,0.00046233605909827,0.00288899233204723,0.00410022609599925,0.00294545805328463,0.00371505726497858,0.00408238204706867,0.00000000523542780265798,0.00000000403521122435028,0.000000000351787657095176,0,0,0,0,0,0,0,0,0,0,0,0],[0,0,0,0,0,0,0,0,0,0,0,0,0,0,0,0.00000136869961663807,0.000200000512570323,0.00020139492474801,0.000851273093855193,0.000766077418852547,0.000371381012792841,0.0000000186994482252364,0,0,0,0,0,0,0,0,0,0,0,0,0,0,0,0,0,0,0,0.0000856666981187807,0.000197029956741879,0.000268943312980154,0.000535669661287154,0.000737705294839849,0.000937453200818798,0.000921243602752864,0.000802207897061711,0.000325779664030425,0.00000545131751575455,0,0,0,0,0,0,0,0,0,0,0,0,0,0,0,0.000000000605179187005241,0.00000000322334205228233,0.00000000380251318666042,0.00000976556919856886,0.00030893689513487,0.000845693185201371,0.000898221230669598,0.000970382794323393,0.000800023447556521,0.000960018760605892,0.000981073810974574,0.000922460415683486,-0.00236447722013,-0.00664556144874,-0.00612174130026,0,0,0,0,0,0,0,0,-0.00000128658212,0,0,0,0,0.0000000034518774933554,0.00000577751167192121,0.0000211652361579664,0.000124232790653634,0.000796188930667146,0.000863666404671643,0.000649021306263626,-0.014405925007,-0.07805621008672,-0.08363936756535,-0.04804476216036,0.000962541163910504,-0.03000256862388,-0.0329899533655,-0.03260483980974,0.00000000354749408470298,0.0000552925342712158,0.0000450531767933513,0,0,0,0,0,-0.00000999575415,-0.00000870917137,0,0,0,0.00000000465823341341807,0.00000112947101616285,0.0000143698216489222,0.00036316789686371,0.00362964377705582,0.0362715735853583,0.164491789737976,0.132718624310592,-0.08483363203264,-0.08475837719462,-0.0554859529005,-0.02091925869571,-0.02635225909821,-0.0212776050757,-0.01038021521773,0.0124287071413601,0.0284143457650966,0.000362473285842383,0,0,0,0,0,0,0.00000500345105762039,0,0,-0.0000018500135,-0.00000063565405,0.00133735665434667,0.00244382611094291,0.00357270667322882,0.00485857372899573,0.168756554571807,0.294709912562019,0.238416934800738,0.0789820931836523,-0.00233339089944,-0.2398416161354,-0.42662584696444,-0.10557873786788,-0.00614377121606,-0.01688869036349,0.0740594461878734,0.0653743885969799,0.000419813687718425,0,0,0,0,-0.00010814150172,0,-0.00001138331618,-0.00007399155182,0,0.0000687624000599311,0.00107219935293496,0.00308785639748665,0.00520010252158548,0.0441006835524058,0.101479962741129,0.0995442231239133,0.382258468962425,0.537223270521328,0.471323317931222,0.173903513116905,0.184652492133284,0.212390647617159,0.221552125022669,0.204437318789008,0.0966251410900977,0.0522799239537791,0.00359396090005203,0.000350537846819842,0,0,0,-0.00075129886543,-0.00143429775536,-0.00091066527308,-0.00091007172967,-0.00143014295172,0.000396474276951888,0.00196430464138655,0.00304524100740117,0.00865288873925148,0.0270906819926375,0.0645215130607414,0.0609951453699397,0.0773671360542959,0.461266882926622,0.297040466688097,0.0234908608161191,-0.09265548170984,-0.00132496082237,0.563569905392309,0.630539548804403,0.700199653589545,0.310813072778409,0.0775982625440142,-0.02607671131187,0,0,0,0,-0.00028458289243,-0.00143429775536,-0.00143429775536,-0.00142539460474,-0.0013132149056,0.00112812599892948,0.0265035475382544,0.0529294400759844,0.061852253667913,0.066678607106525,0.0434623571413373,0.0354762506824652,0.0605579733868355,0.0272036288847613,-0.02150078729699,-0.16329684061697,0.0397665455446533,0.488399280426079,0.661407505256867,0.529932757953758,0.560079255907735,0.550359770363255,0.0543448062549313,0.00391597052624557,-0.00058717797035,0,0,0.000044813886748321,0.0000672208277574311,-0.00116109819938,-0.00105864827939,-0.00046860257168,-0.00110961255938,0.0371771865421296,0.0637971708778172,0.0400117380138783,0.036749661864008,0.112029683176642,0.106285569147403,0.141967493074405,0.0380404867796314,-0.34061499308214,-0.31283923293295,-0.14963567648526,0.503664613150899,0.707123412041027,0.687938858828516,0.571910813540434,0.726320331763409,0.687965784625179,0.0475342148151973,0.0109498198916731,-0.00019593075241,0,0,0,0,0,0,-0.00237864224515,-0.03412820080695,0.0194775834139061,0.0379418299001912,-0.0032608940886,0.125108674459634,0.135627434295059,0.150288320085386,0.00739426027224034,-0.25395345531194,-0.23256563824149,0.0498868866903288,0.551445536406347,0.851178120867001,0.728902005581745,0.626339247501412,1.11471962148804,1.03420583606224,0.845920886628559,0.427705652961856,0.0515313941621251,-0.0160688736185,0,0,0,-0.00000119566712,-0.00000717400293,-0.00000715365324,-0.00395018190428,0.0276137034341343,0.0858970645268749,0.0839423798121791,0.0905781067710507,0.265735116579711,0.472645320740361,0.53238308157168,-0.03760221547494,0.046508913562484,0.292058217869289,0.388867213791659,0.790242467845178,0.712365733465322,0.734320825447055,0.969013338464855,1.13464843772823,1.0021646740667,0.549151253744398,0.227354984036658,0.00304072689698931,-0.01468788747354,0.000372418292768948,0,-0.00002351478641,-0.00003666712524,0.00383706244774371,0.0538728448365641,0.0515105379265358,0.162805575824167,0.110001123302437,0.0317853712740607,0.257450245669727,0.46404923208499,0.172263474762703,0.00384223490463733,0.221765845640401,0.748562693313881,0.528723413305841,0.436785765535031,0.407775704683757,0.685628465896428,0.702377158009237,0.652709589291371,0.786915318460907,0.724875729363579,0.479008974559951,0.215406535014799,0.0144075424650416,0.0020513556319908,0,0,