{"cost":"CROSS_ENTROPY","layers":[{"activation":"SIGMOID","bias_gradients":[0,0,0,0,0,0,0,0,0,0,0,0,0,0,0,0],"biases":[-1.04170424171658,-1.8102878640677,-0.12510333875155,0.0218668099478188,-0.41716541590522,0.10196660288055,-2.61014662652849,-0.19948514376693,-0.45182692574366,-0.00173331136678,0.0991710864972065,0.355616057561372,1.30738957889444,0.303793665156068,1.24753366857736,-0.15969039851704],"deltas":[0.0213816404385742,-0.02141441124134,0.000917084925929377,-0.00759806145933,0.000801733810720349,-0.00000026618182,0.00596638850023808,-0.00000000091569,0.00354045057535739,0.0000785730952973032,-0.02541162519416,-0.00000127235691,-0.01044565765884,-0.00000017633379,-0.00579704438039,-0.00004708294373],"input_count":784,"output_count":16,"outputs":[0.772264186458802,0.41470565406208,0.881858019935393,0.0419118949510705,0.0201478524573037,0.00000469324884370158,0.0381631639342057,0.000000019739949561903,0.0258203001883085,0.00232295265203308,0.219803318594178,0.0000164222928613702,0.467620924963202,0.00000293590567935364,0.956432706938446,0.00391019164414643],"prev_bias_gradients":[0.33674320328678,-0.62031381035699,1.29081033881546,-1.53022696222548,-0.19541472707261,-0.45857109738112,-0.9473056765878,-0.38410175294451,0.0127555322993963,-0.25079319580157,-0.93105530960796,-0.67358895230391,3.91186327181124,-0.18735301805561,-0.1780781415072,-1.01489897516251],"prev_weight_gradients":[[0,0,0,0,0,0,0,0,0,0,0,0.0000125955768715711,0.0000775628505509888,0.000330695733450815,0.000562319788440712,0.000782807387863429,0,0,0,0,0,0,0,0,0,0,0,0,0,0,0,0,0,0,0,0,0,0.0325196174560542,0.157497037273124,0.118640695187922,0.0000592658492201794,0.000529937862407711,-0.00271797031299,0.00190859162091172,0.00366405051639488,0.00278062336986241,0.000201643197076954,-0.00000389907942,-0.00000096330198,-0.00000169004495,-0.00000013703067,0,0,0,0,0,0,0,0,0,0,0,0,0,-0.00667002121625,0.0344120864837238,0.154831067974008,0.157296333648187,0.0863316364100258,0.0869640760376872,0.0911382537661945,0.0458301274501562,0.0199422465744759,0.00492171090749088,-0.00249441503185,0.0000100436448453188,-0.00000516812359,-0.00000287764169,-0.00000154159507,0,0,0,0,0,0,0,0,0,0,0,0,-0.00255150092713,-0.01118964792559,-0.01512561151281,0.0772543495087692,0.121168135067941,0.185259655598148,0.203538587843336,0.227105438296771,0.222000234668056,0.165550233052365,0.0760472760992978,0.0117469036730834,-0.00224999611641,-0.00005458546486,0.0000522993885907375,0.000220127738945705,0.00000000001228875434154,-0.00000000000105,0,0,0,0,0,0,0,0,0,0,-0.01274436109888,-0.01298330514736,-0.01067492822806,-0.00673675833109,0.0387697945871874,0.233359095154059,0.254393304309014,0.222321657395596,-0.00494351498538,0.0165689198702176,0.244064906001344,0.16762525580495,0.011694761137297,0.0117942052183193,0.000312065776093806,0.000199914437342738,-0.00000024494961,-0.00000000004219,0,0,0,0,0,0,0,0,0,-0.00152526438369,-0.00872014864878,-0.01047851870531,0.0222829325260639,0.107303721125227,0.140068291080567,0.162419717433762,0.0771351987436145,-0.06181731441497,-0.30494873177785,0.0481022433127146,0.236208792344251,0.210164887176337,0.0801860083288317,0.01016727018449,-0.00099208115236,0.000283458386657859,-0.00000032954091,-0.00000000005616,-0.00000000000105,0,0,0,0,0,0,0,0,-0.00098450731645,-0.01123420574054,-0.00899386204099,-0.01388321976534,0.0244898022214591,0.168345114253783,0.171840966211642,0.062418429047186,-0.13901204781703,-0.28817158349172,-0.06431287076173,0.0354360481623261,0.204910732768947,0.195609937070424,0.0141071460793652,0.00394228868337189,0.0101952222396586,0.000178578444636656,0.000178649265799116,0.000374969363525533,0,0,0,0,0,0,0.0010599955282725,0.00171979258405009,-0.00029108998452,-0.01068909725207,-0.00970219350922,-0.00154704924061,-0.00284973503373,0.0933873623239646,0.203272222186828,0.0757016905861314,-0.23204476430087,-0.36375359408207,-0.30008445442362,-0.11328940225001,0.101845756247482,0.149555292079783,0.0368203319373591,0.01642428371195,0.0248512720519118,0.00176082613333574,0.000398295661133221,0.000396848643255902,0.000398433342882036,0.000398503014688605,0,0,0.0004155182540428,0.0010599955282725,0.00216064526964394,0.00249696475425229,0.00232980521750074,-0.00449822256481,-0.02262046596312,0.0117601551701143,0.118419779926177,0.197648660763157,0.331022272235517,0.0594422981580505,-0.0788563487968,0.0437641663774882,0.129475530562942,-0.06772879141808,-0.0423795380945,0.00566503363491102,-0.03626671133921,0.0119784997929163,0.023099910476255,0.018799115181879,0.00607616459142216,0.000226589984465338,0.000238389509553664,0.000238474254586515,0,0,0.0019249518912006,0.0021539109113875,0.00142239229729997,0.00501620829049083,0.00622858321072185,0.00114696414146038,0.0372280945897134,0.126404429768283,0.289352767017135,0.201927501818573,0.0999511508492206,0.099058697959491,0.301598430037465,0.442659838143892,0.488349963728245,0.31533365817463,0.011197888505452,0.0867502766926309,-0.01509829788247,0.00053614800270574,0.0199357948444094,0.0206357726484298,0.000305113197085259,0.000305111856734314,-0.00000008474503,0,0,0,0,0.0019554425508249,0.00716001209440616,0.0137487273486258,0.0273498003542593,0.0197426912045425,0.0509090424869917,0.211471874843109,0.254694534748961,0.109167295864109,0.328776010271523,0.299929662738267,0.442576731104123,0.746467224636775,0.845276629824665,0.175500979691606,-0.01847510087067,0.147821047017425,-0.01022717880977,-0.01042523159919,0.0143488534706058,0.0234503892280587,0.000209435836345342,0.000132928371778572,0.000000196388062653166,0,0,0,0.00037311843548967,0.00210926935786066,0.0097872659020922,0.0356178479119288,0.0341720141279378,0.0188389921434573,0.0975650919047938,0.169020687264755,0.0805184153239722,0.0251941332429673,0.238668224933135,0.256941434826026,0.379153843338237,0.681115300877283,0.561345776118785,0.486731309810619,0.474264722964894,0.380083514616291,0.0834520021689884,0.00233790067854659,0.00557224278533527,0.00929255885213501,-0.00034900309749,0.00000119578031005011,0.00000120117945697006,0,0,0,0.00203519141943874,0.00217018994195481,0.00641143621033048,0.0289348631636449,0.0528042997828067,0.0414597395105972,0.115035978249398,0.0977245028678145,0.0438256009201792,0.134323277785909,0.00571567332670943,0.230939887631331,0.313222535948045,0.101760824080481,0.288271326731437,0.552006844277606,0.363917628738827,0.221116751734891,0.221923060365124,0.070100390254258,0.0163179402833335,-0.01061806350548,-0.02993532161623,-0.01829547616003,0.00000104760414891727,0,0.000390078362910923,0.000390078362910923,0.0021539109113875,0.00199346977268058,0.00266670128745116,0.0240265108780732,0.0379891446814602,0.0462168339407486,0.133017851308358,0.0857194098472048,0.0416151142252464,-0.2305495085207,-0.23125206670054,0.403753678647845,-0.05001022900752,0.0243745830130089,0.206272266568416,0.225356143102092,0.0395165057401906,0.0244001564301067,0.170855138375553,0.198905659017848,0.136946653574994,0.0190177086730699,-0.04293705667486,-0.02298350998911,0.0000000575870479143728,0,0,0.000806103021140967,0.00196698204459704,0.00168353258563771,0.00244742799666591,-0.00278247794339,0.00140977359168662,0.140377385627197,0.182300191323408,0.181082569630798,0.136444887076245,-0.23613414182259,-0.01700490995307,0.429269089013875,0.191470262270804,0.129151809020624,0.25437071780623,0.246546933766194,0.00290505503483966,0.00261151801462551,0.24552928456537,0.211775490490811,0.179884931398869,0.137732751111906,-0.03411536417255,0.0000328760715598701,0,0,-0.00027774132828,-0.00016250691824,0.00182184535397958,0.00162840171315298,0.000758685175013644,-0.00450166950949,-0.00195676495161,0.112169979695211,0.171894416168012,0.126635319301044,-0.11017276265025,-0.14851562891309,0.172326048212468,0.200623562338518,0.486710612803493,0.203700478307076,0.161720429986339,0.355384064863768,0.141618429551414,0.00128781755455605,-0.00850503198388,0.00856348324345076,0.1534582243657,0.147774865781169,0.00556102024975609,0.00103528514607224,0,0,-0.00030277982503,-0.00030405892516,-0.0001104573545,0.000764946095256231,0.000659407342478438,-0.00520253448035,-0.0043940395991,-0.01472923799415,0.0108798216570438,-0.03643515755251,-0.26655806992408,-0.27322963222347,-0.08390123281896,0.0497947595233049,0.225122354343948,0.161418774539039,0.162661944503622,0.337500915590301,0.135523831950186,0.0613515409361236,-0.01209516435013,0.105837781569968,0.182228767000843,0.174943369307494,0.121984447087193,0.000156916443449688,-0.00020101906763,0,-0.00010106164809,0.00632698106187783,0.0525658655044197,0.0902836432571367,-0.00043268446001,-0.00358957877632,-0.00532350413345,0.0429580861648657,0.0406780328243996,0.0715602731676175,-0.29114598999836,-0.3205849203271,-0.00260497171609,0.0464089009814867,0.036260352738916,0.0485341946961848,0.130109256860656,0.342087250225926,0.268867004116359,0.210820683576575,0.24074384220784,0.231602874005066,0.181833161457494,0.151910874375526,0.022855943617821,0.0000685656018928774,-0.00218404681588,-0.0011810071369,0.000000419143807062983,0.0356601386069345,0.157204954208641,0.161887038039879,0.0867910668736829,0.118610921794961,0.157502616738538,0.16110937506368,0.130017062241764,0.121713474061335,-0.19167863369174,-0.26352514196386,-0.00269199148173,-0.02303936604913,-0.07791259391477,-0.30801038697262,-0.181984806688,0.396844243624441,0.378092056431083,0.251140396573047,0.278804486982804,0.199806900838014,0.108569716720613,0.0873234352751689,0.00178050386959016,-0.00072588436557,-0.0021132258553,-0.00215784223818,0.00000115508625604858,0.00000223588958330891,0.0510353885523902,0.0659286262596697,0.160811132341145,0.158786190263509,0.157964591416886,0.163313005654087,0.134118911673896,0.137188150328796,-0.17858805056639,-0.27193085040993,0.0538406286685617,-0.03302689505192,0.0211076872316704,0.0933296380947607,-0.05639752173926,0.383909759257254,0.305953223117611,0.305552992047955,0.213614552653405,0.0970584918677495,-0.02907479640228,0.00236200944172183,0.00088935285647396,-0.0013940090088,-0.0021662333468,-0.0022112096941,0,0.00000116489860339129,0.00000138499712412827,0.0455920980381365,0.114524996365335,0.127585555163156,0.0925753629469943,0.0907078086032649,0.0181008515742135,0.0196344313548945,-0.17650841156956,-0.19620727552672,-0.1555794790069,-0.23163173292674,0.18101403557891,0.126121618511919,0.520011061437215,0.425098917122542,0.216540090840692,0.313716385383088,-0.0292112953926,-0.04723840020188,-0.00256776847648,0.00360885188804003,-0.00002560451549,-0.00033108820619,-0.0022112096941,-0.0022112096941,0,0.0566283272082445,0.146736491890557,0.079162624205202,-0.00019578950302,-0.00071220029896,0.00776379873799603,0.00685965481857528,0.0094883526509158,-0.01527627497686,-0.29078131312468,-0.2945229124126,-0.27323707593749,-0.02731501960299,0.246110695990667,0.490791112665546,0.612672515059427,0.433183501632575,0.136521222860851,0.173051847305223,0.00231395163278471,-0.0447226818278,-0.01722718229086,0.00161435140957222,-0.0013099636852,-0.0013803272212,-0.0022112096941,-0.0021238101067,0,0.0828992030337628,0.14787363519838,0.148050686910624,0.00431094981581476,0.0373705153243568,0.0720871231389532,0.00153147392890629,0.0442873861731325,0.159054293072445,0.271662300598945,0.0779677484003865,0.102704189828951,0.363149860750406,0.515616532541819,0.570904636342555,0.362666398014253,0.284368338362894,0.0576737957022197,0.041832938766293,-0.03569565231854,-0.04628071383112,-0.00770538016498,-0.00220978630955,-0.00221059072416,-0.00221114861154,-0.0022112096941,-0.00047195780518,0,0.0408658088115264,0.145954834621217,0.147847288341567,0.122840866545492,0.147807265442087,0.147076078307041,0.142960212811517,0.243620599371919,0.456327039797636,0.361153023134787,0.320746764576427,0.499275497745621,0.366198869641707,0.12953946712403,0.0971366482538956,0.136338833960174,0.157158708311999,-0.14104208475522,-0.05122478827169,-0.04747435126299,-0.01627735048048,-0.00219983560807,-0.00221113639503,-0.00221120562193,-0.00215876994166,-0.00151201299489,0,0,0,0.113840451558465,0.148897967964892,0.162068072268804,0.164353792581303,0.189357886961216,0.205612251370626,0.396922133625468,0.458577605319008,0.393274935370588,0.422734898729329,0.17127538449118,0.135091070495318,0.0177198017803531,-0.00249781249645,0.00946094370432026,-0.09816071062757,-0.11785708745842,-0.05903674576944,-0.03476782381605,-0.00221233320745,-0.0022112096941,-0.00107501505788,-0.00097013548658,0,0,0,0,0,0,0.148789124140487,0.04849479591101,0.051534495436647,0.15622125258451,0.420703302097703,0.393061853603218,0.371309762498605,0.179639319115854,0.166461315759413,0.0165358753946309,0.0193709517081945,0.0134548932207735,-0.06503098393551,-0.13960808508502,-0.13248463123118,-0.04321646205282,-0.04548984591856,-0.00617694727408,-0.00107501505788,-0.00107501505788,0,0,0,0,0,0,0,0,0,0,0.00736042056130743,0.067514795755507,0.315235356841016,0.333225710296859,0.129867384911819,0.0491214401438297,0.0476127340243878,-0.1153627172647,-0.04795852107817,-0.02047558542023,-0.11168584320961,-0.05317887600271,-0.01127334678399,-0.04420028977296,-0.02797272537617,-0.00087964758254,0,0,0,0,0,0,0,0,0,0,0,0,0.00136693505018175,0.00519113055503767,0.218892667559507,0.102780279600959,0.0337042711310189,0.0479220051635418,0.0437424323571798,0.0420592004732545,-0.01078362806829,-0.13103917174143,0.00802336859837411,-0.00559514410094,-0.00161063511712,0.0000944921019184105,0,0,0,0,0,0,0,0,0],[0,0,0,0,0,0,0,0,0,0,0,0.000021863759009131,0.000145923230452028,0.00545783351698417,0.0107225714366324,0.00610966262633961,0,0,0,0,0,0,0,0,0,0,0,0,0,0,0,0,0,0,0,0,0,0.000188514870203075,0.00101981942706847,0.00082452281753791,0.000284120081673656,0.00740673222665729,-0.01246428298799,-0.00519610075518,-0.01399451642987,-0.01062034468704,-0.0006312335122,-0.01114546417581,-0.00275358526892,-0.00012483255781,-0.0000101215585,0,0,0,0,0,0,0,0,0,0,0,0,0,-0.01956489632185,-0.01592430279224,-0.03328816031209,-0.02624192652818,-0.1065335878105,-0.17401856361887,-0.11841929814937,0.199683071161744,0.181143563705306,0.0669719152052392,0.0804961444666435,-0.02150827025398,-0.00724390622156,-0.00021693795014,-0.00011386753696,0,0,0,0,0,0,0,0,0,0,0,0,-0.0087046877186,-0.03479913246077,-0.05229205592528,-0.14289265852735,-0.12318296473489,-0.19835489944239,-0.20029642621874,-0.06252336309379,0.113881876376842,0.047274488773672,-0.05035586299647,-0.1601665395312,0.0605420998259518,0.00145560804475078,0.00300672134005991,-0.00153953380011,-0.00183937940153,-0.00030063505034,0,0,0,0,0,0,0,0,0,0,-0.04249022227253,-0.04369312567941,-0.04023070530211,-0.13497996396729,-0.228712535023,-0.23246795983968,-0.0716034034628,0.258335290647322,0.259330928211776,0.0657582279247393,-0.30463078929501,-0.16912644735034,0.0647390397089805,-0.00611691251585,-0.01631213951573,-0.0215863981312,-0.0245067481065,-0.01212561349857,0,0,0,0,0,0,0,0,0,-0.0058164077429,-0.03332358558939,-0.03542409384586,-0.02686410408506,-0.09965510021864,-0.16260298219533,-0.19282552298362,0.0462399020222045,0.255408138635335,0.191592562356981,-0.49468215622908,-0.69122053375982,-0.5447766029598,-0.09568055554195,-0.02250575452623,-0.02166893538685,-0.02028918940639,-0.02176276199593,-0.0254149485832,-0.00030063505034,0,0,0,0,0,0,0,0,-0.02286274663345,-0.09007072968641,-0.06830250427682,-0.0642901178491,-0.14895457208529,-0.25479921676155,-0.31592834463325,-0.2672358141585,-0.18615841650801,-0.07806088260223,-0.51388976925321,-0.84898292025369,-0.71069694915171,-0.17101329679678,0.00998992556478792,-0.00361564658407,-0.00825232034083,-0.01704735054342,-0.01789041322233,0.00268439156634267,0,0,0,0,0,0,-0.00005454567856,0.000108932559251637,-0.0243174992268,-0.08924250729326,-0.06901389519569,-0.06904530910825,-0.30500384457151,-0.33232431504147,-0.48921919313013,-0.27639018044056,-0.06866453074917,0.0327390157116907,-0.10881576304308,-0.71353962468049,-0.77394847225181,-0.37474246806629,-0.3332164106936,-0.35493648736412,-0.25620539030936,0.012080082392052,0.065926353872808,0.0950185096956788,0.0910126028438252,0.0131834757336959,0,0,-0.00002138190635,-0.00005454567856,-0.00010040099652,0.000594624330742197,-0.01901264618603,-0.0540395954633,-0.07689792859199,-0.06395203437814,-0.22531999856644,-0.60271272599914,-0.68040710924207,-0.25494910283459,-0.06578240856503,0.026866848431596,-0.37504000479793,-0.52228394458842,-0.33512040797955,-0.20051743088527,-0.34055296417664,-0.52913700671586,-0.29676881477778,-0.1746909908471,0.103715225615493,0.0953438139245106,0.102556482565111,0.00788932437790772,0,0,-0.00009905495288,-0.00011083681873,0.0000454119350179089,0.000452275132647765,-0.00432682270614,-0.10903555884934,-0.12121036194695,-0.10741370240464,-0.25828808236579,-0.23157677807173,-0.59788452540933,-0.10521348465352,0.00475004870835855,-0.19063675037249,-0.40749891865056,-0.47663947141765,-0.04567388295489,-0.01745945787943,-0.1417466352292,-0.6039224519439,-0.39794717406293,-0.1926448643059,0.0927981185995412,0.0942958069676463,0.0946671581872036,0,0,0,0,-0.00009253718274,0.000232726444732499,0.00059051702640807,-0.00293724191877,-0.18691762156928,-0.19181982549858,-0.1186970387029,-0.19147167893112,-0.33536690850539,-0.57838737711399,-0.32262667265946,-0.30049719789483,-0.39483578693437,-0.57712703942815,-0.53962404145168,-0.31607139307453,-0.1706489319533,-0.35234433422892,-0.49909729852095,-0.25147254776571,-0.01424193440216,-0.00821508215527,0.0623643690436829,0.0831508287663578,0,0,0,-0.00001920007934,0.0000100663374593158,0.000335858775310597,0.000726998148543281,-0.03679531172084,-0.0987294047859,-0.19733325026743,0.0601779218082852,0.280971773563878,-0.13274472751458,-0.45899786278336,-0.09989293892287,-0.22738135466199,-0.22143039875466,-0.30453297338848,-0.53541841083074,-0.3939423002051,-0.3471089892564,-0.71469938803087,-0.18750282305289,0.189551477232488,0.0948866418097137,0.00166892334246363,0.0174365062198396,0.0141774412346371,0,0,0,-0.0001047277031,-0.00000647813626,0.000510038116482715,0.000952730425959455,0.00292591663532283,-0.03330099348352,-0.02564271914639,0.143828287684778,0.31294378406737,0.0375224486467183,-0.08485460329801,-0.1914259329652,-0.30513328663105,-0.39192305653882,-0.48298567683952,-0.46215716150523,-0.3105629005097,-0.41615082382378,-0.41646668419794,-0.28704320121339,-0.27393291568887,0.0868838534537575,0.102057237714741,0.0129502143372001,0.00994370099294583,0,-0.00002007281015,-0.00002007281015,-0.00011083681873,-0.00011083536234,-0.00103046294702,-0.01250458321687,-0.02672724116251,-0.02908178370687,-0.02174339023286,-0.10194792615419,0.347956494205525,0.432516933693343,0.190196419444637,-0.31666860933818,-0.34536673225785,-0.63414961741775,-0.63375649882552,-0.5879507076211,-0.14528383215699,-0.07496050407147,-0.13210348963694,-0.27034279536259,-0.1626047945278,-0.00051987457747,0.000590352332492186,0.000748344459608453,0.000498915843326437,0,0,-0.00005192564595,-0.00010647223233,-0.00011083250681,-0.01574425259395,-0.02223219698291,-0.02409607765206,-0.03061993180121,-0.0797859223278,-0.21570576094985,-0.04879370210662,0.221828594709222,-0.10276027816543,-0.32631327238259,-0.23352592681838,-0.38302651652828,-0.66138789973378,-0.77458312541092,-0.45278508856856,-0.25223108339741,-0.40296890880872,-0.43084828387618,-0.03155699126997,0.0386034369849507,-0.00846896025389,-0.00114009322625,0,0,0.00000000251757083728187,0.0104141276807527,-0.00010996123167,0.0119283516877566,0.00053058790651604,0.0188807256538635,-0.02936539940063,-0.0462319131882,-0.13701376208724,-0.40180347727201,-0.31773083435894,-0.2928374084513,-0.35510037406388,-0.42132373419012,-0.32132204003152,-0.08684404087013,-0.51171009832505,-0.9401300807482,-0.71206973734098,-0.72410412367391,-0.72711520595354,-0.44915651037967,-0.15764882410126,0.0500800086468337,0.0000137408275809747,0.0000630165046810218,0,0,0.0330628345165433,0.0416879203648894,0.029817954658777,0.041851396062642,0.0183757177983409,0.0191052229180891,0.0121727110529406,0.0802850380410206,-0.1752672291054,-0.29688108664444,-0.26506503605275,-0.31741628016168,-0.58876636870353,-0.67426283700143,-0.26864334766763,-0.16488862884793,-0.27893577847045,-0.82681350168354,-0.71852796070656,-0.71799423810189,-0.82199074684788,-0.48132554244726,-0.34995679981769,-0.06840118296583,0.0101636379022424,0.00000724919015316964,0.00000000128145792645793,0,0.0456410828666764,0.0452441220747727,0.0450665900800308,0.0233724948267149,0.013188455350259,-0.00288369315393,0.00671673207325619,0.146972604117085,0.12367350318519,-0.14678186539102,-0.31070076749325,-0.28198785864199,-0.36599878444941,-0.32071420884122,-0.45118344091466,0.126466506062746,0.263801415369502,-0.17155231853255,-0.54824829451596,-0.62252764910103,-0.69905861517729,-0.5457869141895,-0.23529489736299,-0.32552855770531,-0.18303751708902,-0.17045334638911,-0.04214050318311,-0.20096361186473,0.041433682868681,0.0441191631685467,0.0401427078817163,0.0198876774862885,0.00306132537704813,-0.00283544160709,-0.00399267298448,-0.01152053054004,0.0730977457627638,0.336562528085535,-0.17676799128389,0.0625997492214211,-0.12185177477777,-0.04133598391335,-0.18497277605438,0.244268969459344,0.362417696699391,-0.1262726461257,-0.42022926762062,-0.61697373552251,-0.55651107794713,-0.33355916645638,-0.06871029909135,-0.11382744722953,-0.12950546105668,-0.24598105614775,-0.24898598089796,-0.15586933340978,0.00164780214684573,0.0200134892923752,0.00293633774136793,0.000391582066271114,0.000532565804046625,0.00325244862369277,-0.01371681366818,-0.0502227146943,0.00280769975484522,0.233271362946454,0.11879447208163,-0.00800231931538,-0.11144779215512,-0.00005446285439,0.173031294772465,0.367423104578743,0.182654062329036,-0.2031113673614,-0.44630809818801,-0.47032629815093,-0.34323435349871,-0.24060445101946,-0.07188502977322,0.0392663526695387,0.0565647576450559,-0.05289436818859,-0.13136157671074,0.0000000140960368734756,0,-0.00086784805966,0.000543119059201361,-0.00158417531001,-0.00097888388089,0.00300811504818692,-0.00100936623131,-0.03702206638338,-0.04592092065425,-0.10543020313979,0.197335795516524,0.322248667783176,0.332505727710847,0.341770404515853,0.223930952367021,-0.01697056617819,-0.25082575370838,-0.53624004783589,-0.46106054888318,-0.50217910353176,-0.3495972447443,-0.23933474410411,-0.08120088217506,0.0266355715421606,0.0221600998002357,-0.00018425468105,0.0000000140960368734756,0.0000000140960368734756,0,-0.0021151033185,-0.00400513492966,-0.00435057878451,-0.00329205136764,0.00897069239731269,0.0239626077439907,0.000828464835317829,-0.003579010527,-0.16457147894216,-0.03411922810191,0.32817751027544,0.370878766231949,0.00709920913029396,-0.15594292442798,-0.56464364910737,-0.54487021178878,-0.48717965107628,-0.55204631829473,-0.47471994005728,-0.34325472707901,-0.18394198099782,0.0375213489645303,-0.000354050164,-0.00019040731256,-0.00010486463628,0.0000000140960368734756,0.0000000135388812992999,0,-0.00309633690561,-0.00433315853184,-0.0070193019538,-0.00279594230767,-0.00046525471369,0.0590261372960883,0.0800228787790226,0.0474641744695747,-0.02234118801327,-0.23682243247395,-0.27290818791786,-0.33748281982024,-0.22322551959341,-0.31629911783006,-0.57224761667009,-0.59179308694778,-0.5271138539513,-0.56035022931466,-0.38782405150283,-0.25547186034638,0.126670331767758,0.0201928778256393,-0.00018368218818,-0.00011068564487,-0.0000109102201,0.0000000140960368734756,0.00000000300864031225639,0,-0.00152636343137,-0.00537577506699,-0.00488832529785,-0.00452368066899,-0.00299390029216,0.0510936325435633,0.0908336582062238,0.0659419653782844,0.0642036155260809,-0.00004445537865,-0.12598479189054,-0.31881038056862,-0.33666595926667,-0.50869682067345,-0.68447764171386,-0.55890509934668,-0.51009766193765,-0.39832980068282,-0.21685611839075,-0.01562075911009,0.0449141166981613,0.00326010813825537,-0.00001309508388,-0.00000071419175,0.0000000137617435289702,0.00000000963879228007019,0,0,0,-0.00425201182414,-0.00304032394103,0.024199953025356,0.0289276038429482,0.0611547206097939,-0.06827476534357,-0.24085462319944,-0.2757452275336,-0.22847926731005,-0.2065340919372,-0.42428450143411,-0.49468914674292,-0.62275031334692,-0.38664779167818,-0.36953788737358,-0.31820013642922,-0.05900415509627,0.14304085242325,0.0170090485821511,0.000322228439219318,0.0000000140960368734756,0.00000000685301440919184,0.00000000618442729676549,0,0,0,0,0,0,-0.00326545017044,0.0376096502530043,0.0562201633016884,0.0537816144643972,-0.28066750982307,-0.42327815266192,-0.39499469095928,-0.30718666951929,-0.31270524201467,-0.40388267329994,-0.47827183931348,-0.44520281546602,-0.34921086157698,-0.07483818265456,0.0224394926004877,0.0212610369298326,0.0736740463768034,-0.00003498044161,0.00000000685301440919184,0.00000000685301440919184,0,0,0,0,0,0,0,0,0,0,-0.00002676318447,-0.00013229123257,-0.16988279366839,-0.3598487630252,-0.35949315124825,-0.30574119994717,-0.38913728769988,-0.45864211655554,-0.29166263079014,-0.19964487304888,-0.1433757478866,0.0171315805933748,0.0353818484922689,0.0307087469802494,0.000622166514195226,-0.00000612483051,0,0,0,0,0,0,0,0,0,0,0,0,-0.00000497030497,-0.00000802940603,-0.00033857328108,-0.00016402879767,0.0485914939480951,0.0385709444765956,-0.039290270051,-0.12127880624829,0.0442271206125358,0.0320641681690903,-0.00313475813183,0.00104281908814709,0.00000910503412808841,0.00000482563474886038,0,0,0,0,0,0,0,0,0],[0,0,0,0,0,0,0,0,0,0,0,-0.00256585682926,-0.01668751294476,-0.02705091530446,-0.01173638518336,-0.00505016365502,0,0,0,0,0,0,0,0,0,0,0,0,0,0,0,0,0,0,0,0,0,0.0938276570654713,0.446020631943717,0.328753478735619,-0.02631763750041,-0.02376514226996,0.0129728281916879,0.00583298741128555,0.0008396008545189,0.000637167459068979,-0.00005009660302,0.000645623350855958,0.000159506945618773,0.000569633196238096,0.0000461864742836682,0,0,0,0,0,0,0,0,0,0,0,0,0,0.0176021726178885,0.1520455851823,0.847255163447692,0.93078826973921,0.722043961575872,0.739109404131648,0.519920263338275,0.320424882240019,0.196450735594017,0.00938268923852907,0.000567473977263376,0.000451666769455211,-0.00034494479728,-0.0000633812172,0.000519597853058374,0,0,0,0,0,0,0,0,0,0,0,0,0.0338407338732781,0.0765645664296608,0.156408121469423,0.684946098760038,0.947363451494632,1.15727077434275,1.1643462904072,0.910743506130315,0.709036165648454,0.577342760901389,0.312748954958527,-0.07437359230792,-0.05090270199787,-0.03593147364509,-0.02988545222259,-0.0073221497147,-0.00496867357978,0.000568752397415431,0,0,0,0,0,0,0,0,0,0,0.146031395825328,0.156194349545706,-0.01229853556748,0.0214301295887681,0.162896814194674,0.615357817513049,0.691568613930144,0.727183607496682,0.779716916884102,0.768920651314206,0.672263448417707,0.569145352206706,0.0295750872978652,0.051391427858599,0.00499750563100305,0.0132952455878193,0.0334020988954029,0.0229396796538906,0,0,0,0,0,0,0,0,0,0.0338062609957818,0.0371555278448211,-0.0809074510204,-0.14695647215694,-0.1386167146425,-0.14161034868588,-0.17723363155972,-0.19429499419788,0.0567507194621487,0.488498174743011,0.733194127957732,0.663379044898207,0.772777562857311,0.308576679048167,0.101111984306015,0.0193285616269789,0.0282895313960874,0.0332580803728959,0.0334986250300073,0.000568752397415431,0,0,0,0,0,0,0,0,0.0448447093674082,0.0962635064898368,-0.0210070780737,-0.09315268836431,-0.06890184088953,-0.0762706645235,-0.08449787544193,0.0425637077550004,0.454860860320632,0.545445466149551,0.492440891129242,0.399672585853664,0.757764240764187,0.51130122105301,-0.01222964774647,-0.0503527059671,0.020572876237443,0.0339126813852102,0.0339626643626441,0.0193104301117717,0,0,0,0,0,0,-0.00000059237861,0.00000900791974630369,0.0276819603634779,0.174473907764414,0.0703827157174362,0.0325104284017439,-0.01938721764273,0.000887007948478439,0.0608767239128285,0.338476774896005,0.517713280074202,0.494916145011593,0.514432207054011,0.638541531073637,0.771882528700938,0.615528063839118,0.206178520142666,-0.0417689996472,-0.01985883925986,0.0296734557940412,0.0341387662000991,0.0262001004936088,0.000678007264337294,0.0009785580778659,0,0,-0.00000023221242,-0.00000059237861,-0.0000002891507,0.0000367197722051817,0.0197130904364075,0.0534759324905356,0.157063927143414,0.0249865977742746,-0.02285186599799,-0.02329909195751,0.241254894554708,0.609123401204752,0.623933137671189,0.929609460303399,1.41991560443679,0.81368629243542,0.314212985128298,0.0494922396330058,-0.02833757484632,0.0612791518796939,0.0439400934045866,0.0297748752057709,-0.00614522088996,-0.00034156888384,0.000220020012571729,0.000585593833891154,0,0,-0.00000107575956,-0.00000120371334,0.00000930668309541236,0.0000602698886199951,-0.00668444087064,-0.00091508879268,0.0563515389901058,0.0591901115376651,-0.04585168957812,-0.06807367844908,0.324741814834903,0.679173015401772,0.98725590569158,1.36536872229024,1.06624944214667,0.427892207224557,-0.06153386986694,-0.02952641848008,-0.10106912085458,0.0209742822833494,0.0539463469524289,0.00814958446447633,-0.00062655497649,-0.00040271320551,-0.00036557382132,0,0,0,0,-0.0000004040547,0.000039062320133295,-0.00005205434259,-0.00159794610953,-0.0072515526586,-0.04001554391081,-0.00307894862043,0.0646947153592441,0.164533199099672,0.234555691084905,0.708075284150653,1.11822112217552,0.997171732448144,0.842362571286489,0.364234196977492,-0.04152662588231,-0.03545215352678,-0.02495708609485,-0.01670478747511,-0.02360809364199,0.00187283342692372,0.000449147748179465,-0.00014558627443,-0.00021655349231,0,0,0,-0.00000020851728,0.00000892282177911733,0.00234383566061181,0.00293066907661964,-0.00842450810863,-0.05091284298315,-0.05214884841998,-0.06150814115262,0.0872060581517449,0.284335740100059,0.635841875495833,0.951500726056499,0.942237720156253,0.524441384479385,0.0172973090730984,0.0524987129752028,0.282172110133091,0.240650545618188,0.0780642726811061,-0.00813956469379,-0.03915589349506,0.00463348716244392,0.00189484218829547,0.000452568797009806,0.000413850415538889,0,0,0,-0.00000113736694,-0.0001116486458,0.0025605635981767,0.00245978610812164,-0.03259861952323,-0.03330104186835,-0.07317385214411,-0.02746484556291,0.0342720470321476,0.315831282951022,0.558881225814029,0.854460036009053,0.730292072420466,0.266941710344337,-0.17155716997683,0.00977281032296028,0.387642092247581,0.43090357980048,0.154297515981665,0.00759420886004424,-0.00085676509673,-0.00385615664884,0.0740516592144461,0.0443771769637991,0.000526236452496836,0,-0.00000021799533,-0.00000021799533,-0.00000120371334,-0.00036329003236,0.002796282098245,0.0095708820503225,-0.03375008099384,0.0493335767512957,-0.01623081003968,0.148879373808311,0.18698956032518,0.238402818246067,0.180032675459591,0.416613270801072,0.749630633438975,0.70584792411125,0.143949654879634,0.389368534663465,0.529049942313309,0.427776826462698,-0.04497687819942,-0.02586362729672,-0.00966883494976,-0.03834492307924,0.106383509633347,0.0551528081288315,0.0000204764931713849,0,0,-0.00047600933639,-0.00024033744026,-0.00078670657232,0.0294938065980895,0.0526306435169101,0.0826810200042976,0.00277458992860996,0.0227142324977484,0.313271322617026,0.399072022122581,0.00113358374188818,-0.09331997177697,0.0378577975938814,0.37415098481259,0.861161452641971,0.787260706442922,0.556783589897061,0.461822646241597,0.331625098823549,-0.08090561745442,-0.01305173550559,0.00501419731257131,0.0533861714575708,0.0864444499939386,0.00380437769461117,0,0,-0.00065045594936,-0.01885290885413,-0.00073915546334,-0.02174003659525,-0.05559686983012,-0.08197863773649,-0.20046596508655,-0.23413832428123,-0.1530810970808,0.243298569983723,0.17553297835184,-0.05668399764239,-0.04858775836088,0.0266676557381603,0.424482965257882,0.593921462324,0.579808215650538,0.712545035925285,0.617099950165887,0.236197255661398,-0.03779002848884,0.0516941535706976,0.0838662172721806,0.106723928632736,0.0549540786813381,-0.00008203702582,0,0,-0.05817663287937,-0.07317115889431,-0.05258114474344,-0.23493066158994,-0.2401429305353,-0.16614454745484,-0.21575128921547,-0.21003440981571,-0.18926014012397,0.0988990089261543,0.14025778286679,-0.03783839028026,-0.05267059966664,0.00349933959025634,0.49128269544873,0.819109091371016,0.502727716425044,0.765215533907437,0.780057616724727,0.220302714932265,0.0298779155327133,0.054306204099552,0.0968528655475472,0.139918987384925,0.00815885432854398,-0.00012783067721,-0.00000024213237,0,-0.07956686779315,-0.09766959920278,-0.03819310773258,0.0222009201091311,-0.19069755862632,-0.07767786933023,-0.14664230464747,-0.00512090124513,0.118683646894905,0.497261183290812,0.554309751633462,0.0682523321754042,0.0530253983073838,0.326195599440784,0.700286271122689,0.695445190353581,0.54485470346366,0.581814076523495,0.914241892951966,0.245482405479908,-0.02281483065735,-0.01794515762973,0.10553250265418,0.1372991079998,0.0452545448263058,0.0311361157042543,0.00764996655784686,0.0368550904332503,-0.10939167664818,-0.12232824499383,0.236446546139795,0.310391269867327,0.251298535244995,0.34094577440877,0.361722200210708,0.417933199672061,0.543616899185136,0.509763970421557,0.768043424280828,0.527322672286861,0.469574785779196,0.674653708560501,0.686747562666523,0.521551442694985,0.352536131804242,0.722500856465636,0.794337434686308,0.0461399283642141,-0.06904852185643,-0.01409344039844,0.0974635215717453,0.0616741739126559,0.0340059252173089,0.0449785175817375,0.0455852912947844,0.0285836724865637,-0.07761235730884,-0.18369876465498,-0.00590429365676,0.043526025462242,0.363080528356388,0.509763900166774,0.549676246038253,0.596737724827444,0.776117879011244,0.741372955182849,1.10103816059056,1.13572593758391,0.840395196362738,0.508565099186926,0.262731266070289,0.2400530904238,0.791215491499429,0.816382815565164,0.234463754972198,-0.09880419050119,-0.05848701678777,0.0454902300874307,0.0608564110665264,-0.00503261949764,-0.00014432305198,0.00957101454541639,0.0240889660070067,-0.00000266345605,0,-0.07323980432396,-0.07321902310186,-0.00066354373907,0.329549494845348,0.457981999857141,0.353426272610553,0.362115536558026,0.478208376255784,0.659940146043234,0.782587494070487,1.28749782526996,0.805304824612916,0.447632987042212,0.16324591814924,0.365493109597809,0.550858915437517,0.422276160862942,-0.06886121344059,-0.11579735297772,0.0337513380915149,0.0839899215836231,0.00424728851205017,-0.00583255386452,-0.00001747752944,-0.00005588471151,-0.00000266345605,-0.00000266345605,0,0.00000790094610206227,0.0000423558223080807,-0.00118017935776,-0.00164571355579,0.00180232657698545,0.070292116664829,0.110435184662737,0.0960812268589317,0.518302607969125,0.661704527652714,0.669607581712504,0.682114876527585,0.616574176851385,0.415537821662772,0.593272060132431,0.244489996780999,-0.03598664999477,-0.09576671890975,-0.06148927820915,0.0304853283720427,0.107632489656326,0.0471128440834558,-0.00030897710608,-0.00006429500065,-0.00003324355115,-0.00000266345605,-0.00000255818112,0,0.0000115663338008388,0.0000382863340034997,-0.00120354860933,-0.00161467670391,-0.00118846347016,0.0204667917053949,0.186835500280599,0.171142847268773,0.175847308073188,0.294862389451662,0.3134702201318,0.22254979708188,0.0157608041264919,-0.06868589170721,0.00467275851454817,-0.00731660203241,-0.09904105427885,-0.08290199647681,-0.00645242609841,0.110411138089562,0.101748374333823,0.0173298934895192,-0.0000691375897,-0.00003599811881,-0.00000595306081,-0.00000266345605,-0.0000005684847,0,0.00000570171447321233,0.0000214834792938672,0.000030072111668552,-0.00038465164907,0.0000147886790093471,0.0211433560582952,0.0455504041227202,0.0328120810955886,0.0375513891999621,0.101812121925001,0.105423661690839,0.0401805109151152,-0.00742341953191,0.0468715370304929,-0.01582630271385,-0.04493768977582,-0.06664886438453,-0.02931847526093,0.050449314064592,0.106344047838907,0.0303108554986645,-0.00012440684856,-0.00000661098193,-0.00000288276305,-0.00000260029109,-0.00000182125656,0,0,0,0.0000158833452503416,0.0000215982676919587,0.0000324953714054842,0.0000343866040586694,0.0099742758003305,0.0361505803075162,0.0325630274211604,0.0410852023219469,0.0421022742768041,0.0413939553346658,0.0537248794671026,0.0226073806417757,-0.05612943413746,-0.07207620010983,-0.02611781666174,-0.05906910583371,0.00216433196599484,0.111330576318711,0.0771884820757233,-0.00000941483314,-0.00000266345605,-0.00000129488188,-0.00000116855188,0,0,0,0,0,0,0.000021508208994188,0.0000196442030519574,0.0000336580002745982,0.000418909265936757,0.0072016067264697,0.0369288087175302,0.0431054250522017,0.0425195627180832,0.044600841924642,0.0283798294215177,-0.04809828286114,-0.09707497205071,-0.08061120868379,-0.04626430169439,-0.03293521352725,0.0695972129122942,0.106009612342784,0.0121075665170784,-0.00000129488188,-0.00000129488188,0,0,0,0,0,0,0,0,0,0,0.0000127325311885692,0.000165992830216276,-0.00950091251742,-0.01100425794033,-0.00517167315076,-0.00926361084011,-0.00688157551208,-0.0656011021715,-0.12770105314199,-0.15223229384082,-0.07553906247409,-0.04523313805343,0.0172313566444306,0.106060614604436,0.0663917288295364,0.00208977474278081,0,0,0,0,0,0,0,0,0,0,0,0,0.00000236461259437815,0.0000142947237825725,0.000602760841327157,0.000280548201423544,0.00159897144754752,-0.00806980157653,-0.00090899247275,-0.07019011793903,-0.13572583724571,-0.05610545042795,-0.01787715657437,0.016173239914908,0.00664847109205196,-0.00009091346819,0,0,0,0,0,0,0,0,0],[0,0,0,0,0,0,0,0,0,0,0,-0.00000022564715,-0.00000141326382,-0.00000149917592,-0.00000046790235,-0.00005894387177,0,0,0,0,0,0,0,0,0,0,0,0,0,0,0,0,0,0,0,0,0,-0.00311609161292,-0.01509188483276,-0.01136542364978,-0.00000144295605,-0.00002219374829,-0.0011771557133,-0.00078666382321,-0.00046660143398,-0.00035410069974,0.000158634016392355,0.000000198173452830999,0.0000000489605001459295,-0.03093406403123,-0.00250816729485,0,0,0,0,0,0,0,0,0,0,0,0,0,0.0000506591590094409,-0.00120466223075,-0.01267599336346,-0.00693517228547,-0.01132926914503,-0.01614484026318,-0.03324052888431,-0.01383158371369,-0.00751394685103,-0.03145048359737,-0.0451041099997,-0.0481114617871,-0.04993659891265,-0.05292005117035,-0.02821688301023,0,0,0,0,0,0,0,0,0,0,0,0,0.00278622088851603,0.00485747065251253,0.0124121849808821,-0.01308013757653,-0.0239636997248,-0.03231696288675,-0.06363558774635,-0.05122697172393,-0.04570696996149,-0.04301929290845,-0.07774445394691,-0.06628586895689,-0.04264488872847,0.0142712390171184,0.00485763777448226,-0.01035642930047,-0.00201603626871,-0.00000001817682,0,0,0,0,0,0,0,0,0,0,0.00970490567535861,0.0124566307549055,0.00356485985596562,-0.00965971547081,-0.01471785624512,-0.11567781922607,-0.0790041247059,-0.09923885437535,-0.41376490308173,-0.68049922675792,-0.32981370100665,-0.06096004736986,0.0286590643961882,0.0709535974002905,-0.03030877125945,-0.05623955805432,-0.00789803331799,-0.0000007331319,0,0,0,0,0,0,0,0,0,0.0030383534678298,-0.03451488749484,-0.03773235176468,-0.16465247801135,-0.5134617640649,-0.50002826344873,-0.40305539460943,-0.33767000573886,-0.14500899679316,-0.65674028337977,-1.16345456047694,-0.89036484467695,-0.18749069536249,-0.01931844534441,0.0499393102818272,-0.04284933021741,-0.03007464013782,-0.00436221375894,-0.00348107835125,-0.00000001817682,0,0,0,0,0,0,0,0,0.00201047006711709,0.00314284215812254,-0.04602724044955,0.0522139602237716,-0.00338274124373,-0.43896733828909,-0.55557636004986,-0.51359837276494,-0.54480757413596,-1.06162267842779,-1.21684368320277,-0.71271813410855,-0.36283255125442,-0.15729958083226,0.0599336394233974,-0.02633992484013,-0.00187093925375,-0.00436038092676,-0.00435128990541,-0.00182499989197,0,0,0,0,0,0,-0.00037788651435,-0.0005813758538,-0.00050730038809,0.00896882821752858,0.0533454046290162,0.245076838028097,0.167389425121278,-0.10828283931976,-0.52895495075464,-0.584107717403,-0.76275589837449,-0.79319266271949,-0.9022910247851,-0.53502481805446,-0.37731007293229,-0.35210726759784,-0.09006418809497,-0.03921058855748,-0.00431334792803,-0.00484743078741,-0.00459667335347,-0.0008958574456,-0.00109366660293,-0.00193891490021,0,0,-0.00014813151611,-0.00037788651435,-0.00076784517019,-0.00077100896549,-0.0007862209666,0.0396742187188365,0.303236602340234,0.232497581113193,0.161668777228324,-0.22370440424657,-0.62861959317798,-0.69058209879237,-1.07574256014395,-0.9098443401618,-0.85380514832567,-0.38582716334659,-0.1438254188273,-0.52721749369892,-0.50299953147099,-0.28321393794858,-0.00894478278996,-0.00262260621532,-0.00079763200452,0.000976760360243864,-0.00013218107535,-0.00116029557743,0,0,-0.00068624191429,-0.00076786539643,-0.00048044917434,-0.00043047914594,-0.00043776908199,0.0347328232086697,0.325912962943942,0.12016279414452,-0.06882956667099,-0.1147546422125,-0.3935181249272,-0.65955128387799,-1.21000490523886,-1.091805426244,-0.86494307731176,-0.43141363992343,-0.05285930725819,-0.41622258041693,-0.53052226008025,-0.43515167393958,-0.11008708016662,-0.00071667246798,0.00102340760780462,0.00109489326477753,0.00102811450208011,0,0,0,0,-0.0006952960204,-0.00076578374759,-0.00011669623063,-0.00000171999842,0.211811625705178,0.26688067023808,-0.0610897162787,-0.03651281731902,-0.17508876582223,-0.43116054251355,-1.28598178075327,-1.30330795778051,-1.01618570417197,-0.75257090113937,-0.48056297779492,0.152832832959004,-0.27677114538041,-0.47691507121493,-0.37651030232062,-0.12927913481244,-0.00068560876127,0.0000494278142770549,0.00244539277568023,0.00252453183458143,0,0,0,-0.00013301605645,-0.00072531962075,-0.00076609384967,-0.00001397803672,0.060963277110638,0.30353971384026,0.241693917277514,-0.03890007581163,-0.06552118859107,-0.27927111943193,-0.98414948318277,-1.53152494314089,-1.5085579776916,-0.73661067801859,-0.3835175004122,-0.44318515798569,-0.39360860441122,0.131128682916449,-0.19799199853038,-0.3667157469794,-0.13909670422408,0.00509266495655813,0.00727046850251929,0.0074593468100586,0.00742171316000962,0,0,0,-0.00072554210939,-0.00076765995146,-0.00051702731469,-0.00000327417969,0.075696084573645,0.29283268817827,0.254405712689853,0.126397218104075,-0.07386564307117,-0.14985476049226,-0.39095935667,-1.294675854126,-1.33648249236398,-0.48038582855755,-0.40407924517754,-0.59921071751044,-0.38001774896191,0.132473248165654,-0.11157445468036,-0.26799676755414,-0.22995355164173,-0.03127166603848,0.00940039172616671,0.00837279712652967,0.00648484154909099,0,-0.00013906224031,-0.00013906224031,-0.00076786539643,-0.00076757822844,-0.00076105457128,-0.0700664368272,-0.09331205646515,0.104437467411051,0.235970320938375,0.0634958886739266,-0.17588374807953,-0.23510323749207,-0.90496620161248,-1.31773919486238,-0.64784918410748,-0.4713698825857,-0.66279636480477,-0.84922878615943,-0.38971687680071,-0.05350717432745,0.106745576603087,-0.12826247262942,-0.19545657832028,-0.002962260219,0.00343868472095778,0.00176994805459125,0.000352880144657968,0,0,-0.00035973531015,-0.00073762806605,-0.00076142160658,-0.00075875704267,-0.01624388858804,-0.04198586430125,0.204225558110883,0.204256260551835,-0.01483242619367,-0.31780673916244,-0.89573111934645,-1.03985557406084,-1.20005853703389,-0.6013390196969,-0.60806021057847,-1.07493359023232,-1.34367570740676,-0.46989772087512,-0.13922530152838,-0.18607433949514,-0.10703410968396,-0.02228434934211,-0.06321805053239,0.00194734920400506,0.000108492606914497,0,0,0.0000000173100181410435,-0.0000560749422,-0.00076179957384,-0.00076129864882,-0.00066442967182,-0.00029019454152,-0.08413259406788,0.113666202733137,0.195969069620413,0.0285863707545031,-0.72967356207171,-0.9778808893192,-0.97753699559567,-0.25898791888572,-0.55203326763089,-0.78569631881079,-1.24709788894676,-1.71252046830048,-0.74312271041126,-0.21800011379972,-0.21935220124125,-0.0550249052983,0.022056488685307,-0.06272034465924,0.000858905655827037,0.00015669547266702,0,0,-0.00000530736789,-0.00000669674156,-0.00007733983714,-0.00062572364308,-0.00113075198413,-0.00021865431235,-0.02008881222342,0.0683920240386783,0.238092078784875,0.242512112505975,-0.46896717063696,-0.55127366165097,-0.41848952761318,-0.35218483688122,-0.7487470135246,-1.00046996812997,-1.43733940275621,-1.62667662692292,-0.65261824026596,-0.2106083073585,-0.21184572267958,-0.21454620326469,0.00249494969138619,0.0549131793763229,-0.02403982074606,0.0000198589977731746,0.000000282759403385059,0,-0.00000734622601,-0.00076406117775,-0.00552411489532,-0.00920318168466,-0.00058663775987,0.00131075770388886,-0.0140237079908,0.0286224368444479,0.232085566195232,0.244005652556998,-0.0940389102385,-0.26920116353316,-0.28002331728672,-0.19773601809497,-0.62207586062946,-0.84613918234069,-1.30134043580655,-1.50545393762402,-0.91336626900629,-0.42984900981489,-0.30533081458631,-0.0086899256548,0.0885502492454953,0.00390862976817709,-0.25751417462949,-0.12601279890446,-0.03095485984706,-0.14758285081652,-0.00015245802976,-0.00400951697499,-0.01561661859534,-0.01610144223926,-0.0014141499732,-0.00133078163895,-0.01251589220603,-0.13190298175571,-0.10420667412821,0.172931322981988,0.114906077420761,-0.12176633142539,-0.29680920144799,0.00980666736687399,-0.03788516715085,-0.3182057556765,-0.9622568324758,-1.51188679074935,-0.77210626658856,-0.41053826687316,-0.08241633572193,0.243491994629348,0.229233797709905,-0.0016165074487,-0.20030658296141,-0.18144513402637,-0.18285901516075,-0.11446495457,-0.00029183205903,-0.00058407937386,-0.00495899961966,-0.00308650606924,-0.01956335907032,-0.00885395704416,-0.04548389198412,-0.13639294858746,-0.05185659945733,-0.0169792725695,0.051450317079028,0.0733847708353729,-0.05965313109279,0.0721151042705223,0.0375085084553149,-0.21910957313377,-1.02493347115834,-1.29911937756891,-0.53533844298954,-0.36055494778204,0.19957639725166,0.211094451371641,0.168881442492968,-0.07824298986719,-0.06170142411276,-0.03906763141408,-0.09646683287486,0.00000311035336716425,0,-0.00029142680237,0.00325846588679586,-0.01199706836147,-0.09033189739338,-0.05020060435621,-0.03438760809003,-0.11981035306671,-0.13802537680798,-0.22350428938878,0.139220385011728,0.254885298340839,0.158322842440189,0.0308475848896453,-0.06044150404197,-0.47965231523446,-1.59842516701835,-1.571564294096,-1.15699359852833,-0.77161209146915,0.215022869381259,0.191053516531478,-0.01967206294166,-0.07880728503986,-0.02444600316695,-0.00056041396456,0.00000311035336716425,0.00000311035336716425,0,-0.00016787627721,-0.05091112339702,-0.09313079075176,-0.08880004991746,-0.07236714275584,0.0159347370620626,-0.02435574128097,-0.14164420263688,-0.3191928407146,-0.01447767639116,0.22341305006887,0.322661926756664,-0.04090563297172,-0.37831422799704,-0.63927799633331,-1.36161335287988,-1.60272566738028,-1.30716969125807,-0.67884121522353,-0.01548887187323,0.0497662308468802,-0.08941116503903,-0.00013424593122,-0.00019892073446,-0.00031729427222,0.00000311035336716425,0.00000298741450628255,0,-0.00024575703142,-0.04352306790985,-0.09346976209544,-0.09296624780345,-0.08078301308878,-0.01331321904466,-0.01159356660063,-0.11506183477285,-0.21053125158562,-0.21845163332041,-0.05914622518605,-0.11274839613443,-0.2069582591057,-0.78215576975205,-0.78241264084888,-0.97658217232567,-1.42324906988937,-0.86002699591197,-0.05109134257979,0.159907130088688,0.0950409027209872,-0.00633973656787,-0.00019748833032,-0.00033386172374,-0.00003014346881,0.00000311035336716425,0.000000663869895475484,0,-0.00012114784573,-0.00171667697449,-0.03791825822011,-0.06374694528985,-0.08626787305061,-0.07442690832261,-0.0920448085316,-0.19363598106874,-0.19119073272035,-0.21896787175772,-0.27614897312361,-0.94358138217696,-0.83975859006665,-0.4518009435835,-0.39637407340849,-0.60082175568295,-0.70370103454603,0.14925081396226,0.200682996026942,-0.0393646015934,-0.0470451574605,-0.00363843702042,-0.00003679423493,0.000000893431765663371,0.00000303659005063523,0.00000212684248011059,0,0,0,-0.00033748323755,-0.00047279187375,-0.00085701104409,-0.00092369370216,-0.08106366232665,-0.14196927758439,-0.20115215364615,-0.17091038813867,-0.13685562403084,-0.13337307005728,-0.32205332730295,-0.62338885547715,0.028554033428324,0.0729534590209016,0.0818851196909542,0.134399170109009,0.158711618214647,0.0950691947969884,-0.01258846001108,-0.00000097126382,0.00000311035336716425,0.00000151214817570206,0.00000136462144921548,0,0,0,0,0,0,-0.00046961650908,-0.00063442761798,-0.00086048117287,-0.00240841610059,-0.0426933379198,-0.11944407204662,-0.12314055970214,-0.18752373020987,-0.13372991760424,-0.11629666811046,-0.1466264626843,-0.16338040613363,-0.12728914732285,-0.08378303728466,-0.04572887328352,-0.08007089556502,-0.071882457939,0.000243374495976062,0.00000151214817570206,0.00000151214817570206,0,0,0,0,0,0,0,0,0,0,-0.00000000204249,-0.00091093960689,-0.02424074025952,-0.03874875122592,-0.06825341289372,-0.2085244378256,-0.20995402470794,-0.09176951108987,-0.13236854180625,-0.14962633816036,-0.09468498650232,-0.04697695289912,-0.03499414717655,-0.02952661131037,0.00133729406128854,0.0000411030750010156,0,0,0,0,0,0,0,0,0,0,0,0,-0.00000000037932,-0.00009262308631,-0.00390560673172,-0.00179071364875,-0.05342512974796,-0.17652551923293,-0.18760448595077,-0.1772647845871,-0.12884087381967,-0.03914118771576,-0.00747578816913,0.0000775291999446231,0.0000663639161625332,0.0000316476429921926,0,0,0,0,0,0,0,0,0],[0,0,0,0,0,0,0,0,0,0,0,0.00430909800818773,0.0269887136537519,0.0242713440970575,0.00000534470558489438,0.000127957685663371,0,0,0,0,0,0,0,0,0,0,0,0,0,0,0,0,0,0,0,0,0,0.00204293260764043,0.0142047511371035,0.0237808327674943,0.027558010250047,0.00436224246904564,0.000868170870593319,0.000592311607486477,0.000982033464106416,0.000745258611490976,0.0000496582235343847,-0.00013083455467,-0.00003232383118,0.0077035736167795,0.000624614062336025,0,0,0,0,0,0,0,0,0,0,0,0,0,0.00000280366575644525,0.00400659754148444,0.103588429734039,0.123209579661016,0.0774322444486626,0.018331943493281,-0.0267067900708,-0.17304214730473,-0.14070137891496,-0.03799333418332,0.0142253907489852,0.01041022319579,0.0120635909674355,0.0129990071990462,0.00702690843614859,0,0,0,0,0,0,0,0,0,0,0,0,0.000421813239208281,0.00073603317195858,0.0164260393092538,0.0616892246944549,0.11585018331638,0.0750123930822786,0.0629527734713934,-0.07768099324664,-0.2140106417295,-0.20924970216417,-0.09721238561751,-0.03107439594968,-0.00701818579828,0.0461775211537815,0.0522273514660288,-0.00051868615108,-0.00211110594552,-0.00019248406046,0,0,0,0,0,0,0,0,0,0,0.00173875733205798,0.00184671186787144,-0.00728721407092,-0.04847942948436,-0.0472105320456,-0.04094153028518,-0.03948056394195,-0.21461666432625,-0.13399527252337,-0.17137174545192,-0.09175826887718,-0.08952207429258,-0.01615697230043,0.0409693626267965,0.0344622058988013,0.017697911131375,-0.01036444862813,-0.00776352364492,0,0,0,0,0,0,0,0,0,0.00045689361201708,-0.05313150014987,-0.0697650256541,-0.04470152341023,-0.05451190277101,-0.1443945143046,-0.25756421485642,-0.28534808822958,-0.26750162622066,-0.31834839406703,-0.3006333706101,-0.42819492108288,-0.38958395218058,-0.0037437442541,0.0499534809647018,0.0476843553166648,0.0234101723967268,0.0142793075172494,-0.01788325212659,-0.00019248406046,0,0,0,0,0,0,0,0,0.000302310047183288,-0.0507702646921,-0.01384191503392,-0.04540664078318,-0.0814375119327,-0.15469600722341,-0.05282125114432,-0.06779690933791,-0.02533887190519,-0.19895074011557,-0.01838114497622,-0.06452391155417,-0.18218867327686,-0.09669022500613,0.0313344349186551,-0.02176468792056,0.0456233501066086,0.0207054150463312,0.013201904386926,0.0252165108100462,0,0,0,0,0,0,-0.00071538799961,-0.00111308265648,-0.00101051888506,0.014822071808136,0.0369272437597539,-0.0521269635784,-0.15924199212117,0.0729186795897404,-0.02681957912616,-0.06852348660661,-0.19739530754201,-0.27366026016738,-0.06055632097375,-0.03288575801688,-0.09740463645489,0.00940286891290647,0.210770430779481,0.102616352753074,0.0468746763345648,0.0337160674856912,0.0196830381598776,0.0164223813018196,0.0267266576989887,0.0334133917733077,0,0,-0.00028043210054,-0.00071538799961,-0.001455051724,-0.001508442608,0.00640206671848287,0.0272850284762838,0.210968073225452,0.0320205210509704,0.0694480978249805,0.0479096516073746,-0.21765101422994,-0.27185267376232,-0.23637827269177,-0.18870965132501,-0.01769228663898,-0.04785459803867,-0.34246600229495,-0.190250153709,-0.12988542338168,0.257971120727946,0.0273035155290239,-0.00953507859873,0.00844874403382744,-0.0064315327764,0.0118620331849245,0.0199954163523034,0,0,-0.00129914461529,-0.00145366841381,-0.00092518997872,-0.00090626083302,0.0173287544979743,0.0230098774928189,0.241566869652837,0.142483962776082,-0.03987126165325,-0.38166818096543,-0.5522582713321,-0.3115248622049,-0.01353569024263,-0.02710240004987,-0.11940157387384,-0.0970034733157,-0.47223248496985,-0.25318801364538,-0.25449645686698,-0.0294381706988,-0.05921833909942,-0.02975657294543,-0.00801109791389,-0.0081134916412,-0.00813338316738,0,0,0,0,-0.00131735140884,-0.00151181835167,-0.00062007276985,0.000987143591957538,0.019700742259217,0.281271709404697,0.360822861501286,0.00201788461922425,-0.37439052080981,-0.15144470411994,0.0640855766970479,0.0519394387920193,-0.01436695793993,-0.00804090490232,-0.14411363592248,-0.13095194699013,-0.11185586898084,-0.17820436357492,-0.10372882804558,-0.06598652511817,-0.02824609147012,-0.00010498450089,-0.00515172702287,-0.0069464888856,0,0,0,-0.0002518165823,-0.00138876137428,-0.00155268001091,-0.00097073960414,0.0183892278982408,0.0262203829409872,0.273888781753136,0.256727653069638,-0.00939978795122,-0.2340335342116,-0.03681819712059,0.0678320066072662,0.0201724946441845,-0.03777663074814,-0.36467422898237,-0.17593558829597,0.0852348221125353,0.12573308276877,0.119846139206718,-0.2548348760282,-0.22070775683119,-0.09052500011715,-0.0001108675067,-0.00059013515883,-0.00033300904103,0,0,0,-0.00137354496273,-0.00177855580565,-0.00284556240198,-0.00201187440838,0.0295752200444546,0.0319433836899679,0.124292472350157,0.309654469641623,0.0882003621477855,-0.16145249323603,0.0388361043138154,0.00914908674497619,0.017951625364317,-0.3381590469747,-0.21680635602835,0.0496285004479508,0.234246773369357,0.07451176642182,-0.04991473613565,-0.1330047300175,-0.09795183236705,-0.1276280157697,-0.05217121600815,0.0145397222857288,-0.00000993931214,0,-0.0002632627896,-0.0002632627896,-0.00145366841381,-0.00238702981572,-0.00403312928895,-0.00125375562247,0.0200522485467181,0.0506391852935735,0.20727875745298,0.329133016079493,-0.01991163032002,-0.13710462913161,-0.2007580815419,-0.33604322547334,-0.41325367232408,-0.25886319373224,0.0569244226343787,0.262919972438888,0.164305302250782,0.0938828209893407,-0.0260522205125,-0.1145602985004,-0.07839282380159,-0.02579910154477,0.0259644843688697,0.018463038361178,-0.00000055130364,0,0,-0.00191767984962,-0.00201854587094,-0.00330182793759,-0.01339167466284,-0.02166941037495,0.016772188425732,0.0160571477024708,0.115783589192264,0.114934161641448,0.0725059871870966,-0.3740849382318,-0.27641821867598,-0.22503802238394,-0.28503584474002,0.063692910380796,-0.00064426369248,0.0896018868112278,0.111134848210766,0.0574919614619331,-0.08142753089581,-0.09645005241874,-0.01091662086047,0.0219017791600346,0.0276914011721992,0.00124583101002557,0,0,-0.00169183183016,-0.0651292873798,-0.0033616547158,-0.0762101721198,-0.19778095037356,-0.31425277245786,-0.22431045146354,-0.25825892610667,-0.30314743980642,-0.03089614098945,0.100330707313209,-0.02814027564794,-0.143707734959,-0.15201632989246,-0.02886492028029,0.0253789905783909,0.0372291900039269,0.0639943960618498,0.0681834911396455,-0.01711860152963,-0.07066860888272,-0.04273671876497,0.0281392118219963,0.0624424414420865,0.0548542876123872,-0.00000719877596,0,0,-0.20204457550137,-0.25427850816606,-0.18266533041954,-0.29720364754598,-0.36729180244698,-0.3490705381045,-0.34304756470103,-0.33629965534412,-0.2814435796208,-0.01515067957061,0.0382911397014442,-0.01080300145438,-0.06935915329249,-0.24341720296115,-0.11405545160655,-0.09974220566411,-0.05986053371253,0.0829182351740038,0.0739450396676972,-0.00081805866257,-0.04943499789766,-0.04122632849131,-0.03992196148397,-0.00215913261452,0.033978407262418,0.0272604029953749,-0.00000000034015,0,-0.27697895315869,-0.2946966134534,-0.32950273907042,-0.35817280391709,-0.33135478912305,-0.19446067901557,-0.22788905903196,-0.11312710027547,-0.08059608293086,0.219175551545995,0.0470756075613856,-0.00871794766817,-0.06142389847813,-0.2598775273989,-0.11759358183138,-0.24363258793187,-0.1267937960751,-0.00440521070738,0.0813410351063516,0.0113575390070489,-0.04106319565432,-0.0402311725636,-0.02356765207343,-0.02502726292848,-0.03240032759118,0.00250727380886296,0.00989688381309241,-0.03991551252358,-0.27194469446703,-0.34785387522966,-0.30845659657836,-0.19730378371338,-0.05070844541038,0.158827441424704,0.243601700020144,0.257833095246144,0.269246183779968,0.239036864226336,-0.02065828931778,0.0259736057297622,0.107164124684048,-0.01734712087602,-0.12241024753101,-0.30416239518456,-0.31393985190922,-0.17830156536934,-0.00438039415938,-0.0755356970206,-0.02978580153738,0.0127476225190251,0.0169004932605307,0.0167066586277005,-0.01181511576927,-0.01248691386662,-0.03118688461038,-0.03095886369836,-0.05209126453869,-0.2050831188369,-0.06546416286304,0.179923052047925,0.268750146266245,0.302907456077854,0.195321009970552,0.0266996944296299,0.161194814555613,0.0373259925724639,0.275390156452642,0.421355216680313,0.19586264449933,-0.17132280521716,0.0340912623922296,-0.1291244945144,-0.2545341714553,-0.36110128306178,-0.13128170375331,-0.03433589016671,0.00292547582053609,0.0290919907680741,0.0304979697196631,0.0459180551177404,0.0431545284803654,0.0167045310351907,-0.02609111888748,-0.00000000374168,0,-0.03685857922865,0.170430577311014,0.311557830531179,0.309162846958215,0.160705654765796,0.0218595545223378,-0.01643810374803,0.0445744431058577,0.0769644828032592,0.209498623288918,0.310015321792506,0.0104447850637206,-0.24717131042739,-0.29267656591494,-0.1817656620456,-0.17781601510346,-0.16740169839555,-0.17547921964187,-0.00743279470678,0.070266686375966,0.0659049343545244,0.0404613478289752,0.0325528191306924,0.0022354383563665,-0.00012823301998,-0.00000000374168,-0.00000000374168,0,0.000000000028354152359702,0.21846341066086,0.310643109989588,0.234113495402795,0.074353936372325,0.182537910863414,0.205598497196432,-0.02960431086439,0.173998689817033,0.33223309693054,0.2463051889539,0.0460814154616834,-0.33130141844466,-0.25009886585944,-0.03484476198365,-0.01571640503462,0.00765034683510816,-0.13955139527358,-0.01354344518889,0.0398658326047316,0.0468889442140352,0.0437152100349464,-0.00058699746658,-0.0004699760047,-0.00007298840307,-0.00000000374168,-0.00000000359379,0,0.0000000000415081417586879,0.176260386140498,0.310587981101402,0.309890960335378,0.309945520966324,0.318125254767742,0.336133983014574,0.270194081513414,0.297612727076707,0.278106870090045,0.157587107383777,-0.01798606355563,-0.13084836713404,-0.00062401206135,0.0706036036391725,0.020354783059093,-0.00411523154811,-0.18598168459537,-0.05579804849706,0.0255383120345267,0.0288472846698257,0.00762549203812306,-0.00046490587704,-0.00007704458909,-0.00000760645661,-0.00000000374168,-0.00000000079862,0,0.0000000000204617622746196,0.0111713528433845,0.0943373428033,0.187932922123044,0.312306989135375,0.306564069493894,0.252626076651882,0.345609951740884,0.294724468754225,0.177561544069527,0.0386834713451795,-0.05673006080269,-0.02870193204554,-0.0360994897277,-0.05365683916928,-0.05133875487714,-0.07656871802174,-0.21330220930822,-0.02646194321041,0.0329135080857011,0.0155065684878867,0.000470148688528123,-0.00000912699998,-0.00000051058937,-0.00000000365295,-0.00000000255854,0,0,0,0.0000000000570006155455716,0.000011725054869475,0.000140699848982852,0.000163083901523557,-0.0016756708854,-0.00044675737168,0.157849481876145,0.00977506990091418,-0.03682454034279,-0.03820344106979,-0.01748650692719,-0.04190541998115,-0.05756082207766,-0.02967183837796,-0.01050246049482,-0.12968959965564,-0.13806995217436,0.0093417446800061,0.0182375331228269,-0.00038973766707,-0.00000000374168,-0.00000000181908,-0.00000000164161,0,0,0,0,0,0,0.0000106591476056319,0.000183336080489786,0.000269708905946721,0.000266911503497694,0.00195033534197659,0.0105933652599334,-0.0003882759937,-0.01932567695129,-0.02443903659273,-0.03324492729307,-0.01516253033915,-0.0134040928673,-0.09598281538506,-0.14241463474056,-0.15752364874524,-0.00773318581715,0.0302293027325139,0.00359476871585446,-0.00000000181908,-0.00000000181908,0,0,0,0,0,0,0,0,0,0,0.0000000534214361302179,-0.00000021019851,0.0000619112814988637,0.0017116752084173,0.00621685968749956,0.0209558149516056,-0.00009019230517,-0.16342532235982,-0.05746810879688,-0.02718535776459,-0.11063821217746,-0.05071291839678,-0.01282526778849,0.0184631356594946,0.0151727528995802,0.000699560646501223,0,0,0,0,0,0,0,0,0,0,0,0,0.0000000099211224235357,-0.00000001294275,-0.00000054575277,-0.00000023267381,0.0057837201611177,0.0168024352654315,0.020973331962273,0.020886329462751,-0.01685235169231,-0.13515429386558,0.00124335127569512,-0.01352339567405,-0.00836280160323,-0.00419739113611,0,0,0,0,0,0,0,0,0],[0,0,0,0,0,0,0,0,0,0,0,0.00000000345123681696255,0.000000024334492626885,0.000000328649599971122,0.000000571379356927539,-0.00054620243558,0,0,0,0,0,0,0,0,0,0,0,0,0,0,0,0,0,0,0,0,0,-0.00001239212029,-0.00005998758682,-0.00004516532915,0.0000000657269274772249,-0.00020124727513,-0.00502087045859,-0.00101305880976,-0.00001288097464,-0.00000977528529,0.0000402556168190064,-0.00006572515231,-0.00001623797882,0.0452421603208086,0.00366828318292254,0,0,0,0,0,0,0,0,0,0,0,0,0,-0.00240515291292,0.0264424063092137,-0.00885163686076,0.0410071135749937,0.0255789924556914,0.0316211423047335,-0.04410794345929,-0.04172962253452,-0.01759524650653,0.0439315394579412,0.0583018282494495,0.0580276200132219,0.0724080869847821,0.0770345641646858,0.0412681871872319,0,0,0,0,0,0,0,0,0,0,0,0,0.0298570158127728,0.0844381806385864,0.156676360085241,0.0204089711735992,-0.08023055911592,-0.11321564658113,-0.05082069971679,-0.00776753877482,-0.07063928497749,-0.03691701262019,0.0389081309436025,0.0475545566187777,0.0597009446453647,0.0770137579295903,0.076627411794334,0.0110125182999481,0.0000127273366082033,0.000001284730249787,0,0,0,0,0,0,0,0,0,0,0.128774577473491,0.169376009389995,0.0789755225216833,0.00420529318754251,-0.0746280200888,-0.09668042846263,-0.13584038920306,-0.00994241568076,-0.01519173996604,-0.0533613111981,-0.02993727911289,-0.00864001358728,0.0151371923430594,0.00187546243038807,0.056440672418067,0.0620262890979682,0.00653761472417577,0.0000518174525605562,0,0,0,0,0,0,0,0,0,0.0406741754714332,0.133669031713386,0.0548366926181614,-0.02333207620653,-0.0308396447728,-0.07429123697467,-0.03412962423672,0.0228996620329547,0.0981829788803174,0.0461629870036716,-0.05064906191739,-0.02235402758574,-0.13403716300017,-0.08900613657711,0.0233800701996118,0.0612852222789855,0.0213049454662422,0.0129926398642725,0.000117008435624914,0.000001284730249787,0,0,0,0,0,0,0,0,0.0383647424003562,0.163293395930478,-0.04522132717825,-0.079267993111,-0.08177740244127,-0.1320811363632,-0.05962971990714,-0.02445908696726,-0.09987359569886,0.091279247424041,0.0513187186886618,0.114238921179217,-0.03039018238887,-0.0579005519693,0.0411671028614562,0.0587544650690587,-0.01372383490067,0.01181981534593,0.00889526281511376,0.000149261429523054,0,0,0,0,0,0,0.000000894610188132934,0.00705632223871077,0.033050544132544,0.126149943414077,-0.01134417090072,-0.04771483340499,-0.06760172658617,-0.11320367115677,-0.1121218966565,-0.12411450623167,-0.33569884848843,-0.29885884725388,-0.28879243085295,-0.22848289625606,-0.23916402459409,-0.12593395311656,-0.08052596803956,-0.07142518411764,-0.10015587558672,-0.00018193735147,0.00523344051623607,-0.00087595819474,-0.00074019588841,0.000114482594002435,0,0,0.000000350687199622164,0.000000894610188132934,-0.00000771685985,0.0241493486771331,0.0361941597256765,-0.02302359234109,0.0912615144354504,-0.04951244843051,-0.11591066284489,-0.16119552688108,-0.21026786721655,-0.33315806585762,-0.4475560595815,-0.3633011786638,-0.4619460676641,-0.53865375691155,-0.49915911959789,-0.15868095197308,-0.02137962939022,-0.02745551165495,-0.1025782834634,-0.07238730683509,0.012851647620483,-0.00080023242,-0.00097107559974,0.0000685092716028631,0,0,0.00000162461211165705,0.00000181784790054566,-0.00010374383764,-0.04654960781307,-0.03013811346734,-0.05594861206926,0.00930926105131254,-0.01525677582661,-0.18168941633149,-0.30362130541839,-0.35066282764744,-0.36956209391854,-0.31547095624425,-0.34315483803109,-0.42464356897938,-0.53649988903121,-0.51312390281591,-0.15152968852559,-0.01030393401539,0.00756026706423359,-0.11245533172379,-0.07823023390324,-0.00067344166116,-0.00069001529023,-0.00103958487134,0,0,0,0,-0.00000550494777,-0.03000786951695,-0.05259106596043,-0.03938259314769,-0.08614854081573,-0.11338264079671,-0.02662224014684,-0.12096893017441,-0.30045691081712,-0.2344015649002,-0.23178464375632,-0.2692644029829,-0.26364966161735,-0.49585686266755,-0.54639412930318,-0.39707047425007,-0.10872117764172,-0.05387892022962,-0.06444146518435,-0.05567570466559,0.0102900220744244,0.000191864193422328,-0.0054669856909,-0.00551664228551,0,0,0,0.00000031490279427242,-0.00010316413028,-0.06843044506572,-0.04533654580137,-0.05519547589064,-0.02865275263401,-0.03840877755488,-0.05353569509708,-0.11318514337601,-0.00199016175636,0.0065922259182706,-0.07135464740291,-0.1624105988894,-0.21111035729335,-0.44663347334428,-0.47336287897606,-0.31199601505814,-0.24906976391461,-0.16160096542674,-0.04776459744385,-0.04668884793785,-0.02785319037133,-0.02043896609638,-0.02082214773322,-0.0207893398147,0,0,0,0.00000171765156556638,-0.00009350790266,-0.00214402289593,0.00815905449653139,-0.02762722119864,0.0259834250855588,-0.00999695158095,-0.0734080457206,-0.08791342702732,-0.15891277496589,-0.05654819571009,-0.01870761346112,-0.09739045364496,-0.45923928272403,-0.47600059760891,-0.27554562443918,-0.25450365436421,-0.36770906171238,-0.15448211534782,-0.09076339862859,-0.05442036136623,-0.05615163776427,-0.02590580304905,-0.02347296770144,-0.01818552385335,0,0.000000329216556412318,0.000000329216556412318,0.00000181784790054566,0.00000195948794859613,-0.00087611328425,-0.02300831044357,-0.04602114556293,-0.02231645584594,-0.05095465419456,-0.08973854079939,-0.11369204257961,-0.22103217292842,-0.19724654477982,-0.15770767834879,-0.35634010138727,-0.42456044591392,-0.26860039814512,-0.28613316642431,-0.18639964901882,-0.1817819703909,-0.09208160386376,-0.10100412405686,-0.10679039596813,-0.08941510589808,-0.0651614355558,-0.01236514649806,-0.00099194820183,0,0,0.000000936447446894304,0.00000178892831052075,0.00000374164993428828,-0.00033337732141,0.0114823660362511,-0.05322336413091,-0.07809605930198,-0.0629023317209,-0.09234639658531,-0.20129938590374,-0.23953396116395,-0.21896124943348,-0.22860096224594,-0.45919833270576,-0.21384498267534,-0.11949664641269,-0.23779323876821,-0.26097843458195,-0.17986137436816,-0.09584342489029,-0.13032281682103,-0.13876325510403,-0.09632533031339,-0.07110743855117,-0.04993291344741,0,0,0.000000115985368718149,0.00000882160924138262,0.00000193512291889246,0.0000142087765850749,-0.00053327453014,-0.01850998658056,-0.01968375807619,-0.0358221486342,-0.05827287820541,-0.16541892733325,-0.19575474110994,-0.18230800264404,-0.12556829747052,-0.43589981768152,-0.35934219576354,-0.15005297655598,-0.10817686587436,-0.14460095890092,-0.17687368238781,-0.14281044468391,-0.11406836313304,-0.12788925488967,-0.1374640886962,-0.06127370484854,-0.05700580547763,-0.03215278602597,0,0,0.0000272860462487704,0.0000343716941012089,0.0000248055695265952,0.000259209850483644,-0.01286881035586,-0.05585991357005,-0.01899420486583,-0.00893865995035,-0.10051573666559,-0.1562169169679,-0.2134810362422,-0.12282926759551,-0.13498453492705,-0.34413569522839,-0.16269510766227,-0.12963362785696,-0.12403536596044,-0.05112015692464,-0.00976540159253,-0.14453239467376,-0.18926148971765,-0.12502362191017,-0.07787114094804,-0.04939444566733,-0.05203842140763,-0.01058832619501,0.0000785884409696007,0,0.0000375342657850858,0.0000622427693254002,-0.00029204483879,-0.00022761302286,-0.0132943753464,-0.04617003884352,-0.03669651915045,-0.00774459779824,-0.09466974609206,-0.17992327753767,-0.19924288795599,-0.04063073114045,-0.20703062381626,-0.25797937737911,-0.16372033109093,-0.07035541002473,-0.05072724414095,0.00479062866090355,-0.01198189889725,-0.07170458268537,-0.1709416554116,-0.17069666974869,-0.07917704637183,-0.10428931381797,-0.05545460603961,-0.01334922985557,0.00420951802491536,0.0162631966129229,0.0000615520489420617,0.000132120154197985,-0.00040461804996,-0.01038452429465,-0.05017572725941,-0.05201765937146,-0.04980693433654,-0.0507666644049,-0.06016157625786,-0.11885652413735,-0.08112643359366,0.0884144456133879,-0.11924410821574,-0.2423814334057,-0.15575971846609,-0.2269354848935,-0.35819854034123,-0.20439882391463,0.0239360502449988,-0.08505157202351,-0.19443795946194,-0.16709306937584,-0.09350281896336,-0.12622245381339,-0.06755258733426,0.00566143699369356,0.0204457942787764,0.0130993924125718,0.0000563858072566808,0.000126074674342789,0.0000646505889396279,0.000452454145970295,-0.02003533544494,-0.05910987184652,-0.05315408058929,-0.05089257426974,-0.08918862454021,-0.06909296606696,-0.03526946698223,-0.12359106094935,-0.12510133518802,-0.11786819731322,-0.06274618409458,-0.16485333950201,-0.32314441561165,-0.12926524885153,-0.04363268813836,-0.15575597724224,-0.14564849057348,-0.18997508964033,-0.13785561173414,-0.09851133577665,-0.02473510179525,0.0358310603644863,0.0111756631025377,0.000864472831190388,0,0.0000543193115236982,0.0000784494488601155,-0.0109320635875,-0.0687899770162,-0.07725234648282,-0.06331992103047,-0.06096005863589,-0.13223532447576,-0.11114718003244,0.0380717055694437,-0.06831887920968,-0.08990107703198,-0.06140842472009,-0.04133341563864,0.0118954620633463,0.0721349431243992,-0.0068333801878,-0.22150081347879,-0.12341502629755,-0.23189421203055,-0.20852808955603,-0.12028769815098,-0.05845261820902,0.0340559145690269,0.0682754304947761,0.000864472831190388,0.000864472831190388,0,-0.00000836760118,-0.0450949735641,-0.07593923844557,-0.07862370039279,-0.08520386335282,-0.04016111062313,-0.05637717319263,-0.04557780773277,-0.11303194321839,0.00440178305894273,0.112678262293831,0.120918966791298,0.0632084111887137,0.0243299230055944,0.0650654939609713,0.0635471990758888,-0.04560527635605,-0.22344369239078,-0.09088292850417,-0.18609011772094,-0.17684789252706,-0.07255659205219,0.0101262914912074,0.072016521371918,0.0393262922302234,0.000864472831190388,0.000830303946634797,0,-0.00001224947837,-0.03835058410956,-0.07692900394974,-0.07674505119129,-0.08502249438868,-0.04133539097491,-0.10712184403979,-0.10225238550616,-0.0600179408826,-0.01434393209245,-0.01958704132971,0.0460420841984594,0.0545828393725439,0.0396486254252863,-0.08515852673834,-0.11766226609144,-0.0920939393712,-0.28427102958848,-0.19516487764625,-0.18572951560601,-0.03675058694557,0.0305315642579016,0.071676960347611,0.0418056977284131,0.00490472514001852,0.000864472831190388,0.000184511989583675,0,-0.00000603847592,-0.00124744249632,-0.03253102846259,-0.05389508334591,-0.07898009651662,-0.08426770884587,-0.10869736631617,-0.11440481420116,-0.11745519646463,-0.05066650641401,-0.0002233161338,0.0722477901889663,0.0254169112806456,0.0125155146116298,-0.18013160288316,-0.15170018821943,-0.16588497181625,-0.31518029454151,-0.16243876751293,-0.03404774908807,-0.0105937844573,0.00433768888227162,0.00571277580647928,0.00113382300003795,0.000843971500457033,0.000591121754745655,0,0,0,-0.00001682146629,-0.00113155382997,-0.01333857383091,-0.0154571473006,-0.11457610134455,-0.15364190810847,-0.20548468716395,-0.15790609166245,-0.18126593127198,-0.15903562837809,-0.1856766826433,-0.14299633044863,-0.14846936168192,-0.15716250876016,-0.22271068187016,-0.25718601021825,-0.21796252596862,-0.0484041045077,0.00519204516194433,0.00267985520771575,0.000864472831190388,0.000420277331967698,0.000379274644534027,0,0,0,0,0,0,-0.00103066937903,-0.01735652655499,-0.02757213328663,-0.03689109814261,-0.12235823433884,-0.14173324412946,-0.12847871166364,-0.18092181025366,-0.17334850950431,-0.19897462502194,-0.19547015185283,-0.18383649728529,-0.24419476930226,-0.23863327064214,-0.19144653614286,-0.07134210295906,-0.03587788693887,-0.00036052446292,0.000420277331967698,0.000420277331967698,0,0,0,0,0,0,0,0,0,0,-0.00318191879873,-0.00631974345721,-0.06232285514157,-0.12833191801449,-0.13235829763565,-0.16694737651643,-0.19509535441295,-0.33868557576027,-0.21843130124723,-0.16159462551724,-0.21715232183751,-0.06822984498011,-0.01725805498784,-0.01669333426585,-0.00277962391452,-0.00011910292539,0,0,0,0,0,0,0,0,0,0,0,0,-0.00059092769178,-0.00000008950921,-0.00000377430496,-0.00104721797603,-0.02697664147127,-0.04322951673021,-0.07193381908295,-0.092605225897,-0.085170919422,-0.18973199350882,-0.00929149046514,-0.00291877300149,-0.00298150993813,-0.00081593531465,0,0,0,0,0,0,0,0,0],[0,0,0,0,0,0,0,0,0,0,0,-0.00095682606338,-0.00599277744124,-0.00695973833152,-0.00321805472408,0.000744509914702669,0,0,0,0,0,0,0,0,0,0,0,0,0,0,0,0,0,0,0,0,0,-0.00238667505031,-0.01251605656377,-0.01233036115101,-0.00611905119754,-0.00216134253915,0.00458219996413084,0.00351066333365645,0.00739482033815213,0.0056118795732192,0.00043251486648094,-0,-0,-0.00018185924838,-0.00001474534412,0,0,0,0,0,0,0,0,0,0,0,0,0,-0.00075014130617,-0.04141044124866,-0.12272135744666,-0.20569676238703,-0.15155747287824,-0.1315496639283,-0.03868642369897,-0.00232952810141,0.00426828714506259,0.00701918415751317,-0.01832339578481,0.0000139617478672076,-0.00029121975062,-0.00030965174104,-0.00016588512685,0,0,0,0,0,0,0,0,0,0,0,0,-0.04125776979061,-0.07201356185093,-0.19019987999865,-0.12895083331103,-0.07540750321971,-0.07898680267411,-0.14756957098488,-0.14814769080116,-0.01778128136639,-0.01825913661639,-0.02692612197075,-0.03928658775008,-0.02937801409478,-0.00031418307659,-0.00034267693099,-0.00006967788637,-0.00001393235584,-0.00000232270753,0,0,0,0,0,0,0,0,0,0,-0.17078077223594,-0.18454465093764,-0.06736426226516,0.0232417649469884,0.0464206412382612,0.116582081851709,0.126024100064597,-0.03266737085091,0.00757784217629773,0.0679482059612076,-0.27672102669301,-0.50298048114198,-0.4660593454838,-0.32040930303737,-0.0064183875833,-0.01019442121248,-0.00023070341018,-0.00009368253567,0,0,0,0,0,0,0,0,0,-0.04500965304328,-0.17656971250723,-0.06479088608622,0.0375495514074405,0.168535142007233,0.163263651614222,0.274334441580601,0.248156104324284,0.0537106496766849,-0.14860221298697,-0.18139308452711,-0.34138353067599,-0.42619645189876,-0.59281739162058,-0.38520413658823,-0.01071972741751,-0.00695828776659,-0.00025638787657,-0.00019587495117,-0.00000232270753,0,0,0,0,0,0,0,0,-0.01919893614473,-0.15206291333671,0.03869887298288,0.041465151604657,0.117687653617942,0.194234715170476,0.261773536863673,0.271326626290407,-0.29878189965626,-0.48404481460238,-0.52282632850777,-0.13228544038475,-0.02686470338778,-0.2635643722894,-0.08332401275526,-0.01356839794679,-0.00414733516588,-0.00030138296962,-0.00028815423487,-0.00020435776135,0,0,0,0,0,0,0.00122689754995904,0.00188106135188839,0.0122768342343096,-0.14779510813944,-0.07159393516441,0.0128554109361523,0.0777313763926454,0.0643757414875753,0.159828581316915,-0.16506042711958,-0.45560325263567,-0.5715682919766,-0.3657892972448,-0.20842353196476,-0.02458536644286,-0.13539055773911,-0.09005125486205,-0.00770011947575,-0.00039475180319,-0.00035539164974,-0.00035377027477,-0.00024135310439,-0.00013737155963,-0.000137369232,0,0,0.00048094384763981,0.00122689754995904,0.00249274186826836,0.00247987036299601,0.011417312755743,-0.13606198275989,-0.2929052684038,-0.18451915346682,-0.19732770902977,-0.16777540002339,-0.33665228619336,-0.66796601748547,-0.55444113560153,-0.53439155793977,-0.71104842675206,-0.29769456489121,-0.17923448335432,-0.10917586193674,-0.00054787587878,-0.04402473290023,-0.00081265514938,-0.00022639319655,-0.0000671727772,-0.00000857850756,-0.00008220804421,-0.000082205213,0,0,0.00222804596445042,0.00249305581912984,0.00155716027848606,-0.09825111888433,-0.14335323616685,-0.16048133277565,-0.35132708471933,-0.49105177793288,-0.39751468789609,-0.63816791292588,-0.87500075982485,-0.86432661429724,-0.40394448568651,-0.53860431419202,-0.50162585457492,-0.34047754201837,-0.29777838262526,-0.18880716472845,-0.04888572498137,-0.00297064610066,-0.00023414536144,-0.00009179030822,-0.00000228849778,-0.00000228864911,-0.00000000283121,0,0,0,0,0.00225725604072246,-0.06130500346124,-0.15434161043451,-0.21710611499382,-0.24643855113689,-0.25737302711374,-0.43676075278733,-0.55792915046184,-1.09895586343949,-0.94183584902419,-0.47084207729393,-0.4301253746344,-0.4937400861321,-0.38464568054331,-0.32892155194883,-0.47324239461873,-0.30614332825251,-0.02700031471542,-0.00224197453777,-0.00017555499071,-0.00001982673854,-0.00000159014202,-0.00000189863917,-0.00000084522644,0,0,0,0.000431867948625102,0.00235218984252431,-0.14396998917699,-0.23793371660322,-0.25371863670171,-0.20573408631868,-0.16823504336413,-0.13516012532445,-0.58895312769463,-0.7965290257752,-0.57824034483452,-0.13417063744505,-0.33095774276565,-0.14943725253506,-0.21320716187083,-0.23135407530449,-0.41413725070707,-0.39404486564269,-0.14734981631074,-0.04286056883718,-0.00048644847318,-0.00031875604542,-0.00007879383273,-0.00003132333211,-0.00000377770347,0,0,0,0.00235564330188866,0.00245904837972545,-0.01276855449681,-0.10799714338653,-0.13116756394887,-0.10719915725989,-0.06466782311581,-0.11298815385201,-0.61744762471695,-0.68551191996074,-0.57781071983462,-0.25068408530533,-0.22658119207888,-0.27196084297198,-0.32769805174332,-0.78900282408251,-0.62320557614919,-0.25300671895242,-0.15376749098601,-0.13884291240047,-0.07152820789616,-0.05174637333644,-0.00044452550903,-0.00026259663145,-0.00008594765131,0,0.000451498308230986,0.000451498308230986,0.00249305581912984,0.00239057207931444,-0.0050800519446,-0.02640996386729,-0.0644572796353,-0.10516001181367,-0.12084083211186,-0.31106312528288,-0.66415302125733,-0.63733576605881,-0.31752549722364,-0.26667742596334,-0.58056228821126,-0.71876571905246,-0.70260983263655,-0.85583274290219,-0.77252232221737,-0.35796719605418,-0.13588834488531,-0.14462812277318,-0.14422954156272,-0.14417045149596,-0.12251804480513,-0.01650914270004,-0.00000018060199,0,0,0.00104528762397724,0.00233316801018923,0.00208145672165895,0.00121021718889395,-0.02283459583523,-0.16807195166861,-0.26570743326515,-0.26585594808896,-0.58327825318174,-0.89384965722809,-0.62225332805544,-0.5734367868852,-0.65845864809209,-0.65829281387107,-0.82551837133266,-0.7894756628471,-0.6970344608113,-0.75051719576591,-0.3909235347805,-0.11229949590645,-0.14740068759073,-0.1485066031417,-0.14642794052061,-0.14402703095217,-0.10816089555204,0,0,-0.00016789142473,-0.00042099006037,0.00228294774601076,0.00153694037072246,-0.0037423129084,-0.09832641526363,-0.19641282724463,-0.21769534483163,-0.3709915213566,-0.76064624558479,-0.65886601381425,-0.66859503899218,-0.77769063997249,-0.70318848831549,-0.59254072534037,-0.50906325101588,-0.57467383758244,-0.67350699018121,-0.64131797366064,-0.31296421714859,0.00188656607594808,-0.05221641649745,-0.13687888572065,-0.13763390707022,-0.1445720193262,-0.07002434796882,0,0,-0.00147471019266,-0.00181244422326,-0.00111955380822,-0.01135105431388,-0.04378796521489,-0.18243787656696,-0.18985689306525,-0.17906015361679,-0.24520963077468,-0.316654127864,-0.48925643845313,-0.51925671838796,-0.49593147905734,-0.24743475715025,-0.08188941870602,-0.28155979483131,-0.48576347937912,-0.83887488395383,-0.62252528702673,-0.22312940858114,-0.00123366879437,-0.002690305881,-0.035233816597,-0.12884683957128,-0.14606379557467,-0.02384194174486,-0.0004805776196,0,-0.00184417509423,-0.00025657950745,0.000522608372111063,-0.00941718778377,-0.03915989430114,-0.17629948680272,-0.18058006128846,-0.17356003416985,-0.22697112221909,-0.17101228789444,-0.24217488617891,-0.24064231498801,-0.07639276413093,0.0221988452647643,-0.00543243973354,-0.22812732598956,-0.41655059422408,-0.75088697650517,-0.64489860736798,-0.22100626613638,-0.00435958249234,0.00530658708435334,-0.0009119471974,-0.12751099184177,-0.14896664610228,-0.14589435249598,-0.00528635438712,-0.00298793929158,0.000388940316786669,0.00363320625195077,-0.00504063237579,-0.03151358078265,-0.15887207794899,-0.17579696361769,-0.18877580148005,-0.19821556443637,-0.12638707702176,-0.0695528712932,-0.05942814076079,-0.1696458852462,0.0257481510679315,-0.08660711776421,-0.16625737303626,-0.18659819132213,-0.4223870306116,-0.59806168181098,-0.72633290824849,-0.11901162189509,0.0165400183187312,0.00838386248451376,-0.0263956113088,-0.1225938722924,-0.14479058425342,-0.09295288304542,-0.00528635449792,-0.00528635378,0.00395112015112412,0.00721770278954718,0.00352142454159052,-0.0021200416797,-0.05768338183352,-0.17430401768359,-0.18624371799704,-0.04816472017711,-0.04023554538868,-0.17373513088658,-0.30230100058008,-0.13855562033139,-0.10857393167879,-0.13410859984804,-0.24339989204497,-0.29213349391599,-0.62727815846242,-0.71671939974575,-0.21365780696361,0.00148509387581105,-0.01920430946617,-0.05978335868803,-0.14365280051551,-0.14395341636594,-0.05595384820861,-0.00346851735833,-0.00528635376687,-0.00528635369651,0,0.00404940633113685,-0.0004001496689,-0.05646671537612,-0.002796235112,-0.11362316432792,-0.17729440702506,-0.16091829482808,-0.14874460184302,-0.19816280472082,-0.30750654034662,-0.24345214476734,-0.13322153665282,-0.31170721399438,-0.35249383083134,-0.42066264649074,-0.6929409578304,-0.37162258699045,0.0509746137662581,0.0493831292267672,-0.14749218136551,-0.14175315321817,-0.14365582146451,-0.131425238169,-0.0000707753396,-0.00079399700665,-0.00528635369651,-0.00528635369651,0,-0.06433098358062,-0.16369952196784,-0.08341720018664,0.00774173923039914,0.00649870553493149,-0.11800814791436,-0.16514773787264,-0.14255110103327,-0.14037096505189,-0.23395184082999,-0.34835005342532,-0.37448574562872,-0.51806670578977,-0.38770491072622,-0.74420331652506,-0.68002274855755,-0.02433923596847,-0.024743202771,-0.00949392419908,-0.12719439989536,-0.14374710640681,-0.13939621623944,-0.12999615852351,-0.00313444117659,-0.00330135888174,-0.00528635369651,-0.00507740692264,0,-0.09417525701581,-0.1652356817173,-0.16167550198124,0.0014733663754923,-0.03714688724179,-0.07366022566531,-0.14545407843037,-0.13036753783944,-0.18578437669096,-0.31949626291628,-0.20439561341688,-0.08984974047751,-0.01909036948235,-0.18679691732738,-0.58686548358,-0.46353328140768,0.021862909162521,-0.11892960984127,-0.14685600475821,-0.1412748512378,-0.0915583439764,-0.02433302049644,-0.00528659294745,-0.00528635320779,-0.00528635364828,-0.00528635369651,-0.0011283126583,0,-0.04642442758366,-0.1658384530256,-0.1644406865625,-0.13439800765533,-0.16180498476314,-0.14835063076393,-0.10296659745981,-0.0894414075038,-0.09918213949499,-0.1314705335559,-0.05765411836705,0.0512870604376605,0.0714436517081554,-0.27511217395484,-0.49942468573084,-0.24005263571605,-0.07699716786712,-0.18837246416005,-0.14762814982556,-0.02552798358999,0.000193605405242336,-0.00528745928361,-0.00528635363863,-0.00528635369329,-0.00516098563218,-0.00361477950554,0,0,0,-0.12932517312558,-0.16919757584525,-0.18466860100152,-0.18735365463806,-0.23940879906295,-0.17004724584932,-0.09941777865944,-0.08399915086999,-0.01560582401868,-0.08187725800285,-0.07791586769187,-0.28667358243686,-0.05575764126852,-0.04003797818896,-0.14955591095625,-0.09536667253105,-0.09027248880294,-0.02183722858898,-0.02825940817055,-0.0079295248456,-0.00528635369651,-0.00257004563619,-0.00231930934875,0,0,0,0,0,0,-0.16906971614827,-0.05581537652477,-0.07153571469163,-0.1412967936742,-0.13367472769549,-0.09692132934534,-0.05540813194279,-0.01930169027013,0.00138798246808024,-0.00688857836609,-0.0181388815149,-0.03351123009591,-0.10910428578589,-0.12503105451178,-0.10000331838174,-0.02081755557667,-0.0019339861254,-0.00256901922953,-0.00257004563619,-0.00257004563619,0,0,0,0,0,0,0,0,0,0,-0.02691330812397,-0.05322010729172,-0.02834280427441,-0.05892845743024,-0.08788362042601,-0.09382304530347,-0.09676046485867,-0.15057406498072,-0.13440870771766,-0.12380519635163,-0.13511152882001,-0.04863229076151,-0.01932042460605,-0.00746179861954,0.00000552055061972411,0.000000108311653444301,0,0,0,0,0,0,0,0,0,0,0,0,-0.00499818507442,0.0000000200465065211916,0.000000845294342176459,-0.00884255534248,-0.03558444261326,-0.08297156051748,-0.09750335659466,-0.11140574853565,-0.12395312902018,-0.13125208021322,-0.0546409692108,-0.02018245617672,-0.01902604361541,-0.00144574883935,0,0,0,0,0,0,0,0,0],[0,0,0,0,0,0,0,0,0,0,0,-0.0000000022648,-0.00000001418479,-0.00000001282897,-0.00000000015256,0.00000082999521798611,0,0,0,0,0,0,0,0,0,0,0,0,0,0,0,0,0,0,0,0,0,0.0000000000449251604155088,-0.00000000204732,-0.00000000841861,-0.00000001448294,0.000000303972619349573,0.00000246896766209955,0.000000827025772569082,0.00000000849149978969975,0.00000000644414225589138,-0.00248991570057,-0.00034949055505,-0.00008634472543,0.0263736605809635,0.00213840486164314,0,0,0,0,0,0,0,0,0,0,0,0,0,0.000000106248586148229,0.00000678624179729074,0.00577314505988213,0.00679394487341227,0.00379508125083541,0.000961630260798362,-0.00034133937039,-0.00269243757429,-0.00365312373796,0.0226037848624287,0.0307864620806527,0.0338675277086026,0.0420121727269673,0.0449060908500081,0.0240570554975714,0,0,0,0,0,0,0,0,0,0,0,0,0.00000733123103023675,0.00020550992502932,0.00016242045494364,0.00223048920760054,0.0065147594247606,-0.03578990249585,0.00637345440705792,0.00014963594290466,0.000661126508570909,-0.01115449679613,0.0201654472742578,-0.0064557206639,0.024398538078659,0.0450371441883305,0.0448886015838926,0.00658739576824445,-0.00000254593321,0.000000130475213322811,0,0,0,0,0,0,0,0,0,0,0.0000682980552792993,0.000231909411390515,0.000211538883996408,0.000137317151874789,-0.00509026385344,-0.04304410477708,-0.06536274926951,0.0219227518886409,-0.0082771549455,-0.05211508218657,-0.02321135881586,0.0022556627899979,0.000967386812291067,0.00235544343181721,0.0448780953926608,0.044747018263583,0.00374050030900899,0.00000526250018461395,0,0,0,0,0,0,0,0,0,0.0000491353315717539,0.000145550493471067,0.000141765819765586,-0.00009076117811,-0.00072856082615,-0.06768148055945,-0.09299283403511,0.0174200207791905,0.0855961637664853,0.0344471204253703,-0.04284372241533,-0.06945643345621,-0.05165739141394,-0.00165904234123,0.0152142544406611,0.0448495131750863,0.0241764811871893,0.000732506967324637,0.00000525783642989442,0.000000130475213322811,0,0,0,0,0,0,0,0,0.0000940570116599535,0.0000777966855619401,-0.02734648449329,-0.08349226804551,-0.19927892490935,-0.1880374294793,-0.06076671290891,-0.08650627852784,0.0930636336597832,-0.0024854815864,-0.00965281617188,-0.03847623555107,-0.01192852477646,-0.03825916499253,0.0878408651751105,0.098511223393924,0.0549737148125767,0.0552258132225393,0.0552216273573561,0.11572434103742,0,0,0,0,0,0,-0.00011216360545,-0.00013408684021,0.0000385874473971753,-0.00001381206187,-0.0470130849834,-0.17539676222405,-0.19243375518555,-0.14945093279431,-0.14491192016509,-0.11879015294234,-0.06778543673667,-0.20782179645342,0.00543088384900454,-0.00538901782106,-0.06104919357029,-0.13156480845002,-0.04255201081223,0.1423415531719,0.122136819251303,0.122503417602543,0.122974933237349,0.122472215764198,0.122956492273214,0.122982883240345,0,0,-0.00004396813407,-0.00011216360545,-0.00022799187351,-0.0000972804102,-0.00003121849926,-0.02234859685188,-0.18268950456158,-0.24797509510103,-0.09834979822753,-0.01852332233802,-0.01999403197013,-0.10345303075991,-0.38888606117551,-0.39906611443939,-0.23746041524773,-0.19261367054701,-0.28354640062419,-0.20426777179966,-0.08717722333434,0.0877087962567026,0.057568272394179,0.0269247164602975,0.0269237775360023,0.00623676311312333,0.0735639585166572,0.0735960590676062,0,0,-0.00020368910875,-0.00022791644606,-0.000143501813,-0.00114643676755,-0.0019469827377,-0.03871020343975,-0.26868074901324,-0.07302167217035,0.106642554761863,-0.00751460520634,-0.2181410752885,-0.11818380888674,-0.32630515231099,-0.28898760402341,-0.24604000783363,-0.15977372037654,-0.29478771203682,-0.33767899234335,-0.16844398536425,0.00556930975773721,-0.00709038528874,-0.00053065633641,-0.00006933861821,-0.0000697549372,-0.00003210055095,0,0,0,0,-0.0002064376057,-0.00222195877349,-0.00392534144225,-0.00377618296787,-0.15888643829567,-0.22864646507105,0.00137676585636141,0.10678045079316,-0.15186310288944,-0.1902158327547,-0.14709136074084,-0.31000225828077,-0.25559134969996,-0.29013774161739,-0.18487798632701,-0.33307469114739,-0.3190361775837,-0.16403592784126,-0.01908855116551,-0.00907974116949,-0.00270577655289,-0.00028394627164,0.000119945922012958,0.000118822413375829,0,0,0,-0.00003948159013,-0.00021618382491,-0.00125791819648,-0.00429355904433,-0.04205315186054,-0.21149624196444,-0.21431622811901,-0.02570457735812,-0.09402808777886,-0.23953093033534,-0.2500745926342,-0.15579827944924,-0.1122216524359,-0.19898925892608,-0.23467280189378,-0.26899853936653,-0.36124556373952,-0.42589435045895,-0.36036605135425,-0.08695336546998,-0.01089328463585,-0.00590923575081,-0.00029922419882,0.000653494440699708,0.000654147856283664,0,0,0,-0.00021535412301,-0.0002286895654,-0.00491684418829,-0.00720493118528,-0.08334076587447,-0.24723208817954,-0.25791261837391,-0.20423504834377,-0.14377471082473,-0.23918117668425,-0.18964605090382,-0.08505800668008,0.0651057066981612,0.074098386523066,-0.11573373755036,-0.30145221203261,-0.13687093330169,-0.34326249971857,-0.34710565803516,-0.23919566933508,-0.04028621095556,-0.01087239729286,-0.00253540547022,0.000824174108012652,0.000575553649202066,0,-0.00004127620771,-0.00004127620771,-0.00022791644606,-0.00022797319568,-0.00262099291611,-0.00594297099604,-0.00566488027074,-0.12828338562474,-0.26695576304854,-0.19683936568855,-0.13121720301604,-0.20715712281582,-0.20299691602668,-0.05262667738698,0.0906896866740192,0.0756230921561707,-0.01705722577017,-0.21505844760727,-0.10497934744057,-0.18483930842047,-0.32054051793331,-0.32560428861033,-0.08983177473194,-0.00530869345312,-0.00302628599534,-0.00104481566836,0.000031334661275096,0,0,-0.00010685467261,-0.00021898103429,-0.00022803311169,-0.000221146424,-0.0177108976826,-0.12756949609844,-0.31981043378866,-0.35332435338453,-0.24089702734792,-0.17132104106232,-0.2045020418626,-0.11078661040548,-0.04009054324859,0.0388111735088273,0.0376160727679729,-0.07434203505793,-0.17679685485791,-0.11859603231936,-0.1563470261803,-0.26342065852842,-0.32288057071452,-0.09160255892851,-0.00447315125185,-0.00331728041241,-0.0005090719613,0,0,-0.00000010249776,-0.00001626885039,-0.00022623811518,-0.00022803632784,-0.00844054163734,-0.08685735798478,-0.23434018345793,-0.38187357415641,-0.3645783475428,-0.22614575669435,-0.0341517181704,-0.10643338217654,-0.06460901589579,-0.01160865322032,-0.00711120133374,0.0272470313090132,-0.17311856958957,-0.17575187885998,-0.10048873523283,-0.19109985743413,-0.23269062824121,-0.32303853954454,-0.128045623344,-0.00491550965149,-0.00317228941557,-0.00211383545034,0,0,-0.0000001148748,-0.00000011616514,-0.0000216541126,-0.02584693836987,-0.05700230652295,-0.17085801896712,-0.24474774122193,-0.36128245929143,-0.29743760734725,-0.06994018399197,0.0319493867440181,-0.05895796662818,-0.08043373811627,-0.09051627166674,-0.12113039466239,-0.19294051648704,-0.16387973401099,-0.16108823856535,-0.10238443955878,-0.22187058431697,-0.25708285023818,-0.11706191367168,-0.20215133342214,-0.15719412169339,-0.0027503318203,-0.00020218641658,-0.0000012769744,0,-0.00000004162601,-0.00000002312838,-0.00002470778445,-0.0156544854844,-0.04643717308348,-0.16699773744598,-0.23912509971741,-0.37024954518223,-0.35408305316563,-0.09451680973358,0.0277583169059877,0.0144383174078848,-0.07904255456658,-0.08693200761117,-0.15202459083738,-0.13753077172602,-0.19034480413324,-0.14484918159941,-0.15358517193224,-0.18544188132029,-0.14605181676248,-0.14805982349194,-0.1947775467201,-0.17659908898525,-0.02008012808791,-0.01357148788529,-0.00337407191494,-0.01631752949994,-0.0000000043885,-0.0000000241505,-0.00000385189565,-0.02234112221503,-0.13908180065619,-0.15539175254639,-0.18888535774899,-0.27473230066319,-0.15756491544432,-0.16658873597799,-0.1496594055997,-0.03754131268884,0.059543757422677,-0.05088299897566,-0.03886416088066,-0.10106621763143,-0.18170179281665,-0.21226254144792,-0.10837067966213,-0.16667391661337,-0.09018138512284,-0.17377523395035,-0.18245865792734,-0.07684268777762,-0.01503077441151,-0.019744871619,-0.02016101548261,-0.0126639241503,-0.00000000095443,-0.0000000035128,0.0000886474835239815,0.000650625676657079,-0.04848106724881,-0.14433187773521,-0.17752838357413,-0.14964102083786,-0.16368599995305,-0.25185870552703,-0.37721952014365,-0.32350353978619,-0.02125727593115,0.058892678980726,0.0686698347522838,-0.06494327582984,-0.11823453758392,-0.09444797239889,-0.1272312392949,-0.10532011023175,-0.16649502508636,-0.18238700911323,-0.15612620157625,-0.00789081765787,0.000325954054557413,-0.00561501630564,-0.0106749499014,-0.00001404671804,0,-0.00000000071213,0.000618556002455858,0.000634279851152655,-0.0081141945349,-0.10141623954244,-0.16775956633735,-0.24423172057434,-0.26459210577845,-0.28097997553427,-0.39182281987766,-0.34186651622438,-0.0910314498443,0.0604205184122745,0.00586266325061481,-0.00114954045259,0.0184639752175814,-0.04847465249482,-0.12066325100646,-0.22242822538004,-0.20583606534537,-0.1784384372295,-0.04922642407065,-0.00446229808051,-0.00483492937488,-0.00424916534341,-0.00001404671804,-0.00001404671804,0,0.000051780017967998,0.000697959560377457,0.000307828133221504,-0.00638682032139,-0.01465835080268,-0.09455656124939,-0.14146137391117,-0.25623486184171,-0.24895121757402,-0.28952731899014,-0.30432091661301,-0.21862192794386,-0.0949445484555,-0.02740260710869,0.021941390568622,-0.06780655108579,-0.10105543899175,-0.07762636065003,-0.28593504743391,-0.2063585226467,-0.08871656121597,-0.00705817548349,-0.00743712739554,-0.00659692525868,-0.00242606881392,-0.00001404671804,-0.00001349151183,0,0.0000758016779629684,0.000586251601088149,0.000428055433832041,-0.00133215039322,-0.01029312762501,0.0383522329852865,-0.03061485907122,-0.10412773812255,-0.06115556417553,-0.11501135999958,-0.24613509449197,-0.19421731882811,-0.14725173712797,-0.2235664076779,-0.20095860752293,-0.0931632956083,-0.13948194499937,-0.136127302789,-0.23179113614879,-0.19537874502335,-0.09458448086365,-0.01585916242352,-0.00660856869142,-0.00256563751182,-0.00026584843188,-0.00001404671804,-0.00000299811376,0,0.0000373670284618531,0.00016439666182888,0.000353155884029108,0.000415058932258615,-0.00194821174918,-0.01077143523583,0.0893881295687371,0.16666680854564,0.185915996531197,0.160955653683176,0.138740978729903,-0.04049003095198,-0.15925016894305,-0.16381758295103,-0.17493548174408,-0.20715363001946,-0.267329918345,-0.24702608263253,-0.22149730212016,-0.03946789679624,-0.00265678416874,-0.00168489494639,-0.0003162087874,-0.00003083349989,-0.00001371359431,-0.00000960506833,0,0,0,0.0001040938505124,0.00356241405145195,0.0412633637459742,0.047806503005067,0.0609852719794762,0.0660191134519708,0.0660954272749727,-0.00033544808181,-0.00922077098884,-0.00230368725735,0.0811871504693476,-0.08040344145016,-0.08590136174924,-0.08962474796928,-0.09161964323705,-0.19677895535164,-0.18001429869913,-0.16065497137155,-0.03827220096673,-0.00195244572724,-0.00001404671804,-0.00000682903727,-0.00000616278939,0,0,0,0,0,0,0.00325083599149515,0.0536186555937273,0.0788472555567607,0.0778740023172394,0.0565243742986345,0.0328391370461206,0.000664706523551993,0.000448925934673746,0.0000883808206557483,-0.0081062663857,-0.02884744170278,-0.02645235941687,0.0367088654731417,0.0481300187114817,-0.05903109956634,-0.06412273311613,-0.05194162762054,-0.00304267724157,-0.00000682903727,-0.00000682903727,0,0,0,0,0,0,0,0,0,0,0.000000600085047402889,-0.00017366755901,-0.00078799629265,-0.00050383866034,0.000752404615906773,0.00198495331361605,0.000996520668905871,-0.02416743216224,-0.02839130576245,-0.02171454559378,0.0414980167398258,0.0111514013158669,-0.06038139513637,-0.06067576540208,-0.01708220775165,0.00000757197107108935,0,0,0,0,0,0,0,0,0,0,0,0,0.000000111444349891778,-0.00001773184943,-0.00074769297014,-0.00034261858025,0.0000858487633430292,0.00155540578208689,0.0000224654001515099,-0.02369099135432,-0.02885559926312,-0.00405063991583,0.0205158364505459,-0.00961642286757,-0.04247931576483,-0.02852170513548,0,0,0,0,0,0,0,0,0],[0,0,0,0,0,0,0,0,0,0,0,0.00146245233964491,0.00915616522063053,0.00376233396685675,-0.00908598327736,-0.0029450207175,0,0,0,0,0,0,0,0,0,0,0,0,0,0,0,0,0,0,0,0,0,0.0000000360155177878886,0.0014304462111727,0.00552154516573642,0.00929733290647704,-0.00387636758406,-0.00476173979213,0.00200871135162767,0.0125289682059128,0.00950814996620249,0.000743141108528846,-0.00001372729581,-0.00000339144956,0.00000456651853527059,0.00000037025825090259,0,0,0,0,0,0,0,0,0,0,0,0,0,-0.00029380171516,-0.01434077011797,-0.03086844238219,-0.06203791543474,-0.03477324585136,-0.03317669423067,-0.00001454999032,-0.01147455950187,-0.00376618073773,0.00460198489936358,-0.07551265203778,0.00533859136448213,0.00000240701019022768,0.0000101101153031727,0.0000041654054618792,0,0,0,0,0,0,0,0,0,0,0,0,-0.01587952780351,-0.02772222669675,-0.06670643560777,-0.01760280876463,0.00381141929599697,-0.00047471800232,-0.02733622411774,-0.04490231122672,0.00281423581644286,0.00430670064280327,-0.02525339496241,-0.06694331602426,-0.09905403491186,-0.00716327070644,-0.06452826799501,0.00724712493271705,0.00711891230278282,0.00118332919462855,0,0,0,0,0,0,0,0,0,0,-0.06580454618667,-0.07090950365076,-0.01434242981518,0.0159008033834728,0.0217947147143458,0.173929472142464,0.138142480384947,0.0821957385482654,-0.07774678584412,-0.12568788156339,-0.04786796819031,-0.04938079350378,-0.00453180548099,0.0365554107615806,-0.03835631539506,-0.02239814220549,0.0647837250874129,0.0477276100693917,0,0,0,0,0,0,0,0,0,-0.01730829189672,-0.07257108246388,-0.02886961513985,0.0997281246158148,0.359973369315557,0.348054447899837,0.521216891592952,0.334536983306902,0.146895367514777,-0.21907369322355,-0.05563200638666,0.0951400037693019,0.143212479112644,0.123345119887827,0.0503296791364758,-0.02505322573389,-0.02203001299539,0.0415360572603639,0.0998267791979979,0.00118332919462855,0,0,0,0,0,0,0,0,-0.0086871148402,-0.06342114085905,0.0151027391542184,0.0173804410950779,0.138279328387118,0.415107998844042,0.573130576963939,0.617577764979824,0.224161704763399,-0.23202139460395,-0.02271093700193,0.124755888156317,0.168352060551276,0.0627230177797223,-0.03163316885229,-0.04279652156279,-0.0436437093317,0.0871427069361619,0.0989562689178627,0.0382650808377396,0,0,0,0,0,0,0.0000154564205952525,0.000064505235947139,0.00306477332937477,-0.04353276713646,0.00781371529906083,0.0275884416678678,0.106094806733078,0.375683967136579,0.661460432688387,0.661692943431063,0.274400805964412,-0.25357524289004,-0.14544966297246,-0.05281695883172,-0.00936411194764,-0.09813195967716,-0.05215790650828,-0.084334086994,0.0117429942768619,0.0543314824660929,0.0499925886877025,-0.00771559023848,-0.04972782756186,0.00000436112229035771,0,0,0.00000605891697482658,0.0000154564205952525,0.0000351132169362292,0.000187052200023217,0.0057792354329745,0.0112639278408178,-0.04733556014626,0.103643720308092,0.149633248867561,0.366408658396509,0.623776832473302,0.559645497498833,0.258730287500669,-0.15466894322443,-0.1480877499674,-0.14104263920449,-0.15843661085755,-0.11797249843048,-0.05277981861696,0.0806449404912384,0.0383256550627253,0.0217888781644917,-0.05795720168783,-0.06092516159517,-0.06048894583652,0.00000260980556989354,0,0,0.0000280688599738833,0.0000314074466194827,0.0000604240398453645,0.000252998627095595,0.00697026543614355,0.010166366383942,-0.03240748078845,-0.03592578203141,0.0314858936311462,-0.00079598710449,0.310770954363942,0.319517541775871,0.0609906451823852,-0.15978633591535,-0.11262537505422,-0.12516902345262,-0.19481470386829,-0.02498937228792,0.0304144618905896,0.145843306436147,0.0587256928975316,-0.02291634412158,-0.05993741578154,-0.06089432277607,