{"cost":"CROSS_ENTROPY","layers":[{"activation":"SIGMOID","bias_gradients":[0,0,0],"biases":[-2.32533985404464,-2.16199226980664,1.68078699276947],"deltas":[0.00127249530587853,0.00119205603588471,-0.00137495210949],"input_count":2,"output_count":3,"outputs":[0.170862304561777,0.207909403884835,0.737280132116364],"prev_bias_gradients":[0.0123222525614626,0.010735713028032,-0.0117704254879],"prev_weight_gradients":[[0.00152941649110246,-0.00729484808028],[0.00143611524733557,-0.00680961872071],[-0.00159222074192,0.0078995786059387]],"weight_gradients":[[0,0],[0,0],[0,0]],"weighted_sums":[-1.57952824393443,-1.33757334773451,1.03187959443673],"weights":[[-1.34127328448207,5.98222955521376],[-0.70912116987352,5.03238405513524],[0.529911772991485,-3.90298234690733]]},{"activation":"SOFTMAX","bias_gradients":[0,0],"biases":[2.33573513835209,-2.33573513835209],"deltas":[-0.00096658673944,0.00096658673943572],"input_count":3,"output_count":2,"outputs":[0.999033413260564,0.00096658673943572],"prev_bias_gradients":[-0.00755530085784,0.00755530085783872],"prev_weight_gradients":[[0.00751383809744716,0.00637200517987668,-0.01203853582965],[-0.00751383809745,-0.00637200517988,0.0120385358296458]],"weight_gradients":[[0,0,0],[0,0,0]],"weighted_sums":[3.69583333972567,-3.24493912350732],"weights":[[-4.63192565203384,-3.92388941790592,4.025191791167],[4.6611755930327,3.56514846324604,-3.31924285907064]]}]}