{"cost":"CROSS_ENTROPY","layers":[{"activation":"SIGMOID","bias_gradients":[0,0,0,0,0,0,0,0,0,0,0,0,0,0,0,0],"biases":[-0.00000000000001,-0.00000000000001,-0.00000000000001,-0.00000000000001,-0.00000000000001,-0.00000000000001,-0.00000000000001,-0.00000000000001,-0.00000000000001,-0.00000000000001,-0.00000000000001,-0.00000000000001,-0.00000000000001,-0.00000000000001,-0.00000000000001,-0.00000000000001],"deltas":[-0,-0,-0,-0,-0,-0,-0,-0,-0,-0,-0,-0,-0,-0,-0,-0],"input_count":784,"output_count":16,"outputs":[0,0,0,0,0,0,0,0,0,0,0,0,0,0,0,0],"prev_bias_gradients":[0.0000000000000000065300812211622,0.00000000000000000653008119935553,0.00000000000000000653008119742406,0.00000000000000000653008121129208,0.00000000000000000653008124224685,0.0000000000000000065300811984385,0.00000000000000000653008119932888,0.00000000000000000653008120219484,0.00000000000000000653008120644607,0.00000000000000000653008121465751,0.00000000000000000653008120376867,0.0000000000000000065300812035777,0.00000000000000000653008119511561,0.00000000000000000653008120639212,0.00000000000000000653008121424745,0.00000000000000000653008122450327],"prev_weight_gradients":[[0,0,0,0,0,0,0,0,0,0,0,0,0,0,0,0,0,0,0,0,0,0,0,0,0,0,0,0,0,0,0,0,0,0,0,0,0,0,0,0,0,0,0,0,0,0,0,0,0,0,0,0,0,0,0,0,0,0,0,0,0,0,0,0,0,0,0,-0,-0,-0,-0,-0,-0,-0,-0,0,0,0,0,0,0,0,0,0,0,0,0,0,0,0,0,-0,-0,-0,-0,-0,-0,-0,-0,-0,-0,-0,-0,-0,0,0,0,0,0,0,0,0,0,0,0,0,0,0,-0,0,0,0,0,0,0,0.00000000000000000082554938046216,0.00000000000000000604515191499709,0.00000000000000000053261250352395,0.00000000000000000000000460841823,0.00000000000000000000015471110688,0.00000000000000000000008229314089,-0,-0,-0,0,0,0,0,0,0,0,0,0,0,0,-0,-0,-0,-0,-0,-0,0,0,0.00000000000000000159783751057192,0.00000000000000000676417879475444,0.00000000000000000218371126540539,0.00000000000000000000010995232494,0.00000000000000000000020087826997,0.00000000000000000000012831232537,0.00000000000000000000000054272458,-0,-0,-0,0,0,0,0,0,0,0,0,0,-0,-0,-0,-0,-0,-0,-0,-0,-0,0.00000000000000000369665260406745,0.00000000000000000656154791017353,0.00000000000000000206806838752085,-0,0.000000000000000000000219873592,0.00000000000000000000015056403428,0.0000000000000000000000027136229,-0,-0,-0,-0,-0,0,0,0,0,0,0,0,-0,-0,-0,-0,-0,-0,-0,-0,-0,0.00000000000000000362808457337672,0.0000000000000000067375698330377,0.00000000000000000196470565486411,-0,0.00000000000000000000023615532934,0.00000000000000000000015002130932,0.0000000000000000000000027136229,-0,-0,-0,-0,-0,0,0,0,0,0,0,-0,-0,-0,-0,-0,-0,-0,-0,-0,-0,0.00000000000000000380820070740106,0.00000000000000000676417772691662,0.00000000000000000195861127554539,-0,0.00000000000000000000023584558763,0.00000000000000000000009697622471,-0,-0,-0,-0,-0,-0,-0,0,0,0,0,-0,-0,-0,-0,-0,-0,-0,-0,-0,-0,-0,0.00000000000000000383480981248546,0.00000000000000000676417864314197,0.00000000000000000195865146212049,-0,0.00000000000000000000020424006823,0.00000000000000000000002254905569,-0,-0,-0,-0,-0,-0,-0,0,0,0,0,-0,-0,-0,-0,-0,-0,-0,-0,-0,-0,-0,0.0000000000000000013847922962517,0.00000000000000000675088927799654,0.000000000000000004396459149196,-0,0.00000000000000000000011558652348,0.00000000000000000000000698941808,-0,-0,-0,-0,-0,-0,-0,0,0,0,0,-0,-0,0,-0,-0,-0,-0,-0,-0,-0,-0,0.00000000000000000130490720392241,0.00000000000000000672741548904245,0.00000000000000000426646195867094,-0,0.00000000000000000000004883094641,-0,-0,-0,-0,-0,-0,0,0,0,0,0,0,-0,-0,0,0,-0,-0,-0,-0,-0,-0,-0,0.00000000000000000308918650363767,0.00000000000000000671728890820885,0.00000000000000000192400675055287,-0,0.00000000000000000000001691410583,-0,-0,-0,-0,0,0,0,0,0,0,0,0,0,-0,0,0,-0,-0,-0,-0,-0,-0,-0,0.00000000000000000628489500117181,0.00000000000000000659040054198702,0.00000000000000000192399417710666,-0,-0,-0,-0,-0,-0,0,0,0,0,0,0,0,0,0,0,0,0,-0,-0,-0,-0,-0,-0,-0,0.00000000000000000626968402680577,0.00000000000000000654131626147172,0.00000000000000000180820722295575,-0,-0,-0,-0,-0,-0,-0,0,0,0,0,0,0,0,0,0,-0,-0,-0,-0,-0,-0,-0,-0,-0,0.00000000000000000621044727132038,0.00000000000000000635986181847334,-0,-0,-0,-0,-0,-0,-0,-0,-0,-0,0,0,0,0,0,0,0,-0,0,-0,-0,-0,-0,-0,-0,0.00000000000000000037289774762927,0.00000000000000000647147807311718,0.00000000000000000639157235809849,-0,-0,-0,-0,-0,-0,0,0,0,-0,0,0,0,0,0,0,0,-0,-0,-0,-0,-0,-0,-0,0.00000000000000000000000895491397,0.00000000000000000221049783691903,0.00000000000000000676441495004222,0.00000000000000000434101340341627,-0,-0,-0,-0,-0,-0,0,0,0,0,0,0,0,0,0,0,0,-0,-0,-0,-0,-0,-0,0.00000000000000000000000135676977,0.00000000000000000000004985037734,0.00000000000000000221054776027113,0.00000000000000000676441495004222,0.00000000000000000380835785477293,-0,-0,-0,-0,-0,-0,0,0,0,0,0,0,0,0,0,0,0,0,-0,-0,-0,-0,-0,0.00000000000000000000000298496211,0.00000000000000000000008802072497,0.00000000000000000221057804481784,0.00000000000000000676439514062894,0.0000000000000000038082309570946,-0,-0,-0,-0,-0,-0,-0,0,0,0,0,0,0,0,0,0,0,0,-0,-0,-0,-0,-0,0.00000000000000000000000298498514,0.0000000000000000000001518814502,0.00000000000000000221057804499209,0.00000000000000000676437370305401,0.00000000000000000380822959553645,-0,-0,-0,-0,-0,-0,-0,-0,0,0,0,0,0,0,0,0,0,0,-0,-0,-0,-0,0,0.00000000000000000000000298498558,0.00000000000000000000015188175741,0.00000000000000000383503668302178,0.00000000000000000676434943221422,0.00000000000000000316909409658548,-0,-0,-0,-0,-0,-0,-0,-0,0,0,0,0,0,0,0,0,0,0,-0,0,-0,-0,0,0.00000000000000000000003229211371,0.0000000000000000000001518807629,0.00000000000000000474043506377074,0.00000000000000000676433518958392,0.00000000000000000127829925420455,-0,-0,-0,-0,-0,-0,-0,-0,0,0,0,0,0,0,0,0,0,0,0,0,-0,-0,0,0.00000000000000000000002442260618,0.00000000000000000000015187858108,0.00000000000000000378173201420563,0.00000000000000000628493014871687,0.00000000000000000079891776767572,-0,-0,-0,-0,-0,-0,-0,-0,0,0,0,0,0,0,0,0,0,0,0,0,-0,-0,0,0.00000000000000000000000298498519,0.00000000000000000000006349877583,0.00000000000000000000000911227052,-0,-0,-0,-0,-0,-0,-0,-0,-0,-0,0,0,0,0,0,0,0,0,0,0,0,0,0,-0,-0,-0,-0,-0,-0,-0,-0,-0,-0,-0,-0,-0,0,0,0,0,0,0,0,0,0,0,0,0,0,0,0,-0,-0,-0,-0,-0,-0,-0,-0,-0,-0,0,0,0,0,0,0,0,0,0,0,0,0,0,0,0,0,0,0,0,0,0,0,0,0,0,0,0,0,0,0,0,0,0,0,0,0,0,0],[0,0,0,0,0,0,0,0,0,0,0,0,0,0,0,0,0,0,0,0,0,0,0,0,0,0,0,0,0,0,0,0,0,0,0,0,0,0,0,0,0,0,0,0,0,0,0,0,0,0,0,0,0,0,0,0,0,0,0,0,0,0,0,0,0,0,0,-0,-0,-0,-0,-0,-0,-0,-0,0,0,0,0,0,0,0,0,0,0,0,0,0,0,0,0,-0,-0,-0,-0,-0,-0,-0,-0,-0,-0,-0,-0,-0,0,0,0,0,0,0,0,0,0,0,0,0,0,0,-0,0,0,0,0,0,0,0.00000000000000000082554937773764,0.00000000000000000604515189504659,0.00000000000000000053261250176619,0.00000000000000000000000460841823,0.00000000000000000000015471110679,0.00000000000000000000008229314085,-0,-0,-0,0,0,0,0,0,0,0,0,0,0,0,-0,-0,-0,-0,-0,-0,0,0,0.00000000000000000159783750529866,0.00000000000000000676417877243097,0.0000000000000000021837112581986,0.00000000000000000000010995232487,0.00000000000000000000020087826989,0.00000000000000000000012831232534,0.00000000000000000000000054272458,-0,-0,-0,0,0,0,0,0,0,0,0,0,-0,-0,-0,-0,-0,-0,-0,-0,-0,0.00000000000000000369665259173179,0.00000000000000000656154788831963,0.00000000000000000206806838058205,-0,0.00000000000000000000021987359193,0.00000000000000000000015056403427,0.0000000000000000000000027136229,-0,-0,-0,-0,-0,0,0,0,0,0,0,0,-0,-0,-0,-0,-0,-0,-0,-0,-0,0.00000000000000000362808456119996,0.00000000000000000673756981077589,0.00000000000000000196470564816484,-0,0.00000000000000000000023615532928,0.00000000000000000000015002130931,0.0000000000000000000000027136229,-0,-0,-0,-0,-0,0,0,0,0,0,0,-0,-0,-0,-0,-0,-0,-0,-0,-0,-0,0.0000000000000000038082006948069,0.00000000000000000676417770459315,0.00000000000000000195861126886033,-0,0.00000000000000000000023584558757,0.0000000000000000000000969762247,-0,-0,-0,-0,-0,-0,-0,0,0,0,0,-0,-0,-0,-0,-0,-0,-0,-0,-0,-0,-0,0.00000000000000000383480979982964,0.0000000000000000067641786208185,0.00000000000000000195865145543544,-0,0.00000000000000000000020424006819,0.0000000000000000000000225490557,-0,-0,-0,-0,-0,-0,-0,0,0,0,0,-0,-0,-0,-0,-0,-0,-0,-0,-0,-0,-0,0.00000000000000000138479229168154,0.00000000000000000675088925570391,0.00000000000000000439645913445373,-0,0.00000000000000000000011558652348,0.00000000000000000000000698941808,-0,-0,-0,-0,-0,-0,-0,0,0,0,0,-0,-0,0,-0,-0,-0,-0,-0,-0,-0,-0,0.00000000000000000130490719961592,0.00000000000000000672741546680436,0.00000000000000000426646194433474,-0,0.00000000000000000000004883094642,-0,-0,-0,-0,-0,-0,0,0,0,0,0,0,-0,-0,0,0,-0,-0,-0,-0,-0,-0,-0,0.00000000000000000308918649344272,0.00000000000000000671728888599444,0.0000000000000000019240067439484,-0,0.00000000000000000000001691410583,-0,-0,-0,-0,0,0,0,0,0,0,0,0,0,-0,0,0,-0,-0,-0,-0,-0,-0,-0,0.00000000000000000628489498043034,0.00000000000000000659040052006668,0.00000000000000000192399417050219,-0,-0,-0,-0,-0,-0,0,0,0,0,0,0,0,0,0,0,0,0,-0,-0,-0,-0,-0,-0,-0,0.00000000000000000626968400596873,0.0000000000000000065413162396652,0.00000000000000000180820721675038,-0,-0,-0,-0,-0,-0,-0,0,0,0,0,0,0,0,0,0,-0,-0,-0,-0,-0,-0,-0,-0,-0,0.00000000000000000621044725062083,0.00000000000000000635986179745375,-0,-0,-0,-0,-0,-0,-0,-0,-0,-0,0,0,0,0,0,0,0,-0,0,-0,-0,-0,-0,-0,-0,0.00000000000000000037289774639886,0.00000000000000000647147805176041,0.00000000000000000639157233700538,-0,-0,-0,-0,-0,-0,0,0,0,-0,0,0,0,0,0,0,0,-0,-0,-0,-0,-0,-0,-0,0.00000000000000000000000895491398,0.00000000000000000221049782962433,0.00000000000000000676441492771868,0.00000000000000000434101338909051,-0,-0,-0,-0,-0,-0,0,0,0,0,0,0,0,0,0,0,0,-0,-0,-0,-0,-0,-0,0.00000000000000000000000135676977,0.00000000000000000000004985037736,0.00000000000000000221054775297641,0.00000000000000000676441492771868,0.00000000000000000380835784220493,-0,-0,-0,-0,-0,-0,0,0,0,0,0,0,0,0,0,0,0,0,-0,-0,-0,-0,-0,0.00000000000000000000000298496211,0.00000000000000000000008802072499,0.0000000000000000022105780375231,0.0000000000000000067643951183054,0.00000000000000000380823094452663,-0,-0,-0,-0,-0,-0,-0,0,0,0,0,0,0,0,0,0,0,0,-0,-0,-0,-0,-0,0.00000000000000000000000298498514,0.00000000000000000000015188145018,0.00000000000000000221057803769735,0.00000000000000000676437368073046,0.00000000000000000380822958296849,-0,-0,-0,-0,-0,-0,-0,-0,0,0,0,0,0,0,0,0,0,0,-0,-0,-0,-0,0,0.00000000000000000000000298498559,0.0000000000000000000001518817574,0.00000000000000000383503667036588,0.00000000000000000676434940989066,0.00000000000000000316909408612681,-0,-0,-0,-0,-0,-0,-0,-0,0,0,0,0,0,0,0,0,0,0,-0,0,-0,-0,0,0.00000000000000000000003229211373,0.00000000000000000000015188076289,0.00000000000000000474043504812665,0.00000000000000000676433516726036,0.00000000000000000127829924998592,-0,-0,-0,-0,-0,-0,-0,-0,0,0,0,0,0,0,0,0,0,0,0,0,-0,-0,0,0.0000000000000000000000244226062,0.00000000000000000000015187858107,0.00000000000000000378173200172549,0.00000000000000000628493012797532,0.00000000000000000079891776503909,-0,-0,-0,-0,-0,-0,-0,-0,0,0,0,0,0,0,0,0,0,0,0,0,-0,-0,0,0.0000000000000000000000029849852,0.00000000000000000000006349877586,0.00000000000000000000000911227053,-0,-0,-0,-0,-0,-0,-0,-0,-0,-0,0,0,0,0,0,0,0,0,0,0,0,0,0,-0,-0,-0,-0,-0,-0,-0,-0,-0,-0,-0,-0,-0,0,0,0,0,0,0,0,0,0,0,0,0,0,0,0,-0,-0,-0,-0,-0,-0,-0,-0,-0,-0,0,0,0,0,0,0,0,0,0,0,0,0,0,0,0,0,0,0,0,0,0,0,0,0,0,0,0,0,0,0,0,0,0,0,0,0,0,0],[0,0,0,0,0,0,0,0,0,0,0,0,0,0,0,0,0,0,0,0,0,0,0,0,0,0,0,0,0,0,0,0,0,0,0,0,0,0,0,0,0,0,0,0,0,0,0,0,0,0,0,0,0,0,0,0,0,0,0,0,0,0,0,0,0,0,0,-0,-0,-0,-0,-0,-0,-0,-0,0,0,0,0,0,0,0,0,0,0,0,0,0,0,0,0,-0,-0,-0,-0,-0,-0,-0,-0,-0,-0,-0,-0,-0,0,0,0,0,0,0,0,0,0,0,0,0,0,0,-0,0,0,0,0,0,0,0.00000000000000000082554937759958,0.00000000000000000604515189403564,0.00000000000000000053261250167712,0.00000000000000000000000460841823,0.00000000000000000000015471110669,0.00000000000000000000008229314079,-0,-0,-0,0,0,0,0,0,0,0,0,0,0,0,-0,-0,-0,-0,-0,-0,0,0,0.00000000000000000159783750503145,0.00000000000000000676417877129978,0.00000000000000000218371125783342,0.0000000000000000000001099523248,0.00000000000000000000020087826978,0.00000000000000000000012831232529,0.00000000000000000000000054272458,-0,-0,-0,0,0,0,0,0,0,0,0,0,-0,-0,-0,-0,-0,-0,-0,-0,-0,0.00000000000000000369665259066922,0.00000000000000000656154788657058,0.00000000000000000206806837986425,-0,0.00000000000000000000021987359182,0.00000000000000000000015056403422,0.0000000000000000000000027136229,-0,-0,-0,-0,-0,0,0,0,0,0,0,0,-0,-0,-0,-0,-0,-0,-0,-0,-0,0.00000000000000000362808455992832,0.00000000000000000673756980956357,0.00000000000000000196470564713187,-0,0.00000000000000000000023615532917,0.00000000000000000000015002130925,0.0000000000000000000000027136229,-0,-0,-0,-0,-0,0,0,0,0,0,0,-0,-0,-0,-0,-0,-0,-0,-0,-0,-0,0.00000000000000000380820069408446,0.00000000000000000676417770346196,0.00000000000000000195861126780861,-0,0.00000000000000000000023584558746,0.00000000000000000000009697622466,-0,-0,-0,-0,-0,-0,-0,0,0,0,0,-0,-0,-0,-0,-0,-0,-0,-0,-0,-0,-0,0.00000000000000000383480979918833,0.00000000000000000676417861968731,0.00000000000000000195865145438371,-0,0.0000000000000000000002042400681,0.0000000000000000000000225490557,-0,-0,-0,-0,-0,-0,-0,0,0,0,0,-0,-0,-0,-0,-0,-0,-0,-0,-0,-0,-0,0.00000000000000000138479229144995,0.00000000000000000675088925453215,0.00000000000000000439645913295481,-0,0.00000000000000000000011558652344,0.00000000000000000000000698941808,-0,-0,-0,-0,-0,-0,-0,0,0,0,0,-0,-0,0,-0,-0,-0,-0,-0,-0,-0,-0,0.0000000000000000013049071993977,0.00000000000000000672741546556081,0.00000000000000000426646194278182,-0,0.00000000000000000000004883094641,-0,-0,-0,-0,-0,-0,0,0,0,0,0,0,-0,-0,0,0,-0,-0,-0,-0,-0,-0,-0,0.00000000000000000308918649292611,0.00000000000000000671728888471963,0.0000000000000000019240067427905,-0,0.00000000000000000000001691410582,-0,-0,-0,-0,0,0,0,0,0,0,0,0,0,-0,0,0,-0,-0,-0,-0,-0,-0,-0,0.0000000000000000062848949793793,0.00000000000000000659040051840492,0.00000000000000000192399416934429,-0,-0,-0,-0,-0,-0,0,0,0,0,0,0,0,0,0,0,0,0,-0,-0,-0,-0,-0,-0,-0,0.00000000000000000626968400444294,0.00000000000000000654131623785363,0.0000000000000000018082072156678,-0,-0,-0,-0,-0,-0,-0,0,0,0,0,0,0,0,0,0,-0,-0,-0,-0,-0,-0,-0,-0,-0,0.00000000000000000621044724891398,0.00000000000000000635986179628806,-0,-0,-0,-0,-0,-0,-0,-0,-0,-0,0,0,0,0,0,0,0,-0,0,-0,-0,-0,-0,-0,-0,0.00000000000000000037289774633649,0.0000000000000000064714780506781,0.00000000000000000639157233593643,-0,-0,-0,-0,-0,-0,0,0,0,-0,0,0,0,0,0,0,0,-0,-0,-0,-0,-0,-0,-0,0.00000000000000000000000895491397,0.00000000000000000221049782925463,0.00000000000000000676441492658738,0.00000000000000000434101338836447,-0,-0,-0,-0,-0,-0,0,0,0,0,0,0,0,0,0,0,0,-0,-0,-0,-0,-0,-0,0.00000000000000000000000135676977,0.00000000000000000000004985037735,0.00000000000000000221054775260667,0.00000000000000000676441492658738,0.00000000000000000380835784156799,-0,-0,-0,-0,-0,-0,0,0,0,0,0,0,0,0,0,0,0,0,-0,-0,-0,-0,-0,0.00000000000000000000000298496211,0.00000000000000000000008802072498,0.00000000000000000221057803715334,0.0000000000000000067643951171741,0.00000000000000000380823094388975,-0,-0,-0,-0,-0,-0,-0,0,0,0,0,0,0,0,0,0,0,0,-0,-0,-0,-0,-0,0.00000000000000000000000298498514,0.00000000000000000000015188145013,0.0000000000000000022105780373276,0.00000000000000000676437367959916,0.0000000000000000038082295823316,-0,-0,-0,-0,-0,-0,-0,-0,0,0,0,0,0,0,0,0,0,0,-0,-0,-0,-0,0,0.00000000000000000000000298498559,0.00000000000000000000015188175734,0.00000000000000000383503666972447,0.00000000000000000676434940875936,0.00000000000000000316909408559682,-0,-0,-0,-0,-0,-0,-0,-0,0,0,0,0,0,0,0,0,0,0,-0,0,-0,-0,0,0.00000000000000000000003229211372,0.00000000000000000000015188076283,0.00000000000000000474043504733382,0.00000000000000000676433516612906,0.00000000000000000127829924977213,-0,-0,-0,-0,-0,-0,-0,-0,0,0,0,0,0,0,0,0,0,0,0,0,-0,-0,0,0.00000000000000000000002442260619,0.00000000000000000000015187858101,0.00000000000000000378173200109299,0.00000000000000000628493012692422,0.00000000000000000079891776490549,-0,-0,-0,-0,-0,-0,-0,-0,0,0,0,0,0,0,0,0,0,0,0,0,-0,-0,0,0.0000000000000000000000029849852,0.00000000000000000000006349877586,0.00000000000000000000000911227053,-0,-0,-0,-0,-0,-0,-0,-0,-0,-0,0,0,0,0,0,0,0,0,0,0,0,0,0,-0,-0,-0,-0,-0,-0,-0,-0,-0,-0,-0,-0,-0,0,0,0,0,0,0,0,0,0,0,0,0,0,0,0,-0,-0,-0,-0,-0,-0,-0,-0,-0,-0,0,0,0,0,0,0,0,0,0,0,0,0,0,0,0,0,0,0,0,0,0,0,0,0,0,0,0,0,0,0,0,0,0,0,0,0,0,0],[0,0,0,0,0,0,0,0,0,0,0,0,0,0,0,0,0,0,0,0,0,0,0,0,0,0,0,0,0,0,0,0,0,0,0,0,0,0,0,0,0,0,0,0,0,0,0,0,0,0,0,0,0,0,0,0,0,0,0,0,0,0,0,0,0,0,0,-0,-0,-0,-0,-0,-0,-0,-0,0,0,0,0,0,0,0,0,0,0,0,0,0,0,0,0,-0,-0,-0,-0,-0,-0,-0,-0,-0,-0,-0,-0,-0,0,0,0,0,0,0,0,0,0,0,0,0,0,0,-0,0,0,0,0,0,0,0.00000000000000000082554937927109,0.00000000000000000604515190627542,0.00000000000000000053261250275552,0.00000000000000000000000460841823,0.00000000000000000000015471110678,0.00000000000000000000008229314084,-0,-0,-0,0,0,0,0,0,0,0,0,0,0,0,-0,-0,-0,-0,-0,-0,0,0,0.00000000000000000159783750826663,0.0000000000000000067641787849954,0.00000000000000000218371126225484,0.00000000000000000000010995232487,0.00000000000000000000020087826989,0.00000000000000000000012831232535,0.00000000000000000000000054272458,-0,-0,-0,0,0,0,0,0,0,0,0,0,-0,-0,-0,-0,-0,-0,-0,-0,-0,0.00000000000000000369665259849633,0.00000000000000000656154790035811,0.00000000000000000206806838433812,-0,0.00000000000000000000021987359193,0.00000000000000000000015056403429,0.0000000000000000000000027136229,-0,-0,-0,-0,-0,0,0,0,0,0,0,0,-0,-0,-0,-0,-0,-0,-0,-0,-0,0.00000000000000000362808456778652,0.00000000000000000673756982327125,0.00000000000000000196470565165262,-0,0.00000000000000000000023615532929,0.00000000000000000000015002130932,0.0000000000000000000000027136229,-0,-0,-0,-0,-0,0,0,0,0,0,0,-0,-0,-0,-0,-0,-0,-0,-0,-0,-0,0.00000000000000000380820070186097,0.00000000000000000676417771715757,0.00000000000000000195861127233217,-0,0.00000000000000000000023584558758,0.0000000000000000000000969762247,-0,-0,-0,-0,-0,-0,-0,0,0,0,0,-0,-0,-0,-0,-0,-0,-0,-0,-0,-0,-0,0.00000000000000000383480980695277,0.00000000000000000676417863338293,0.00000000000000000195865145890729,-0,0.0000000000000000000002042400682,0.0000000000000000000000225490557,-0,-0,-0,-0,-0,-0,-0,0,0,0,0,-0,-0,-0,-0,-0,-0,-0,-0,-0,-0,-0,0.00000000000000000138479229425378,0.00000000000000000675088926823381,0.00000000000000000439645914244461,-0,0.00000000000000000000011558652349,0.00000000000000000000000698941808,-0,-0,-0,-0,-0,-0,-0,0,0,0,0,-0,-0,0,-0,-0,-0,-0,-0,-0,-0,-0,0.00000000000000000130490720203977,0.00000000000000000672741547927317,0.00000000000000000426646195206666,-0,0.00000000000000000000004883094643,-0,-0,-0,-0,-0,-0,0,0,0,0,0,0,-0,-0,0,0,-0,-0,-0,-0,-0,-0,-0,0.00000000000000000308918649918081,0.00000000000000000671728889843669,0.00000000000000000192400674732994,-0,0.00000000000000000000001691410583,-0,-0,-0,-0,0,0,0,0,0,0,0,0,0,-0,0,0,-0,-0,-0,-0,-0,-0,-0,0.00000000000000000628489499210439,0.00000000000000000659040053217955,0.00000000000000000192399417388373,-0,-0,-0,-0,-0,-0,0,0,0,0,0,0,0,0,0,0,0,0,-0,-0,-0,-0,-0,-0,-0,0.00000000000000000626968401750495,0.00000000000000000654131625165056,0.00000000000000000180820721992973,-0,-0,-0,-0,-0,-0,-0,0,0,0,0,0,0,0,0,0,-0,-0,-0,-0,-0,-0,-0,-0,-0,0.00000000000000000621044726200298,0.00000000000000000635986180924331,-0,-0,-0,-0,-0,-0,-0,-0,-0,-0,0,0,0,0,0,0,0,-0,0,-0,-0,-0,-0,-0,-0,0.0000000000000000003728977470914,0.00000000000000000647147806378072,0.00000000000000000639157234887728,-0,-0,-0,-0,-0,-0,0,0,0,-0,0,0,0,0,0,0,0,-0,-0,-0,-0,-0,-0,-0,0.00000000000000000000000895491398,0.00000000000000000221049783373004,0.00000000000000000676441494028312,0.00000000000000000434101339715351,-0,-0,-0,-0,-0,-0,0,0,0,0,0,0,0,0,0,0,0,-0,-0,-0,-0,-0,-0,0.00000000000000000000000135676977,0.00000000000000000000004985037737,0.00000000000000000221054775708212,0.00000000000000000676441494028312,0.00000000000000000380835784927861,-0,-0,-0,-0,-0,-0,0,0,0,0,0,0,0,0,0,0,0,0,-0,-0,-0,-0,-0,0.00000000000000000000000298496211,0.00000000000000000000008802072501,0.0000000000000000022105780416288,0.00000000000000000676439513086983,0.0000000000000000038082309516003,-0,-0,-0,-0,-0,-0,-0,0,0,0,0,0,0,0,0,0,0,0,-0,-0,-0,-0,-0,0.00000000000000000000000298498514,0.0000000000000000000001518814502,0.00000000000000000221057804180306,0.00000000000000000676437369329488,0.00000000000000000380822959004215,-0,-0,-0,-0,-0,-0,-0,-0,0,0,0,0,0,0,0,0,0,0,-0,-0,-0,-0,0,0.00000000000000000000000298498559,0.00000000000000000000015188175741,0.00000000000000000383503667748903,0.00000000000000000676434942245507,0.00000000000000000316909409201329,-0,-0,-0,-0,-0,-0,-0,-0,0,0,0,0,0,0,0,0,0,0,-0,0,-0,-0,0,0.00000000000000000000003229211373,0.0000000000000000000001518807629,0.00000000000000000474043505693164,0.00000000000000000676433517982477,0.0000000000000000012782992523603,-0,-0,-0,-0,-0,-0,-0,-0,0,0,0,0,0,0,0,0,0,0,0,0,-0,-0,0,0.0000000000000000000000244226062,0.00000000000000000000015187858108,0.00000000000000000378173200874969,0.00000000000000000628493013964934,0.00000000000000000079891776652308,-0,-0,-0,-0,-0,-0,-0,-0,0,0,0,0,0,0,0,0,0,0,0,0,-0,-0,0,0.0000000000000000000000029849852,0.00000000000000000000006349877588,0.00000000000000000000000911227053,-0,-0,-0,-0,-0,-0,-0,-0,-0,-0,0,0,0,0,0,0,0,0,0,0,0,0,0,-0,-0,-0,-0,-0,-0,-0,-0,-0,-0,-0,-0,-0,0,0,0,0,0,0,0,0,0,0,0,0,0,0,0,-0,-0,-0,-0,-0,-0,-0,-0,-0,-0,0,0,0,0,0,0,0,0,0,0,0,0,0,0,0,0,0,0,0,0,0,0,0,0,0,0,0,0,0,0,0,0,0,0,0,0,0,0],[0,0,0,0,0,0,0,0,0,0,0,0,0,0,0,0,0,0,0,0,0,0,0,0,0,0,0,0,0,0,0,0,0,0,0,0,0,0,0,0,0,0,0,0,0,0,0,0,0,0,0,0,0,0,0,0,0,0,0,0,0,0,0,0,0,0,0,-0,-0,-0,-0,-0,-0,-0,-0,0,0,0,0,0,0,0,0,0,0,0,0,0,0,0,0,-0,-0,-0,-0,-0,-0,-0,-0,-0,-0,-0,-0,-0,0,0,0,0,0,0,0,0,0,0,0,0,0,0,-0,0,0,0,0,0,0,0.00000000000000000082554938298847,0.00000000000000000604515193349624,0.00000000000000000053261250515383,0.00000000000000000000000460841824,0.00000000000000000000015471110721,0.00000000000000000000008229314107,-0,-0,-0,0,0,0,0,0,0,0,0,0,0,0,-0,-0,-0,-0,-0,-0,0,0,0.00000000000000000159783751546156,0.00000000000000000676417881545394,0.00000000000000000218371127208791,0.00000000000000000000010995232517,0.00000000000000000000020087827047,0.00000000000000000000012831232574,0.00000000000000000000000054272458,-0,-0,-0,0,0,0,0,0,0,0,0,0,-0,-0,-0,-0,-0,-0,-0,-0,-0,0.00000000000000000369665261596302,0.0000000000000000065615479311083,0.00000000000000000206806839433764,-0,0.00000000000000000000021987359258,0.00000000000000000000015056403476,0.00000000000000000000000271362291,-0,-0,-0,-0,-0,0,0,0,0,0,0,0,-0,-0,-0,-0,-0,-0,-0,-0,-0,0.0000000000000000036280845853519,0.00000000000000000673756985376809,0.00000000000000000196470566180091,-0,0.00000000000000000000023615533,0.00000000000000000000015002130979,0.00000000000000000000000271362291,-0,-0,-0,-0,-0,0,0,0,0,0,0,-0,-0,-0,-0,-0,-0,-0,-0,-0,-0,0.0000000000000000038082007191671,0.00000000000000000676417774761611,0.00000000000000000195861128248943,-0,0.00000000000000000000023584558829,0.00000000000000000000009697622501,-0,-0,-0,-0,-0,-0,-0,0,0,0,0,-0,-0,-0,-0,-0,-0,-0,-0,-0,-0,-0,0.00000000000000000383480982422061,0.00000000000000000676417866384147,0.00000000000000000195865146906468,-0,0.00000000000000000000020424006882,0.00000000000000000000002254905578,-0,-0,-0,-0,-0,-0,-0,0,0,0,0,-0,-0,-0,-0,-0,-0,-0,-0,-0,-0,-0,0.00000000000000000138479230048939,0.00000000000000000675088929871155,0.00000000000000000439645916365213,-0,0.00000000000000000000011558652386,0.00000000000000000000000698941811,-0,-0,-0,-0,-0,-0,-0,0,0,0,0,-0,-0,0,-0,-0,-0,-0,-0,-0,-0,-0,0.00000000000000000130490720791565,0.00000000000000000672741550978499,0.00000000000000000426646197282856,-0,0.0000000000000000000000488309466,-0,-0,-0,-0,-0,-0,0,0,0,0,0,0,-0,-0,0,0,-0,-0,-0,-0,-0,-0,-0,0.00000000000000000308918651309114,0.00000000000000000671728892896356,0.00000000000000000192400675753786,-0,0.00000000000000000000001691410588,-0,-0,-0,-0,0,0,0,0,0,0,0,0,0,-0,0,0,-0,-0,-0,-0,-0,-0,-0,0.00000000000000000628489502040469,0.00000000000000000659040056288909,0.0000000000000000019239941840916,-0,-0,-0,-0,-0,-0,0,0,0,0,0,0,0,0,0,0,0,0,-0,-0,-0,-0,-0,-0,-0,0.00000000000000000626968404661849,0.00000000000000000654131628243091,0.00000000000000000180820722951288,-0,-0,-0,-0,-0,-0,-0,0,0,0,0,0,0,0,0,0,-0,-0,-0,-0,-0,-0,-0,-0,-0,0.00000000000000000621044729120228,0.00000000000000000635986183806941,-0,-0,-0,-0,-0,-0,-0,-0,-0,-0,0,0,0,0,0,0,0,-0,0,-0,-0,-0,-0,-0,-0,0.00000000000000000037289774877045,0.0000000000000000064714780929209,0.00000000000000000639157237765767,-0,-0,-0,-0,-0,-0,0,0,0,-0,0,0,0,0,0,0,0,-0,-0,-0,-0,-0,-0,-0,0.00000000000000000000000895491401,0.00000000000000000221049784368351,0.00000000000000000676441497074237,0.0000000000000000043410134167004,-0,-0,-0,-0,-0,-0,0,0,0,0,0,0,0,0,0,0,0,-0,-0,-0,-0,-0,-0,0.00000000000000000000000135676977,0.00000000000000000000004985037755,0.00000000000000000221054776703573,0.00000000000000000676441497074237,0.00000000000000000380835786642706,-0,-0,-0,-0,-0,-0,0,0,0,0,0,0,0,0,0,0,0,0,-0,-0,-0,-0,-0,0.00000000000000000000000298496212,0.00000000000000000000008802072531,0.0000000000000000022105780515825,0.00000000000000000676439516132901,0.00000000000000000380823096874837,-0,-0,-0,-0,-0,-0,-0,0,0,0,0,0,0,0,0,0,0,0,-0,-0,-0,-0,-0,0.00000000000000000000000298498515,0.00000000000000000000015188145067,0.00000000000000000221057805175675,0.00000000000000000676437372375398,0.00000000000000000380822960719021,-0,-0,-0,-0,-0,-0,-0,-0,0,0,0,0,0,0,0,0,0,0,-0,-0,-0,-0,0,0.0000000000000000000000029849856,0.00000000000000000000015188175789,0.00000000000000000383503669475754,0.00000000000000000676434945291409,0.00000000000000000316909410628338,-0,-0,-0,-0,-0,-0,-0,-0,0,0,0,0,0,0,0,0,0,0,-0,0,-0,-0,0,0.00000000000000000000003229211385,0.00000000000000000000015188076338,0.00000000000000000474043507827712,0.00000000000000000676433521028375,0.00000000000000000127829925811633,-0,-0,-0,-0,-0,-0,-0,-0,0,0,0,0,0,0,0,0,0,0,0,0,-0,-0,0,0.00000000000000000000002442260629,0.00000000000000000000015187858156,0.00000000000000000378173202577822,0.00000000000000000628493016794969,0.00000000000000000079891777012054,-0,-0,-0,-0,-0,-0,-0,-0,0,0,0,0,0,0,0,0,0,0,0,0,-0,-0,0,0.00000000000000000000000298498521,0.00000000000000000000006349877611,0.00000000000000000000000911227056,-0,-0,-0,-0,-0,-0,-0,-0,-0,-0,0,0,0,0,0,0,0,0,0,0,0,0,0,-0,-0,-0,-0,-0,-0,-0,-0,-0,-0,-0,-0,-0,0,0,0,0,0,0,0,0,0,0,0,0,0,0,0,-0,-0,-0,-0,-0,-0,-0,-0,-0,-0,0,0,0,0,0,0,0,0,0,0,0,0,0,0,0,0,0,0,0,0,0,0,0,0,0,0,0,0,0,0,0,0,0,0,0,0,0,0],[0,0,0,0,0,0,0,0,0,0,0,0,0,0,0,0,0,0,0,0,0,0,0,0,0,0,0,0,0,0,0,0,0,0,0,0,0,0,0,0,0,0,0,0,0,0,0,0,0,0,0,0,0,0,0,0,0,0,0,0,0,0,0,0,0,0,0,-0,-0,-0,-0,-0,-0,-0,-0,0,0,0,0,0,0,0,0,0,0,0,0,0,0,0,0,-0,-0,-0,-0,-0,-0,-0,-0,-0,-0,-0,-0,-0,0,0,0,0,0,0,0,0,0,0,0,0,0,0,-0,0,0,0,0,0,0,0.00000000000000000082554937772401,0.00000000000000000604515189494676,0.0000000000000000005326125017574,0.00000000000000000000000460841822,0.00000000000000000000015471110631,0.00000000000000000000008229314059,-0,-0,-0,0,0,0,0,0,0,0,0,0,0,0,-0,-0,-0,-0,-0,-0,0,0,0.00000000000000000159783750527227,0.00000000000000000676417877231928,0.00000000000000000218371125816255,0.00000000000000000000010995232453,0.00000000000000000000020087826925,0.00000000000000000000012831232493,0.00000000000000000000000054272458,-0,-0,-0,0,0,0,0,0,0,0,0,0,-0,-0,-0,-0,-0,-0,-0,-0,-0,0.00000000000000000369665259124275,0.00000000000000000656154788758354,0.00000000000000000206806838018965,-0,0.00000000000000000000021987359123,0.00000000000000000000015056403379,0.00000000000000000000000271362289,-0,-0,-0,-0,-0,0,0,0,0,0,0,0,-0,-0,-0,-0,-0,-0,-0,-0,-0,0.00000000000000000362808456049963,0.0000000000000000067375698105822,0.00000000000000000196470564745393,-0,0.00000000000000000000023615532852,0.00000000000000000000015002130882,0.00000000000000000000000271362289,-0,-0,-0,-0,-0,0,0,0,0,0,0,-0,-0,-0,-0,-0,-0,-0,-0,-0,-0,0.00000000000000000380820069466158,0.00000000000000000676417770448145,0.00000000000000000195861126813035,-0,0.00000000000000000000023584558681,0.00000000000000000000009697622438,-0,-0,-0,-0,-0,-0,-0,0,0,0,0,-0,-0,-0,-0,-0,-0,-0,-0,-0,-0,-0,0.00000000000000000383480979976631,0.00000000000000000676417862070681,0.00000000000000000195865145470533,-0,0.00000000000000000000020424006753,0.00000000000000000000002254905562,-0,-0,-0,-0,-0,-0,-0,0,0,0,0,-0,-0,-0,-0,-0,-0,-0,-0,-0,-0,-0,0.00000000000000000138479229165867,0.00000000000000000675088925555117,0.0000000000000000043964591336451,-0,0.0000000000000000000001155865231,0.00000000000000000000000698941806,-0,-0,-0,-0,-0,-0,-0,0,0,0,0,-0,-0,0,-0,-0,-0,-0,-0,-0,-0,-0,0.00000000000000000130490719959435,0.00000000000000000672741546657888,0.00000000000000000426646194345514,-0,0.00000000000000000000004883094626,-0,-0,-0,-0,-0,-0,0,0,0,0,0,0,-0,-0,0,0,-0,-0,-0,-0,-0,-0,-0,0.0000000000000000030891864933916,0.00000000000000000671728888573709,0.0000000000000000019240067431106,-0,0.00000000000000000000001691410577,-0,-0,-0,-0,0,0,0,0,0,0,0,0,0,-0,0,0,-0,-0,-0,-0,-0,-0,-0,0.00000000000000000628489498032634,0.00000000000000000659040051941826,0.00000000000000000192399416966443,-0,-0,-0,-0,-0,-0,0,0,0,0,0,0,0,0,0,0,0,0,-0,-0,-0,-0,-0,-0,-0,0.00000000000000000626968400540519,0.00000000000000000654131623886528,0.00000000000000000180820721596853,-0,-0,-0,-0,-0,-0,-0,0,0,0,0,0,0,0,0,0,-0,-0,-0,-0,-0,-0,-0,-0,-0,0.00000000000000000621044724987401,0.0000000000000000063598617972497,-0,-0,-0,-0,-0,-0,-0,-0,-0,-0,0,0,0,0,0,0,0,-0,0,-0,-0,-0,-0,-0,-0,0.00000000000000000037289774639247,0.0000000000000000064714780516528,0.00000000000000000639157233689913,-0,-0,-0,-0,-0,-0,0,0,0,-0,0,0,0,0,0,0,0,-0,-0,-0,-0,-0,-0,-0,0.00000000000000000000000895491395,0.00000000000000000221049782958733,0.00000000000000000676441492760624,0.00000000000000000434101338901812,-0,-0,-0,-0,-0,-0,0,0,0,0,0,0,0,0,0,0,0,-0,-0,-0,-0,-0,-0,0.00000000000000000000000135676976,0.00000000000000000000004985037719,0.00000000000000000221054775293925,0.00000000000000000676441492760624,0.00000000000000000380835784214148,-0,-0,-0,-0,-0,-0,0,0,0,0,0,0,0,0,0,0,0,0,-0,-0,-0,-0,-0,0.0000000000000000000000029849621,0.0000000000000000000000880207247,0.00000000000000000221057803748584,0.00000000000000000676439511819302,0.00000000000000000380823094446359,-0,-0,-0,-0,-0,-0,-0,0,0,0,0,0,0,0,0,0,0,0,-0,-0,-0,-0,-0,0.00000000000000000000000298498513,0.00000000000000000000015188144969,0.0000000000000000022105780376601,0.00000000000000000676437368061815,0.00000000000000000380822958290544,-0,-0,-0,-0,-0,-0,-0,-0,0,0,0,0,0,0,0,0,0,0,-0,-0,-0,-0,0,0.00000000000000000000000298498558,0.00000000000000000000015188175691,0.00000000000000000383503667030184,0.00000000000000000676434940977843,0.00000000000000000316909408607432,-0,-0,-0,-0,-0,-0,-0,-0,0,0,0,0,0,0,0,0,0,0,-0,0,-0,-0,0,0.00000000000000000000003229211362,0.0000000000000000000001518807624,0.0000000000000000047404350480478,0.00000000000000000676433516714817,0.00000000000000000127829924996472,-0,-0,-0,-0,-0,-0,-0,-0,0,0,0,0,0,0,0,0,0,0,0,0,-0,-0,0,0.00000000000000000000002442260612,0.00000000000000000000015187858058,0.00000000000000000378173200166247,0.00000000000000000628493012787121,0.0000000000000000007989177650259,-0,-0,-0,-0,-0,-0,-0,-0,0,0,0,0,0,0,0,0,0,0,0,0,-0,-0,0,0.00000000000000000000000298498519,0.00000000000000000000006349877565,0.0000000000000000000000091122705,-0,-0,-0,-0,-0,-0,-0,-0,-0,-0,0,0,0,0,0,0,0,0,0,0,0,0,0,-0,-0,-0,-0,-0,-0,-0,-0,-0,-0,-0,-0,-0,0,0,0,0,0,0,0,0,0,0,0,0,0,0,0,-0,-0,-0,-0,-0,-0,-0,-0,-0,-0,0,0,0,0,0,0,0,0,0,0,0,0,0,0,0,0,0,0,0,0,0,0,0,0,0,0,0,0,0,0,0,0,0,0,0,0,0,0],[0,0,0,0,0,0,0,0,0,0,0,0,0,0,0,0,0,0,0,0,0,0,0,0,0,0,0,0,0,0,0,0,0,0,0,0,0,0,0,0,0,0,0,0,0,0,0,0,0,0,0,0,0,0,0,0,0,0,0,0,0,0,0,0,0,0,0,-0,-0,-0,-0,-0,-0,-0,-0,0,0,0,0,0,0,0,0,0,0,0,0,0,0,0,0,-0,-0,-0,-0,-0,-0,-0,-0,-0,-0,-0,-0,-0,0,0,0,0,0,0,0,0,0,0,0,0,0,0,-0,0,0,0,0,0,0,0.00000000000000000082554937774317,0.00000000000000000604515189508706,0.00000000000000000053261250176976,0.00000000000000000000000460841821,0.00000000000000000000015471110622,0.00000000000000000000008229314054,-0,-0,-0,0,0,0,0,0,0,0,0,0,0,0,-0,-0,-0,-0,-0,-0,0,0,0.00000000000000000159783750530936,0.00000000000000000676417877247626,0.00000000000000000218371125821323,0.00000000000000000000010995232447,0.00000000000000000000020087826916,0.00000000000000000000012831232489,0.00000000000000000000000054272458,-0,-0,-0,0,0,0,0,0,0,0,0,0,-0,-0,-0,-0,-0,-0,-0,-0,-0,0.00000000000000000369665259171974,0.00000000000000000656154788830958,0.00000000000000000206806838056509,-0,0.00000000000000000000021987359113,0.00000000000000000000015056403374,0.00000000000000000000000271362289,-0,-0,-0,-0,-0,0,0,0,0,0,0,0,-0,-0,-0,-0,-0,-0,-0,-0,-0,0.00000000000000000362808456116917,0.00000000000000000673756981081391,0.00000000000000000196470564811965,-0,0.00000000000000000000023615532843,0.00000000000000000000015002130878,0.00000000000000000000000271362289,-0,-0,-0,-0,-0,0,0,0,0,0,0,-0,-0,-0,-0,-0,-0,-0,-0,-0,-0,0.00000000000000000380820069482531,0.00000000000000000676417770463844,0.00000000000000000195861126881329,-0,0.00000000000000000000023584558672,0.00000000000000000000009697622435,-0,-0,-0,-0,-0,-0,-0,0,0,0,0,-0,-0,-0,-0,-0,-0,-0,-0,-0,-0,-0,0.00000000000000000383480979985531,0.00000000000000000676417862086379,0.00000000000000000195865145538827,-0,0.00000000000000000000020424006745,0.00000000000000000000002254905562,-0,-0,-0,-0,-0,-0,-0,0,0,0,0,-0,-0,-0,-0,-0,-0,-0,-0,-0,-0,-0,0.00000000000000000138479229169081,0.00000000000000000675088925574552,0.00000000000000000439645913441936,-0,0.00000000000000000000011558652307,0.00000000000000000000000698941806,-0,-0,-0,-0,-0,-0,-0,0,0,0,0,-0,-0,0,-0,-0,-0,-0,-0,-0,-0,-0,0.00000000000000000130490719962463,0.00000000000000000672741546683931,0.00000000000000000426646194429299,-0,0.00000000000000000000004883094625,-0,-0,-0,-0,-0,-0,0,0,0,0,0,0,-0,-0,0,0,-0,-0,-0,-0,-0,-0,-0,0.00000000000000000308918649346329,0.00000000000000000671728888602621,0.00000000000000000192400674389118,-0,0.00000000000000000000001691410576,-0,-0,-0,-0,0,0,0,0,0,0,0,0,0,-0,0,0,-0,-0,-0,-0,-0,-0,-0,0.00000000000000000628489498047219,0.00000000000000000659040052006375,0.00000000000000000192399417044501,-0,-0,-0,-0,-0,-0,0,0,0,0,0,0,0,0,0,0,0,0,-0,-0,-0,-0,-0,-0,-0,0.00000000000000000626968400597085,0.00000000000000000654131623964871,0.00000000000000000180820721669717,-0,-0,-0,-0,-0,-0,-0,0,0,0,0,0,0,0,0,0,-0,-0,-0,-0,-0,-0,-0,-0,-0,0.0000000000000000062104472506063,0.00000000000000000635986179748703,-0,-0,-0,-0,-0,-0,-0,-0,-0,-0,0,0,0,0,0,0,0,-0,0,-0,-0,-0,-0,-0,-0,0.00000000000000000037289774640112,0.00000000000000000647147805180289,0.00000000000000000639157233704737,-0,-0,-0,-0,-0,-0,0,0,0,-0,0,0,0,0,0,0,0,-0,-0,-0,-0,-0,-0,-0,0.00000000000000000000000895491395,0.00000000000000000221049782963858,0.00000000000000000676441492776313,0.00000000000000000434101338911877,-0,-0,-0,-0,-0,-0,0,0,0,0,0,0,0,0,0,0,0,-0,-0,-0,-0,-0,-0,0.00000000000000000000000135676976,0.00000000000000000000004985037719,0.00000000000000000221054775299047,0.00000000000000000676441492776313,0.00000000000000000380835784222979,-0,-0,-0,-0,-0,-0,0,0,0,0,0,0,0,0,0,0,0,0,-0,-0,-0,-0,-0,0.0000000000000000000000029849621,0.00000000000000000000008802072469,0.00000000000000000221057803753705,0.00000000000000000676439511834991,0.00000000000000000380823094455194,-0,-0,-0,-0,-0,-0,-0,0,0,0,0,0,0,0,0,0,0,0,-0,-0,-0,-0,-0,0.00000000000000000000000298498513,0.00000000000000000000015188144965,0.0000000000000000022105780377113,0.00000000000000000676437368077504,0.00000000000000000380822958299379,-0,-0,-0,-0,-0,-0,-0,-0,0,0,0,0,0,0,0,0,0,0,-0,-0,-0,-0,0,0.00000000000000000000000298498558,0.00000000000000000000015188175686,0.00000000000000000383503667039075,0.00000000000000000676434940993532,0.00000000000000000316909408614784,-0,-0,-0,-0,-0,-0,-0,-0,0,0,0,0,0,0,0,0,0,0,-0,0,-0,-0,0,0.00000000000000000000003229211362,0.00000000000000000000015188076235,0.00000000000000000474043504815772,0.00000000000000000676433516730507,0.00000000000000000127829924999437,-0,-0,-0,-0,-0,-0,-0,-0,0,0,0,0,0,0,0,0,0,0,0,0,-0,-0,0,0.00000000000000000000002442260612,0.00000000000000000000015187858053,0.00000000000000000378173200175014,0.00000000000000000628493012801702,0.00000000000000000079891776504444,-0,-0,-0,-0,-0,-0,-0,-0,0,0,0,0,0,0,0,0,0,0,0,0,-0,-0,0,0.00000000000000000000000298498519,0.00000000000000000000006349877565,0.0000000000000000000000091122705,-0,-0,-0,-0,-0,-0,-0,-0,-0,-0,0,0,0,0,0,0,0,0,0,0,0,0,0,-0,-0,-0,-0,-0,-0,-0,-0,-0,-0,-0,-0,-0,0,0,0,0,0,0,0,0,0,0,0,0,0,0,0,-0,-0,-0,-0,-0,-0,-0,-0,-0,-0,0,0,0,0,0,0,0,0,0,0,0,0,0,0,0,0,0,0,0,0,0,0,0,0,0,0,0,0,0,0,0,0,0,0,0,0,0,0],[0,0,0,0,0,0,0,0,0,0,0,0,0,0,0,0,0,0,0,0,0,0,0,0,0,0,0,0,0,0,0,0,0,0,0,0,0,0,0,0,0,0,0,0,0,0,0,0,0,0,0,0,0,0,0,0,0,0,0,0,0,0,0,0,0,0,0,-0,-0,-0,-0,-0,-0,-0,-0,0,0,0,0,0,0,0,0,0,0,0,0,0,0,0,0,-0,-0,-0,-0,-0,-0,-0,-0,-0,-0,-0,-0,-0,0,0,0,0,0,0,0,0,0,0,0,0,0,0,-0,0,0,0,0,0,0,0.00000000000000000082554937817959,0.00000000000000000604515189828277,0.00000000000000000053261250205132,0.00000000000000000000000460841823,0.00000000000000000000015471110675,0.00000000000000000000008229314083,-0,-0,-0,0,0,0,0,0,0,0,0,0,0,0,-0,-0,-0,-0,-0,-0,0,0,0.00000000000000000159783750615404,0.00000000000000000676417877605208,0.00000000000000000218371125936762,0.00000000000000000000010995232485,0.00000000000000000000020087826985,0.00000000000000000000012831232533,0.00000000000000000000000054272458,-0,-0,-0,0,0,0,0,0,0,0,0,0,-0,-0,-0,-0,-0,-0,-0,-0,-0,0.00000000000000000369665259336328,0.00000000000000000656154789132265,0.00000000000000000206806838139832,-0,0.00000000000000000000021987359189,0.00000000000000000000015056403426,0.0000000000000000000000027136229,-0,-0,-0,-0,-0,0,0,0,0,0,0,0,-0,-0,-0,-0,-0,-0,-0,-0,-0,0.00000000000000000362808456262229,0.00000000000000000673756981431584,0.00000000000000000196470564866582,-0,0.00000000000000000000023615532925,0.0000000000000000000001500213093,0.0000000000000000000000027136229,-0,-0,-0,-0,-0,0,0,0,0,0,0,-0,-0,-0,-0,-0,-0,-0,-0,-0,-0,0.00000000000000000380820069677865,0.00000000000000000676417770821426,0.00000000000000000195861126934257,-0,0.00000000000000000000023584558754,0.00000000000000000000009697622469,-0,-0,-0,-0,-0,-0,-0,0,0,0,0,-0,-0,-0,-0,-0,-0,-0,-0,-0,-0,-0,0.00000000000000000383480980188255,0.00000000000000000676417862443961,0.00000000000000000195865145591768,-0,0.00000000000000000000020424006817,0.0000000000000000000000225490557,-0,-0,-0,-0,-0,-0,-0,0,0,0,0,-0,-0,-0,-0,-0,-0,-0,-0,-0,-0,-0,0.00000000000000000138479229242287,0.00000000000000000675088925928444,0.00000000000000000439645913621009,-0,0.00000000000000000000011558652348,0.00000000000000000000000698941808,-0,-0,-0,-0,-0,-0,-0,0,0,0,0,-0,-0,0,-0,-0,-0,-0,-0,-0,-0,-0,0.00000000000000000130490720031448,0.00000000000000000672741547031309,0.00000000000000000426646194596226,-0,0.00000000000000000000004883094643,-0,-0,-0,-0,-0,-0,0,0,0,0,0,0,-0,-0,0,0,-0,-0,-0,-0,-0,-0,-0,0.00000000000000000308918649509646,0.00000000000000000671728888947193,0.00000000000000000192400674432448,-0,0.00000000000000000000001691410583,-0,-0,-0,-0,0,0,0,0,0,0,0,0,0,-0,0,0,-0,-0,-0,-0,-0,-0,-0,0.00000000000000000628489498379484,0.00000000000000000659040052315708,0.00000000000000000192399417087827,-0,-0,-0,-0,-0,-0,0,0,0,0,0,0,0,0,0,0,0,0,-0,-0,-0,-0,-0,-0,-0,0.00000000000000000626968400895187,0.00000000000000000654131624260575,0.00000000000000000180820721710824,-0,-0,-0,-0,-0,-0,-0,0,0,0,0,0,0,0,0,0,-0,-0,-0,-0,-0,-0,-0,-0,-0,0.00000000000000000621044725342288,0.00000000000000000635986180077847,-0,-0,-0,-0,-0,-0,-0,-0,-0,-0,0,0,0,0,0,0,0,-0,0,-0,-0,-0,-0,-0,-0,0.00000000000000000037289774659845,0.00000000000000000647147805522467,0.00000000000000000639157234042687,-0,-0,-0,-0,-0,-0,0,0,0,-0,0,0,0,0,0,0,0,-0,-0,-0,-0,-0,-0,-0,0.00000000000000000000000895491398,0.00000000000000000221049783080759,0.00000000000000000676441493133976,0.00000000000000000434101339141426,-0,-0,-0,-0,-0,-0,0,0,0,0,0,0,0,0,0,0,0,-0,-0,-0,-0,-0,-0,0.00000000000000000000000135676977,0.00000000000000000000004985037736,0.00000000000000000221054775415966,0.00000000000000000676441493133976,0.00000000000000000380835784424356,-0,-0,-0,-0,-0,-0,0,0,0,0,0,0,0,0,0,0,0,0,-0,-0,-0,-0,-0,0.00000000000000000000000298496211,0.000000000000000000000088020725,0.00000000000000000221057803870634,0.00000000000000000676439512192648,0.00000000000000000380823094656528,-0,-0,-0,-0,-0,-0,-0,0,0,0,0,0,0,0,0,0,0,0,-0,-0,-0,-0,-0,0.00000000000000000000000298498514,0.00000000000000000000015188145017,0.00000000000000000221057803888059,0.00000000000000000676437368435153,0.00000000000000000380822958500713,-0,-0,-0,-0,-0,-0,-0,-0,0,0,0,0,0,0,0,0,0,0,-0,-0,-0,-0,0,0.00000000000000000000000298498559,0.00000000000000000000015188175739,0.00000000000000000383503667241876,0.00000000000000000676434941351173,0.00000000000000000316909408782331,-0,-0,-0,-0,-0,-0,-0,-0,0,0,0,0,0,0,0,0,0,0,-0,0,-0,-0,0,0.00000000000000000000003229211373,0.00000000000000000000015188076288,0.00000000000000000474043505066424,0.00000000000000000676433517088143,0.00000000000000000127829925067022,-0,-0,-0,-0,-0,-0,-0,-0,0,0,0,0,0,0,0,0,0,0,0,0,-0,-0,0,0.0000000000000000000000244226062,0.00000000000000000000015187858106,0.00000000000000000378173200374985,0.00000000000000000628493013133979,0.00000000000000000079891776546678,-0,-0,-0,-0,-0,-0,-0,-0,0,0,0,0,0,0,0,0,0,0,0,0,-0,-0,0,0.0000000000000000000000029849852,0.00000000000000000000006349877587,0.00000000000000000000000911227053,-0,-0,-0,-0,-0,-0,-0,-0,-0,-0,0,0,0,0,0,0,0,0,0,0,0,0,0,-0,-0,-0,-0,-0,-0,-0,-0,-0,-0,-0,-0,-0,0,0,0,0,0,0,0,0,0,0,0,0,0,0,0,-0,-0,-0,-0,-0,-0,-0,-0,-0,-0,0,0,0,0,0,0,0,0,0,0,0,0,0,0,0,0,0,0,0,0,0,0,0,0,0,0,0,0,0,0,0,0,0,0,0,0,0,0],[0,0,0,0,0,0,0,0,0,0,0,0,0,0,0,0,0,0,0,0,0,0,0,0,0,0,0,0,0,0,0,0,0,0,0,0,0,0,0,0,0,0,0,0,0,0,0,0,0,0,0,0,0,0,0,0,0,0,0,0,0,0,0,0,0,0,0,-0,-0,-0,-0,-0,-0,-0,-0,0,0,0,0,0,0,0,0,0,0,0,0,0,0,0,0,-0,-0,-0,-0,-0,-0,-0,-0,-0,-0,-0,-0,-0,0,0,0,0,0,0,0,0,0,0,0,0,0,0,-0,0,0,0,0,0,0,0.00000000000000000082554937870024,0.00000000000000000604515190209527,0.00000000000000000053261250238722,0.00000000000000000000000460841822,0.00000000000000000000015471110643,0.00000000000000000000008229314065,-0,-0,-0,0,0,0,0,0,0,0,0,0,0,0,-0,-0,-0,-0,-0,-0,0,0,0.00000000000000000159783750716175,0.00000000000000000676417878031805,0.00000000000000000218371126074483,0.00000000000000000000010995232461,0.00000000000000000000020087826948,0.00000000000000000000012831232513,0.00000000000000000000000054272458,-0,-0,-0,0,0,0,0,0,0,0,0,0,-0,-0,-0,-0,-0,-0,-0,-0,-0,0.0000000000000000036966525957653,0.00000000000000000656154789556444,0.00000000000000000206806838276173,-0,0.00000000000000000000021987359151,0.00000000000000000000015056403405,0.0000000000000000000000027136229,-0,-0,-0,-0,-0,0,0,0,0,0,0,0,-0,-0,-0,-0,-0,-0,-0,-0,-0,0.00000000000000000362808456501613,0.00000000000000000673756981857863,0.00000000000000000196470565001689,-0,0.00000000000000000000023615532886,0.00000000000000000000015002130909,0.0000000000000000000000027136229,-0,-0,-0,-0,-0,0,0,0,0,0,0,-0,-0,-0,-0,-0,-0,-0,-0,-0,-0,0.00000000000000000380820069919397,0.00000000000000000676417771248022,0.00000000000000000195861127069282,-0,0.00000000000000000000023584558715,0.00000000000000000000009697622455,-0,-0,-0,-0,-0,-0,-0,0,0,0,0,-0,-0,-0,-0,-0,-0,-0,-0,-0,-0,-0,0.00000000000000000383480980430105,0.00000000000000000676417862870558,0.0000000000000000019586514572679,-0,0.00000000000000000000020424006784,0.00000000000000000000002254905569,-0,-0,-0,-0,-0,-0,-0,0,0,0,0,-0,-0,-0,-0,-0,-0,-0,-0,-0,-0,-0,0.00000000000000000138479229329621,0.00000000000000000675088926354881,0.0000000000000000043964591391039,-0,0.00000000000000000000011558652332,0.00000000000000000000000698941808,-0,-0,-0,-0,-0,-0,-0,0,0,0,0,-0,-0,0,-0,-0,-0,-0,-0,-0,-0,-0,0.00000000000000000130490720113744,0.00000000000000000672741547457457,0.00000000000000000426646194878594,-0,0.00000000000000000000004883094637,-0,-0,-0,-0,-0,-0,0,0,0,0,0,0,-0,-0,0,0,-0,-0,-0,-0,-0,-0,-0,0.00000000000000000308918649704468,0.000000000000000006717288893732,0.00000000000000000192400674567028,-0,0.0000000000000000000000169141058,-0,-0,-0,-0,0,0,0,0,0,0,0,0,0,-0,0,0,-0,-0,-0,-0,-0,-0,-0,0.00000000000000000628489498775845,0.00000000000000000659040052740198,0.00000000000000000192399417222407,-0,-0,-0,-0,-0,-0,0,0,0,0,0,0,0,0,0,0,0,0,-0,-0,-0,-0,-0,-0,-0,0.0000000000000000062696840129817,0.0000000000000000065413162468447,0.00000000000000000180820721837216,-0,-0,-0,-0,-0,-0,-0,0,0,0,0,0,0,0,0,0,-0,-0,-0,-0,-0,-0,-0,-0,-0,0.00000000000000000621044725744538,0.00000000000000000635986180480513,-0,-0,-0,-0,-0,-0,-0,-0,-0,-0,0,0,0,0,0,0,0,-0,0,-0,-0,-0,-0,-0,-0,0.00000000000000000037289774683352,0.0000000000000000064714780593055,0.00000000000000000639157234445732,-0,-0,-0,-0,-0,-0,0,0,0,-0,0,0,0,0,0,0,0,-0,-0,-0,-0,-0,-0,-0,0.00000000000000000000000895491397,0.00000000000000000221049783220136,0.00000000000000000676441493560534,0.00000000000000000434101339415148,-0,-0,-0,-0,-0,-0,0,0,0,0,0,0,0,0,0,0,0,-0,-0,-0,-0,-0,-0,0.00000000000000000000000135676977,0.00000000000000000000004985037733,0.00000000000000000221054775555333,0.00000000000000000676441493560534,0.00000000000000000380835784664496,-0,-0,-0,-0,-0,-0,0,0,0,0,0,0,0,0,0,0,0,0,-0,-0,-0,-0,-0,0.00000000000000000000000298496211,0.00000000000000000000008802072492,0.00000000000000000221057804009995,0.00000000000000000676439512619206,0.00000000000000000380823094896688,-0,-0,-0,-0,-0,-0,-0,0,0,0,0,0,0,0,0,0,0,0,-0,-0,-0,-0,-0,0.00000000000000000000000298498514,0.00000000000000000000015188144996,0.0000000000000000022105780402742,0.00000000000000000676437368861713,0.00000000000000000380822958740873,-0,-0,-0,-0,-0,-0,-0,-0,0,0,0,0,0,0,0,0,0,0,-0,-0,-0,-0,0,0.00000000000000000000000298498558,0.00000000000000000000015188175718,0.00000000000000000383503667483688,0.00000000000000000676434941777734,0.00000000000000000316909408982182,-0,-0,-0,-0,-0,-0,-0,-0,0,0,0,0,0,0,0,0,0,0,-0,0,-0,-0,0,0.00000000000000000000003229211371,0.00000000000000000000015188076266,0.00000000000000000474043505365341,0.00000000000000000676433517514706,0.00000000000000000127829925147632,-0,-0,-0,-0,-0,-0,-0,-0,0,0,0,0,0,0,0,0,0,0,0,0,-0,-0,0,0.00000000000000000000002442260619,0.00000000000000000000015187858084,0.0000000000000000037817320061344,0.00000000000000000628493013530322,0.00000000000000000079891776597064,-0,-0,-0,-0,-0,-0,-0,-0,0,0,0,0,0,0,0,0,0,0,0,0,-0,-0,0,0.00000000000000000000000298498519,0.00000000000000000000006349877584,0.00000000000000000000000911227052,-0,-0,-0,-0,-0,-0,-0,-0,-0,-0,0,0,0,0,0,0,0,0,0,0,0,0,0,-0,-0,-0,-0,-0,-0,-0,-0,-0,-0,-0,-0,-0,0,0,0,0,0,0,0,0,0,0,0,0,0,0,0,-0,-0,-0,-0,-0,-0,-0,-0,-0,-0,0,0,0,0,0,0,0,0,0,0,0,0,0,0,0,0,0,0,0,0,0,0,0,0,0,0,0,0,0,0,0,0,0,0,0,0,0,0],[0,0,0,0,0,0,0,0,0,0,0,0,0,0,0,0,0,0,0,0,0,0,0,0,0,0,0,0,0,0,0,0,0,0,0,0,0,0,0,0,0,0,0,0,0,0,0,0,0,0,0,0,0,0,0,0,0,0,0,0,0,0,0,0,0,0,0,-0,-0,-0,-0,-0,-0,-0,-0,0,0,0,0,0,0,0,0,0,0,0,0,0,0,0,0,-0,-0,-0,-0,-0,-0,-0,-0,-0,-0,-0,-0,-0,0,0,0,0,0,0,0,0,0,0,0,0,0,0,-0,0,0,0,0,0,0,0.00000000000000000082554937963003,0.00000000000000000604515190890376,0.00000000000000000053261250298709,0.00000000000000000000000460841822,0.00000000000000000000015471110642,0.00000000000000000000008229314065,-0,-0,-0,0,0,0,0,0,0,0,0,0,0,0,-0,-0,-0,-0,-0,-0,0,0,0.00000000000000000159783750896135,0.00000000000000000676417878793636,0.00000000000000000218371126320428,0.00000000000000000000010995232461,0.00000000000000000000020087826949,0.00000000000000000000012831232514,0.00000000000000000000000054272458,-0,-0,-0,0,0,0,0,0,0,0,0,0,-0,-0,-0,-0,-0,-0,-0,-0,-0,0.00000000000000000369665260038246,0.00000000000000000656154790362,0.00000000000000000206806838547072,-0,0.00000000000000000000021987359152,0.00000000000000000000015056403407,0.0000000000000000000000027136229,-0,-0,-0,-0,-0,0,0,0,0,0,0,0,-0,-0,-0,-0,-0,-0,-0,-0,-0,0.00000000000000000362808456978125,0.00000000000000000673756982625436,0.00000000000000000196470565294892,-0,0.00000000000000000000023615532887,0.0000000000000000000001500213091,0.0000000000000000000000027136229,-0,-0,-0,-0,-0,0,0,0,0,0,0,-0,-0,-0,-0,-0,-0,-0,-0,-0,-0,0.00000000000000000380820070357043,0.00000000000000000676417772009854,0.0000000000000000019586112736381,-0,0.00000000000000000000023584558716,0.00000000000000000000009697622456,-0,-0,-0,-0,-0,-0,-0,0,0,0,0,-0,-0,-0,-0,-0,-0,-0,-0,-0,-0,-0,0.00000000000000000383480980862009,0.00000000000000000676417863632389,0.00000000000000000195865146021319,-0,0.00000000000000000000020424006785,0.00000000000000000000002254905569,-0,-0,-0,-0,-0,-0,-0,0,0,0,0,-0,-0,-0,-0,-0,-0,-0,-0,-0,-0,-0,0.00000000000000000138479229485587,0.00000000000000000675088927119584,0.00000000000000000439645914483509,-0,0.00000000000000000000011558652334,0.00000000000000000000000698941808,-0,-0,-0,-0,-0,-0,-0,0,0,0,0,-0,-0,0,-0,-0,-0,-0,-0,-0,-0,-0,0.00000000000000000130490720260712,0.0000000000000000067274154822724,0.00000000000000000426646195444795,-0,0.00000000000000000000004883094638,-0,-0,-0,-0,-0,-0,0,0,0,0,0,0,-0,-0,0,0,-0,-0,-0,-0,-0,-0,-0,0.00000000000000000308918650052392,0.00000000000000000671728890145191,0.00000000000000000192400674869066,-0,0.0000000000000000000000169141058,-0,-0,-0,-0,0,0,0,0,0,0,0,0,0,-0,0,0,-0,-0,-0,-0,-0,-0,-0,0.0000000000000000062848949948369,0.00000000000000000659040053539572,0.00000000000000000192399417524445,-0,-0,-0,-0,-0,-0,0,0,0,0,0,0,0,0,0,0,0,0,-0,-0,-0,-0,-0,-0,-0,0.00000000000000000626968402053032,0.00000000000000000654131625494444,0.00000000000000000180820722120502,-0,-0,-0,-0,-0,-0,-0,0,0,0,0,0,0,0,0,0,-0,-0,-0,-0,-0,-0,-0,-0,-0,0.00000000000000000621044726512208,0.00000000000000000635986181207201,-0,-0,-0,-0,-0,-0,-0,-0,-0,-0,0,0,0,0,0,0,0,-0,0,-0,-0,-0,-0,-0,-0,0.00000000000000000037289774725344,0.0000000000000000064714780665939,0.00000000000000000639157235165574,-0,-0,-0,-0,-0,-0,0,0,0,-0,0,0,0,0,0,0,0,-0,-0,-0,-0,-0,-0,-0,0.00000000000000000000000895491397,0.00000000000000000221049783469082,0.00000000000000000676441494322367,0.00000000000000000434101339904041,-0,-0,-0,-0,-0,-0,0,0,0,0,0,0,0,0,0,0,0,-0,-0,-0,-0,-0,-0,0.00000000000000000000000135676977,0.00000000000000000000004985037735,0.00000000000000000221054775804279,0.00000000000000000676441494322367,0.00000000000000000380835785093402,-0,-0,-0,-0,-0,-0,0,0,0,0,0,0,0,0,0,0,0,0,-0,-0,-0,-0,-0,0.00000000000000000000000298496211,0.00000000000000000000008802072494,0.00000000000000000221057804258941,0.00000000000000000676439513381039,0.00000000000000000380823095325593,-0,-0,-0,-0,-0,-0,-0,0,0,0,0,0,0,0,0,0,0,0,-0,-0,-0,-0,-0,0.00000000000000000000000298498514,0.00000000000000000000015188144998,0.00000000000000000221057804276366,0.00000000000000000676437369623544,0.00000000000000000380822959169778,-0,-0,-0,-0,-0,-0,-0,-0,0,0,0,0,0,0,0,0,0,0,-0,-0,-0,-0,0,0.00000000000000000000000298498559,0.00000000000000000000015188175719,0.00000000000000000383503667915594,0.00000000000000000676434942539565,0.00000000000000000316909409339103,-0,-0,-0,-0,-0,-0,-0,-0,0,0,0,0,0,0,0,0,0,0,-0,0,-0,-0,0,0.00000000000000000000003229211372,0.00000000000000000000015188076268,0.00000000000000000474043505899223,0.00000000000000000676433518276537,0.000000000000000001278299252916,-0,-0,-0,-0,-0,-0,-0,-0,0,0,0,0,0,0,0,0,0,0,0,0,-0,-0,0,0.00000000000000000000002442260619,0.00000000000000000000015187858086,0.00000000000000000378173201039346,0.00000000000000000628493014238165,0.00000000000000000079891776687044,-0,-0,-0,-0,-0,-0,-0,-0,0,0,0,0,0,0,0,0,0,0,0,0,-0,-0,0,0.0000000000000000000000029849852,0.00000000000000000000006349877586,0.00000000000000000000000911227053,-0,-0,-0,-0,-0,-0,-0,-0,-0,-0,0,0,0,0,0,0,0,0,0,0,0,0,0,-0,-0,-0,-0,-0,-0,-0,-0,-0,-0,-0,-0,-0,0,0,0,0,0,0,0,0,0,0,0,0,0,0,0,-0,-0,-0,-0,-0,-0,-0,-0,-0,-0,0,0,0,0,0,0,0,0,0,0,0,0,0,0,0,0,0,0,0,0,0,0,0,0,0,0,0,0,0,0,0,0,0,0,0,0,0,0],[0,0,0,0,0,0,0,0,0,0,0,0,0,0,0,0,0,0,0,0,0,0,0,0,0,0,0,0,0,0,0,0,0,0,0,0,0,0,0,0,0,0,0,0,0,0,0,0,0,0,0,0,0,0,0,0,0,0,0,0,0,0,0,0,0,0,0,-0,-0,-0,-0,-0,-0,-0,-0,0,0,0,0,0,0,0,0,0,0,0,0,0,0,0,0,-0,-0,-0,-0,-0,-0,-0,-0,-0,-0,-0,-0,-0,0,0,0,0,0,0,0,0,0,0,0,0,0,0,-0,0,0,0,0,0,0,0.00000000000000000082554937831929,0.00000000000000000604515189930575,0.00000000000000000053261250214145,0.00000000000000000000000460841822,0.00000000000000000000015471110638,0.00000000000000000000008229314062,-0,-0,-0,0,0,0,0,0,0,0,0,0,0,0,-0,-0,-0,-0,-0,-0,0,0,0.00000000000000000159783750642443,0.00000000000000000676417877719674,0.00000000000000000218371125973716,0.00000000000000000000010995232458,0.00000000000000000000020087826941,0.00000000000000000000012831232507,0.00000000000000000000000054272458,-0,-0,-0,0,0,0,0,0,0,0,0,0,-0,-0,-0,-0,-0,-0,-0,-0,-0,0.0000000000000000036966525942373,0.00000000000000000656154789279743,0.00000000000000000206806838195626,-0,0.00000000000000000000021987359142,0.00000000000000000000015056403398,0.0000000000000000000000027136229,-0,-0,-0,-0,-0,0,0,0,0,0,0,0,-0,-0,-0,-0,-0,-0,-0,-0,-0,0.00000000000000000362808456360802,0.00000000000000000673756981550384,0.00000000000000000196470564939215,-0,0.00000000000000000000023615532876,0.00000000000000000000015002130902,0.0000000000000000000000027136229,-0,-0,-0,-0,-0,0,0,0,0,0,0,-0,-0,-0,-0,-0,-0,-0,-0,-0,-0,0.00000000000000000380820069747094,0.00000000000000000676417770935891,0.0000000000000000019586112700788,-0,0.00000000000000000000023584558705,0.0000000000000000000000969762245,-0,-0,-0,-0,-0,-0,-0,0,0,0,0,-0,-0,-0,-0,-0,-0,-0,-0,-0,-0,-0,0.00000000000000000383480980253149,0.00000000000000000676417862558427,0.00000000000000000195865145665385,-0,0.00000000000000000000020424006775,0.00000000000000000000002254905567,-0,-0,-0,-0,-0,-0,-0,0,0,0,0,-0,-0,-0,-0,-0,-0,-0,-0,-0,-0,-0,0.00000000000000000138479229265721,0.00000000000000000675088926045076,0.00000000000000000439645913738074,-0,0.00000000000000000000011558652327,0.00000000000000000000000698941807,-0,-0,-0,-0,-0,-0,-0,0,0,0,0,-0,-0,0,-0,-0,-0,-0,-0,-0,-0,-0,0.00000000000000000130490720053529,0.00000000000000000672741547151764,0.00000000000000000426646194715308,-0,0.00000000000000000000004883094635,-0,-0,-0,-0,-0,-0,0,0,0,0,0,0,-0,-0,0,0,-0,-0,-0,-0,-0,-0,-0,0.00000000000000000308918649561918,0.00000000000000000671728889069292,0.00000000000000000192400674511702,-0,0.00000000000000000000001691410579,-0,-0,-0,-0,0,0,0,0,0,0,0,0,0,-0,0,0,-0,-0,-0,-0,-0,-0,-0,0.0000000000000000062848949848583,0.00000000000000000659040052458478,0.00000000000000000192399417167082,-0,-0,-0,-0,-0,-0,0,0,0,0,0,0,0,0,0,0,0,0,-0,-0,-0,-0,-0,-0,-0,0.00000000000000000626968401027955,0.00000000000000000654131624411338,0.00000000000000000180820721784995,-0,-0,-0,-0,-0,-0,-0,0,0,0,0,0,0,0,0,0,-0,-0,-0,-0,-0,-0,-0,-0,-0,0.00000000000000000621044725484698,0.00000000000000000635986180191123,-0,-0,-0,-0,-0,-0,-0,-0,-0,-0,0,0,0,0,0,0,0,-0,0,-0,-0,-0,-0,-0,-0,0.00000000000000000037289774666144,0.00000000000000000647147805631927,0.00000000000000000639157234150796,-0,-0,-0,-0,-0,-0,0,0,0,-0,0,0,0,0,0,0,0,-0,-0,-0,-0,-0,-0,-0,0.00000000000000000000000895491397,0.00000000000000000221049783118133,0.00000000000000000676441493248393,0.00000000000000000434101339214835,-0,-0,-0,-0,-0,-0,0,0,0,0,0,0,0,0,0,0,0,-0,-0,-0,-0,-0,-0,0.00000000000000000000000135676977,0.0000000000000000000000498503773,0.00000000000000000221054775453329,0.00000000000000000676441493248393,0.00000000000000000380835784488761,-0,-0,-0,-0,-0,-0,0,0,0,0,0,0,0,0,0,0,0,0,-0,-0,-0,-0,-0,0.00000000000000000000000298496211,0.00000000000000000000008802072487,0.00000000000000000221057803907989,0.00000000000000000676439512307067,0.00000000000000000380823094720959,-0,-0,-0,-0,-0,-0,-0,0,0,0,0,0,0,0,0,0,0,0,-0,-0,-0,-0,-0,0.00000000000000000000000298498514,0.00000000000000000000015188144989,0.00000000000000000221057803925415,0.00000000000000000676437368549575,0.00000000000000000380822958565144,-0,-0,-0,-0,-0,-0,-0,-0,0,0,0,0,0,0,0,0,0,0,-0,-0,-0,-0,0,0.00000000000000000000000298498558,0.00000000000000000000015188175711,0.00000000000000000383503667306723,0.00000000000000000676434941465597,0.00000000000000000316909408835946,-0,-0,-0,-0,-0,-0,-0,-0,0,0,0,0,0,0,0,0,0,0,-0,0,-0,-0,0,0.00000000000000000000003229211369,0.00000000000000000000015188076259,0.00000000000000000474043505146597,0.0000000000000000067643351720257,0.00000000000000000127829925088646,-0,-0,-0,-0,-0,-0,-0,-0,0,0,0,0,0,0,0,0,0,0,0,0,-0,-0,0,0.00000000000000000000002442260617,0.00000000000000000000015187858077,0.00000000000000000378173200438935,0.00000000000000000628493013240307,0.00000000000000000079891776560198,-0,-0,-0,-0,-0,-0,-0,-0,0,0,0,0,0,0,0,0,0,0,0,0,-0,-0,0,0.00000000000000000000000298498519,0.0000000000000000000000634987758,0.00000000000000000000000911227052,-0,-0,-0,-0,-0,-0,-0,-0,-0,-0,0,0,0,0,0,0,0,0,0,0,0,0,0,-0,-0,-0,-0,-0,-0,-0,-0,-0,-0,-0,-0,-0,0,0,0,0,0,0,0,0,0,0,0,0,0,0,0,-0,-0,-0,-0,-0,-0,-0,-0,-0,-0,0,0,0,0,0,0,0,0,0,0,0,0,0,0,0,0,0,0,0,0,0,0,0,0,0,0,0,0,0,0,0,0,0,0,0,0,0,0],[0,0,0,0,0,0,0,0,0,0,0,0,0,0,0,0,0,0,0,0,0,0,0,0,0,0,0,0,0,0,0,0,0,0,0,0,0,0,0,0,0,0,0,0,0,0,0,0,0,0,0,0,0,0,0,0,0,0,0,0,0,0,0,0,0,0,0,-0,-0,-0,-0,-0,-0,-0,-0,0,0,0,0,0,0,0,0,0,0,0,0,0,0,0,0,-0,-0,-0,-0,-0,-0,-0,-0,-0,-0,-0,-0,-0,0,0,0,0,0,0,0,0,0,0,0,0,0,0,-0,0,0,0,0,0,0,0.00000000000000000082554937830056,0.00000000000000000604515189916864,0.00000000000000000053261250212937,0.00000000000000000000000460841821,0.00000000000000000000015471110609,0.00000000000000000000008229314047,-0,-0,-0,0,0,0,0,0,0,0,0,0,0,0,-0,-0,-0,-0,-0,-0,0,0,0.00000000000000000159783750638819,0.00000000000000000676417877704331,0.00000000000000000218371125968763,0.00000000000000000000010995232438,0.00000000000000000000020087826897,0.00000000000000000000012831232475,0.00000000000000000000000054272458,-0,-0,-0,0,0,0,0,0,0,0,0,0,-0,-0,-0,-0,-0,-0,-0,-0,-0,0.00000000000000000369665259413106,0.00000000000000000656154789261576,0.00000000000000000206806838189061,-0,0.00000000000000000000021987359092,0.00000000000000000000015056403357,0.00000000000000000000000271362289,-0,-0,-0,-0,-0,0,0,0,0,0,0,0,-0,-0,-0,-0,-0,-0,-0,-0,-0,0.00000000000000000362808456349223,0.00000000000000000673756981534671,0.0000000000000000019647056493121,-0,0.00000000000000000000023615532819,0.00000000000000000000015002130861,0.00000000000000000000000271362289,-0,-0,-0,-0,-0,0,0,0,0,0,0,-0,-0,-0,-0,-0,-0,-0,-0,-0,-0,0.00000000000000000380820069738024,0.00000000000000000676417770920549,0.0000000000000000019586112699978,-0,0.00000000000000000000023584558648,0.00000000000000000000009697622424,-0,-0,-0,-0,-0,-0,-0,0,0,0,0,-0,-0,-0,-0,-0,-0,-0,-0,-0,-0,-0,0.0000000000000000038348098024445,0.00000000000000000676417862543084,0.00000000000000000195865145657272,-0,0.00000000000000000000020424006724,0.00000000000000000000002254905559,-0,-0,-0,-0,-0,-0,-0,0,0,0,0,-0,-0,-0,-0,-0,-0,-0,-0,-0,-0,-0,0.00000000000000000138479229262579,0.00000000000000000675088926029542,0.00000000000000000439645913724213,-0,0.00000000000000000000011558652293,0.00000000000000000000000698941804,-0,-0,-0,-0,-0,-0,-0,0,0,0,0,-0,-0,0,-0,-0,-0,-0,-0,-0,-0,-0,0.00000000000000000130490720050567,0.00000000000000000672741547135884,0.00000000000000000426646194701348,-0,0.00000000000000000000004883094619,-0,-0,-0,-0,-0,-0,0,0,0,0,0,0,-0,-0,0,0,-0,-0,-0,-0,-0,-0,-0,0.00000000000000000308918649554898,0.00000000000000000671728889053246,0.00000000000000000192400674503069,-0,0.00000000000000000000001691410574,-0,-0,-0,-0,0,0,0,0,0,0,0,0,0,-0,0,0,-0,-0,-0,-0,-0,-0,-0,0.0000000000000000062848949847155,0.00000000000000000659040052440661,0.00000000000000000192399417158454,-0,-0,-0,-0,-0,-0,0,0,0,0,0,0,0,0,0,0,0,0,-0,-0,-0,-0,-0,-0,-0,0.00000000000000000626968401011299,0.00000000000000000654131624392829,0.00000000000000000180820721776924,-0,-0,-0,-0,-0,-0,-0,0,0,0,0,0,0,0,0,0,-0,-0,-0,-0,-0,-0,-0,-0,-0,0.00000000000000000621044725467192,0.00000000000000000635986180176127,-0,-0,-0,-0,-0,-0,-0,-0,-0,-0,0,0,0,0,0,0,0,-0,0,-0,-0,-0,-0,-0,-0,0.00000000000000000037289774665275,0.00000000000000000647147805617192,0.00000000000000000639157234136248,-0,-0,-0,-0,-0,-0,0,0,0,-0,0,0,0,0,0,0,0,-0,-0,-0,-0,-0,-0,-0,0.00000000000000000000000895491393,0.00000000000000000221049783113079,0.00000000000000000676441493232993,0.00000000000000000434101339204938,-0,-0,-0,-0,-0,-0,0,0,0,0,0,0,0,0,0,0,0,-0,-0,-0,-0,-0,-0,0.00000000000000000000000135676976,0.00000000000000000000004985037712,0.00000000000000000221054775448264,0.00000000000000000676441493232994,0.00000000000000000380835784480082,-0,-0,-0,-0,-0,-0,0,0,0,0,0,0,0,0,0,0,0,0,-0,-0,-0,-0,-0,0.0000000000000000000000029849621,0.00000000000000000000008802072457,0.00000000000000000221057803902919,0.00000000000000000676439512291675,0.00000000000000000380823094712311,-0,-0,-0,-0,-0,-0,-0,0,0,0,0,0,0,0,0,0,0,0,-0,-0,-0,-0,-0,0.00000000000000000000000298498513,0.00000000000000000000015188144948,0.00000000000000000221057803920344,0.00000000000000000676437368534191,0.00000000000000000380822958556497,-0,-0,-0,-0,-0,-0,-0,-0,0,0,0,0,0,0,0,0,0,0,-0,-0,-0,-0,0,0.00000000000000000000000298498557,0.00000000000000000000015188175669,0.00000000000000000383503667297971,0.00000000000000000676434941450223,0.00000000000000000316909408828748,-0,-0,-0,-0,-0,-0,-0,-0,0,0,0,0,0,0,0,0,0,0,-0,0,-0,-0,0,0.00000000000000000000003229211357,0.00000000000000000000015188076218,0.00000000000000000474043505135808,0.00000000000000000676433517187199,0.00000000000000000127829925085741,-0,-0,-0,-0,-0,-0,-0,-0,0,0,0,0,0,0,0,0,0,0,0,0,-0,-0,0,0.00000000000000000000002442260608,0.00000000000000000000015187858036,0.00000000000000000378173200430321,0.00000000000000000628493013226033,0.00000000000000000079891776558385,-0,-0,-0,-0,-0,-0,-0,-0,0,0,0,0,0,0,0,0,0,0,0,0,-0,-0,0,0.00000000000000000000000298498518,0.00000000000000000000006349877556,0.00000000000000000000000911227048,-0,-0,-0,-0,-0,-0,-0,-0,-0,-0,0,0,0,0,0,0,0,0,0,0,0,0,0,-0,-0,-0,-0,-0,-0,-0,-0,-0,-0,-0,-0,-0,0,0,0,0,0,0,0,0,0,0,0,0,0,0,0,-0,-0,-0,-0,-0,-0,-0,-0,-0,-0,0,0,0,0,0,0,0,0,0,0,0,0,0,0,0,0,0,0,0,0,0,0,0,0,0,0,0,0,0,0,0,0,0,0,0,0,0,0],[0,0,0,0,0,0,0,0,0,0,0,0,0,0,0,0,0,0,0,0,0,0,0,0,0,0,0,0,0,0,0,0,0,0,0,0,0,0,0,0,0,0,0,0,0,0,0,0,0,0,0,0,0,0,0,0,0,0,0,0,0,0,0,0,0,0,0,-0,-0,-0,-0,-0,-0,-0,-0,0,0,0,0,0,0,0,0,0,0,0,0,0,0,0,0,-0,-0,-0,-0,-0,-0,-0,-0,-0,-0,-0,-0,-0,0,0,0,0,0,0,0,0,0,0,0,0,0,0,-0,0,0,0,0,0,0,0.0000000000000000008255493772097,0.00000000000000000604515189118067,0.00000000000000000053261250142558,0.00000000000000000000000460841821,0.00000000000000000000015471110613,0.00000000000000000000008229314049,-0,-0,-0,0,0,0,0,0,0,0,0,0,0,0,-0,-0,-0,-0,-0,-0,0,0,0.00000000000000000159783750427683,0.00000000000000000676417876810524,0.00000000000000000218371125680211,0.0000000000000000000001099523244,0.00000000000000000000020087826904,0.00000000000000000000012831232481,0.00000000000000000000000054272458,-0,-0,-0,0,0,0,0,0,0,0,0,0,-0,-0,-0,-0,-0,-0,-0,-0,-0,0.00000000000000000369665258933438,0.00000000000000000656154788407452,0.00000000000000000206806837923157,-0,0.000000000000000000000219873591,0.00000000000000000000015056403365,0.00000000000000000000000271362289,-0,-0,-0,-0,-0,0,0,0,0,0,0,0,-0,-0,-0,-0,-0,-0,-0,-0,-0,0.00000000000000000362808455882983,0.00000000000000000673756980646074,0.00000000000000000196470564685548,-0,0.00000000000000000000023615532829,0.00000000000000000000015002130868,0.00000000000000000000000271362289,-0,-0,-0,-0,-0,0,0,0,0,0,0,-0,-0,-0,-0,-0,-0,-0,-0,-0,-0,0.0000000000000000038082006923651,0.00000000000000000676417770026741,0.00000000000000000195861126755322,-0,0.00000000000000000000023584558658,0.00000000000000000000009697622429,-0,-0,-0,-0,-0,-0,-0,0,0,0,0,-0,-0,-0,-0,-0,-0,-0,-0,-0,-0,-0,0.00000000000000000383480979737725,0.00000000000000000676417861649277,0.00000000000000000195865145412817,-0,0.00000000000000000000020424006733,0.00000000000000000000002254905561,-0,-0,-0,-0,-0,-0,-0,0,0,0,0,-0,-0,-0,-0,-0,-0,-0,-0,-0,-0,-0,0.00000000000000000138479229079595,0.00000000000000000675088925138341,0.00000000000000000439645913158425,-0,0.000000000000000000000115586523,0.00000000000000000000000698941805,-0,-0,-0,-0,-0,-0,-0,0,0,0,0,-0,-0,0,-0,-0,-0,-0,-0,-0,-0,-0,0.0000000000000000013049071987814,0.00000000000000000672741546249296,0.00000000000000000426646194154248,-0,0.00000000000000000000004883094622,-0,-0,-0,-0,-0,-0,0,0,0,0,0,0,-0,-0,0,0,-0,-0,-0,-0,-0,-0,-0,0.00000000000000000308918649146705,0.00000000000000000671728888168666,0.00000000000000000192400674265434,-0,0.00000000000000000000001691410575,-0,-0,-0,-0,0,0,0,0,0,0,0,0,0,-0,0,0,-0,-0,-0,-0,-0,-0,-0,0.00000000000000000628489497641088,0.00000000000000000659040051580934,0.00000000000000000192399416920818,-0,-0,-0,-0,-0,-0,0,0,0,0,0,0,0,0,0,0,0,0,-0,-0,-0,-0,-0,-0,-0,0.00000000000000000626968400192305,0.00000000000000000654131623542724,0.00000000000000000180820721553473,-0,-0,-0,-0,-0,-0,-0,0,0,0,0,0,0,0,0,0,-0,-0,-0,-0,-0,-0,-0,-0,-0,0.00000000000000000621044724659826,0.00000000000000000635986179337807,-0,-0,-0,-0,-0,-0,-0,-0,-0,-0,0,0,0,0,0,0,0,-0,0,-0,-0,-0,-0,-0,-0,0.00000000000000000037289774616015,0.00000000000000000647147804762102,0.00000000000000000639157233291713,-0,-0,-0,-0,-0,-0,0,0,0,-0,0,0,0,0,0,0,0,-0,-0,-0,-0,-0,-0,-0,0.00000000000000000000000895491394,0.00000000000000000221049782821015,0.00000000000000000676441492339196,0.00000000000000000434101338631361,-0,-0,-0,-0,-0,-0,0,0,0,0,0,0,0,0,0,0,0,-0,-0,-0,-0,-0,-0,0.00000000000000000000000135676976,0.00000000000000000000004985037716,0.00000000000000000221054775156202,0.00000000000000000676441492339196,0.00000000000000000380835783976882,-0,-0,-0,-0,-0,-0,0,0,0,0,0,0,0,0,0,0,0,0,-0,-0,-0,-0,-0,0.0000000000000000000000029849621,0.00000000000000000000008802072463,0.00000000000000000221057803610858,0.00000000000000000676439511397876,0.00000000000000000380823094209106,-0,-0,-0,-0,-0,-0,-0,0,0,0,0,0,0,0,0,0,0,0,-0,-0,-0,-0,-0,0.00000000000000000000000298498513,0.00000000000000000000015188144955,0.00000000000000000221057803628283,0.0000000000000000067643736764039,0.00000000000000000380822958053291,-0,-0,-0,-0,-0,-0,-0,-0,0,0,0,0,0,0,0,0,0,0,-0,-0,-0,-0,0,0.00000000000000000000000298498557,0.00000000000000000000015188175677,0.00000000000000000383503666791254,0.00000000000000000676434940556419,0.00000000000000000316909408409997,-0,-0,-0,-0,-0,-0,-0,-0,0,0,0,0,0,0,0,0,0,0,-0,0,-0,-0,0,0.0000000000000000000000322921136,0.00000000000000000000015188076225,0.00000000000000000474043504509445,0.00000000000000000676433516293395,0.00000000000000000127829924916833,-0,-0,-0,-0,-0,-0,-0,-0,0,0,0,0,0,0,0,0,0,0,0,0,-0,-0,0,0.0000000000000000000000244226061,0.00000000000000000000015187858043,0.00000000000000000378173199930639,0.00000000000000000628493012395569,0.00000000000000000079891776452818,-0,-0,-0,-0,-0,-0,-0,-0,0,0,0,0,0,0,0,0,0,0,0,0,-0,-0,0,0.00000000000000000000000298498518,0.00000000000000000000006349877561,0.00000000000000000000000911227049,-0,-0,-0,-0,-0,-0,-0,-0,-0,-0,0,0,0,0,0,0,0,0,0,0,0,0,0,-0,-0,-0,-0,-0,-0,-0,-0,-0,-0,-0,-0,-0,0,0,0,0,0,0,0,0,0,0,0,0,0,0,0,-0,-0,-0,-0,-0,-0,-0,-0,-0,-0,0,0,0,0,0,0,0,0,0,0,0,0,0,0,0,0,0,0,0,0,0,0,0,0,0,0,0,0,0,0,0,0,0,0,0,0,0,0],[0,0,0,0,0,0,0,0,0,0,0,0,0,0,0,0,0,0,0,0,0,0,0,0,0,0,0,0,0,0,0,0,0,0,0,0,0,0,0,0,0,0,0,0,0,0,0,0,0,0,0,0,0,0,0,0,0,0,0,0,0,0,0,0,0,0,0,-0,-0,-0,-0,-0,-0,-0,-0,0,0,0,0,0,0,0,0,0,0,0,0,0,0,0,0,-0,-0,-0,-0,-0,-0,-0,-0,-0,-0,-0,-0,-0,0,0,0,0,0,0,0,0,0,0,0,0,0,0,-0,0,0,0,0,0,0,0.000000000000000000825549378561,0.00000000000000000604515190107573,0.00000000000000000053261250229739,0.00000000000000000000000460841821,0.00000000000000000000015471110628,0.00000000000000000000008229314058,-0,-0,-0,0,0,0,0,0,0,0,0,0,0,0,-0,-0,-0,-0,-0,-0,0,0,0.00000000000000000159783750689226,0.00000000000000000676417877917724,0.00000000000000000218371126037653,0.00000000000000000000010995232451,0.00000000000000000000020087826926,0.00000000000000000000012831232496,0.00000000000000000000000054272458,-0,-0,-0,0,0,0,0,0,0,0,0,0,-0,-0,-0,-0,-0,-0,-0,-0,-0,0.00000000000000000369665259569647,0.00000000000000000656154789527126,0.00000000000000000206806838287718,-0,0.00000000000000000000021987359125,0.00000000000000000000015056403384,0.00000000000000000000000271362289,-0,-0,-0,-0,-0,0,0,0,0,0,0,0,-0,-0,-0,-0,-0,-0,-0,-0,-0,0.00000000000000000362808456523412,0.00000000000000000673756981754913,0.00000000000000000196470565056472,-0,0.00000000000000000000023615532856,0.00000000000000000000015002130887,0.00000000000000000000000271362289,-0,-0,-0,-0,-0,0,0,0,0,0,0,-0,-0,-0,-0,-0,-0,-0,-0,-0,-0,0.00000000000000000380820069865852,0.00000000000000000676417771133942,0.00000000000000000195861127126629,-0,0.00000000000000000000023584558685,0.00000000000000000000009697622441,-0,-0,-0,-0,-0,-0,-0,0,0,0,0,-0,-0,-0,-0,-0,-0,-0,-0,-0,-0,-0,0.00000000000000000383480980365429,0.00000000000000000676417862756477,0.0000000000000000019586514578413,-0,0.00000000000000000000020424006757,0.00000000000000000000002254905564,-0,-0,-0,-0,-0,-0,-0,0,0,0,0,-0,-0,-0,-0,-0,-0,-0,-0,-0,-0,-0,0.00000000000000000138479229306266,0.00000000000000000675088926246363,0.00000000000000000439645913931536,-0,0.00000000000000000000011558652315,0.00000000000000000000000698941806,-0,-0,-0,-0,-0,-0,-0,0,0,0,0,-0,-0,0,-0,-0,-0,-0,-0,-0,-0,-0,0.00000000000000000130490720091735,0.00000000000000000672741547358775,0.00000000000000000426646194911378,-0,0.00000000000000000000004883094629,-0,-0,-0,-0,-0,-0,0,0,0,0,0,0,-0,-0,0,0,-0,-0,-0,-0,-0,-0,-0,0.00000000000000000308918649652361,0.00000000000000000671728889278787,0.00000000000000000192400674638905,-0,0.00000000000000000000001691410577,-0,-0,-0,-0,0,0,0,0,0,0,0,0,0,-0,0,0,-0,-0,-0,-0,-0,-0,-0,0.00000000000000000628489498669835,0.00000000000000000659040052698868,0.00000000000000000192399417294287,-0,-0,-0,-0,-0,-0,0,0,0,0,0,0,0,0,0,0,0,0,-0,-0,-0,-0,-0,-0,-0,0.00000000000000000626968401251986,0.00000000000000000654131624663685,0.00000000000000000180820721904071,-0,-0,-0,-0,-0,-0,-0,0,0,0,0,0,0,0,0,0,-0,-0,-0,-0,-0,-0,-0,-0,-0,0.00000000000000000621044725723172,0.00000000000000000635986180385961,-0,-0,-0,-0,-0,-0,-0,-0,-0,-0,0,0,0,0,0,0,0,-0,0,-0,-0,-0,-0,-0,-0,0.00000000000000000037289774677051,0.0000000000000000064714780582138,0.00000000000000000639157234337912,-0,-0,-0,-0,-0,-0,0,0,0,-0,0,0,0,0,0,0,0,-0,-0,-0,-0,-0,-0,-0,0.00000000000000000000000895491395,0.00000000000000000221049783182836,0.00000000000000000676441493446424,0.00000000000000000434101339341912,-0,-0,-0,-0,-0,-0,0,0,0,0,0,0,0,0,0,0,0,-0,-0,-0,-0,-0,-0,0.00000000000000000000000135676976,0.00000000000000000000004985037723,0.00000000000000000221054775518028,0.00000000000000000676441493446424,0.00000000000000000380835784600248,-0,-0,-0,-0,-0,-0,0,0,0,0,0,0,0,0,0,0,0,0,-0,-0,-0,-0,-0,0.0000000000000000000000029849621,0.00000000000000000000008802072476,0.00000000000000000221057803972687,0.000000000000000006764395125051,0.00000000000000000380823094832456,-0,-0,-0,-0,-0,-0,-0,0,0,0,0,0,0,0,0,0,0,0,-0,-0,-0,-0,-0,0.00000000000000000000000298498513,0.00000000000000000000015188144974,0.00000000000000000221057803990112,0.00000000000000000676437368747611,0.00000000000000000380822958676641,-0,-0,-0,-0,-0,-0,-0,-0,0,0,0,0,0,0,0,0,0,0,-0,-0,-0,-0,0,0.00000000000000000000000298498558,0.00000000000000000000015188175696,0.00000000000000000383503667418985,0.00000000000000000676434941663637,0.0000000000000000031690940892873,-0,-0,-0,-0,-0,-0,-0,-0,0,0,0,0,0,0,0,0,0,0,-0,0,-0,-0,0,0.00000000000000000000003229211365,0.00000000000000000000015188076245,0.00000000000000000474043505285376,0.00000000000000000676433517400611,0.00000000000000000127829925126071,-0,-0,-0,-0,-0,-0,-0,-0,0,0,0,0,0,0,0,0,0,0,0,0,-0,-0,0,0.00000000000000000000002442260614,0.00000000000000000000015187858063,0.00000000000000000378173200549644,0.00000000000000000628493013424316,0.0000000000000000007989177658359,-0,-0,-0,-0,-0,-0,-0,-0,0,0,0,0,0,0,0,0,0,0,0,0,-0,-0,0,0.00000000000000000000000298498519,0.00000000000000000000006349877571,0.0000000000000000000000091122705,-0,-0,-0,-0,-0,-0,-0,-0,-0,-0,0,0,0,0,0,0,0,0,0,0,0,0,0,-0,-0,-0,-0,-0,-0,-0,-0,-0,-0,-0,-0,-0,0,0,0,0,0,0,0,0,0,0,0,0,0,0,0,-0,-0,-0,-0,-0,-0,-0,-0,-0,-0,0,0,0,0,0,0,0,0,0,0,0,0,0,0,0,0,0,0,0,0,0,0,0,0,0,0,0,0,0,0,0,0,0,0,0,0,0,0],[0,0,0,0,0,0,0,0,0,0,0,0,0,0,0,0,0,0,0,0,0,0,0,0,0,0,0,0,0,0,0,0,0,0,0,0,0,0,0,0,0,0,0,0,0,0,0,0,0,0,0,0,0,0,0,0,0,0,0,0,0,0,0,0,0,0,0,-0,-0,-0,-0,-0,-0,-0,-0,0,0,0,0,0,0,0,0,0,0,0,0,0,0,0,0,-0,-0,-0,-0,-0,-0,-0,-0,-0,-0,-0,-0,-0,0,0,0,0,0,0,0,0,0,0,0,0,0,0,-0,0,0,0,0,0,0,0.00000000000000000082554937960001,0.00000000000000000604515190868395,0.00000000000000000053261250296772,0.00000000000000000000000460841823,0.00000000000000000000015471110668,0.00000000000000000000008229314079,-0,-0,-0,0,0,0,0,0,0,0,0,0,0,0,-0,-0,-0,-0,-0,-0,0,0,0.00000000000000000159783750890325,0.00000000000000000676417878769041,0.00000000000000000218371126312488,0.00000000000000000000010995232479,0.0000000000000000000002008782697,0.00000000000000000000012831232519,0.00000000000000000000000054272458,-0,-0,-0,0,0,0,0,0,0,0,0,0,-0,-0,-0,-0,-0,-0,-0,-0,-0,0.00000000000000000369665260015658,0.00000000000000000656154790324726,0.00000000000000000206806838531896,-0,0.0000000000000000000002198735917,0.00000000000000000000015056403408,0.00000000000000000000000271362289,-0,-0,-0,-0,-0,0,0,0,0,0,0,0,-0,-0,-0,-0,-0,-0,-0,-0,-0,0.00000000000000000362808456951246,0.00000000000000000673756982599175,0.00000000000000000196470565273249,-0,0.00000000000000000000023615532902,0.00000000000000000000015002130911,0.00000000000000000000000271362289,-0,-0,-0,-0,-0,0,0,0,0,0,0,-0,-0,-0,-0,-0,-0,-0,-0,-0,-0,0.00000000000000000380820070341434,0.00000000000000000676417771985258,0.00000000000000000195861127341789,-0,0.00000000000000000000023584558731,0.00000000000000000000009697622457,-0,-0,-0,-0,-0,-0,-0,0,0,0,0,-0,-0,-0,-0,-0,-0,-0,-0,-0,-0,-0,0.00000000000000000383480980848065,0.00000000000000000676417863607794,0.00000000000000000195865145999293,-0,0.00000000000000000000020424006795,0.00000000000000000000002254905566,-0,-0,-0,-0,-0,-0,-0,0,0,0,0,-0,-0,-0,-0,-0,-0,-0,-0,-0,-0,-0,0.00000000000000000138479229480552,0.00000000000000000675088927094153,0.00000000000000000439645914451806,-0,0.00000000000000000000011558652332,0.00000000000000000000000698941807,-0,-0,-0,-0,-0,-0,-0,0,0,0,0,-0,-0,0,-0,-0,-0,-0,-0,-0,-0,-0,0.00000000000000000130490720255966,0.00000000000000000672741548200335,0.00000000000000000426646195412017,-0,0.00000000000000000000004883094634,-0,-0,-0,-0,-0,-0,0,0,0,0,0,0,-0,-0,0,0,-0,-0,-0,-0,-0,-0,-0,0.00000000000000000308918650041153,0.00000000000000000671728890117657,0.00000000000000000192400674844876,-0,0.00000000000000000000001691410581,-0,-0,-0,-0,0,0,0,0,0,0,0,0,0,-0,0,0,-0,-0,-0,-0,-0,-0,-0,0.00000000000000000628489499460827,0.000000000000000006590400535041,0.00000000000000000192399417500257,-0,-0,-0,-0,-0,-0,0,0,0,0,0,0,0,0,0,0,0,0,-0,-0,-0,-0,-0,-0,-0,0.00000000000000000626968402020403,0.00000000000000000654131625455905,0.00000000000000000180820722097893,-0,-0,-0,-0,-0,-0,-0,0,0,0,0,0,0,0,0,0,-0,-0,-0,-0,-0,-0,-0,-0,-0,0.00000000000000000621044726475884,0.00000000000000000635986181181991,-0,-0,-0,-0,-0,-0,-0,-0,-0,-0,0,0,0,0,0,0,0,-0,0,-0,-0,-0,-0,-0,-0,0.00000000000000000037289774723981,0.00000000000000000647147806635875,0.00000000000000000639157235142351,-0,-0,-0,-0,-0,-0,0,0,0,-0,0,0,0,0,0,0,0,-0,-0,-0,-0,-0,-0,-0,0.00000000000000000000000895491396,0.00000000000000000221049783461049,0.00000000000000000676441494297786,0.00000000000000000434101339888275,-0,-0,-0,-0,-0,-0,0,0,0,0,0,0,0,0,0,0,0,-0,-0,-0,-0,-0,-0,0.00000000000000000000000135676976,0.00000000000000000000004985037726,0.00000000000000000221054775796252,0.00000000000000000676441494297786,0.00000000000000000380835785079569,-0,-0,-0,-0,-0,-0,0,0,0,0,0,0,0,0,0,0,0,0,-0,-0,-0,-0,-0,0.0000000000000000000000029849621,0.00000000000000000000008802072484,0.00000000000000000221057804250919,0.00000000000000000676439513356462,0.00000000000000000380823095311754,-0,-0,-0,-0,-0,-0,-0,0,0,0,0,0,0,0,0,0,0,0,-0,-0,-0,-0,-0,0.00000000000000000000000298498514,0.00000000000000000000015188144999,0.00000000000000000221057804268344,0.00000000000000000676437369598972,0.00000000000000000380822959155939,-0,-0,-0,-0,-0,-0,-0,-0,0,0,0,0,0,0,0,0,0,0,-0,-0,-0,-0,0,0.00000000000000000000000298498558,0.0000000000000000000001518817572,0.00000000000000000383503667901666,0.00000000000000000676434942514996,0.00000000000000000316909409327588,-0,-0,-0,-0,-0,-0,-0,-0,0,0,0,0,0,0,0,0,0,0,-0,0,-0,-0,0,0.00000000000000000000003229211366,0.00000000000000000000015188076269,0.00000000000000000474043505882012,0.00000000000000000676433518251968,0.00000000000000000127829925286957,-0,-0,-0,-0,-0,-0,-0,-0,0,0,0,0,0,0,0,0,0,0,0,0,-0,-0,0,0.00000000000000000000002442260615,0.00000000000000000000015187858087,0.0000000000000000037817320102562,0.0000000000000000062849301421533,0.00000000000000000079891776684139,-0,-0,-0,-0,-0,-0,-0,-0,0,0,0,0,0,0,0,0,0,0,0,0,-0,-0,0,0.00000000000000000000000298498519,0.00000000000000000000006349877574,0.00000000000000000000000911227051,-0,-0,-0,-0,-0,-0,-0,-0,-0,-0,0,0,0,0,0,0,0,0,0,0,0,0,0,-0,-0,-0,-0,-0,-0,-0,-0,-0,-0,-0,-0,-0,0,0,0,0,0,0,0,0,0,0,0,0,0,0,0,-0,-0,-0,-0,-0,-0,-0,-0,-0,-0,0,0,0,0,0,0,0,0,0,0,0,0,0,0,0,0,0,0,0,0,0,0,0,0,0,0,0,0,0,0,0,0,0,0,0,0,0,0],[0,0,0,0,0,0,0,0,0,0,0,0,0,0,0,0,0,0,0,0,0,0,0,0,0,0,0,0,0,0,0,0,0,0,0,0,0,0,0,0,0,0,0,0,0,0,0,0,0,0,0,0,0,0,0,0,0,0,0,0,0,0,0,0,0,0,0,-0,-0,-0,-0,-0,-0,-0,-0,0,0,0,0,0,0,0,0,0,0,0,0,0,0,0,0,-0,-0,-0,-0,-0,-0,-0,-0,-0,-0,-0,-0,-0,0,0,0,0,0,0,0,0,0,0,0,0,0,0,-0,0,0,0,0,0,0,0.00000000000000000082554938092988,0.000000000000000006045151918422,0.0000000000000000005326125038257,0.00000000000000000000000460841823,0.00000000000000000000015471110697,0.00000000000000000000008229314094,-0,-0,-0,0,0,0,0,0,0,0,0,0,0,0,-0,-0,-0,-0,-0,-0,0,0,0.00000000000000000159783751147718,0.00000000000000000676417879858673,0.00000000000000000218371126664259,0.000000000000000000000109952325,0.00000000000000000000020087827011,0.00000000000000000000012831232548,0.00000000000000000000000054272458,-0,-0,-0,0,0,0,0,0,0,0,0,0,-0,-0,-0,-0,-0,-0,-0,-0,-0,0.00000000000000000369665260597195,0.00000000000000000656154791361253,0.0000000000000000020680683885336,-0,0.00000000000000000000021987359217,0.00000000000000000000015056403443,0.0000000000000000000000027136229,-0,-0,-0,-0,-0,0,0,0,0,0,0,0,-0,-0,-0,-0,-0,-0,-0,-0,-0,0.00000000000000000362808457514813,0.00000000000000000673756983681834,0.00000000000000000196470565567624,-0,0.00000000000000000000023615532954,0.00000000000000000000015002130947,0.0000000000000000000000027136229,-0,-0,-0,-0,-0,0,0,0,0,0,0,-0,-0,-0,-0,-0,-0,-0,-0,-0,-0,0.00000000000000000380820070952205,0.0000000000000000067641777307489,0.00000000000000000195861127634564,-0,0.00000000000000000000023584558783,0.0000000000000000000000969762248,-0,-0,-0,-0,-0,-0,-0,0,0,0,0,-0,-0,-0,-0,-0,-0,-0,-0,-0,-0,-0,0.00000000000000000383480981465809,0.00000000000000000676417864697426,0.00000000000000000195865146292079,-0,0.00000000000000000000020424006841,0.00000000000000000000002254905572,-0,-0,-0,-0,-0,-0,-0,0,0,0,0,-0,-0,-0,-0,-0,-0,-0,-0,-0,-0,-0,0.00000000000000000138479229703626,0.00000000000000000675088928180303,0.00000000000000000439645915136061,-0,0.0000000000000000000001155865236,0.00000000000000000000000698941809,-0,-0,-0,-0,-0,-0,-0,0,0,0,0,-0,-0,0,-0,-0,-0,-0,-0,-0,-0,-0,0.00000000000000000130490720466172,0.00000000000000000672741549280331,0.00000000000000000426646196072955,-0,0.00000000000000000000004883094647,-0,-0,-0,-0,-0,-0,0,0,0,0,0,0,-0,-0,0,0,-0,-0,-0,-0,-0,-0,-0,0.0000000000000000030891865053879,0.00000000000000000671728891194994,0.00000000000000000192400675128575,-0,0.00000000000000000000001691410584,-0,-0,-0,-0,0,0,0,0,0,0,0,0,0,-0,0,0,-0,-0,-0,-0,-0,-0,-0,0.0000000000000000062848950047326,0.00000000000000000659040054548182,0.00000000000000000192399417783953,-0,-0,-0,-0,-0,-0,0,0,0,0,0,0,0,0,0,0,0,0,-0,-0,-0,-0,-0,-0,-0,0.00000000000000000626968403015402,0.0000000000000000065413162648712,0.0000000000000000018082072236469,-0,-0,-0,-0,-0,-0,-0,0,0,0,0,0,0,0,0,0,-0,-0,-0,-0,-0,-0,-0,-0,-0,0.0000000000000000062104472745535,0.00000000000000000635986182203302,-0,-0,-0,-0,-0,-0,-0,-0,-0,-0,0,0,0,0,0,0,0,-0,0,-0,-0,-0,-0,-0,-0,0.00000000000000000037289774784058,0.0000000000000000064714780767837,0.00000000000000000639157236171972,-0,-0,-0,-0,-0,-0,0,0,0,-0,0,0,0,0,0,0,0,-0,-0,-0,-0,-0,-0,-0,0.00000000000000000000000895491398,0.00000000000000000221049783817146,0.0000000000000000067644149538747,0.00000000000000000434101340587574,-0,-0,-0,-0,-0,-0,0,0,0,0,0,0,0,0,0,0,0,-0,-0,-0,-0,-0,-0,0.00000000000000000000000135676977,0.00000000000000000000004985037741,0.00000000000000000221054776152359,0.0000000000000000067644149538747,0.00000000000000000380835785693061,-0,-0,-0,-0,-0,-0,0,0,0,0,0,0,0,0,0,0,0,0,-0,-0,-0,-0,-0,0.00000000000000000000000298496211,0.00000000000000000000008802072508,0.00000000000000000221057804607031,0.0000000000000000067643951444614,0.00000000000000000380823095925218,-0,-0,-0,-0,-0,-0,-0,0,0,0,0,0,0,0,0,0,0,0,-0,-0,-0,-0,-0,0.00000000000000000000000298498514,0.00000000000000000000015188145035,0.00000000000000000221057804624457,0.00000000000000000676437370688643,0.00000000000000000380822959769402,-0,-0,-0,-0,-0,-0,-0,-0,0,0,0,0,0,0,0,0,0,0,-0,-0,-0,-0,0,0.00000000000000000000000298498559,0.00000000000000000000015188175756,0.00000000000000000383503668519459,0.00000000000000000676434943604661,0.00000000000000000316909409838094,-0,-0,-0,-0,-0,-0,-0,-0,0,0,0,0,0,0,0,0,0,0,-0,0,-0,-0,0,0.00000000000000000000003229211376,0.00000000000000000000015188076305,0.00000000000000000474043506645648,0.00000000000000000676433519341629,0.00000000000000000127829925492877,-0,-0,-0,-0,-0,-0,-0,-0,0,0,0,0,0,0,0,0,0,0,0,0,-0,-0,0,0.00000000000000000000002442260622,0.00000000000000000000015187858123,0.00000000000000000378173201634821,0.00000000000000000628493015227763,0.00000000000000000079891776812835,-0,-0,-0,-0,-0,-0,-0,-0,0,0,0,0,0,0,0,0,0,0,0,0,-0,-0,0,0.0000000000000000000000029849852,0.00000000000000000000006349877593,0.00000000000000000000000911227054,-0,-0,-0,-0,-0,-0,-0,-0,-0,-0,0,0,0,0,0,0,0,0,0,0,0,0,0,-0,-0,-0,-0,-0,-0,-0,-0,-0,-0,-0,-0,-0,0,0,0,0,0,0,0,0,0,0,0,0,0,0,0,-0,-0,-0,-0,-0,-0,-0,-0,-0,-0,0,0,0,0,0,0,0,0,0,0,0,0,0,0,0,0,0,0,0,0,0,0,0,0,0,0,0,0,0,0,0,0,0,0,0,0,0,0]],"weight_gradients":[[0,0,0,0,0,0,0,0,0,0,0,0,0,0,0,0,0,0,0,0,0,0,0,0,0,0,0,0,0,0,0,0,0,0,0,0,0,0,0,0,0,0,0,0,0,0,0,0,0,0,0,0,0,0,0,0,0,0,0,0,0,0,0,0,0,0,0,0,0,0,0,0,0,0,0,0,0,0,0,0,0,0,0,0,0,0,0,0,0,0,0,0,0,0,0,0,0,0,0,0,0,0,0,0,0,0,0,0,0,0,0,0,0,0,0,0,0,0,0,0,0,0,0,0,0,0,0,0,0,0,0,0,0,0,0,0,0,0,0,0,0,0,0,0,0,0,0,0,0,0,0,0,0,0,0,0,0,0,0,0,0,0,0,0,0,0,0,0,0,0,0,0,0,0,0,0,0,0,0,0,0,0,0,0,0,0,0,0,0,0,0,0,0,0,0,0,0,0,0,0,0,0,0,0,0,0,0,0,0,0,0,0,0,0,0,0,0,0,0,0,0,0,0,0,0,0,0,0,0,0,0,0,0,0,0,0,0,0,0,0,0,0,0,0,0,0,0,0,0,0,0,0,0,0,0,0,0,0,0,0,0,0,0,0,0,0,0,0,0,0,0,0,0,0,0,0,0,0,0,0,0,0,0,0,0,0,0,0,0,0,0,0,0,0,0,0,0,0,0,0,0,0,0,0,0,0,0,0,0,0,0,0,0,0,0,0,0,0,0,0,0,0,0,0,0,0,0,0,0,0,0,0,0,0,0,0,0,0,0,0,0,0,0,0,0,0,0,0,0,0,0,0,0,0,0,0,0,0,0,0,0,0,0,0,0,0,0,0,0,0,0,0,0,0,0,0,0,0,0,0,0,0,0,0,0,0,0,0,0,0,0,0,0,0,0,0,0,0,0,0,0,0,0,0,0,0,0,0,0,0,0,0,0,0,0,0,0,0,0,0,0,0,0,0,0,0,0,0,0,0,0,0,0,0,0,0,0,0,0,0,0,0,0,0,0,0,0,0,0,0,0,0,0,0,0,0,0,0,0,0,0,0,0,0,0,0,0,0,0,0,0,0,0,0,0,0,0,0,0,0,0,0,0,0,0,0,0,0,0,0,0,0,0,0,0,0,0,0,0,0,0,0,0,0,0,0,0,0,0,0,0,0,0,0,0,0,0,0,0,0,0,0,0,0,0,0,0,0,0,0,0,0,0,0,0,0,0,0,0,0,0,0,0,0,0,0,0,0,0,0,0,0,0,0,0,0,0,0,0,0,0,0,0,0,0,0,0,0,0,0,0,0,0,0,0,0,0,0,0,0,0,0,0,0,0,0,0,0,0,0,0,0,0,0,0,0,0,0,0,0,0,0,0,0,0,0,0,0,0,0,0,0,0,0,0,0,0,0,0,0,0,0,0,0,0,0,0,0,0,0,0,0,0,0,0,0,0,0,0,0,0,0,0,0,0,0,0,0,0,0,0,0,0,0,0,0,0,0,0,0,0,0,0,0,0,0,0,0,0,0,0,0,0,0,0,0,0,0,0,0,0,0,0,0,0,0,0,0,0,0,0,0,0,0,0,0,0,0,0,0,0,0,0,0,0,0,0,0,0,0,0,0,0,0,0,0,0,0,0,0,0,0,0,0,0,0,0,0,0,0,0,0,0,0,0,0,0,0,0,0,0,0,0,0,0,0,0,0,0,0,0,0,0,0,0,0,0,0,0,0,0,0,0,0,0,0,0,0,0,0,0,0,0,0,0,0,0,0,0,0,0,0,0,0],[0,0,0,0,0,0,0,0,0,0,0,0,0,0,0,0,0,0,0,0,0,0,0,0,0,0,0,0,0,0,0,0,0,0,0,0,0,0,0,0,0,0,0,0,0,0,0,0,0,0,0,0,0,0,0,0,0,0,0,0,0,0,0,0,0,0,0,0,0,0,0,0,0,0,0,0,0,0,0,0,0,0,0,0,0,0,0,0,0,0,0,0,0,0,0,0,0,0,0,0,0,0,0,0,0,0,0,0,0,0,0,0,0,0,0,0,0,0,0,0,0,0,0,0,0,0,0,0,0,0,0,0,0,0,0,0,0,0,0,0,0,0,0,0,0,0,0,0,0,0,0,0,0,0,0,0,0,0,0,0,0,0,0,0,0,0,0,0,0,0,0,0,0,0,0,0,0,0,0,0,0,0,0,0,0,0,0,0,0,0,0,0,0,0,0,0,0,0,0,0,0,0,0,0,0,0,0,0,0,0,0,0,0,0,0,0,0,0,0,0,0,0,0,0,0,0,0,0,0,0,0,0,0,0,0,0,0,0,0,0,0,0,0,0,0,0,0,0,0,0,0,0,0,0,0,0,0,0,0,0,0,0,0,0,0,0,0,0,0,0,0,0,0,0,0,0,0,0,0,0,0,0,0,0,0,0,0,0,0,0,0,0,0,0,0,0,0,0,0,0,0,0,0,0,0,0,0,0,0,0,0,0,0,0,0,0,0,0,0,0,0,0,0,0,0,0,0,0,0,0,0,0,0,0,0,0,0,0,0,0,0,0,0,0,0,0,0,0,0,0,0,0,0,0,0,0,0,0,0,0,0,0,0,0,0,0,0,0,0,0,0,0,0,0,0,0,0,0,0,0,0,0,0,0,0,0,0,0,0,0,0,0,0,0,0,0,0,0,0,0,0,0,0,0,0,0,0,0,0,0,0,0,0,0,0,0,0,0,0,0,0,0,0,0,0,0,0,0,0,0,0,0,0,0,0,0,0,0,0,0,0,0,0,0,0,0,0,0,0,0,0,0,0,0,0,0,0,0,0,0,0,0,0,0,0,0,0,0,0,0,0,0,0,0,0,0,0,0,0,0,0,0,0,0,0,0,0,0,0,0,0,0,0,0,0,0,0,0,0,0,0,0,0,0,0,0,0,0,0,0,0,0,0,0,0,0,0,0,0,0,0,0,0,0,0,0,0,0,0,0,0,0,0,0,0,0,0,0,0,0,0,0,0,0,0,0,0,0,0,0,0,0,0,0,0,0,0,0,0,0,0,0,0,0,0,0,0,0,0,0,0,0,0,0,0,0,0,0,0,0,0,0,0,0,0,0,0,0,0,0,0,0,0,0,0,0,0,0,0,0,0,0,0,0,0,0,0,0,0,0,0,0,0,0,0,0,0,0,0,0,0,0,0,0,0,0,0,0,0,0,0,0,0,0,0,0,0,0,0,0,0,0,0,0,0,0,0,0,0,0,0,0,0,0,0,0,0,0,0,0,0,0,0,0,0,0,0,0,0,0,0,0,0,0,0,0,0,0,0,0,0,0,0,0,0,0,0,0,0,0,0,0,0,0,0,0,0,0,0,0,0,0,0,0,0,0,0,0,0,0,0,0,0,0,0,0,0,0,0,0,0,0,0,0,0,0,0,0,0,0,0,0,0,0,0,0,0,0,0,0,0,0,0,0,0,0,0,0,0,0,0,0,0,0,0,0,0,0,0,0,0,0,0,0,0,0,0,0,0,0,0,0,0,0,0,0,0,0,0,0,0,0,0,0],[0,0,0,0,0,0,0,0,0,0,0,0,0,0,0,0,0,0,0,0,0,0,0,0,0,0,0,0,0,0,0,0,0,0,0,0,0,0,0,0,0,0,0,0,0,0,0,0,0,0,0,0,0,0,0,0,0,0,0,0,0,0,0,0,0,0,0,0,0,0,0,0,0,0,0,0,0,0,0,0,0,0,0,0,0,0,0,0,0,0,0,0,0,0,0,0,0,0,0,0,0,0,0,0,0,0,0,0,0,0,0,0,0,0,0,0,0,0,0,0,0,0,0,0,0,0,0,0,0,0,0,0,0,0,0,0,0,0,0,0,0,0,0,0,0,0,0,0,0,0,0,0,0,0,0,0,0,0,0,0,0,0,0,0,0,0,0,0,0,0,0,0,0,0,0,0,0,0,0,0,0,0,0,0,0,0,0,0,0,0,0,0,0,0,0,0,0,0,0,0,0,0,0,0,0,0,0,0,0,0,0,0,0,0,0,0,0,0,0,0,0,0,0,0,0,0,0,0,0,0,0,0,0,0,0,0,0,0,0,0,0,0,0,0,0,0,0,0,0,0,0,0,0,0,0,0,0,0,0,0,0,0,0,0,0,0,0,0,0,0,0,0,0,0,0,0,0,0,0,0,0,0,0,0,0,0,0,0,0,0,0,0,0,0,0,0,0,0,0,0,0,0,0,0,0,0,0,0,0,0,0,0,0,0,0,0,0,0,0,0,0,0,0,0,0,0,0,0,0,0,0,0,0,0,0,0,0,0,0,0,0,0,0,0,0,0,0,0,0,0,0,0,0,0,0,0,0,0,0,0,0,0,0,0,0,0,0,0,0,0,0,0,0,0,0,0,0,0,0,0,0,0,0,0,0,0,0,0,0,0,0,0,0,0,0,0,0,0,0,0,0,0,0,0,0,0,0,0,0,0,0,0,0,0,0,0,0,0,0,0,0,0,0,0,0,0,0,0,0,0,0,0,0,0,0,0,0,0,0,0,0,0,0,0,0,0,0,0,0,0,0,0,0,0,0,0,0,0,0,0,0,0,0,0,0,0,0,0,0,0,0,0,0,0,0,0,0,0,0,0,0,0,0,0,0,0,0,0,0,0,0,0,0,0,0,0,0,0,0,0,0,0,0,0,0,0,0,0,0,0,0,0,0,0,0,0,0,0,0,0,0,0,0,0,0,0,0,0,0,0,0,0,0,0,0,0,0,0,0,0,0,0,0,0,0,0,0,0,0,0,0,0,0,0,0,0,0,0,0,0,0,0,0,0,0,0,0,0,0,0,0,0,0,0,0,0,0,0,0,0,0,0,0,0,0,0,0,0,0,0,0,0,0,0,0,0,0,0,0,0,0,0,0,0,0,0,0,0,0,0,0,0,0,0,0,0,0,0,0,0,0,0,0,0,0,0,0,0,0,0,0,0,0,0,0,0,0,0,0,0,0,0,0,0,0,0,0,0,0,0,0,0,0,0,0,0,0,0,0,0,0,0,0,0,0,0,0,0,0,0,0,0,0,0,0,0,0,0,0,0,0,0,0,0,0,0,0,0,0,0,0,0,0,0,0,0,0,0,0,0,0,0,0,0,0,0,0,0,0,0,0,0,0,0,0,0,0,0,0,0,0,0,0,0,0,0,0,0,0,0,0,0,0,0,0,0,0,0,0,0,0,0,0,0,0,0,0,0,0,0,0,0,0,0,0,0,0,0,0,0,0,0,0,0,0,0,0,0,0,0,0,0,0,0,0,0,0,0,0,0,0,0,0,0],[0,0,0,0,0,0,0,0,0,0,0,0,0,0,0,0,0,0,0,0,0,0,0,0,0,0,0,0,0,0,0,0,0,0,0,0,0,0,0,0,0,0,0,0,0,0,0,0,0,0,0,0,0,0,0,0,0,0,0,0,0,0,0,0,0,0,0,0,0,0,0,0,0,0,0,0,0,0,0,0,0,0,0,0,0,0,0,0,0,0,0,0,0,0,0,0,0,0,0,0,0,0,0,0,0,0,0,0,0,0,0,0,0,0,0,0,0,0,0,0,0,0,0,0,0,0,0,0,0,0,0,0,0,0,0,0,0,0,0,0,0,0,0,0,0,0,0,0,0,0,0,0,0,0,0,0,0,0,0,0,0,0,0,0,0,0,0,0,0,0,0,0,0,0,0,0,0,0,0,0,0,0,0,0,0,0,0,0,0,0,0,0,0,0,0,0,0,0,0,0,0,0,0,0,0,0,0,0,0,0,0,0,0,0,0,0,0,0,0,0,0,0,0,0,0,0,0,0,0,0,0,0,0,0,0,0,0,0,0,0,0,0,0,0,0,0,0,0,0,0,0,0,0,0,0,0,0,0,0,0,0,0,0,0,0,0,0,0,0,0,0,0,0,0,0,0,0,0,0,0,0,0,0,0,0,0,0,0,0,0,0,0,0,0,0,0,0,0,0,0,0,0,0,0,0,0,0,0,0,0,0,0,0,0,0,0,0,0,0,0,0,0,0,0,0,0,0,0,0,0,0,0,0,0,0,0,0,0,0,0,0,0,0,0,0,0,0,0,0,0,0,0,0,0,0,0,0,0,0,0,0,0,0,0,0,0,0,0,0,0,0,0,0,0,0,0,0,0,0,0,0,0,0,0,0,0,0,0,0,0,0,0,0,0,0,0,0,0,0,0,0,0,0,0,0,0,0,0,0,0,0,0,0,0,0,0,0,0,0,0,0,0,0,0,0,0,0,0,0,0,0,0,0,0,0,0,0,0,0,0,0,0,0,0,0,0,0,0,0,0,0,0,0,0,0,0,0,0,0,0,0,0,0,0,0,0,0,0,0,0,0,0,0,0,0,0,0,0,0,0,0,0,0,0,0,0,0,0,0,0,0,0,0,0,0,0,0,0,0,0,0,0,0,0,0,0,0,0,0,0,0,0,0,0,0,0,0,0,0,0,0,0,0,0,0,0,0,0,0,0,0,0,0,0,0,0,0,0,0,0,0,0,0,0,0,0,0,0,0,0,0,0,0,0,0,0,0,0,0,0,0,0,0,0,0,0,0,0,0,0,0,0,0,0,0,0,0,0,0,0,0,0,0,0,0,0,0,0,0,0,0,0,0,0,0,0,0,0,0,0,0,0,0,0,0,0,0,0,0,0,0,0,0,0,0,0,0,0,0,0,0,0,0,0,0,0,0,0,0,0,0,0,0,0,0,0,0,0,0,0,0,0,0,0,0,0,0,0,0,0,0,0,0,0,0,0,0,0,0,0,0,0,0,0,0,0,0,0,0,0,0,0,0,0,0,0,0,0,0,0,0,0,0,0,0,0,0,0,0,0,0,0,0,0,0,0,0,0,0,0,0,0,0,0,0,0,0,0,0,0,0,0,0,0,0,0,0,0,0,0,0,0,0,0,0,0,0,0,0,0,0,0,0,0,0,0,0,0,0,0,0,0,0,0,0,0,0,0,0,0,0,0,0,0,0,0,0,0,0,0,0,0,0,0,0,0,0,0,0,0,0,0,0,0,0,0,0,0,0,0,0,0,0,0],[0,0,0,0,0,0,0,0,0,0,0,0,0,0,0,0,0,0,0,0,0,0,0,0,0,0,0,0,0,0,0,0,0,0,0,0,0,0,0,0,0,0,0,0,0,0,0,0,0,0,0,0,0,0,0,0,0,0,0,0,0,0,0,0,0,0,0,0,0,0,0,0,0,0,0,0,0,0,0,0,0,0,0,0,0,0,0,0,0,0,0,0,0,0,0,0,0,0,0,0,0,0,0,0,0,0,0,0,0,0,0,0,0,0,0,0,0,0,0,0,0,0,0,0,0,0,0,0,0,0,0,0,0,0,0,0,0,0,0,0,0,0,0,0,0,0,0,0,0,0,0,0,0,0,0,0,0,0,0,0,0,0,0,0,0,0,0,0,0,0,0,0,0,0,0,0,0,0,0,0,0,0,0,0,0,0,0,0,0,0,0,0,0,0,0,0,0,0,0,0,0,0,0,0,0,0,0,0,0,0,0,0,0,0,0,0,0,0,0,0,0,0,0,0,0,0,0,0,0,0,0,0,0,0,0,0,0,0,0,0,0,0,0,0,0,0,0,0,0,0,0,0,0,0,0,0,0,0,0,0,0,0,0,0,0,0,0,0,0,0,0,0,0,0,0,0,0,0,0,0,0,0,0,0,0,0,0,0,0,0,0,0,0,0,0,0,0,0,0,0,0,0,0,0,0,0,0,0,0,0,0,0,0,0,0,0,0,0,0,0,0,0,0,0,0,0,0,0,0,0,0,0,0,0,0,0,0,0,0,0,0,0,0,0,0,0,0,0,0,0,0,0,0,0,0,0,0,0,0,0,0,0,0,0,0,0,0,0,0,0,0,0,0,0,0,0,0,0,0,0,0,0,0,0,0,0,0,0,0,0,0,0,0,0,0,0,0,0,0,0,0,0,0,0,0,0,0,0,0,0,0,0,0,0,0,0,0,0,0,0,0,0,0,0,0,0,0,0,0,0,0,0,0,0,0,0,0,0,0,0,0,0,0,0,0,0,0,0,0,0,0,0,0,0,0,0,0,0,0,0,0,0,0,0,0,0,0,0,0,0,0,0,0,0,0,0,0,0,0,0,0,0,0,0,0,0,0,0,0,0,0,0,0,0,0,0,0,0,0,0,0,0,0,0,0,0,0,0,0,0,0,0,0,0,0,0,0,0,0,0,0,0,0,0,0,0,0,0,0,0,0,0,0,0,0,0,0,0,0,0,0,0,0,0,0,0,0,0,0,0,0,0,0,0,0,0,0,0,0,0,0,0,0,0,0,0,0,0,0,0,0,0,0,0,0,0,0,0,0,0,0,0,0,0,0,0,0,0,0,0,0,0,0,0,0,0,0,0,0,0,0,0,0,0,0,0,0,0,0,0,0,0,0,0,0,0,0,0,0,0,0,0,0,0,0,0,0,0,0,0,0,0,0,0,0,0,0,0,0,0,0,0,0,0,0,0,0,0,0,0,0,0,0,0,0,0,0,0,0,0,0,0,0,0,0,0,0,0,0,0,0,0,0,0,0,0,0,0,0,0,0,0,0,0,0,0,0,0,0,0,0,0,0,0,0,0,0,0,0,0,0,0,0,0,0,0,0,0,0,0,0,0,0,0,0,0,0,0,0,0,0,0,0,0,0,0,0,0,0,0,0,0,0,0,0,0,0,0,0,0,0,0,0,0,0,0,0,0,0,0,0,0,0,0,0,0,0,0,0,0,0,0,0,0,0,0,0,0,0,0,0,0,0,0,0,0,0,0,0,0,0,0,0,0],[0,0,0,0,0,0,0,0,0,0,0,0,0,0,0,0,0,0,0,0,0,0,0,0,0,0,0,0,0,0,0,0,0,0,0,0,0,0,0,0,0,0,0,0,0,0,0,0,0,0,0,0,0,0,0,0,0,0,0,0,0,0,0,0,0,0,0,0,0,0,0,0,0,0,0,0,0,0,0,0,0,0,0,0,0,0,0,0,0,0,0,0,0,0,0,0,0,0,0,0,0,0,0,0,0,0,0,0,0,0,0,0,0,0,0,0,0,0,0,0,0,0,0,0,0,0,0,0,0,0,0,0,0,0,0,0,0,0,0,0,0,0,0,0,0,0,0,0,0,0,0,0,0,0,0,0,0,0,0,0,0,0,0,0,0,0,0,0,0,0,0,0,0,0,0,0,0,0,0,0,0,0,0,0,0,0,0,0,0,0,0,0,0,0,0,0,0,0,0,0,0,0,0,0,0,0,0,0,0,0,0,0,0,0,0,0,0,0,0,0,0,0,0,0,0,0,0,0,0,0,0,0,0,0,0,0,0,0,0,0,0,0,0,0,0,0,0,0,0,0,0,0,0,0,0,0,0,0,0,0,0,0,0,0,0,0,0,0,0,0,0,0,0,0,0,0,0,0,0,0,0,0,0,0,0,0,0,0,0,0,0,0,0,0,0,0,0,0,0,0,0,0,0,0,0,0,0,0,0,0,0,0,0,0,0,0,0,0,0,0,0,0,0,0,0,0,0,0,0,0,0,0,0,0,0,0,0,0,0,0,0,0,0,0,0,0,0,0,0,0,0,0,0,0,0,0,0,0,0,0,0,0,0,0,0,0,0,0,0,0,0,0,0,0,0,0,0,0,0,0,0,0,0,0,0,0,0,0,0,0,0,0,0,0,0,0,0,0,0,0,0,0,0,0,0,0,0,0,0,0,0,0,0,0,0,0,0,0,0,0,0,0,0,0,0,0,0,0,0,0,0,0,0,0,0,0,0,0,0,0,0,0,0,0,0,0,0,0,0,0,0,0,0,0,0,0,0,0,0,0,0,0,0,0,0,0,0,0,0,0,0,0,0,0,0,0,0,0,0,0,0,0,0,0,0,0,0,0,0,0,0,0,0,0,0,0,0,0,0,0,0,0,0,0,0,0,0,0,0,0,0,0,0,0,0,0,0,0,0,0,0,0,0,0,0,0,0,0,0,0,0,0,0,0,0,0,0,0,0,0,0,0,0,0,0,0,0,0,0,0,0,0,0,0,0,0,0,0,0,0,0,0,0,0,0,0,0,0,0,0,0,0,0,0,0,0,0,0,0,0,0,0,0,0,0,0,0,0,0,0,0,0,0,0,0,0,0,0,0,0,0,0,0,0,0,0,0,0,0,0,0,0,0,0,0,0,0,0,0,0,0,0,0,0,0,0,0,0,0,0,0,0,0,0,0,0,0,0,0,0,0,0,0,0,0,0,0,0,0,0,0,0,0,0,0,0,0,0,0,0,0,0,0,0,0,0,0,0,0,0,0,0,0,0,0,0,0,0,0,0,0,0,0,0,0,0,0,0,0,0,0,0,0,0,0,0,0,0,0,0,0,0,0,0,0,0,0,0,0,0,0,0,0,0,0,0,0,0,0,0,0,0,0,0,0,0,0,0,0,0,0,0,0,0,0,0,0,0,0,0,0,0,0,0,0,0,0,0,0,0,0,0,0,0,0,0,0,0,0,0,0,0,0,0,0,0,0,0,0,0,0,0,0,0,0,0,0,0,0,0,0,0,0,0],[0,0,0,0,0,0,0,0,0,0,0,0,0,0,0,0,0,0,0,0,0,0,0,0,0,0,0,0,0,0,0,0,0,0,0,0,0,0,0,0,0,0,0,0,0,0,0,0,0,0,0,0,0,0,0,0,0,0,0,0,0,0,0,0,0,0,0,0,0,0,0,0,0,0,0,0,0,0,0,0,0,0,0,0,0,0,0,0,0,0,0,0,0,0,0,0,0,0,0,0,0,0,0,0,0,0,0,0,0,0,0,0,0,0,0,0,0,0,0,0,0,0,0,0,0,0,0,0,0,0,0,0,0,0,0,0,0,0,0,0,0,0,0,0,0,0,0,0,0,0,0,0,0,0,0,0,0,0,0,0,0,0,0,0,0,0,0,0,0,0,0,0,0,0,0,0,0,0,0,0,0,0,0,0,0,0,0,0,0,0,0,0,0,0,0,0,0,0,0,0,0,0,0,0,0,0,0,0,0,0,0,0,0,0,0,0,0,0,0,0,0,0,0,0,0,0,0,0,0,0,0,0,0,0,0,0,0,0,0,0,0,0,0,0,0,0,0,0,0,0,0,0,0,0,0,0,0,0,0,0,0,0,0,0,0,0,0,0,0,0,0,0,0,0,0,0,0,0,0,0,0,0,0,0,0,0,0,0,0,0,0,0,0,0,0,0,0,0,0,0,0,0,0,0,0,0,0,0,0,0,0,0,0,0,0,0,0,0,0,0,0,0,0,0,0,0,0,0,0,0,0,0,0,0,0,0,0,0,0,0,0,0,0,0,0,0,0,0,0,0,0,0,0,0,0,0,0,0,0,0,0,0,0,0,0,0,0,0,0,0,0,0,0,0,0,0,0,0,0,0,0,0,0,0,0,0,0,0,0,0,0,0,0,0,0,0,0,0,0,0,0,0,0,0,0,0,0,0,0,0,0,0,0,0,0,0,0,0,0,0,0,0,0,0,0,0,0,0,0,0,0,0,0,0,0,0,0,0,0,0,0,0,0,0,0,0,0,0,0,0,0,0,0,0,0,0,0,0,0,0,0,0,0,0,0,0,0,0,0,0,0,0,0,0,0,0,0,0,0,0,0,0,0,0,0,0,0,0,0,0,0,0,0,0,0,0,0,0,0,0,0,0,0,0,0,0,0,0,0,0,0,0,0,0,0,0,0,0,0,0,0,0,0,0,0,0,0,0,0,0,0,0,0,0,0,0,0,0,0,0,0,0,0,0,0,0,0,0,0,0,0,0,0,0,0,0,0,0,0,0,0,0,0,0,0,0,0,0,0,0,0,0,0,0,0,0,0,0,0,0,0,0,0,0,0,0,0,0,0,0,0,0,0,0,0,0,0,0,0,0,0,0,0,0,0,0,0,0,0,0,0,0,0,0,0,0,0,0,0,0,0,0,0,0,0,0,0,0,0,0,0,0,0,0,0,0,0,0,0,0,0,0,0,0,0,0,0,0,0,0,0,0,0,0,0,0,0,0,0,0,0,0,0,0,0,0,0,0,0,0,0,0,0,0,0,0,0,0,0,0,0,0,0,0,0,0,0,0,0,0,0,0,0,0,0,0,0,0,0,0,0,0,0,0,0,0,0,0,0,0,0,0,0,0,0,0,0,0,0,0,0,0,0,0,0,0,0,0,0,0,0,0,0,0,0,0,0,0,0,0,0,0,0,0,0,0,0,0,0,0,0,0,0,0,0,0,0,0,0,0,0,0,0,0,0,0,0,0,0,0,0,0,0,0,0,0,0,0,0,0,0,0,0,0],[0,0,0,0,0,0,0,0,0,0,0,0,0,0,0,0,0,0,0,0,0,0,0,0,0,0,0,0,0,0,0,0,0,0,0,0,0,0,0,0,0,0,0,0,0,0,0,0,0,0,0,0,0,0,0,0,0,0,0,0,0,0,0,0,0,0,0,0,0,0,0,0,0,0,0,0,0,0,0,0,0,0,0,0,0,0,0,0,0,0,0,0,0,0,0,0,0,0,0,0,0,0,0,0,0,0,0,0,0,0,0,0,0,0,0,0,0,0,0,0,0,0,0,0,0,0,0,0,0,0,0,0,0,0,0,0,0,0,0,0,0,0,0,0,0,0,0,0,0,0,0,0,0,0,0,0,0,0,0,0,0,0,0,0,0,0,0,0,0,0,0,0,0,0,0,0,0,0,0,0,0,0,0,0,0,0,0,0,0,0,0,0,0,0,0,0,0,0,0,0,0,0,0,0,0,0,0,0,0,0,0,0,0,0,0,0,0,0,0,0,0,0,0,0,0,0,0,0,0,0,0,0,0,0,0,0,0,0,0,0,0,0,0,0,0,0,0,0,0,0,0,0,0,0,0,0,0,0,0,0,0,0,0,0,0,0,0,0,0,0,0,0,0,0,0,0,0,0,0,0,0,0,0,0,0,0,0,0,0,0,0,0,0,0,0,0,0,0,0,0,0,0,0,0,0,0,0,0,0,0,0,0,0,0,0,0,0,0,0,0,0,0,0,0,0,0,0,0,0,0,0,0,0,0,0,0,0,0,0,0,0,0,0,0,0,0,0,0,0,0,0,0,0,0,0,0,0,0,0,0,0,0,0,0,0,0,0,0,0,0,0,0,0,0,0,0,0,0,0,0,0,0,0,0,0,0,0,0,0,0,0,0,0,0,0,0,0,0,0,0,0,0,0,0,0,0,0,0,0,0,0,0,0,0,0,0,0,0,0,0,0,0,0,0,0,0,0,0,0,0,0,0,0,0,0,0,0,0,0,0,0,0,0,0,0,0,0,0,0,0,0,0,0,0,0,0,0,0,0,0,0,0,0,0,0,0,0,0,0,0,0,0,0,0,0,0,0,0,0,0,0,0,0,0,0,0,0,0,0,0,0,0,0,0,0,0,0,0,0,0,0,0,0,0,0,0,0,0,0,0,0,0,0,0,0,0,0,0,0,0,0,0,0,0,0,0,0,0,0,0,0,0,0,0,0,0,0,0,0,0,0,0,0,0,0,0,0,0,0,0,0,0,0,0,0,0,0,0,0,0,0,0,0,0,0,0,0,0,0,0,0,0,0,0,0,0,0,0,0,0,0,0,0,0,0,0,0,0,0,0,0,0,0,0,0,0,0,0,0,0,0,0,0,0,0,0,0,0,0,0,0,0,0,0,0,0,0,0,0,0,0,0,0,0,0,0,0,0,0,0,0,0,0,0,0,0,0,0,0,0,0,0,0,0,0,0,0,0,0,0,0,0,0,0,0,0,0,0,0,0,0,0,0,0,0,0,0,0,0,0,0,0,0,0,0,0,0,0,0,0,0,0,0,0,0,0,0,0,0,0,0,0,0,0,0,0,0,0,0,0,0,0,0,0,0,0,0,0,0,0,0,0,0,0,0,0,0,0,0,0,0,0,0,0,0,0,0,0,0,0,0,0,0,0,0,0,0,0,0,0,0,0,0,0,0,0,0,0,0,0,0,0,0,0,0,0,0,0,0,0,0,0,0,0,0,0,0,0,0,0,0,0,0,0,0,0,0,0,0,0,0,0,0,0],[0,0,0,0,0,0,0,0,0,0,0,0,0,0,0,0,0,0,0,0,0,0,0,0,0,0,0,0,0,0,0,0,0,0,0,0,0,0,0,0,0,0,0,0,0,0,0,0,0,0,0,0,0,0,0,0,0,0,0,0,0,0,0,0,0,0,0,0,0,0,0,0,0,0,0,0,0,0,0,0,0,0,0,0,0,0,0,0,0,0,0,0,0,0,0,0,0,0,0,0,0,0,0,0,0,0,0,0,0,0,0,0,0,0,0,0,0,0,0,0,0,0,0,0,0,0,0,0,0,0,0,0,0,0,0,0,0,0,0,0,0,0,0,0,0,0,0,0,0,0,0,0,0,0,0,0,0,0,0,0,0,0,0,0,0,0,0,0,0,0,0,0,0,0,0,0,0,0,0,0,0,0,0,0,0,0,0,0,0,0,0,0,0,0,0,0,0,0,0,0,0,0,0,0,0,0,0,0,0,0,0,0,0,0,0,0,0,0,0,0,0,0,0,0,0,0,0,0,0,0,0,0,0,0,0,0,0,0,0,0,0,0,0,0,0,0,0,0,0,0,0,0,0,0,0,0,0,0,0,0,0,0,0,0,0,0,0,0,0,0,0,0,0,0,0,0,0,0,0,0,0,0,0,0,0,0,0,0,0,0,0,0,0,0,0,0,0,0,0,0,0,0,0,0,0,0,0,0,0,0,0,0,0,0,0,0,0,0,0,0,0,0,0,0,0,0,0,0,0,0,0,0,0,0,0,0,0,0,0,0,0,0,0,0,0,0,0,0,0,0,0,0,0,0,0,0,0,0,0,0,0,0,0,0,0,0,0,0,0,0,0,0,0,0,0,0,0,0,0,0,0,0,0,0,0,0,0,0,0,0,0,0,0,0,0,0,0,0,0,0,0,0,0,0,0,0,0,0,0,0,0,0,0,0,0,0,0,0,0,0,0,0,0,0,0,0,0,0,0,0,0,0,0,0,0,0,0,0,0,0,0,0,0,0,0,0,0,0,0,0,0,0,0,0,0,0,0,0,0,0,0,0,0,0,0,0,0,0,0,0,0,0,0,0,0,0,0,0,0,0,0,0,0,0,0,0,0,0,0,0,0,0,0,0,0,0,0,0,0,0,0,0,0,0,0,0,0,0,0,0,0,0,0,0,0,0,0,0,0,0,0,0,0,0,0,0,0,0,0,0,0,0,0,0,0,0,0,0,0,0,0,0,0,0,0,0,0,0,0,0,0,0,0,0,0,0,0,0,0,0,0,0,0,0,0,0,0,0,0,0,0,0,0,0,0,0,0,0,0,0,0,0,0,0,0,0,0,0,0,0,0,0,0,0,0,0,0,0,0,0,0,0,0,0,0,0,0,0,0,0,0,0,0,0,0,0,0,0,0,0,0,0,0,0,0,0,0,0,0,0,0,0,0,0,0,0,0,0,0,0,0,0,0,0,0,0,0,0,0,0,0,0,0,0,0,0,0,0,0,0,0,0,0,0,0,0,0,0,0,0,0,0,0,0,0,0,0,0,0,0,0,0,0,0,0,0,0,0,0,0,0,0,0,0,0,0,0,0,0,0,0,0,0,0,0,0,0,0,0,0,0,0,0,0,0,0,0,0,0,0,0,0,0,0,0,0,0,0,0,0,0,0,0,0,0,0,0,0,0,0,0,0,0,0,0,0,0,0,0,0,0,0,0,0,0,0,0,0,0,0,0,0,0,0,0,0,0,0,0,0,0,0,0,0,0,0,0,0,0,0,0,0,0,0],[0,0,0,0,0,0,0,0,0,0,0,0,0,0,0,0,0,0,0,0,0,0,0,0,0,0,0,0,0,0,0,0,0,0,0,0,0,0,0,0,0,0,0,0,0,0,0,0,0,0,0,0,0,0,0,0,0,0,0,0,0,0,0,0,0,0,0,0,0,0,0,0,0,0,0,0,0,0,0,0,0,0,0,0,0,0,0,0,0,0,0,0,0,0,0,0,0,0,0,0,0,0,0,0,0,0,0,0,0,0,0,0,0,0,0,0,0,0,0,0,0,0,0,0,0,0,0,0,0,0,0,0,0,0,0,0,0,0,0,0,0,0,0,0,0,0,0,0,0,0,0,0,0,0,0,0,0,0,0,0,0,0,0,0,0,0,0,0,0,0,0,0,0,0,0,0,0,0,0,0,0,0,0,0,0,0,0,0,0,0,0,0,0,0,0,0,0,0,0,0,0,0,0,0,0,0,0,0,0,0,0,0,0,0,0,0,0,0,0,0,0,0,0,0,0,0,0,0,0,0,0,0,0,0,0,0,0,0,0,0,0,0,0,0,0,0,0,0,0,0,0,0,0,0,0,0,0,0,0,0,0,0,0,0,0,0,0,0,0,0,0,0,0,0,0,0,0,0,0,0,0,0,0,0,0,0,0,0,0,0,0,0,0,0,0,0,0,0,0,0,0,0,0,0,0,0,0,0,0,0,0,0,0,0,0,0,0,0,0,0,0,0,0,0,0,0,0,0,0,0,0,0,0,0,0,0,0,0,0,0,0,0,0,0,0,0,0,0,0,0,0,0,0,0,0,0,0,0,0,0,0,0,0,0,0,0,0,0,0,0,0,0,0,0,0,0,0,0,0,0,0,0,0,0,0,0,0,0,0,0,0,0,0,0,0,0,0,0,0,0,0,0,0,0,0,0,0,0,0,0,0,0,0,0,0,0,0,0,0,0,0,0,0,0,0,0,0,0,0,0,0,0,0,0,0,0,0,0,0,0,0,0,0,0,0,0,0,0,0,0,0,0,0,0,0,0,0,0,0,0,0,0,0,0,0,0,0,0,0,0,0,0,0,0,0,0,0,0,0,0,0,0,0,0,0,0,0,0,0,0,0,0,0,0,0,0,0,0,0,0,0,0,0,0,0,0,0,0,0,0,0,0,0,0,0,0,0,0,0,0,0,0,0,0,0,0,0,0,0,0,0,0,0,0,0,0,0,0,0,0,0,0,0,0,0,0,0,0,0,0,0,0,0,0,0,0,0,0,0,0,0,0,0,0,0,0,0,0,0,0,0,0,0,0,0,0,0,0,0,0,0,0,0,0,0,0,0,0,0,0,0,0,0,0,0,0,0,0,0,0,0,0,0,0,0,0,0,0,0,0,0,0,0,0,0,0,0,0,0,0,0,0,0,0,0,0,0,0,0,0,0,0,0,0,0,0,0,0,0,0,0,0,0,0,0,0,0,0,0,0,0,0,0,0,0,0,0,0,0,0,0,0,0,0,0,0,0,0,0,0,0,0,0,0,0,0,0,0,0,0,0,0,0,0,0,0,0,0,0,0,0,0,0,0,0,0,0,0,0,0,0,0,0,0,0,0,0,0,0,0,0,0,0,0,0,0,0,0,0,0,0,0,0,0,0,0,0,0,0,0,0,0,0,0,0,0,0,0,0,0,0,0,0,0,0,0,0,0,0,0,0,0,0,0,0,0,0,0,0,0,0,0,0,0,0,0,0,0,0,0,0,0,0,0,0,0,0,0,0,0,0,0,0,0],[0,0,0,0,0,0,0,0,0,0,0,0,0,0,0,0,0,0,0,0,0,0,0,0,0,0,0,0,0,0,0,0,0,0,0,0,0,0,0,0,0,0,0,0,0,0,0,0,0,0,0,0,0,0,0,0,0,0,0,0,0,0,0,0,0,0,0,0,0,0,0,0,0,0,0,0,0,0,0,0,0,0,0,0,0,0,0,0,0,0,0,0,0,0,0,0,0,0,0,0,0,0,0,0,0,0,0,0,0,0,0,0,0,0,0,0,0,0,0,0,0,0,0,0,0,0,0,0,0,0,0,0,0,0,0,0,0,0,0,0,0,0,0,0,0,0,0,0,0,0,0,0,0,0,0,0,0,0,0,0,0,0,0,0,0,0,0,0,0,0,0,0,0,0,0,0,0,0,0,0,0,0,0,0,0,0,0,0,0,0,0,0,0,0,0,0,0,0,0,0,0,0,0,0,0,0,0,0,0,0,0,0,0,0,0,0,0,0,0,0,0,0,0,0,0,0,0,0,0,0,0,0,0,0,0,0,0,0,0,0,0,0,0,0,0,0,0,0,0,0,0,0,0,0,0,0,0,0,0,0,0,0,0,0,0,0,0,0,0,0,0,0,0,0,0,0,0,0,0,0,0,0,0,0,0,0,0,0,0,0,0,0,0,0,0,0,0,0,0,0,0,0,0,0,0,0,0,0,0,0,0,0,0,0,0,0,0,0,0,0,0,0,0,0,0,0,0,0,0,0,0,0,0,0,0,0,0,0,0,0,0,0,0,0,0,0,0,0,0,0,0,0,0,0,0,0,0,0,0,0,0,0,0,0,0,0,0,0,0,0,0,0,0,0,0,0,0,0,0,0,0,0,0,0,0,0,0,0,0,0,0,0,0,0,0,0,0,0,0,0,0,0,0,0,0,0,0,0,0,0,0,0,0,0,0,0,0,0,0,0,0,0,0,0,0,0,0,0,0,0,0,0,0,0,0,0,0,0,0,0,0,0,0,0,0,0,0,0,0,0,0,0,0,0,0,0,0,0,0,0,0,0,0,0,0,0,0,0,0,0,0,0,0,0,0,0,0,0,0,0,0,0,0,0,0,0,0,0,0,0,0,0,0,0,0,0,0,0,0,0,0,0,0,0,0,0,0,0,0,0,0,0,0,0,0,0,0,0,0,0,0,0,0,0,0,0,0,0,0,0,0,0,0,0,0,0,0,0,0,0,0,0,0,0,0,0,0,0,0,0,0,0,0,0,0,0,0,0,0,0,0,0,0,0,0,0,0,0,0,0,0,0,0,0,0,0,0,0,0,0,0,0,0,0,0,0,0,0,0,0,0,0,0,0,0,0,0,0,0,0,0,0,0,0,0,0,0,0,0,0,0,0,0,0,0,0,0,0,0,0,0,0,0,0,0,0,0,0,0,0,0,0,0,0,0,0,0,0,0,0,0,0,0,0,0,0,0,0,0,0,0,0,0,0,0,0,0,0,0,0,0,0,0,0,0,0,0,0,0,0,0,0,0,0,0,0,0,0,0,0,0,0,0,0,0,0,0,0,0,0,0,0,0,0,0,0,0,0,0,0,0,0,0,0,0,0,0,0,0,0,0,0,0,0,0,0,0,0,0,0,0,0,0,0,0,0,0,0,0,0,0,0,0,0,0,0,0,0,0,0,0,0,0,0,0,0,0,0,0,0,0,0,0,0,0,0,0,0,0,0,0,0,0,0,0,0,0,0,0,0,0,0,0,0,0,0,0,0,0,0,0,0,0,0],[0,0,0,0,0,0,0,0,0,0,0,0,0,0,0,0,0,0,0,0,0,0,0,0,0,0,0,0,0,0,0,0,0,0,0,0,0,0,0,0,0,0,0,0,0,0,0,0,0,0,0,0,0,0,0,0,0,0,0,0,0,0,0,0,0,0,0,0,0,0,0,0,0,0,0,0,0,0,0,0,0,0,0,0,0,0,0,0,0,0,0,0,0,0,0,0,0,0,0,0,0,0,0,0,0,0,0,0,0,0,0,0,0,0,0,0,0,0,0,0,0,0,0,0,0,0,0,0,0,0,0,0,0,0,0,0,0,0,0,0,0,0,0,0,0,0,0,0,0,0,0,0,0,0,0,0,0,0,0,0,0,0,0,0,0,0,0,0,0,0,0,0,0,0,0,0,0,0,0,0,0,0,0,0,0,0,0,0,0,0,0,0,0,0,0,0,0,0,0,0,0,0,0,0,0,0,0,0,0,0,0,0,0,0,0,0,0,0,0,0,0,0,0,0,0,0,0,0,0,0,0,0,0,0,0,0,0,0,0,0,0,0,0,0,0,0,0,0,0,0,0,0,0,0,0,0,0,0,0,0,0,0,0,0,0,0,0,0,0,0,0,0,0,0,0,0,0,0,0,0,0,0,0,0,0,0,0,0,0,0,0,0,0,0,0,0,0,0,0,0,0,0,0,0,0,0,0,0,0,0,0,0,0,0,0,0,0,0,0,0,0,0,0,0,0,